%YAML:1.0
aw_f--64x144--: !!opencv-object-detector-hog
   winSize: [ 64, 144 ]
   blockSize: [ 16, 16 ]
   blockStride: [ 8, 8 ]
   cellSize: [ 8, 8 ]
   nbins: 9
   derivAperture: 1
   winSigma: 4.
   histogramNormType: 0
   L2HysThreshold: 2.0000000000000001e-01
   gammaCorrection: 1
   nlevels: 64
   signedGradient: 0
   SVMDetector: [ 1.07727908e-02, -2.79539917e-03, 1.66874565e-03,
       -6.27912860e-03, -5.44399349e-03, 1.78774670e-02, 6.81970175e-03,
       -1.98717546e-02, 8.82972090e-05, -4.79367212e-04, 1.84386671e-02,
       -2.48717773e-03, -4.59650671e-03, -1.85366552e-02, 2.11214535e-02,
       3.44852917e-02, 1.10771470e-02, -1.23323193e-02, -7.74924131e-03,
       3.15205520e-03, 7.65651837e-03, 1.44630549e-02, 3.17514725e-02,
       4.44959896e-03, 5.73605439e-03, 1.10305483e-02, 5.29743207e-04,
       4.21506306e-03, 1.13477921e-02, 9.47301090e-03, 2.44174199e-03,
       2.35573519e-02, 2.84480918e-02, 1.15368981e-02, 2.81934370e-03,
       1.44566374e-03, 5.69291506e-03, 1.24836722e-02, -1.29624298e-02,
       6.01987529e-04, -1.52349109e-02, 8.04472342e-03, 1.31601822e-02,
       1.24254469e-02, -1.81886107e-02, 4.21658605e-02, 1.77455693e-02,
       4.14548063e-04, 9.57646593e-03, 7.85562955e-03, -5.09163365e-03,
       4.37994953e-04, -7.96886161e-03, 8.34873877e-03, -5.46126394e-03,
       4.03084839e-03, -1.04730222e-02, -3.73776257e-02, -2.09410652e-03,
       4.60705999e-03, 3.05932295e-03, 1.89794302e-02, 1.59416348e-03,
       -1.48496851e-02, 2.70170867e-02, 1.47394538e-02, 1.55555904e-02,
       1.91960204e-03, -1.81214064e-02, -2.13582329e-02, 1.79043747e-02,
       2.30117645e-02, 1.49070490e-02, -4.35092766e-03, -2.50827149e-02,
       -2.53948811e-02, 1.03670107e-02, -4.39480040e-03, 1.66447053e-03,
       -8.24363902e-03, -2.67696590e-03, 4.56983427e-04, 8.25416390e-03,
       8.71465914e-03, -1.01857390e-02, 2.40429919e-02, -1.38912089e-02,
       -1.51116615e-02, -6.79353671e-03, -9.62149911e-03,
       -2.08297595e-02, -9.02797095e-03, 1.30557138e-02, -9.77436826e-03,
       3.87006532e-03, -1.16326753e-02, 2.24368349e-02, 2.01791469e-02,
       2.24796366e-02, -2.62407004e-03, 3.21246646e-02, 3.98430899e-02,
       5.85746532e-03, 1.80747118e-02, 9.46636312e-03, -2.03517172e-02,
       7.32853543e-03, -4.70444735e-04, 3.81853357e-02, 1.32661499e-02,
       -1.29658477e-02, -1.63424574e-02, -2.30130996e-03,
       -3.80861498e-02, -1.97667372e-03, 8.90283287e-03, 2.54295226e-02,
       2.30307113e-02, 2.70276573e-02, 1.67243909e-02, 1.22799613e-02,
       -8.85035750e-03, -1.94182117e-02, 6.57175295e-03, -6.24541380e-03,
       2.01559886e-02, 8.14361311e-03, 2.18026675e-02, 9.51236673e-03,
       -2.95249112e-02, 7.82835204e-03, 2.11937688e-02, 3.00881434e-02,
       3.02837160e-03, 8.10390525e-03, 5.32327872e-03, 3.82945947e-02,
       2.94489563e-02, -2.19292007e-02, -4.71946172e-04, 2.95079575e-04,
       -1.82473706e-03, -1.11568114e-03, 3.57536487e-02, 8.81753303e-03,
       -1.69187356e-02, 1.05365524e-02, 8.10479280e-03, 2.52078939e-02,
       -3.41222696e-02, 1.91963147e-02, 9.88909882e-03, 2.70840600e-02,
       -7.02339131e-03, 2.78752472e-04, 2.59439722e-02, 1.94208808e-02,
       1.86669342e-02, 1.02989972e-02, 9.36916471e-03, 2.65098661e-02,
       2.96726935e-02, 9.19037499e-03, 1.43072493e-02, 4.78892447e-03,
       -1.82924811e-02, -1.13505144e-02, -9.30539519e-03, 4.15067524e-02,
       -1.59046380e-04, 2.56029796e-02, 2.39270721e-02, 8.21033493e-03,
       6.66501606e-03, -2.39508878e-03, 1.19032785e-02, 2.01558191e-02,
       3.97678204e-02, 1.99421756e-02, 2.18347497e-02, 9.00752097e-03,
       -9.59750731e-04, -6.13213470e-03, 4.66990238e-03, 2.03164686e-02,
       -2.24156119e-02, -2.79401280e-02, 1.92245878e-02, 2.87316535e-02,
       -7.34742219e-03, 2.92139798e-02, -7.30499113e-03, -7.56001624e-04,
       -1.06988568e-03, -3.76802590e-03, -1.11405663e-02, 8.19500815e-03,
       -4.47514281e-03, 3.38185206e-02, -3.34032103e-02, -1.88025404e-02,
       -6.28333027e-03, 1.26235874e-03, -3.82864065e-02, -4.55598766e-03,
       -2.50078924e-03, 1.54454103e-02, 4.16274322e-03, -2.22457424e-02,
       3.01131001e-03, 1.50441891e-02, -5.71282161e-03, -2.04676874e-02,
       -7.35440059e-03, 1.85622741e-02, 8.17844924e-03, -5.60990209e-03,
       2.46718861e-02, 1.08641032e-02, 6.53883955e-03, 7.45019456e-03,
       7.20018288e-04, -1.07235722e-02, -2.29236558e-02, 1.21720647e-03,
       -1.98590010e-02, -6.74071023e-03, 1.65092815e-02, -9.20793787e-03,
       -1.17969522e-02, 3.03575792e-03, -2.27623228e-02, -1.98482219e-02,
       -6.32297155e-03, -5.57207968e-03, -8.74508359e-03,
       -3.32157197e-03, -5.56867989e-03, 3.28966114e-03, -7.03315577e-03,
       1.71701144e-02, 2.38760207e-02, 1.86323561e-02, -2.60164067e-02,
       -3.10680680e-02, -1.68092791e-02, -6.16011443e-03,
       -2.08045845e-03, 3.45541444e-03, -1.42719559e-02, 2.43378524e-02,
       -1.75947789e-02, -2.28698109e-03, -1.12443771e-02, 1.67393722e-02,
       -2.79992982e-03, 1.75899826e-03, 8.40453489e-04, -3.03742047e-02,
       -4.25436953e-03, 4.13172040e-03, -9.04264208e-03, 4.00194927e-04,
       -4.20976896e-03, -5.52521646e-03, 1.01465564e-02, -7.46795163e-03,
       -4.55085859e-02, 1.31095834e-02, -9.83227789e-03, 1.35053443e-02,
       -1.51561247e-02, -2.65765470e-04, 1.00576039e-02, 1.12993326e-02,
       1.30960196e-02, 1.61999092e-02, 3.43489572e-02, 1.32925343e-02,
       -5.43026719e-03, 6.56238897e-03, -9.03567299e-03, -1.18222665e-02,
       -2.95811575e-02, -6.96833449e-05, 1.61253102e-02, 3.42172943e-02,
       4.38220333e-03, -1.93623286e-02, -9.19073168e-03, -2.14519892e-02,
       -4.52054897e-03, 2.55211443e-02, -4.09160741e-04, -3.25896665e-02,
       8.16158263e-07, -2.15143766e-02, -2.24250853e-02, -1.57337612e-03,
       -1.84168722e-02, -9.50246002e-04, -3.82539839e-03, 6.87697716e-03,
       -2.15444081e-02, -1.85268186e-02, -4.10717912e-03, 3.30481562e-03,
       4.95105870e-02, -5.14403125e-03, -1.59430131e-02, -5.18820621e-03,
       1.67124812e-02, 2.79510184e-03, 4.86126775e-03, 2.83161998e-02,
       -1.77977197e-02, 9.90294572e-03, -2.24408042e-02, 1.66171812e-03,
       -7.37902382e-03, 1.46035496e-02, 7.82203674e-03, 1.13478936e-02,
       -5.92462253e-03, -2.24136095e-02, -2.64744740e-03,
       -4.36490262e-03, 1.32674747e-03, 2.02445090e-02, 3.52976320e-04,
       -3.58179472e-02, -1.93317793e-02, -3.27029917e-03,
       -9.86927375e-03, -1.30714220e-03, 2.38119159e-03, 2.38210503e-02,
       1.38888629e-02, -1.36970659e-03, -1.90407597e-02, -2.02120133e-02,
       -1.45052727e-02, 4.23287414e-03, 1.96869057e-02, -7.94534944e-03,
       1.94410002e-03, 4.75630350e-03, -8.98530299e-04, -8.84327013e-03,
       8.70156754e-03, 5.77990199e-03, -2.11291611e-02, -2.22734082e-03,
       -1.65059678e-02, 1.25876041e-02, 3.47999036e-02, 4.32423176e-03,
       -1.10737672e-02, 2.55691260e-02, 9.04117618e-03, 4.55770502e-03,
       -4.56298562e-03, -1.39755039e-02, 5.77672850e-03, 1.44511098e-02,
       -1.04842084e-02, -2.26428099e-02, -2.73120683e-02,
       -2.87458417e-03, 1.07165519e-02, -3.58506152e-03, -6.52507064e-04,
       2.82970015e-02, 2.44729109e-02, 2.15810142e-04, -3.26194055e-02,
       -1.27560543e-02, 5.03313215e-03, -3.99821578e-03, 1.35227032e-02,
       -2.03961432e-02, -2.34807078e-02, 9.73728579e-03, -2.43358668e-02,
       2.71876622e-03, 1.26650324e-02, 9.74545255e-04, 1.08796610e-02,
       3.61455455e-02, -2.07773456e-03, 2.16391794e-02, 2.17137896e-02,
       -2.30167783e-03, 1.40334405e-02, 1.20918173e-02, -2.95170164e-03,
       -1.46788852e-02, -1.75175909e-02, -1.65353750e-03, 3.10119684e-03,
       5.31516643e-03, 5.96831227e-03, -7.82384444e-03, -8.97946861e-03,
       -6.82376511e-03, 6.98944321e-03, -2.38417704e-02, -1.27793394e-03,
       -6.42866176e-03, -7.07799988e-03, 1.28926057e-02, -3.63852107e-03,
       -5.16974321e-03, -5.75417420e-03, 1.18273720e-02, -6.55421708e-03,
       -3.04594412e-02, 7.22395582e-03, -2.86084623e-03, 1.68456812e-03,
       2.46839281e-02, 1.00155873e-02, -2.32560504e-02, 1.21814413e-02,
       1.41511643e-02, 1.19746255e-03, -3.25118145e-03, 3.38582578e-03,
       -1.98159721e-02, -7.61363376e-03, -2.30144383e-03,
       -1.38047338e-02, 5.37052425e-03, -7.83131644e-03, -2.70543178e-03,
       7.89046567e-03, 3.70938773e-03, -1.39999995e-02, -1.24796163e-02,
       -1.37989586e-02, -2.40729265e-02, -9.57453530e-03, 1.79251861e-02,
       9.03691165e-03, 2.88977269e-02, 1.79258306e-04, 9.61792842e-03,
       -2.52938885e-02, -3.63999256e-03, -2.27093361e-02, 1.84150916e-02,
       2.96544209e-02, -8.14547669e-03, -5.40508283e-03, -6.14043279e-03,
       -2.91479360e-02, -2.56132777e-03, -2.53430605e-02,
       -1.01702772e-02, -1.27095752e-03, 2.41590925e-02, -1.60654839e-02,
       -5.11173345e-03, -1.56305041e-02, 9.02306568e-03, -3.21929455e-02,
       -1.78015679e-02, -2.09662709e-02, 1.96146313e-02, 1.42063005e-02,
       1.98955555e-02, 1.72638204e-02, 3.39569114e-02, 6.71623275e-04,
       -3.96016501e-02, 4.67064325e-03, 1.39139406e-02, 1.51829263e-02,
       -2.63602915e-03, 1.84336975e-02, 1.96291190e-02, 1.26056895e-02,
       -1.32312793e-02, -5.01180626e-02, -1.41627127e-02, 9.86281596e-03,
       2.85581835e-02, -1.90030765e-02, -1.02761649e-02, -2.41893698e-02,
       8.07989039e-04, -1.61792915e-02, -3.38565409e-02, 3.36557743e-03,
       1.93722006e-02, 1.01216813e-03, -3.00318077e-02, -8.89698602e-03,
       -1.10366186e-02, 9.49475635e-03, -3.81198265e-02, -2.16220692e-02,
       3.70111577e-02, -3.40932934e-03, 4.27606842e-03, 2.22928170e-03,
       6.04113098e-04, 1.46698821e-02, 3.69199105e-02, -1.85508449e-02,
       -1.38224075e-02, 2.44391449e-02, 2.00225916e-02, -7.97831826e-03,
       -1.23254759e-02, 1.85415591e-03, -1.56743871e-03, -1.69310886e-02,
       -8.73543136e-03, 1.26538277e-02, 1.68001447e-02, -5.93116099e-04,
       6.52111974e-03, 1.86182978e-03, 1.09577850e-02, 1.57244038e-02,
       1.10663110e-02, -5.44252759e-03, 7.67908990e-03, 5.11581153e-02,
       -1.64853297e-02, -3.40923481e-03, 2.11940762e-02, 4.01868904e-03,
       -3.19034280e-03, -1.02764834e-02, -1.94921289e-02, 6.93487981e-03,
       1.93012983e-03, -3.89817767e-02, 1.07966214e-02, -2.55635998e-04,
       3.28773521e-02, -1.14604449e-02, -4.73606028e-03, -7.50068482e-03,
       5.93318883e-03, 1.68838948e-02, 3.36385220e-02, -7.08156591e-03,
       1.33109549e-02, 2.18498576e-02, 1.62552018e-02, 7.71898031e-03,
       -1.26849096e-02, -1.27823045e-02, 2.03445759e-02, 1.18581848e-02,
       1.52112953e-02, 3.39492150e-02, 1.29514588e-02, 1.57224312e-02,
       -7.80325057e-03, -1.28052570e-02, 1.76833440e-02, 1.81010850e-02,
       5.24094095e-03, -1.36743728e-02, -1.62241478e-02, -8.64069909e-03,
       -8.52846366e-04, -1.43833635e-02, -3.31253670e-02,
       -9.44101531e-03, 2.24911626e-02, 8.85854848e-03, -1.63072012e-02,
       -5.66092087e-03, 4.22447873e-03, 4.93745646e-03, 1.38692148e-02,
       -4.04857844e-03, 1.08352406e-02, 2.54574437e-02, 2.08457690e-02,
       -1.48986522e-02, 1.73101723e-02, -2.24042144e-02, -1.76163726e-02,
       5.58845466e-03, -3.53791309e-03, 1.89685132e-02, -3.91395157e-03,
       -2.18635798e-03, -8.13032314e-03, -1.43547533e-02,
       -4.73943772e-03, 4.64320881e-03, 1.09811071e-02, -1.38302185e-02,
       3.35062156e-03, 1.27212759e-02, 6.14963099e-03, -8.90591834e-03,
       1.80761400e-03, -1.88302994e-02, -1.83148142e-02, 1.72043662e-03,
       9.84881539e-03, -3.72041296e-03, -5.91562409e-03, -2.47361250e-02,
       -3.40527156e-03, -2.06888933e-02, -2.21989267e-02,
       -1.02092624e-02, -2.11802660e-03, -1.82789902e-03,
       -3.46821640e-03, 1.16524771e-02, -1.20781530e-02, -6.70315558e-03,
       -1.57565922e-02, 1.77716892e-02, 2.43477873e-03, -6.98245876e-03,
       -5.97513560e-03, -1.14786755e-02, 2.21642505e-04, -9.53398086e-03,
       9.43824090e-03, -1.82883220e-03, -1.43308919e-02, 6.02369988e-03,
       -1.83294062e-02, 1.39913557e-03, -1.76559051e-03, 1.70867275e-02,
       5.71489101e-03, -6.51187496e-03, -4.14898712e-03, 3.25807258e-02,
       1.52937435e-02, 5.29701542e-03, -4.80955059e-05, -1.10156359e-02,
       2.20725108e-02, -8.06223694e-03, -1.01997722e-02, 1.32143926e-02,
       4.17793840e-02, 9.13951453e-03, -3.73793603e-03, -4.12702700e-03,
       -1.74563136e-02, -1.79595489e-03, 2.12750095e-03, -4.16299235e-03,
       2.80020963e-02, 3.23857218e-02, 1.07190255e-02, -1.48944985e-02,
       -1.60062145e-02, -2.27385741e-02, 1.45424642e-02, 1.46541279e-02,
       -3.22403349e-02, -2.20401920e-02, 1.80311128e-02, -6.50525733e-04,
       1.28491002e-03, 5.35983243e-04, -1.53743550e-02, 8.25152546e-03,
       -9.08826478e-03, -1.55426399e-03, -3.43163274e-02,
       -5.57505433e-03, -2.76747104e-02, -5.77099435e-03,
       -1.55725842e-02, -1.20891342e-02, -5.98142669e-03, 1.78275686e-02,
       -1.23357577e-02, -3.70550901e-04, 5.10181151e-02, 2.81496942e-02,
       -1.48351453e-02, -1.55180590e-02, 1.84901971e-02, 5.34517784e-03,
       2.53632087e-02, -3.72438580e-02, -1.20450258e-02, 3.87858301e-02,
       -2.01911968e-03, -5.42146340e-02, -2.56014569e-03, 7.53842818e-04,
       -6.97801169e-03, -2.01737136e-02, -3.48930135e-02,
       -4.65689823e-02, 1.00486623e-02, -4.87752026e-03, 3.65335587e-03,
       -8.34321976e-03, 5.48160635e-04, 3.00954678e-03, -1.72383431e-02,
       1.67917982e-02, -1.87044207e-03, 3.58058140e-02, 9.11119301e-03,
       -9.91821196e-03, -3.39444191e-03, 1.87121169e-03, -2.27330439e-02,
       -1.64137073e-02, -2.45711859e-02, -1.11835711e-02,
       -1.16969144e-03, -1.33502446e-02, -4.06095013e-02, 1.10223591e-02,
       1.27289006e-02, -3.95956226e-02, -2.37405449e-02, -4.40748781e-03,
       7.79310567e-03, 2.15877686e-03, -4.57435623e-02, -3.04604881e-02,
       2.47646552e-02, 7.30203986e-02, -4.55057099e-02, -1.68420523e-02,
       1.15814786e-02, -2.22416706e-02, 1.27126668e-02, -1.28172897e-02,
       4.89035156e-03, -3.63753513e-02, -1.19425729e-02, -1.94118619e-02,
       -1.28948735e-02, 2.68543046e-03, 1.76242180e-02, 1.43829416e-02,
       3.78788915e-04, 2.60092877e-03, -2.16555037e-02, 1.43726040e-02,
       -2.91880537e-02, 9.69894812e-04, -6.47809450e-03, 8.82908003e-04,
       -5.29156718e-03, -3.21171843e-02, 1.38577037e-02, 7.23880678e-02,
       1.21338718e-01, -1.78876016e-02, -3.57940583e-03, -4.97352285e-03,
       -1.50565300e-02, -1.65808816e-02, -5.47879748e-02,
       -3.54256928e-02, 3.99488583e-02, 6.65518716e-02, -2.53267847e-02,
       -2.60033589e-02, 1.21732075e-02, 1.79023836e-02, -8.85408896e-04,
       -1.44468630e-02, 1.68128610e-02, -1.36317769e-02, 4.91691791e-02,
       -2.85629518e-02, 1.73412897e-02, 1.23903779e-02, 8.77426658e-03,
       -3.04146595e-02, -2.30498742e-02, 3.71024548e-03, 4.82865274e-02,
       4.55747265e-03, -2.79877596e-02, -2.88226269e-03, 4.51764464e-02,
       5.56454388e-03, -1.47531144e-02, -2.18152199e-02, 4.27590264e-03,
       4.32216078e-02, 6.46757558e-02, 4.25295066e-03, 1.23945987e-02,
       3.22677903e-02, 1.49321454e-02, -4.80018527e-04, 9.14525893e-03,
       -8.24878924e-03, 2.35355571e-02, 3.87323461e-02, 2.13827174e-02,
       2.84459163e-02, 1.39462566e-02, 1.69816930e-02, -6.16945850e-04,
       -1.29329301e-02, 2.27302313e-02, 3.29427756e-02, 1.88719947e-02,
       -3.82180810e-02, -1.35476245e-02, -9.16215498e-03,
       -2.09287126e-02, -2.84410957e-02, -1.82274505e-02, 1.44091388e-02,
       3.81276682e-02, 2.45685708e-02, -3.07870936e-02, -3.17812362e-03,
       4.35807481e-02, 1.54450694e-02, -1.01555651e-02, -2.61356290e-02,
       2.72242399e-03, 8.07628967e-04, 2.86580473e-02, 1.77366193e-02,
       4.61045802e-02, 2.25253496e-02, 4.85565066e-02, 1.77499466e-02,
       1.80956721e-02, 2.05748323e-02, 1.07558891e-02, 3.64127420e-02,
       6.81778640e-02, 5.01023047e-02, -4.39358735e-03, -2.72065457e-02,
       -4.40109260e-02, -4.15092148e-02, 6.88286358e-03, -1.88092538e-03,
       -2.70300172e-02, -5.53872250e-02, -1.71969682e-02, 2.94864066e-02,
       1.89081952e-02, -8.52409005e-03, -1.06149698e-02, -5.14768471e-04,
       -2.42351219e-02, -3.20743173e-02, -8.22634343e-03, 1.19424220e-02,
       7.56907929e-03, -9.07235499e-03, 2.59489892e-03, -7.67897302e-03,
       2.69119977e-03, 1.81808171e-03, 1.21599780e-02, 2.18386594e-02,
       2.19709594e-02, 2.57953014e-02, 6.07514381e-02, 3.67618687e-02,
       2.21402515e-02, 1.01921405e-03, 2.34069652e-03, 8.36521271e-04,
       -4.72609932e-03, -4.27787146e-03, 1.57295354e-02, -1.51772471e-02,
       -2.29012147e-02, -1.92299075e-02, 6.08091650e-04, -3.83421443e-02,
       -1.36958389e-02, -2.41175015e-02, 4.30784596e-04, 4.14545462e-02,
       -3.65966256e-03, -2.97610671e-03, 3.22128122e-04, 2.96606459e-02,
       -1.84201989e-02, -1.95887350e-02, -1.73073765e-02, 2.04904284e-02,
       2.51138564e-02, 4.04534861e-02, 1.74244922e-02, -8.13751947e-03,
       2.07744613e-02, 1.17583573e-02, 2.01443788e-02, -2.79477984e-02,
       6.79209549e-03, 1.84123982e-02, 2.39503365e-02, -6.49068644e-03,
       -1.40999127e-02, 1.64940972e-02, -3.59872193e-03, 2.72060186e-02,
       -3.47094378e-03, -5.11962222e-04, 3.24965678e-02, -6.91252388e-03,
       4.11808118e-02, 2.44388822e-03, 2.19349936e-02, -1.41708264e-02,
       -9.51334927e-03, -3.99164669e-02, 9.93002485e-03, -4.67539486e-03,
       9.02615394e-03, 1.55680571e-02, -9.94135719e-03, -1.07048859e-03,
       -1.64183695e-02, 1.32726282e-02, 2.15929205e-04, -1.34108486e-02,
       3.23880985e-02, 1.29026314e-02, 2.08446733e-03, -7.08319247e-03,
       2.55927034e-02, -2.70619593e-03, 2.77227219e-02, 2.44497228e-02,
       7.06098415e-03, -1.80706233e-02, -1.57058872e-02, -1.57619491e-02,
       1.36840774e-03, 2.26629507e-02, -3.07408907e-02, 1.32289354e-03,
       -7.37686828e-03, -1.69943999e-02, 2.04655286e-02, 6.17492059e-03,
       4.57600206e-02, -1.69616677e-02, 1.41441254e-02, -2.98383809e-03,
       3.07326540e-02, 2.56495625e-02, 3.68180647e-02, 3.87308467e-03,
       -2.21687891e-02, -1.22574698e-02, -2.73128282e-02,
       -1.55418180e-02, -1.64661948e-02, 2.88643385e-03, 1.98714957e-02,
       -3.59790912e-03, 2.46178824e-02, 3.58737521e-02, 9.56911501e-03,
       1.69792324e-02, 1.89079531e-02, -1.70052871e-02, 4.66047153e-02,
       3.15100960e-02, 2.62400918e-02, 4.14869934e-03, -3.17582698e-03,
       -3.15508656e-02, 5.83119644e-03, -1.70099754e-02, -5.21220043e-02,
       4.97205853e-02, 1.64850857e-02, 1.85017183e-03, 4.15678360e-02,
       -8.88139103e-03, 6.67242240e-03, -1.51166469e-02, 2.25235689e-02,
       1.05485914e-03, 2.02573575e-02, 2.40870062e-02, 2.66433284e-02,
       1.62281692e-02, -2.09377408e-02, -2.49489732e-02, 1.19744998e-03,
       1.92179102e-02, -3.12714353e-02, 1.52985184e-02, 2.67976876e-02,
       1.11254454e-02, 3.24347727e-02, 4.58427519e-03, -3.64586115e-02,
       -9.00400709e-03, -9.54817049e-03, -3.58853899e-02, 5.36594242e-02,
       2.62214206e-02, 9.51953043e-05, 2.14199144e-02, -7.99787324e-03,
       -1.31712062e-02, -2.23925374e-02, -1.72035098e-02,
       -3.44100147e-02, 2.59423517e-02, 1.53432926e-02, -1.59009974e-02,
       3.56226191e-02, -1.13557391e-02, -3.06156315e-02, -1.56617037e-03,
       2.05189809e-02, -1.68855395e-02, 3.26163061e-02, 5.38298637e-02,
       -2.18983740e-02, 2.67702285e-02, -1.85614359e-02, -2.65564825e-02,
       2.52718963e-02, 2.22769156e-02, -1.17500583e-02, 3.17958705e-02,
       2.52438895e-02, -3.18208747e-02, 5.64550832e-02, 1.19669782e-02,
       -2.23663840e-02, -2.06227209e-02, -2.44056024e-02,
       -3.32345888e-02, 1.77246053e-02, 1.65010579e-02, 2.22642608e-02,
       3.87802720e-02, 9.52809304e-03, -2.32283138e-02, -2.48594768e-02,
       -3.13898772e-02, -1.17204618e-02, -2.70057889e-03,
       -2.76988130e-02, -1.85696576e-02, 4.25464436e-02, -1.20466566e-02,
       -3.69548686e-02, -6.63193315e-03, -8.79967585e-03,
       -8.99111666e-03, 6.88106957e-05, 8.80736671e-03, -1.37904603e-02,
       2.02146694e-02, -8.40620883e-03, -2.46798936e-02, 5.11725945e-03,
       1.62299220e-02, 2.99235266e-02, 2.11504418e-02, -1.13978887e-04,
       -3.20734009e-02, 5.85236251e-02, -8.24988820e-03, -2.90955547e-02,
       -2.29746550e-02, -2.54030824e-02, -5.12970844e-03,
       -2.85984250e-03, 3.03949043e-03, 1.55268842e-02, 2.36538053e-02,
       -2.89676478e-03, -1.98959988e-02, -1.09721189e-02,
       -9.40470770e-03, -3.03228069e-02, 1.16337426e-02, 5.83661906e-02,
       1.60439927e-02, 3.95119702e-03, -6.76024798e-03, -2.88622770e-02,
       -5.42645622e-03, 2.44443286e-02, -7.01768929e-03, 3.24681378e-03,
       -4.70168144e-03, -1.91535503e-02, -5.43440087e-03,
       -2.65472587e-02, -2.21792180e-02, -1.56151345e-02,
       -2.13842792e-03, -9.63257905e-03, -6.86656358e-03, 2.06839293e-02,
       -1.05135618e-02, -6.44205371e-03, -2.08900422e-02,
       -1.58586279e-02, 5.61036170e-03, 1.56198745e-03, -1.26538211e-02,
       3.31915468e-02, 2.83218399e-02, -2.95099020e-02, 2.13040411e-02,
       3.26615609e-02, 1.85435563e-02, -8.56032223e-03, -1.42234275e-02,
       -5.24017843e-04, 1.89904664e-02, 1.68012846e-02, -4.05647419e-03,
       -1.64623614e-02, -1.99046358e-02, 2.86741508e-03, -5.93472365e-03,
       -1.15769776e-02, 7.48894690e-03, 2.85514630e-02, -8.94844439e-03,
       -3.27353254e-02, 9.44599416e-03, 6.47974620e-03, 7.42438436e-03,
       -1.53453285e-02, 8.03039409e-03, 2.52596708e-03, -3.26832081e-03,
       -2.01883540e-03, -5.20376721e-03, -5.29685570e-03, 3.83304507e-02,
       3.23487893e-02, 2.46540131e-03, -1.17592523e-02, -1.59670208e-02,
       3.45747583e-02, 2.23590750e-02, -2.00387593e-02, -1.81495491e-02,
       6.66411081e-03, 1.08540785e-02, -1.56230163e-02, -1.11425789e-02,
       -1.14565557e-02, 1.02941580e-02, 7.68938428e-03, -2.09954325e-02,
       2.37585697e-03, 8.29841290e-03, 3.50882043e-03, 4.78091370e-03,
       2.40687863e-03, 2.20951089e-03, 1.55554684e-02, -1.98760517e-02,
       2.04074644e-02, -2.65683457e-02, -4.94221086e-03, -3.40228043e-02,
       -1.17437700e-02, 6.10692380e-03, 4.71803220e-03, 9.11743904e-04,
       -2.03675982e-02, -2.31620073e-02, 9.25901870e-04, 6.41656015e-03,
       7.41918944e-03, -6.34929165e-03, 9.44691896e-03, 3.67287477e-03,
       3.70966940e-04, 8.26539099e-03, -3.38320341e-03, -5.32112224e-03,
       7.38666998e-03, 5.41811017e-03, -1.65448189e-02, 2.12536361e-02,
       3.51572089e-04, -1.02199148e-04, 6.93025626e-03, -2.22526323e-02,
       -2.70098634e-03, 2.95273983e-03, -1.16431657e-02, 5.32112131e-03,
       1.30842188e-02, 1.35732489e-02, 1.58175686e-03, 5.87165530e-04,
       5.14711393e-03, -1.39580411e-03, 4.53004055e-03, -5.19931223e-03,
       3.31783923e-03, -1.70485359e-02, -2.34597432e-03, -4.31080302e-03,
       -1.24985678e-02, 3.14980792e-03, -6.64622523e-03, 1.07757491e-03,
       -1.05994986e-02, -1.77256111e-02, 5.57951489e-03, 2.52285996e-03,
       -1.38873914e-02, 2.88234930e-02, 1.14530148e-02, -1.95940901e-02,
       -7.15699047e-03, 8.56542960e-03, 2.71257404e-02, 7.36632291e-03,
       6.50669495e-03, -2.92079028e-04, 2.91134026e-02, -2.55837780e-03,
       5.22682210e-03, -4.33517154e-03, 2.88696471e-03, -8.07773881e-03,
       1.79414116e-02, 6.04040455e-03, -9.44864284e-03, -7.40751810e-03,
       1.32498415e-02, -8.70362949e-03, -1.06655909e-02, 2.42048432e-03,
       7.70309754e-03, 1.13077881e-02, 6.35202089e-03, -4.62207571e-03,
       7.95127824e-03, 9.03881993e-03, -2.88569517e-02, -1.22432709e-02,
       1.75116751e-02, 2.75427327e-02, -3.14301345e-03, -4.08383692e-03,
       4.16591618e-04, 1.52034741e-02, -1.30907968e-02, 8.84321332e-03,
       -2.07343809e-02, -1.57480640e-03, 2.20126621e-02, -1.80102754e-02,
       -2.60636378e-02, -1.28065310e-02, -8.52452405e-03, 5.25143137e-03,
       -4.89690760e-03, 3.18702613e-03, -5.65668626e-04, 8.52549914e-03,
       -2.50883796e-03, -2.82803271e-02, -2.83012399e-03, 1.98420249e-02,
       1.23964986e-02, 3.07575651e-02, 2.41942983e-02, 2.22725570e-02,
       4.31765653e-02, 1.18315537e-02, -6.65547885e-03, -3.37321265e-03,
       4.00757715e-02, 1.62946098e-02, -9.69610456e-03, -2.42722984e-02,
       1.04766283e-02, 1.53063890e-02, -3.57694328e-02, -3.67742628e-02,
       -5.78597141e-03, -6.21679518e-03, -1.50972512e-02, 1.79645848e-02,
       -1.55197661e-02, 4.96110991e-02, 4.35974039e-02, 5.41949179e-03,
       -5.19676991e-02, -1.19565390e-02, -1.90437902e-02,
       -1.26048923e-02, -3.83797125e-03, -1.02355108e-02, 9.32469498e-03,
       6.40179962e-02, -3.34459660e-03, -6.10491857e-02, -3.35931517e-02,
       -8.45354702e-03, -4.84675495e-03, 1.17397998e-02, -1.75064020e-02,
       2.17348989e-02, 4.72283177e-02, -3.37350219e-02, -4.01103795e-02,
       1.12436125e-02, -1.00847604e-02, 3.79612553e-03, -5.30848466e-03,
       -2.07778141e-02, -5.85060753e-03, -6.97085038e-02,
       -2.28307378e-02, -5.46510331e-02, 1.97630152e-02, 5.95684117e-03,
       -2.37207487e-02, -1.91135816e-02, 1.08086262e-02, -9.10433568e-03,
       -5.09991795e-02, -5.16018681e-02, -5.18857613e-02, 1.25177493e-02,
       8.82688211e-04, -1.30049922e-02, -3.46613415e-02, -5.95603213e-02,
       -1.05512589e-02, -3.21779214e-02, 2.70630000e-03, -2.13628747e-02,
       3.84299792e-02, -2.12243330e-02, -2.72288881e-02, 3.71918501e-03,
       -1.61533034e-03, -2.24457216e-02, -8.93309538e-04,
       -3.98143381e-02, 2.80028693e-02, 5.30177429e-02, 1.10121658e-02,
       6.28771540e-03, -6.45751774e-04, -1.25907536e-03, -2.11747102e-02,
       -1.01218140e-03, -1.95293054e-02, 4.28698361e-02, 7.83570632e-02,
       -9.31264088e-03, -2.19425317e-02, -2.95110699e-02,
       -1.71283074e-02, -7.35379905e-02, -3.04544307e-02,
       -3.51340622e-02, 1.36621548e-02, -1.14700012e-02, -5.28731607e-02,
       -4.83109690e-02, 6.93127140e-03, 4.34637861e-03, -1.41450167e-02,
       4.38509360e-02, -1.44100552e-02, 6.51424080e-02, 6.04054518e-02,
       -2.07550302e-02, -2.15949509e-02, -9.71785933e-03,
       -5.08926027e-02, -6.13054484e-02, 1.48651088e-02, -8.04963522e-03,
       9.09798779e-03, 1.60941817e-02, -8.56354162e-02, -4.97753471e-02,
       2.27065701e-02, 1.94558371e-02, -2.93410495e-02, 9.13183298e-03,
       -2.56197546e-02, 7.88609833e-02, 3.62903439e-02, -1.08314157e-02,
       -1.45102972e-02, -6.68820972e-03, 1.62154138e-02, -3.90337408e-02,
       2.52073020e-04, -1.85304545e-02, 6.69619441e-02, 1.00391945e-02,
       -1.44093418e-02, -6.21290784e-03, 1.57313757e-02, -1.90023091e-02,
       -2.76708845e-02, 3.54119428e-02, -8.43672547e-03, -2.42235558e-03,
       2.94752233e-03, -4.21661418e-03, -1.10316174e-02, 1.68491490e-02,
       8.13915487e-03, -4.28869054e-02, 2.14202888e-02, -1.59786418e-02,
       3.94347031e-03, -9.81137715e-03, 9.61947546e-04, 6.26738882e-03,
       -1.90042444e-02, 1.90780573e-02, -3.41613628e-02, 1.41000040e-02,
       1.91299412e-02, 1.00647576e-01, 2.59520821e-02, -6.92300359e-03,
       4.95267799e-03, -7.75525440e-03, 5.43832108e-02, 3.25205922e-03,
       3.45543101e-02, 1.42649645e-02, 3.73428687e-02, -1.74270011e-02,
       -3.76900251e-04, -1.77684333e-03, 6.73880568e-03, 1.20783215e-02,
       -9.52351931e-03, 3.78774032e-02, -4.34061699e-03, 2.72640027e-02,
       -1.66787710e-02, -3.91069194e-03, 1.51842237e-02, 4.89189336e-03,
       3.78650986e-02, 4.26997402e-04, -4.18288773e-03, -3.72053385e-02,
       7.47684273e-04, -4.34365012e-02, 2.98095942e-02, 3.41578573e-02,
       -1.89006981e-02, 4.16753581e-03, -1.87322013e-02, 3.00609414e-02,
       6.04707096e-03, -1.52656692e-03, 7.75658200e-03, 1.76616516e-02,
       -1.53628588e-02, 2.15758514e-02, 4.75974102e-03, 5.08024264e-03,
       1.10884178e-02, 5.86831057e-03, -3.29721137e-03, -1.36068906e-03,
       6.05746098e-02, 1.86900105e-02, -3.64698395e-02, -1.76329724e-02,
       -3.18102837e-02, 1.52492635e-02, 1.53729133e-02, -2.04851143e-02,
       -2.29669102e-02, 1.80868302e-02, 9.69773810e-03, -1.91137660e-02,
       8.53397045e-03, 5.85833983e-03, -7.19098840e-03, -7.98644684e-03,
       1.69123895e-02, -1.00397561e-02, 2.81649847e-02, 2.53060670e-03,
       -1.10941548e-02, -2.80462690e-02, 1.64906867e-02, -2.93350127e-02,
       -1.74028054e-02, -4.49639969e-02, -3.78537960e-02,
       -3.66465165e-03, 4.21975827e-04, 9.90240136e-04, 1.47605017e-02,
       3.91788259e-02, -4.24582735e-02, -1.80974621e-02, -1.96166579e-02,
       4.89884848e-03, 1.42616592e-02, 1.34229157e-02, -5.78938760e-02,
       -2.30417140e-02, 9.01503209e-03, -3.44623365e-02, 8.73774011e-03,
       -2.93821488e-02, -2.50570364e-02, -9.96468868e-03,
       -2.87405178e-02, 1.09448722e-02, -4.07331157e-03, -1.31364437e-02,
       -2.41017528e-02, -3.66628021e-02, 2.14987881e-02, 2.66184602e-02,
       1.61653366e-02, 3.37296687e-02, -4.09922376e-02, -7.17772823e-03,
       5.29114157e-02, -4.55808453e-02, -6.37108833e-03, -2.28180364e-02,
       -8.73476383e-05, -2.85705868e-02, -5.24209300e-03,
       -2.67444421e-02, 2.58949548e-02, 4.66068201e-02, -4.67471741e-02,
       -4.70522195e-02, -3.75608839e-02, -7.34132947e-03,
       -3.51881571e-02, -1.92982238e-02, -4.77326810e-02, 1.35860732e-02,
       3.13786566e-02, -7.19820857e-02, -4.05722260e-02, -3.81067358e-02,
       1.66384690e-02, -2.09619515e-02, -1.79903358e-02, -8.45608488e-03,
       2.03787554e-02, 9.88530833e-03, -1.73326861e-02, -4.08766195e-02,
       -1.80232041e-02, -2.14607920e-03, -2.78825760e-02,
       -6.56052632e-03, -6.59881916e-04, 1.13306213e-02, 2.35203970e-02,
       1.05012313e-03, 1.11657195e-02, 1.96737181e-02, 1.49489380e-02,
       -1.40366862e-02, -6.31970540e-03, -3.70867252e-02,
       -5.00480123e-02, -2.74669919e-02, 3.41383927e-03, 1.38990665e-02,
       9.48140677e-03, 4.22359537e-03, -2.75106393e-02, -5.93097769e-02,
       2.73181368e-02, 5.65560581e-03, 2.80685853e-02, -7.13526085e-03,
       3.06367729e-04, -5.03863534e-03, 6.35959115e-03, -4.52089217e-03,
       -1.18591823e-02, -1.28228613e-03, -1.14819929e-02,
       -2.52228789e-02, 1.39103755e-02, -1.86414993e-03, 1.30526815e-02,
       1.30886659e-02, 8.56445916e-03, -1.88042112e-02, 3.43376026e-03,
       -4.95364219e-02, -1.67120509e-02, 1.28764356e-03, 1.77473798e-02,
       8.84252973e-03, 4.34759744e-02, 1.97918881e-02, -2.24196892e-02,
       2.28089839e-02, -3.84514332e-02, -2.45332085e-02, 1.49105368e-02,
       2.69174427e-02, -5.25961351e-03, 4.57471684e-02, 1.16592571e-02,
       -1.36812152e-02, 3.20098288e-02, -1.06551936e-02, 1.64096002e-02,
       -5.61694324e-04, 1.06357913e-02, -1.57425292e-02, 3.98472212e-02,
       1.84900798e-02, 1.75960064e-02, 1.97854377e-02, -2.99470946e-02,
       -1.63979344e-02, 2.40402240e-02, 1.09900313e-03, 1.53302494e-02,
       2.86839548e-02, 8.50339700e-03, -7.81191885e-03, 5.32680862e-02,
       1.16841430e-02, -3.32985818e-02, -9.48886946e-03, 2.10888516e-02,
       3.24615948e-02, 6.38166666e-02, 2.27548871e-02, 2.10939664e-02,
       4.81020985e-03, -2.50535496e-02, -3.87026928e-02, -3.42629030e-02,
       7.53875868e-03, -5.25958464e-03, 2.97306362e-03, 2.79268483e-03,
       -1.84892397e-02, 6.39077947e-02, 3.49483751e-02, 1.23715457e-02,
       5.64090088e-02, 3.01569849e-02, 4.57948521e-02, 5.26765585e-02,
       3.47021073e-02, 5.46675362e-02, -1.65857561e-02, -4.96315248e-02,
       -1.63436458e-02, -2.50428426e-03, 3.92854726e-03, -2.40011403e-04,
       3.42124229e-04, -1.42392600e-02, -2.90062334e-02, 3.93193327e-02,
       -1.77542889e-03, -2.55135987e-02, -2.38767173e-02, 3.51969851e-03,
       -6.28463645e-03, 3.86740454e-02, 3.19932252e-02, 1.22770909e-02,
       2.65621524e-02, -6.19218266e-03, -5.22683025e-04, -7.09369965e-03,
       -4.32406254e-02, 8.32308270e-03, 2.77820937e-02, 4.20525409e-02,
       2.90445834e-02, 1.51339676e-02, 1.62823324e-03, 2.45761825e-03,
       1.29738227e-02, -8.02021381e-03, 1.69661781e-03, 1.76479798e-02,
       -1.85148045e-03, -7.86871742e-03, 1.08318709e-04, -1.89371631e-02,
       -3.66963930e-02, -3.23409811e-02, -1.08960653e-02,
       -2.67615132e-02, -8.78703594e-03, -1.44529641e-02,
       -1.30784633e-02, -4.75354353e-03, -5.95062040e-03,
       -1.02714906e-02, -2.60553025e-02, 9.80164856e-03, 4.04139273e-02,
       5.58426790e-02, 1.43756447e-02, 8.01728386e-03, -3.04609956e-03,
       9.89635941e-03, 3.65685974e-03, -8.95764772e-03, -1.17167505e-02,
       4.17713970e-02, 6.63620457e-02, 2.45273416e-03, 3.64963431e-03,
       -1.99713614e-02, -1.29386149e-02, -5.41936271e-02,
       -4.92660701e-02, 1.06973136e-02, -6.78133918e-03, -1.46111762e-02,
       -7.46683450e-03, -1.64298862e-02, -3.31953005e-03, 3.09668034e-02,
       -2.05245428e-02, -1.85668953e-02, -4.40758578e-02, 1.96106825e-02,
       9.73647181e-03, -4.03186446e-03, -3.13626938e-02, -8.11244547e-03,
       -1.22386999e-02, -4.55842912e-03, -1.72363725e-02, 9.82803293e-03,
       1.90080199e-02, 1.85759906e-02, -3.16287093e-02, -5.06738992e-03,
       -1.54295219e-02, -2.56497394e-02, -2.53619291e-02,
       -2.59196968e-03, 1.06735667e-02, 1.80439427e-02, 3.51490825e-02,
       1.44529436e-02, 2.17502913e-03, 2.89755259e-02, 2.17470955e-02,
       2.59872340e-02, 1.77057479e-02, 3.34141515e-02, 3.73980142e-02,
       1.34439850e-02, -5.36860432e-03, 4.16951347e-03, 9.87633597e-04,
       -6.64610509e-03, 5.32189617e-03, 1.20334029e-02, 4.61455248e-03,
       -6.68918062e-03, -3.50587140e-03, 1.11291474e-02, 9.99061298e-03,
       3.70907201e-03, 4.35822597e-03, -2.59475540e-02, 1.14946729e-02,
       6.05886057e-03, 7.25391600e-03, -3.03297350e-03, 1.66108401e-03,
       7.64611037e-03, 2.02902798e-02, 2.61560790e-02, -4.70735948e-04,
       -6.38572965e-03, -1.01405308e-02, -1.31849223e-03,
       -2.10579429e-02, -1.35777509e-02, 3.28731909e-03, 1.91313140e-02,
       9.32854321e-03, 1.51356738e-02, 1.90677717e-02, 1.09384246e-02,
       1.23747010e-02, -3.70397745e-03, 1.12786163e-02, 2.13701627e-03,
       -1.36745963e-02, 7.07866671e-03, -6.54258905e-03, 1.43239170e-03,
       1.93358548e-02, 2.12234147e-02, -6.71474496e-03, -7.70524563e-03,
       -1.61170848e-02, 1.18897958e-02, 1.95160788e-03, -2.73559545e-03,
       -2.97371461e-03, 1.09904362e-02, 2.31145299e-03, -4.76323208e-03,
       7.51462625e-03, 1.37026021e-02, 8.45512934e-03, -2.21046470e-02,
       -1.42644467e-02, 1.12857781e-02, 2.82523781e-02, -1.80733092e-02,
       -2.69758850e-02, 1.88260397e-03, 1.13500440e-02, 9.68179945e-03,
       1.63613283e-03, -1.09868741e-03, 5.57210715e-03, 8.66418611e-03,
       1.51545359e-02, -1.11169703e-02, 3.11931502e-02, 1.22063886e-02,
       9.34812427e-03, 1.99515559e-02, 1.12287013e-03, -5.74076688e-03,
       -4.10111342e-03, 1.88862532e-02, -3.85800982e-03, 3.34651582e-02,
       -1.16267968e-02, 3.47472657e-03, -6.01940555e-03, -2.10270770e-02,
       8.85039289e-03, -4.47643315e-03, -2.71256734e-02, -2.54992656e-02,
       1.30281365e-02, -4.96381009e-03, -3.33085400e-03, -8.33416171e-03,
       -8.62699840e-03, 1.28527293e-02, 2.39195023e-02, -7.70128472e-03,
       -1.63319055e-02, 1.92376431e-02, -2.26004166e-03, 2.22448334e-02,
       1.38235018e-02, -1.31636420e-02, -1.06005708e-03, 4.30074148e-03,
       -6.20048819e-03, -2.39818729e-02, 2.13080570e-02, 2.14446839e-02,
       3.44040915e-02, 1.06224380e-02, 4.37406776e-03, 7.12597603e-03,
       -5.47186052e-03, 2.25299597e-02, -8.09229445e-03, -7.50748254e-03,
       1.50644900e-02, -8.15897729e-05, -1.21825868e-02, -2.39586774e-02,
       5.82287498e-02, 7.13857710e-02, 1.86187942e-02, -3.51448432e-02,
       -1.84966959e-02, -4.47587436e-03, 1.60008390e-02, -2.95171440e-02,
       -1.52422767e-02, 1.24935787e-02, 2.79699676e-02, -1.92803964e-02,
       -1.84856225e-02, -4.34658192e-02, 6.14792993e-03, -7.31095858e-03,
       -2.09708568e-02, -3.25185061e-02, -1.94416998e-03, 2.94744819e-02,
       3.97717282e-02, -4.08144854e-02, -6.04687408e-02, -2.29554679e-02,
       -7.05967483e-04, -4.46719453e-02, -3.99377383e-02,
       -1.54821835e-02, 1.87094696e-02, 2.40374189e-02, -4.64343093e-03,
       -5.13589755e-02, -2.82049980e-02, -3.48249935e-02,
       -4.67375033e-02, -3.62126641e-02, -8.63053091e-03, 3.79686058e-02,
       2.00617337e-03, 1.16443112e-02, -4.17800583e-02, -1.91986132e-02,
       -7.88196456e-03, -1.04136644e-02, 2.40184851e-02, -8.64483789e-03,
       6.51060400e-05, 2.73796860e-02, 4.16829027e-02, -3.61685678e-02,
       -2.57694982e-02, -3.11202724e-02, -4.92298156e-02,
       -2.55708154e-02, -3.72597650e-02, -2.75449846e-02,
       -3.24206389e-02, -5.54778948e-02, -5.61010242e-02,
       -2.25897301e-02, 2.41653658e-02, -2.49447636e-02, 1.78743508e-02,
       -2.84404326e-02, -2.69004703e-02, -5.22392467e-02, 3.36474031e-02,
       -5.90221630e-03, 1.44016435e-02, -2.28731185e-02, -1.47758424e-02,
       1.33238814e-03, 2.39884444e-02, -1.94567367e-02, 7.14285001e-02,
       3.19906957e-02, -4.80595492e-02, -3.99315096e-02, -2.13481858e-02,
       -5.63638620e-02, -5.02064712e-02, 3.34431827e-02, 2.45870487e-03,
       -1.12756044e-02, -2.65104324e-02, -8.41110721e-02,
       -4.92055751e-02, -1.00662401e-02, -3.53392735e-02, 7.07221823e-03,
       2.20768098e-02, -3.65149006e-02, 9.95863881e-03, 2.66526882e-02,
       -1.34066474e-02, -1.52380867e-02, -4.18303460e-02,
       -5.95695898e-02, 2.24019564e-03, 5.58716385e-03, 4.56064455e-02,
       -6.37201294e-02, -4.13088463e-02, -1.16702514e-02,
       -3.04982029e-02, 1.37964739e-02, -3.96225527e-02, -2.07990408e-02,
       1.84056535e-02, -2.69241096e-03, 5.08070923e-02, 2.51522027e-02,
       -6.86397916e-03, 1.48544637e-02, 3.56490351e-02, 1.98972435e-03,
       -3.15608978e-02, 6.20912574e-03, -9.31971055e-03, 2.49051712e-02,
       -1.84426957e-03, 1.04444530e-02, 2.19562650e-02, 1.25446729e-02,
       -2.74565537e-02, 3.60752153e-03, 1.60867274e-02, 5.27547859e-03,
       -2.36104359e-03, -1.25647336e-02, 2.79072355e-02, 3.51024531e-02,
       3.19878906e-02, 3.69828660e-03, -3.64311226e-02, -5.29457256e-03,
       -1.89184137e-02, -5.22011938e-03, -6.05923533e-02, 1.42809236e-02,
       2.66136285e-02, -1.09315654e-02, -1.93026233e-02, -3.10686231e-02,
       2.62209168e-03, -6.82933209e-03, 7.95561913e-03, -2.39976216e-02,
       1.14797344e-02, 1.19624296e-02, -1.93557125e-02, 3.57126482e-02,
       -7.79753970e-03, -2.55512167e-03, -1.90333389e-02,
       -4.42767935e-03, 1.28327496e-02, 3.25362533e-02, 4.36873510e-02,
       1.54798501e-03, 1.00043248e-02, -4.02057320e-02, 3.43698189e-02,
       1.99194495e-02, 3.52171483e-03, -8.13767910e-02, 3.17438506e-02,
       1.13126561e-02, 1.40683139e-02, 6.08089790e-02, -1.10946046e-02,
       -1.55965344e-03, -2.11245916e-03, 4.16672044e-02, -1.55780716e-02,
       1.61856450e-02, 3.20103019e-02, -1.49382455e-02, -3.49216759e-02,
       -4.46090139e-02, -2.98962295e-02, -3.18986997e-02,
       -3.10395360e-02, -1.61816999e-02, 2.24312749e-02, 4.22169529e-02,
       -1.62612125e-02, -1.73780303e-02, 1.14620291e-02, -7.15708081e-03,
       -1.54706612e-02, 1.28633929e-02, 3.33615765e-02, 2.29307059e-02,
       5.47066564e-03, -2.46346295e-02, -3.70439235e-03, -1.00371735e-02,
       -7.35799642e-03, 5.81389247e-03, 8.50684196e-03, -5.21831494e-03,
       -2.25374680e-02, -2.51329616e-02, -3.68078635e-03, 3.18270214e-02,
       -7.90551421e-04, 5.24048693e-02, -4.80312109e-02, 5.76521037e-03,
       5.27388183e-03, 3.56335053e-03, -2.42816973e-02, -6.89036306e-03,
       -2.04496905e-02, -1.81665178e-02, 2.94717681e-03, 2.00657025e-02,
       -1.28637245e-02, 1.16272513e-02, 3.61680915e-03, -1.16231814e-02,
       2.33496726e-02, 6.96251774e-03, -8.21604673e-03, -3.08239292e-02,
       2.22097281e-02, 1.02531612e-02, 7.92954769e-03, -1.13477036e-02,
       -1.68228671e-02, -3.65490913e-02, -3.33205685e-02,
       -1.03881685e-02, 1.86309181e-02, -4.14448930e-03, -1.76361538e-02,
       -8.42695683e-03, -1.64678711e-02, -2.89179310e-02, 2.91088615e-02,
       6.49443129e-04, -2.41488460e-02, 1.15516260e-02, -1.04643423e-02,
       2.07584891e-02, 4.53876611e-03, 9.47369542e-03, 1.10556344e-02,
       2.95899007e-02, 9.42467339e-03, 2.76910374e-03, -4.36573476e-02,
       -2.27263011e-02, 3.66627169e-03, 1.79143045e-02, -9.39831510e-03,
       -6.55831583e-03, -9.59245861e-03, 1.41923968e-02, 2.57359855e-02,
       -4.26943786e-02, -1.08009670e-02, -2.89018042e-02,
       -1.00429519e-04, -3.15900780e-02, -1.37911821e-02, 2.28541028e-02,
       2.69868039e-02, 5.34431562e-02, -1.01879006e-02, -1.46333007e-02,
       -3.14937085e-02, -9.25011840e-03, -2.55324449e-02, 1.98454363e-03,
       -2.66874265e-02, 2.58495603e-02, 8.33569677e-04, -1.86656900e-02,
       -3.08746658e-02, -3.41659859e-02, 2.27461429e-03, -1.32696675e-02,
       -9.26588476e-03, 3.08155119e-02, 8.17362312e-03, 2.65994798e-02,
       -1.16125988e-02, 2.21594404e-02, 1.63675621e-02, 4.69086207e-02,
       -1.52172409e-02, -2.56005637e-02, -2.70587001e-02,
       -2.41617169e-02, -1.01757227e-02, -1.57795995e-02,
       -2.94622756e-03, -1.14229601e-02, 2.42950395e-02, -3.44309174e-02,
       -3.80635224e-02, 1.18230777e-02, 6.17088154e-02, 2.73323823e-02,
       -7.53559638e-03, -2.70391330e-02, -3.52178444e-03, 1.71582960e-02,
       6.16871566e-03, 7.61715556e-03, -3.47579382e-02, -2.81317849e-02,
       -7.02427551e-02, -3.08819786e-02, -6.55368194e-02,
       -1.32732540e-02, -3.48778069e-02, -2.68204156e-02,
       -1.50991464e-02, -1.25486706e-03, -4.36338084e-03,
       -2.05162680e-03, 1.10389199e-03, 5.78332357e-02, 3.51487449e-03,
       4.74613272e-02, -5.91710792e-04, 1.04276941e-03, -5.51597122e-03,
       -3.39613371e-02, -7.58495135e-03, -5.87120373e-03, 3.06066941e-03,
       -1.82673857e-02, 6.90778298e-03, -1.78392604e-02, -3.18658468e-03,
       2.16278601e-02, 4.31427062e-02, 2.72750705e-02, 1.45960096e-02,
       3.07996422e-02, 2.10834593e-02, 2.77289245e-02, 1.61414817e-02,
       2.33502332e-02, -6.85573230e-03, -2.41122507e-02, 1.81008559e-02,
       3.77154141e-03, -1.31245423e-02, 1.79114342e-02, 1.96692944e-02,
       3.02578765e-03, -1.19301444e-02, 1.10815940e-02, -3.35947785e-04,
       2.29930487e-02, 2.85628699e-02, 3.74582782e-02, 3.20281945e-02,
       3.44543606e-02, 2.53720973e-02, 2.48096343e-02, -2.34114621e-02,
       -3.31303813e-02, -2.72267236e-04, -2.07745656e-02, 2.15018690e-02,
       -1.26645528e-02, -1.06816646e-02, -1.85175966e-02,
       -2.25969721e-02, 2.11128518e-02, 1.03561599e-02, 5.18008918e-02,
       4.36142087e-02, 1.12699680e-02, 2.03623846e-02, 9.40629188e-03,
       1.23113682e-02, 9.26738046e-03, -3.46139073e-02, -4.27784175e-02,
       4.43780882e-05, -3.97356320e-03, 1.30454479e-02, -3.64374556e-03,
       -1.17978901e-02, 7.79302279e-03, -1.89516309e-03, 4.64347675e-02,
       1.83695666e-02, 1.32641336e-02, 2.47350093e-02, 2.88941562e-02,
       4.80218492e-02, 2.10927948e-02, 2.41902955e-02, 3.35683785e-02,
       -1.11315893e-02, -7.22812256e-03, -2.30698101e-02, 1.58807659e-03,
       8.70670099e-03, 1.88356377e-02, 2.04001274e-02, 1.77925248e-02,
       -1.04255055e-03, 2.14261170e-02, 2.03626268e-02, 2.89762579e-02,
       5.57024702e-02, -4.02017031e-03, 1.84664316e-02, -3.57042737e-02,
       -2.94695655e-03, 2.02650595e-02, -1.09151090e-02, -2.36509033e-02,
       -3.93948629e-02, 1.60519104e-03, 6.51611155e-03, -7.16540590e-03,
       -4.55693267e-02, -1.67255045e-03, -1.62502993e-02, 8.81544035e-03,
       -1.50382733e-02, -3.17552947e-02, 1.40217496e-02, 4.16515395e-02,
       -1.37440627e-02, -1.69836730e-02, 2.02963389e-02, 7.41547393e-03,
       1.61314551e-02, 2.93551739e-02, -2.07378063e-02, 2.13417485e-02,
       -1.17029278e-02, 4.74936180e-02, 7.54003692e-03, 1.85909588e-02,
       -3.25227040e-03, 1.55526279e-02, -3.81976999e-02, -7.65458634e-03,
       3.60995717e-02, 1.78270880e-02, 5.75794186e-03, -2.18375959e-02,
       1.28629114e-02, 1.61469225e-02, -4.22998751e-03, 9.15059727e-03,
       -1.39764519e-02, 4.41873781e-02, 1.41896633e-02, 2.67166328e-02,
       -3.09840925e-02, 4.76190727e-03, 3.05405706e-02, 2.65447367e-02,
       4.12927708e-03, -1.19420588e-02, -3.68088973e-03, 6.38264865e-02,
       2.59182509e-02, 7.23861018e-03, -9.58455633e-03, 2.88588498e-02,
       9.00630839e-03, 3.40959756e-03, -6.98414538e-03, 3.08922422e-03,
       1.91069711e-02, 3.69219552e-03, -2.52146833e-02, -1.46432417e-02,
       2.42059547e-02, -3.30912042e-03, -1.80804301e-02, 1.00269077e-04,
       1.50937925e-03, 2.77437754e-02, -8.84145778e-03, -2.76463274e-02,
       -1.36564299e-02, 2.18885634e-02, 8.56319733e-04, 9.04827658e-03,
       -9.82090924e-03, -3.93918436e-03, 1.45835069e-03, 3.42582762e-02,
       -2.57692784e-02, 3.90897691e-03, 3.06171440e-02, -4.63684229e-03,
       -1.96277630e-03, 3.34072579e-03, 1.48318447e-02, 1.62062366e-02,
       -1.26547199e-02, -2.75101718e-02, -9.67480522e-03,
       -8.05458636e-04, -1.61021259e-02, -8.65873601e-03,
       -1.36089334e-02, 5.18171350e-03, -8.73627700e-03, 3.36438045e-02,
       2.23823246e-02, -1.03000291e-02, 1.26668671e-02, -8.73158686e-03,
       -1.76157430e-02, -2.52964981e-02, 6.00956939e-03, 2.45551672e-03,
       2.44897348e-03, -4.10277806e-02, -2.07499452e-02, 2.99337693e-03,
       1.13083504e-03, -1.80189293e-02, -2.93410644e-02, -6.31668605e-03,
       -2.62175240e-02, -6.20726543e-03, 5.88206714e-03, -2.03389116e-03,
       1.15051353e-03, 7.41605507e-03, 3.80890886e-03, 1.30752346e-03,
       9.38033685e-03, 2.38687340e-02, -1.45777850e-03, -2.20931564e-02,
       1.43962132e-03, 1.78359542e-02, 2.77821929e-03, 2.26232447e-02,
       2.65895668e-02, -3.33779499e-05, 2.40347087e-02, 9.58621316e-03,
       -1.42639447e-02, 2.69458741e-02, 8.27812299e-04, 3.24958703e-03,
       -1.05464738e-03, 1.18844286e-02, 6.15209166e-04, 4.46574355e-04,
       1.95228606e-02, -2.13596858e-02, -6.94373762e-03, 9.28689446e-03,
       -1.83908455e-03, 4.89113759e-03, 3.55367083e-03, 5.86233707e-03,
       3.11311148e-02, 1.33677889e-02, -4.51938109e-03, 2.52055228e-02,
       -8.75513244e-04, -9.19565093e-03, 3.83427832e-03, -1.34955682e-02,
       -2.49801744e-02, -1.38595141e-02, 1.24968709e-02, -1.67724621e-02,
       1.09283347e-02, -9.41531174e-03, 2.00197008e-02, 1.42876431e-02,
       1.27659943e-02, -6.56255928e-04, 1.52937872e-02, 4.42081392e-02,
       2.47383937e-02, -1.74372159e-02, -2.30569436e-04, -1.98389418e-04,
       3.08316760e-02, 7.36514572e-03, 1.03872684e-04, -2.20884345e-02,
       3.33721898e-02, 1.56177524e-02, -3.77189077e-04, -1.48398662e-02,
       -1.32685388e-03, 2.36889981e-02, -1.32415444e-02, -2.37391721e-02,
       1.28494119e-02, 4.37507369e-02, 1.92648731e-02, -2.86730491e-02,
       -1.12082036e-02, -1.31209232e-02, -5.80902398e-03,
       -1.67587288e-02, -5.09404093e-02, 3.08295805e-02, 5.49857505e-02,
       -2.30427156e-03, -3.82607989e-02, -2.69461386e-02, 1.36662181e-02,
       -7.81116495e-03, 1.15110604e-02, -1.29409041e-02, 5.41551560e-02,
       1.08732926e-02, 4.26577292e-02, -1.22841643e-02, 3.79348593e-03,
       -2.84157507e-03, 1.25976410e-02, 2.53519719e-03, -6.33742064e-02,
       -3.01696621e-02, 2.40843836e-02, 4.55914391e-03, -2.20641196e-02,
       6.68897061e-03, 1.16826931e-03, 2.78914045e-03, 2.05591023e-02,
       -1.74579248e-02, -3.00956471e-03, 9.13714292e-04, 4.11450155e-02,
       -3.14210653e-02, -1.68868136e-02, -1.10102387e-03,
       -1.15153464e-02, 2.14142390e-02, -1.47148808e-02, 2.46224310e-02,
       5.72936435e-04, 2.42865714e-03, -4.36649323e-02, -5.99079183e-04,
       -2.52893139e-02, -1.57412328e-02, 7.71135651e-03, 1.33502325e-02,
       8.85818663e-05, -1.65310074e-02, 1.05773397e-02, -5.88947814e-03,
       -2.68282164e-02, -8.60489160e-03, -1.40268169e-02, 3.33518721e-02,
       -5.09934090e-02, -5.98708317e-02, -3.40776518e-02, 4.12023179e-02,
       -4.10996191e-02, -2.01757755e-02, -4.75544184e-02,
       -1.33861962e-03, 1.56213911e-02, -3.00301649e-02, -7.54120126e-02,
       -6.59326836e-02, -2.85090730e-02, -3.31871472e-02,
       -6.08888231e-02, -3.18016894e-02, -3.59335057e-02, 4.07681651e-02,
       7.15222880e-02, -2.12324085e-03, 6.25126734e-02, 1.14495335e-02,
       -5.89989824e-03, -3.86674330e-02, -5.06743602e-02,
       -7.17290342e-02, 1.08826086e-02, 2.79708803e-02, 6.01355219e-03,
       1.03556272e-02, -3.66642922e-02, -1.33157114e-03, -4.26941104e-02,
       -2.06652824e-02, -2.66154744e-02, 6.78323656e-02, 2.78591663e-02,
       -2.00561974e-02, 6.41455734e-03, -1.89961698e-02, -9.21261869e-03,
       -1.09403171e-02, -3.89023386e-02, -6.72014356e-02,
       -3.31976712e-02, 1.14370687e-02, -4.64138947e-02, -5.97730130e-02,
       -6.67561442e-02, -1.10015655e-02, -2.25797053e-02,
       -4.78170160e-03, -3.64368893e-02, -4.52179491e-04, 1.62031353e-02,
       1.52673591e-02, 5.90059832e-02, -5.74417748e-02, 7.72439502e-03,
       -4.23216447e-03, 1.80395823e-02, 2.83877291e-02, 5.38303796e-03,
       2.12457720e-02, 1.74940377e-02, -5.82586334e-04, -5.61490618e-02,
       1.34494761e-03, -2.28310265e-02, 3.94045981e-03, -1.86136905e-02,
       6.75644493e-03, 1.09276690e-01, -2.64645722e-02, 2.80259736e-02,
       -6.08485825e-02, -1.87212543e-03, -5.10306284e-03, 3.47671174e-02,
       3.51342931e-02, -7.32759247e-03, 4.36728783e-02, -8.25539790e-03,
       9.05834883e-03, -1.94010360e-03, 3.00933141e-02, -1.12971459e-02,
       1.23850908e-02, 2.06715949e-02, -9.64255445e-03, 1.34072183e-02,
       -5.17193228e-03, -3.16235702e-04, -6.17742538e-02, 1.00158900e-02,
       -2.88097486e-02, 2.09866352e-02, 3.48985381e-02, 2.34267879e-02,
       4.78419149e-03, 1.10789598e-03, 1.15718292e-02, -1.71855558e-02,
       -1.04374085e-02, 2.22433973e-02, 8.64888635e-03, 6.31159218e-03,
       -2.23767161e-02, 2.93211956e-02, -6.61351485e-03, 6.55509706e-04,
       -6.46451442e-03, 1.61276143e-02, -2.91582812e-02, 5.77657856e-03,
       4.32363153e-02, 1.02669969e-02, 3.92746516e-02, -1.09792221e-02,
       -1.01266494e-02, -1.56614725e-02, 1.90344863e-02, 1.38351659e-03,
       6.67662779e-03, -2.83042789e-02, -3.03267501e-02, -4.71584089e-02,
       -1.58344209e-02, -2.20352653e-02, -9.19878576e-03,
       -1.29561340e-02, 8.28842260e-03, 4.96253073e-02, 2.84370799e-02,
       2.78694276e-02, 2.96470430e-02, -1.28597105e-02, -1.90148093e-02,
       -1.43192373e-02, 7.05086486e-03, 1.14744119e-02, -6.87607052e-03,
       -3.27780796e-03, -7.40800379e-03, -5.36146313e-02,
       -2.90853176e-02, -2.37246826e-02, -1.47263156e-02,
       -9.53836646e-03, -2.44156811e-02, 4.63544093e-02, 3.61494198e-02,
       1.77509487e-02, -2.97039049e-04, -1.08776544e-03, 8.02513957e-03,
       7.84134679e-03, 1.70757268e-02, 3.34328189e-02, 2.01783003e-03,
       -7.09917918e-02, -3.39525826e-02, -2.01178882e-02, 2.33088154e-02,
       -2.19339747e-02, 2.03088493e-04, -1.92526188e-02, -2.48459335e-02,
       3.55269238e-02, -6.58646366e-03, 1.22038359e-02, -1.52203522e-03,
       1.52588524e-02, 3.69234500e-03, 4.13594022e-02, 1.10628428e-02,
       2.97136661e-02, -3.11953239e-02, -2.81803906e-02, 4.14256603e-02,
       5.23200899e-04, 2.71402560e-02, -2.27015205e-02, -1.66348685e-02,
       -4.59400192e-02, -4.34409864e-02, 1.62133668e-02, 2.97782570e-02,
       4.07240950e-02, 7.32034221e-02, 3.19707133e-02, 2.70499196e-02,
       4.46129963e-02, 2.01626346e-02, 3.60377738e-03, 8.73120129e-03,
       8.50198139e-03, 3.89020219e-02, -1.79304946e-02, 1.93050224e-02,
       -1.29695330e-02, 2.30228119e-02, -1.77950691e-02, 1.01665808e-02,
       -2.25278959e-02, 5.44775976e-03, 3.09519116e-02, -4.08617072e-02,
       -5.44204842e-03, -2.04492528e-02, -9.67888441e-03,
       -2.92266812e-02, -3.25496611e-03, -3.29417810e-02, 4.49260138e-02,
       7.59441257e-02, -1.89375728e-02, -1.51482373e-02, 2.83905733e-02,
       2.44735237e-02, -1.76285822e-02, -3.63149308e-02, -4.77001667e-02,
       -2.37140171e-02, 1.89559553e-02, -3.56512964e-02, -2.28647571e-02,
       -1.26522323e-02, 6.24687597e-03, -2.36956645e-02, -1.14699146e-02,
       1.04645249e-02, 5.04527986e-02, 6.46069720e-02, 2.03154869e-02,
       -1.33770565e-03, 2.32710857e-02, 1.47103723e-02, -2.44224854e-02,
       -5.65765984e-03, -4.75265980e-02, -1.50764119e-02, 1.57428812e-02,
       -2.90919691e-02, -1.76518559e-02, -9.25132073e-03,
       -3.23688388e-02, -4.41165082e-02, -1.59282200e-02,
       -3.50701101e-02, 3.49425636e-02, 7.19972700e-02, -3.26084904e-02,
       -3.65928672e-02, -2.72161085e-02, -7.44811771e-03,
       -1.91713460e-02, -1.07279792e-02, -8.04878101e-02,
       -3.70167755e-02, -7.02824071e-03, -3.17187160e-02,
       -5.66648804e-02, -2.24778112e-02, -3.21266502e-02,
       -1.68997329e-02, -1.30993687e-02, 9.38911049e-04, 4.92928810e-02,
       5.76886535e-02, 3.84635627e-02, 2.34056171e-02, 6.25440571e-03,
       -9.44803655e-03, -1.96860004e-02, 1.08053666e-02, -3.72460447e-02,
       -4.39338796e-02, 6.57323841e-03, -1.05029566e-03, 1.95394401e-02,
       2.42444258e-02, -3.41444626e-03, -1.18356599e-02, -2.49098316e-02,
       -3.60386726e-03, 1.90007575e-02, 5.07309288e-02, 1.55455898e-02,
       1.73711265e-03, -3.71720865e-02, -6.61553349e-03, -4.73112380e-03,
       2.45198831e-02, -7.01799197e-03, 4.86729294e-03, -1.06192492e-02,
       2.32596975e-03, 1.56784914e-02, 2.37837201e-03, -1.95798874e-02,
       6.37747208e-03, 2.07623970e-02, 1.78845804e-02, 1.76109206e-02,
       4.68350686e-02, 2.63553243e-02, 4.02740948e-02, 5.56620844e-02,
       1.32785188e-02, 1.46657228e-02, 2.87312064e-02, -9.15395468e-03,
       -2.88904924e-02, 2.80830980e-04, 1.41015816e-02, 2.76934132e-02,
       -3.49066046e-04, -3.86848524e-02, -1.50869861e-02,
       -1.97811145e-02, 1.19062681e-02, 4.79854830e-02, 5.06962314e-02,
       1.78149045e-02, 1.41632073e-02, 1.88501626e-02, -1.52221490e-02,
       -1.25088664e-02, 2.67464593e-02, -4.68188245e-03, -3.63550964e-03,
       -1.52916973e-02, 1.02088023e-02, 1.20689385e-02, -7.27944728e-03,
       -3.06926947e-02, -5.44011146e-02, 6.04009489e-04, 4.48622927e-02,
       2.67875707e-03, 1.53623382e-02, 3.82107534e-02, -9.60834045e-03,
       1.42598560e-03, -2.07273476e-02, -1.61015391e-02, -8.92967917e-04,
       1.98581517e-02, -1.48120625e-02, -9.49903671e-03, -5.56703890e-03,
       -8.42630211e-03, -1.01159243e-02, -1.07249934e-02,
       -2.26488127e-03, -3.49221900e-02, 6.82575181e-02, 6.32766783e-02,
       1.44228395e-02, 4.78453226e-02, -2.95978542e-02, -1.62251350e-02,
       -4.20427732e-02, -3.62487249e-02, 2.80114636e-02, 1.66008587e-03,
       4.14740369e-02, -1.43274628e-02, 1.19146276e-02, 4.51286184e-03,
       -9.55874100e-03, -1.83557849e-02, -1.22227380e-02,
       -5.48417447e-03, 3.04798987e-02, -2.07958072e-02, 3.11004184e-03,
       2.05231141e-02, 2.92757782e-03, -5.26481355e-03, -3.18427896e-03,
       3.91217298e-04, -1.65040344e-02, -1.26851825e-02, 3.68359592e-03,
       1.26394210e-02, 6.10584393e-02, -2.59495527e-02, 1.33545194e-02,
       -4.04898934e-02, -2.45510526e-02, 4.54193540e-03, 2.72782855e-02,
       3.35845165e-02, 4.75755408e-02, 2.35952027e-02, 2.23959005e-03,
       -1.94631387e-02, -5.67842508e-03, 5.30097110e-04, -6.36014622e-03,
       -6.67054392e-03, 1.14733288e-02, 2.44095027e-02, 3.19923982e-02,
       -2.07386911e-02, -3.02793179e-03, 1.62773847e-03, 1.06920600e-02,
       6.98160240e-03, -1.05165150e-02, -3.86637338e-02, 1.79489311e-02,
       1.63127128e-02, 2.43428927e-02, 1.15185231e-02, -1.20596867e-02,
       -1.17455451e-02, 1.29882470e-02, 2.48030070e-02, -1.13012083e-02,
       1.12701347e-02, 1.94878206e-02, 6.42955885e-04, 1.82549178e-03,
       2.89366260e-04, 2.36441828e-02, 3.25050130e-02, -4.67129471e-03,
       -5.92063479e-02, -2.08595619e-02, 2.84126680e-03, 8.46988242e-03,
       -9.30264499e-03, 1.74267776e-02, 7.81502947e-03, 1.19703291e-02,
       -1.02565298e-02, -2.92303157e-03, 1.57613698e-02, 1.52047910e-02,
       -5.82153560e-04, -4.13985085e-03, -1.43745709e-02,
       -6.72071334e-03, -4.15913790e-04, -2.58882437e-03,
       -8.69651046e-03, -1.64278317e-02, -8.66237283e-03, 1.42200794e-02,
       -1.15279453e-02, -1.76973082e-02, -6.78802468e-03,
       -3.79691785e-03, 1.07167345e-02, 3.40561522e-03, 1.11770937e-02,
       -1.36430142e-02, -2.36182683e-03, -1.98524054e-02,
       -7.11943023e-03, 3.22392047e-03, 6.85333181e-03, -1.25468206e-02,
       -2.58554029e-03, 4.69019357e-03, -7.02656293e-03, -2.09684460e-03,
       7.71633023e-03, -1.52326794e-02, -5.18931914e-03, -1.32435672e-02,
       -3.15199569e-02, -2.86999252e-03, -6.04646653e-03,
       -1.32069290e-02, 6.73520984e-03, 1.06403856e-02, -1.17915953e-02,
       -7.03550223e-03, -8.64045974e-03, 1.27410507e-02, -1.82230258e-03,
       1.69761740e-02, 9.08474438e-03, 1.57248285e-02, 6.92770397e-03,
       3.06985690e-03, -3.23437550e-03, 8.80773738e-03, 3.53699848e-02,
       -5.67025552e-03, -8.38728622e-03, -4.34153713e-03, 1.45026101e-02,
       6.63679745e-03, 3.78702139e-03, -4.11422504e-03, 1.94350947e-02,
       -3.48647055e-03, 3.01726442e-03, 5.59631642e-03, 1.19668813e-02,
       2.87073031e-02, 6.04230352e-03, 5.81207825e-03, -1.20914839e-02,
       1.32743781e-03, 1.64131133e-03, -1.92544016e-03, -4.50612511e-03,
       2.34513041e-02, -3.38031957e-03, 2.40257732e-03, -2.83275638e-02,
       -3.38778310e-02, 9.47937835e-03, 2.22484488e-03, 4.61575296e-03,
       -1.43040186e-02, -1.36906337e-02, -2.56988425e-02, 3.07331048e-02,
       1.55438692e-03, -2.28285007e-02, -4.89132153e-03, 9.71031748e-03,
       1.74679812e-02, 1.16584105e-02, -1.64956506e-02, 1.73235331e-02,
       -8.91162921e-03, 1.46692265e-02, -1.40528474e-02, 1.80287771e-02,
       -1.24096256e-02, 6.36407826e-03, 1.53102409e-02, 1.10601075e-02,
       -2.21260637e-02, 4.62315604e-02, 1.22178141e-02, 8.52004276e-04,
       -1.00785829e-02, -1.16935708e-02, -1.26958340e-02,
       -1.09485770e-02, -4.77783498e-04, -1.26855606e-02, 9.46235028e-04,
       -3.18363833e-04, 2.37215660e-04, -1.05498424e-02, -3.58931981e-02,
       -1.26747703e-02, 1.79402567e-02, -4.17009592e-02, -1.19452141e-02,
       -1.03244381e-02, 1.87975448e-03, -2.52244771e-02, -2.30666939e-02,
       -1.86301842e-02, -1.02093490e-02, 3.33450511e-02, 1.10779889e-02,
       -1.44625898e-04, -2.84747803e-04, 6.61087707e-02, -4.84057709e-05,
       -1.75479986e-02, -6.86959317e-03, -3.46685527e-04, 1.69459451e-02,
       1.94324600e-03, -6.98521733e-03, 1.75308213e-02, 2.24930383e-02,
       1.27380155e-02, -1.16585440e-03, -3.44599076e-02, -6.52517145e-03,
       1.34697687e-02, -1.73413400e-02, -2.33481172e-02, -2.89582778e-02,
       -8.58020387e-04, -1.81274153e-02, -2.79283915e-02, 6.82780379e-03,
       -1.92237888e-02, 1.81782562e-02, -2.32905187e-02, 1.07568679e-02,
       -2.97446299e-04, 7.79161230e-02, 3.94226797e-03, 7.46686105e-03,
       3.11751328e-02, -1.60184577e-02, 4.67842668e-02, -3.51554132e-03,
       -2.92468490e-03, -4.46420647e-02, 2.63211578e-02, 1.24452896e-02,
       9.78239346e-03, -2.03670692e-02, -4.40299436e-02, -9.58309788e-03,
       -2.02899408e-02, -5.71771972e-02, -2.58541182e-02, 2.65445523e-02,
       2.14017760e-02, -4.08838019e-02, -3.87788452e-02, -4.19665053e-02,
       2.56607886e-02, 3.36940074e-03, -3.50846760e-02, -7.65630454e-02,
       -2.86497583e-04, -7.23836012e-03, -5.40270954e-02, 1.51206171e-02,
       -5.67329638e-02, 1.83822699e-02, -3.27508114e-02, -6.28863787e-03,
       8.18542019e-03, -1.31677184e-02, 2.77267536e-03, 3.12367529e-02,
       8.40568542e-03, -5.96155897e-02, -3.68397720e-02, 3.06443684e-02,
       2.23776679e-02, -3.26417461e-02, -3.99185754e-02, 6.25148835e-03,
       2.81589981e-02, -8.83290172e-03, -4.82695587e-02, 8.21976736e-02,
       3.64349596e-02, -1.30411694e-02, -7.59453978e-03, -1.51051218e-02,
       -6.18318934e-03, -1.15556186e-02, -3.87022905e-02,
       -7.66033232e-02, 3.94851416e-02, 3.81428227e-02, -6.99960021e-03,
       -2.07547452e-02, -4.43598628e-02, -2.05427390e-02,
       -4.26604226e-02, 2.04400159e-02, -3.34247462e-02, -1.34073542e-02,
       4.84943204e-02, 2.57519982e-03, 2.64337007e-02, -1.67964492e-02,
       1.52306736e-03, 2.26021372e-02, -1.07961940e-02, -2.27337759e-02,
       8.50335404e-04, 1.72543675e-02, 3.74102294e-02, -4.94490517e-03,
       -4.64530569e-03, 7.76396925e-03, -1.14181628e-02, 6.43549068e-03,
       -3.78684849e-02, 3.40850204e-02, 5.22503182e-02, 2.64397394e-02,
       2.38738451e-02, -2.62412778e-03, 3.28766145e-02, 3.48326867e-03,
       -1.48263741e-02, -2.05596536e-02, 1.50296642e-02, 6.71300367e-02,
       4.94909333e-03, 2.87142284e-02, -8.92076362e-03, 3.42650972e-02,
       -7.76755204e-03, -2.22988781e-02, -3.87984328e-02,
       -2.99137346e-02, -5.14880270e-02, -1.13952775e-02,
       -3.16653997e-02, -1.90811232e-02, 3.76895349e-03, -7.74402590e-03,
       -8.77608079e-03, 1.49434526e-02, 4.16139141e-04, -6.53976749e-04,
       -1.37387281e-02, -2.52407324e-02, -5.59728593e-04, 3.26564647e-02,
       -3.60706495e-03, 5.03655896e-02, 1.30504621e-02, 7.76658021e-03,
       6.79961219e-03, -4.02008789e-03, -1.45879155e-02, -3.78369428e-02,
       3.24267684e-03, 6.24292381e-02, 3.72381099e-02, 6.65902570e-02,
       -1.41158244e-02, 4.89966981e-02, 2.21599378e-02, 1.85884070e-02,
       4.90108086e-03, 3.49221006e-02, 6.19740188e-02, 1.36830965e-02,
       -3.89058073e-03, -2.41232067e-02, -3.58850323e-02, 2.29102578e-02,
       -1.41150830e-02, -3.46284942e-03, -1.99662019e-02,
       -1.51951807e-02, 1.12204570e-02, 5.17624915e-02, 1.25822406e-02,
       -2.17760336e-02, -7.77771324e-03, -1.89048965e-02, 3.75290075e-03,
       1.08538745e-02, -1.12701580e-02, -3.51393633e-02, 2.65771318e-02,
       -1.67162549e-02, -2.38305423e-03, 1.26203494e-02, -1.36501936e-03,
       -1.48433493e-02, -2.50790827e-02, -2.35931855e-02,
       -1.27262261e-03, 5.61205037e-02, 1.55044310e-02, 2.81693935e-02,
       -9.13539808e-03, 1.18024461e-03, 6.63749361e-03, 4.71096635e-02,
       1.68258622e-02, 2.43059136e-02, -1.19595075e-04, 1.33079430e-02,
       -2.76298020e-02, 6.39471691e-03, -1.70757379e-02, -7.29761785e-04,
       4.39695490e-04, 2.10098885e-02, 1.63343213e-02, 3.18704545e-02,
       3.60387675e-02, -8.57240986e-03, -4.57317475e-03, -1.96927134e-02,
       -1.43346388e-03, 2.16717348e-02, 1.88216306e-02, 6.15005381e-03,
       1.91640004e-03, 1.04497012e-03, -2.01161094e-02, -4.69602738e-03,
       -1.12945028e-02, -1.27735417e-02, -2.72053480e-02, 3.66714463e-04,
       -7.86466931e-04, -4.15645586e-03, -1.14765801e-02,
       -1.52474781e-02, 6.97240001e-03, -1.30913490e-02, -1.80659182e-02,
       -4.06217529e-03, -2.77955122e-02, 1.80368368e-02, 4.51688692e-02,
       4.18013260e-02, -2.16746666e-02, -2.40340992e-03, 1.90877430e-02,
       2.92101149e-02, 5.79786196e-04, 4.06599529e-02, -1.69953089e-02,
       1.29403286e-02, 3.62455696e-02, -3.43477838e-02, -9.57463123e-03,
       -9.32998676e-03, 1.98144298e-02, -3.18627171e-02, 3.69031392e-02,
       2.65453402e-02, 4.36074436e-02, -2.70393752e-02, -5.08363619e-02,
       3.91666545e-04, -1.43256467e-02, -2.02953406e-02, 2.83021224e-03,
       -2.34970427e-03, -1.87215805e-02, -2.06649993e-02,
       -3.10858823e-02, -5.86253107e-02, 5.31429704e-03, -3.69735211e-02,
       -3.15324031e-02, -1.25457318e-02, -2.01423522e-02,
       -2.60590911e-02, 3.26955318e-02, 5.96061125e-02, -2.57530473e-02,
       -2.52966415e-02, -1.18872663e-02, 2.59455238e-02, -3.88210104e-03,
       1.15097547e-02, -4.62889671e-02, 2.31610844e-03, 5.63695095e-02,
       -3.11938748e-02, 2.79507064e-03, -1.62085202e-02, -1.12124775e-02,
       -3.34336013e-02, -2.33610929e-03, 3.56293246e-02, 9.54210199e-03,
       3.40951048e-02, -5.72894923e-02, 1.60280860e-03, -2.10419502e-02,
       -2.41220985e-02, -3.32644209e-03, 4.02459539e-02, -2.51030400e-02,
       -6.57350710e-03, 9.40772332e-03, -4.39597145e-02, 3.68234515e-03,
       9.42756713e-04, -2.44244505e-02, -2.85930317e-02, -9.16032866e-03,
       1.17946193e-02, 5.03772460e-02, 9.99658406e-02, 1.72008332e-02,
       1.91474073e-02, -1.58098936e-02, -3.00964550e-03, -2.43286565e-02,
       2.28534285e-02, -6.96200784e-03, 2.71148179e-02, 5.46349324e-02,
       1.04778381e-02, -1.53983198e-02, -3.31752002e-02, -1.59173906e-02,
       -3.30634564e-02, 4.67981724e-03, -6.66557066e-03, 1.49886468e-02,
       4.09291573e-02, -4.40932550e-02, 3.14013511e-02, 5.14084427e-03,
       -1.29582426e-02, -1.05437199e-02, 1.96164399e-02, -9.52603761e-03,
       3.94441141e-03, 6.36625430e-03, -9.97196976e-03, 6.88448921e-03,
       -8.21137987e-03, -2.40879543e-02, -1.98361166e-02, 1.56064355e-03,
       1.96336806e-02, 4.11944874e-02, 2.38399953e-02, 8.33779573e-03,
       -1.29330941e-02, -1.97809059e-02, 8.32425896e-03, -6.30869949e-03,
       2.05013119e-02, -3.09628472e-02, 8.64474289e-03, 2.16822680e-02,
       3.78583791e-03, 1.73030049e-02, -1.90231502e-02, -1.75597966e-02,
       -2.49290057e-02, -1.85110811e-02, 2.09905803e-02, 4.38475274e-02,
       4.26124111e-02, 4.15848196e-03, -2.94530615e-02, -2.60070376e-02,
       -2.04783194e-02, 1.53749008e-02, 1.88533999e-02, -5.50548732e-02,
       6.02693809e-03, -1.14645418e-02, -5.66615816e-03, -1.51810085e-03,
       -2.82921549e-02, -2.17695665e-02, 2.79805460e-03, -1.28049934e-02,
       1.61237679e-02, -7.49813486e-03, -6.72829850e-03, 8.17613117e-03,
       2.14858865e-05, -8.75595026e-03, -1.65556893e-02, -2.07712990e-03,
       -5.25823794e-03, -3.26036029e-02, -1.65545456e-02,
       -3.12265903e-02, -2.07438339e-02, -1.60821490e-02,
       -2.62064636e-02, -1.10131521e-02, -2.08059847e-02,
       -4.81864698e-02, 1.52071491e-02, 3.99140865e-02, 3.45826969e-02,
       1.70052890e-02, -1.61592700e-02, -3.75733376e-02, -3.50664780e-02,
       3.89849627e-03, 3.46375741e-02, -8.38770159e-03, 2.83352993e-02,
       5.26392600e-03, 3.43602672e-02, -8.98184814e-03, -1.76124889e-02,
       -1.88904013e-02, 1.97157860e-02, 1.31597025e-02, -1.13299210e-02,
       1.52290948e-02, 2.90223081e-02, 1.42974081e-02, 1.17777474e-02,
       8.13264959e-03, 6.54436182e-03, 4.34344169e-03, -2.32195966e-02,
       -2.72433329e-02, -1.04121687e-02, 2.76865419e-02, 4.94441343e-03,
       -1.98394284e-02, -1.60553418e-02, 2.93242931e-03, 1.12288585e-02,
       -1.38025370e-03, -2.60483418e-02, 3.32513601e-02, 1.19235804e-02,
       1.31801255e-02, -1.80009939e-02, -2.60955328e-03, -2.20942851e-02,
       -5.63556701e-03, -2.42725927e-02, -1.70391556e-02, 4.93973233e-02,
       2.31115278e-02, 3.57559808e-02, 1.51097989e-02, -1.17005408e-02,
       -3.90433241e-03, 2.03289371e-02, 2.00765207e-02, -7.83305324e-04,
       -3.70891728e-02, 1.32153428e-03, -2.27936916e-02, -2.86233667e-02,
       -1.62045204e-03, 2.35609096e-02, 8.62124283e-03, 1.45980380e-02,
       -2.72733085e-02, 5.29668760e-03, 2.79088952e-02, -6.56771380e-03,
       -2.08469052e-02, -6.86926674e-03, 3.11684189e-03, -5.28123975e-03,
       -1.05157134e-03, -1.33228358e-02, 1.42903393e-02, 4.62444834e-02,
       1.38243400e-02, 1.33440113e-02, 9.15202487e-04, 5.45263570e-03,
       -1.29355285e-02, 2.71376339e-03, -1.64504554e-02, 2.39927787e-02,
       3.01017053e-02, 7.68599240e-03, -2.82396469e-02, 1.75806023e-02,
       2.16147769e-02, -1.95548609e-02, 2.97245313e-03, 9.92490537e-03,
       2.09433828e-02, 8.80060438e-03, -7.06545834e-04, -1.14206579e-02,
       -4.34347632e-04, 1.10048649e-03, -1.06387176e-02, 2.02794001e-03,
       1.01235486e-03, 7.19818892e-03, 1.61731686e-03, 3.40464292e-03,
       6.71175821e-03, -5.55532658e-03, -1.94236971e-02, -1.62637664e-03,
       -1.52586838e-02, 1.91740822e-02, 1.65104028e-03, 9.80296265e-03,
       -5.42388950e-03, -2.64061000e-02, 1.98626276e-02, 1.53632965e-02,
       -2.33242773e-02, 6.91756606e-03, 1.95688736e-02, -1.21213999e-02,
       5.58706466e-04, 2.06510406e-02, -5.13964053e-03, 1.77008063e-02,
       6.82751089e-03, 9.56949778e-03, 2.54585650e-02, -4.12624422e-03,
       -9.32233466e-04, -6.19976502e-03, -1.23556443e-02, 1.24312853e-02,
       -4.38476028e-03, -7.18494505e-03, -1.75228510e-02,
       -9.15002637e-03, -1.07764015e-02, -1.01674558e-03, 1.21749453e-02,
       2.98324917e-02, 8.21590517e-03, 2.43871994e-02, 8.98665655e-03,
       1.54144298e-02, 2.88839126e-03, 2.70948373e-02, 1.46819605e-02,
       -1.08349537e-02, 8.75571277e-03, -3.16759460e-02, -3.68124172e-02,
       -1.44139668e-02, -8.35084356e-03, -2.01018732e-02,
       -3.42767360e-03, -3.82656837e-03, -1.78640382e-03,
       -5.02079260e-03, -2.10323706e-02, -1.09168971e-02, 2.20359527e-02,
       2.99186613e-02, -2.89006368e-03, -2.15731747e-02, -8.12724978e-03,
       1.12860613e-02, 7.35332305e-03, -8.60353746e-03, 2.24966314e-02,
       1.11698750e-02, -2.13777623e-03, -2.52885148e-02, 1.79278795e-02,
       9.70433652e-03, 1.31110745e-02, 3.19222308e-05, 2.57520843e-02,
       1.80890430e-02, 2.53298637e-02, 1.67917982e-02, 7.23694311e-03,
       -7.57983234e-03, -9.45934746e-03, 3.52397771e-03, -1.01602962e-02,
       -1.95914600e-02, -1.03870407e-02, -6.97368849e-03,
       -7.60894036e-04, 2.92703163e-07, -1.03365285e-02, 1.44168281e-03,
       -1.60027221e-02, -4.64729592e-03, -8.00990500e-03,
       -1.95263885e-03, -1.49469981e-02, 1.19525082e-02, -3.02899145e-02,
       3.61376181e-02, 2.20031999e-02, 1.27266729e-02, -1.15809254e-02,
       -1.86789073e-02, -4.35603410e-03, 3.43518034e-02, -1.95364617e-02,
       6.59901416e-03, 3.34513970e-02, 2.20612914e-04, -9.11421888e-03,
       -1.61227454e-02, 2.64736991e-02, 1.72161106e-02, 4.39234897e-02,
       8.19154270e-03, 6.20470289e-03, 1.02238851e-02, 2.89216824e-02,
       2.38651712e-03, -1.62533354e-02, -1.43662812e-02, -6.22366089e-03,
       -2.60027032e-03, -7.97796901e-03, -9.60669387e-03,
       -9.63150058e-03, 2.01053005e-02, -3.12814750e-02, -6.84578205e-04,
       -2.06077471e-02, -8.50641262e-03, 3.07786576e-02, 4.52618413e-02,
       4.74760681e-03, 1.01964334e-02, -9.66686755e-03, 2.99396832e-02,
       1.14521207e-02, 7.91755039e-03, -2.75670569e-02, 1.32473959e-02,
       2.21350025e-02, -1.84079465e-02, 2.55603548e-02, 8.55961721e-03,
       5.00166789e-02, -4.33778483e-03, 1.70974918e-02, -1.73040871e-02,
       3.65885161e-02, 2.83744708e-02, 1.44713826e-03, 9.91713163e-03,
       2.72577722e-02, 5.56818722e-03, 2.11099349e-02, 2.80406177e-02,
       -1.03189666e-02, 7.31184753e-03, 4.37501706e-02, 3.68016772e-02,
       1.60502736e-02, 1.89801455e-02, -3.25697218e-03, -3.55037451e-02,
       -2.23035980e-02, -6.78409869e-03, -5.38201211e-03, 4.71118093e-02,
       4.65504676e-02, 3.18159610e-02, -1.00402618e-02, 1.02135710e-01,
       -4.20660945e-03, 9.87776322e-04, 4.69600642e-03, -3.98746971e-03,
       2.32986896e-03, 7.98047148e-03, 5.46260811e-02, -1.78647488e-02,
       7.19245598e-02, -1.17294891e-02, -3.61317093e-03, 1.40106045e-02,
       1.46504701e-03, -5.88191347e-03, 3.30615081e-02, 4.31699716e-02,
       3.15083787e-02, 1.54715125e-02, -2.99494956e-02, -4.91280342e-03,
       2.18675956e-02, 5.41340467e-03, 2.74157003e-02, 5.46309911e-02,
       -1.30368257e-02, 1.59938280e-02, 7.45314697e-04, -1.60041489e-02,
       2.06832010e-02, 2.71611456e-02, 1.68896951e-02, 9.33339447e-03,
       1.27602192e-02, 5.69784567e-02, -5.31012565e-03, 3.18586938e-02,
       -4.05851044e-02, -3.98206636e-02, -3.68957371e-02,
       -1.73716937e-04, -3.06402799e-02, 4.71350783e-03, 2.58448943e-02,
       6.40130276e-03, -6.73302915e-04, 3.72109818e-03, -1.04534673e-02,
       -1.10889524e-02, -1.74203496e-02, 3.02532921e-04, 1.76559966e-02,
       4.31208871e-02, 3.17705870e-02, 2.02744007e-02, -1.23327868e-02,
       7.80571345e-03, 8.81842338e-03, 1.19116325e-02, 1.17877815e-02,
       3.63780484e-02, 9.75626521e-03, 1.55644743e-02, 5.84583590e-03,
       9.25877504e-03, -9.44104977e-03, 2.58633383e-02, 3.13628688e-02,
       2.56188121e-02, 1.26859527e-02, 2.87650209e-02, 2.17091180e-02,
       -1.56335421e-02, -3.19029205e-04, 2.43316162e-02, -1.33238332e-02,
       -1.08525986e-02, -2.26260144e-02, 2.22972445e-02, 8.88373610e-03,
       1.31868068e-02, -1.07982699e-02, 6.30236056e-04, 1.14830332e-02,
       1.35295764e-02, -1.19929090e-02, -1.82198943e-03, 1.98744424e-02,
       -3.91394692e-03, 2.50518806e-02, -1.18888011e-02, 4.67275828e-03,
       9.49115492e-03, 4.94446745e-03, 7.08672404e-03, -6.96685817e-03,
       -1.16136549e-02, -7.27618521e-04, 1.14220846e-02, -2.49772687e-02,
       1.37936976e-02, 2.12500300e-02, 4.17138450e-02, 1.80302616e-02,
       5.04048122e-03, 1.57715904e-03, -1.89089926e-03, 3.08307586e-03,
       3.09164566e-03, -1.02125958e-03, 2.01328285e-02, 9.22086742e-03,
       1.52036664e-03, 7.97653198e-03, 1.12244757e-02, -1.96411802e-05,
       1.73850302e-02, -1.53389024e-02, 1.56584755e-02, 1.21526951e-02,
       4.19525011e-03, 2.91074757e-02, 4.82328758e-02, 2.22768616e-02,
       4.81072860e-03, -1.28767770e-02, -4.30698395e-02, 1.33336731e-03,
       3.10112331e-02, 1.57454535e-02, -1.00618284e-02, -4.56006406e-03,
       9.07017849e-03, -9.08701308e-03, -2.42887456e-02, -5.67398705e-02,
       1.22282989e-02, -1.58081334e-02, 2.58828234e-02, 5.48421172e-03,
       3.16866697e-03, 9.03293397e-03, 2.18346007e-02, 2.13159434e-02,
       -1.47833908e-02, 2.51396410e-02, 1.25224879e-02, 5.40332356e-03,
       1.26353046e-02, 9.48687084e-03, 2.55799145e-02, -1.13448380e-02,
       3.24849002e-02, -1.05568068e-02, 1.94790065e-02, 1.54643487e-02,
       5.53144026e-04, -7.12868525e-03, 6.53847726e-03, -4.50402405e-03,
       4.36640298e-03, -1.70749072e-02, -7.55325034e-02, 3.39506418e-02,
       2.66946871e-02, 1.69167910e-02, -3.30155320e-03, 2.22986676e-02,
       -4.53818403e-03, -7.07984110e-03, -1.86710749e-02,
       -3.96047533e-02, 2.38474812e-02, 1.47204529e-02, 7.96765031e-04,
       -2.62172762e-02, 7.27763539e-03, -1.16981715e-02, 3.30926217e-02,
       1.66323036e-02, -2.53829770e-02, 1.43962214e-03, 4.65381285e-03,
       5.42840734e-03, -2.26835348e-02, 2.63284054e-02, 3.68353948e-02,
       -1.28730419e-04, 1.15783084e-02, -3.89662781e-03, 5.69661055e-03,
       2.21282095e-02, -1.79327128e-03, -2.19240524e-02, 2.58048680e-02,
       1.29638212e-02, -8.23281147e-03, -3.48109528e-02, -3.94571759e-02,
       2.95175314e-02, 9.62418783e-03, 7.94704072e-03, -9.64503735e-03,
       3.21732345e-03, 7.72117171e-03, -1.09694973e-02, -3.03862765e-02,
       -3.16369906e-02, 3.61373983e-02, 2.67069582e-02, 2.96405163e-02,
       -1.94212571e-02, -4.23589209e-03, -2.55320617e-03, 8.42058752e-03,
       -6.13826932e-03, 6.17606845e-03, 4.98705450e-03, -1.34827876e-02,
       8.13658535e-03, -1.54780196e-02, -5.90664148e-03, 3.16332206e-02,
       7.05883978e-03, 9.03290696e-03, 2.78682541e-03, -6.79763313e-03,
       -1.45063605e-02, 4.18854272e-03, -2.51593459e-02, -5.97128551e-03,
       8.88271350e-03, 2.21135374e-03, -9.90023930e-03, -2.24668924e-02,
       3.36280763e-02, -1.67438481e-02, 3.17694843e-02, 1.28341885e-03,
       -4.46993951e-03, 2.44594254e-02, -1.57072246e-02, -9.49253608e-03,
       -1.89491231e-02, 1.78036671e-02, 1.77471135e-02, 5.22483774e-02,
       -9.71778762e-03, -1.32915340e-02, 1.36614377e-02, 1.98870879e-02,
       -1.12993382e-02, -2.82828566e-02, -3.31196152e-02, 1.59084443e-02,
       9.28852148e-03, -1.50511879e-02, 2.36298330e-02, 4.20825146e-02,
       -1.09626586e-03, -6.26432151e-03, -2.12764833e-02,
       -8.20612535e-03, -7.25927763e-03, 7.73989782e-03, 4.44348156e-03,
       2.86244266e-02, 6.58063265e-03, 1.89627782e-02, 2.21031830e-02,
       -4.24108794e-03, 2.06022486e-02, 1.98400505e-02, 2.59650908e-02,
       -1.18170364e-03, 9.03604028e-04, 1.27021689e-02, -2.70763543e-02,
       5.31265885e-03, 7.18843658e-03, 2.45646443e-02, 1.28560439e-02,
       1.55795664e-02, 1.49667608e-02, 7.78057473e-03, -1.89695545e-02,
       1.51211806e-02, -8.61033145e-03, -1.80666279e-02, -3.35359462e-02,
       -1.46340085e-02, -1.51862053e-03, -4.06326121e-03, 1.84435826e-02,
       1.68672223e-02, 1.04154274e-02, -2.97669843e-02, -4.23943549e-02,
       -3.44693437e-02, -1.31634332e-03, -8.97165854e-03,
       -1.37452092e-02, 1.51000703e-02, 4.57488224e-02, -8.11312441e-03,
       -1.76931284e-02, -1.35556981e-03, 8.84566549e-03, 2.54675206e-02,
       1.45617193e-02, 1.47794085e-02, -4.45420295e-03, 1.10488031e-02,
       -6.04250981e-03, -1.24542424e-02, -1.69933345e-02, 1.02390228e-02,
       1.56036820e-02, 2.52700113e-02, 3.52147559e-04, -1.05852028e-02,
       1.74286906e-02, -1.34148821e-02, -3.12024262e-02, -2.23536678e-02,
       -2.05034409e-02, -1.44067379e-02, -2.03438811e-02,
       -1.89869870e-02, -4.86497884e-04, 2.85903607e-02, -1.72467362e-02,
       5.01547754e-03, 1.48944941e-03, 4.94662952e-03, -2.79178051e-03,
       -3.43197249e-02, -2.43866220e-02, -5.32193156e-03,
       -2.28689634e-03, 1.15837622e-02, 2.32402375e-03, -1.37478607e-02,
       2.68255770e-02, 4.53958334e-03, 2.68759988e-02, 1.28844334e-03,
       -7.03544822e-03, 5.16428426e-03, -1.75761443e-03, -2.20948700e-02,
       -2.64790822e-02, -3.03407367e-02, 1.10730920e-02, 2.74753720e-02,
       5.73450886e-03, -6.52337447e-03, 2.91048847e-02, -1.17653012e-02,
       3.50375064e-02, 1.57383364e-02, -5.80300437e-03, 9.58466437e-03,
       1.73365157e-02, 5.52025717e-03, 1.28098177e-02, 2.26939283e-03,
       -2.69355495e-02, -5.13542164e-03, -8.87307804e-03,
       -4.08407822e-02, -1.57465898e-02, 3.95513198e-04, 2.43701786e-02,
       1.62265543e-02, -1.96441673e-02, 7.48287002e-03, -1.32511149e-03,
       -1.10838041e-02, -2.88272072e-02, 1.24944840e-04, 3.03331669e-02,
       1.08401999e-02, -1.11010307e-02, -2.17371993e-03, 4.90032230e-03,
       -2.07916759e-02, -1.21238083e-02, -3.00590545e-02, 5.82353771e-03,
       1.45194279e-02, 4.30403836e-03, -1.99059490e-02, -1.71586592e-02,
       -1.14451833e-02, -2.43603904e-03, 3.56630459e-02, -2.58022832e-04,
       2.89352005e-03, -4.86407103e-03, 2.47869641e-02, 5.02809510e-03,
       2.07983330e-03, -4.06883173e-02, -2.54250201e-03, 1.45212375e-02,
       -7.20030582e-03, -1.23926532e-02, 1.00215385e-03, -7.23529933e-03,
       -5.73765906e-03, -1.13782231e-02, 6.72124512e-03, -5.35945920e-03,
       -2.30419412e-02, 5.18640643e-03, 6.30749529e-03, 1.26989111e-02,
       2.46672407e-02, -6.58877369e-04, -2.06284760e-03, -1.48098841e-02,
       -1.45660434e-03, -2.43270937e-02, 3.98286618e-04, 3.30245239e-03,
       2.57072202e-03, -2.30993377e-03, 1.62398517e-02, 8.83260649e-03,
       -4.99798963e-03, -2.17064917e-02, -1.24459423e-03,
       -7.02709891e-04, 1.09247845e-02, -1.44016994e-02, 6.29010331e-03,
       2.02143863e-02, -9.90148168e-03, -1.60046294e-02, -1.50725013e-02,
       -2.85332114e-03, 2.65540322e-03, 2.76104128e-03, 1.54743055e-02,
       1.67970359e-02, 2.27742828e-02, -1.36546930e-02, -9.56238341e-03,
       1.14539498e-02, 6.97788456e-03, 2.94706672e-02, 3.73782753e-03,
       -3.00493613e-02, 1.09544117e-02, 3.44187431e-02, 2.18798202e-02,
       9.65262949e-03, 1.31364586e-02, -1.04807252e-02, 2.98266672e-02,
       -2.87398659e-02, 5.08649880e-03, 2.52588913e-02, 3.31799984e-02,
       6.18475676e-03, -1.18240762e+00 ]
