%YAML:1.0
oicha--80x240--: !!opencv-object-detector-hog
   winSize: [ 80, 240 ]
   blockSize: [ 16, 16 ]
   blockStride: [ 8, 8 ]
   cellSize: [ 8, 8 ]
   nbins: 9
   derivAperture: 1
   winSigma: 4.
   histogramNormType: 0
   L2HysThreshold: 2.0000000000000001e-01
   gammaCorrection: 1
   nlevels: 64
   signedGradient: 0
   SVMDetector: [ -1.57911319e-03, 4.68716444e-03, 9.76194337e-04,
       -7.47920945e-03, 1.70008955e-03, -3.74436029e-03, 2.33776937e-03,
       -4.08484120e-05, -4.17356798e-03, 4.25965851e-03, 7.42299296e-03,
       -3.66347167e-03, -3.11892945e-03, -1.62931741e-03, 2.38861004e-03,
       2.86823395e-03, 6.21060096e-03, 2.15832773e-03, -1.92213955e-03,
       2.18729628e-03, 6.96394767e-04, -1.20007768e-02, -1.28913642e-04,
       -5.45419194e-03, 1.91347010e-03, -1.62109034e-03, 5.33215527e-04,
       8.71651282e-04, -9.62110353e-04, -7.90855289e-03, -6.37643971e-03,
       -8.19792971e-03, -1.14369253e-03, 3.02260160e-03, 9.93118621e-04,
       1.93488016e-03, -3.70605453e-03, 1.73725467e-03, -4.39457130e-03,
       -1.53496373e-03, -1.90585328e-03, 2.72036903e-03, 4.25184984e-03,
       2.46219174e-03, 4.27201344e-03, -5.35375066e-03, 4.67216875e-03,
       1.43606798e-03, -6.41110493e-03, 2.31048185e-03, -3.12592695e-03,
       -4.43787128e-03, -2.24928535e-03, 1.82054922e-04, -7.24272709e-03,
       -2.01137504e-03, -5.36954729e-03, -4.52074828e-03, 5.33391023e-04,
       -2.96137121e-04, 2.72115413e-03, 1.08953472e-03, -6.03450055e-04,
       -4.04301565e-03, 6.93564909e-03, 2.58003199e-03, -6.19410910e-03,
       -5.45403501e-03, -3.85305006e-03, 2.71997036e-04, -1.57162827e-03,
       -6.47318596e-03, 1.41597143e-03, 6.21596072e-03, 1.27183250e-03,
       5.56044106e-04, 7.01406505e-03, -4.16957634e-03, -3.28653492e-03,
       1.77809945e-03, 1.29787228e-03, -4.70842700e-03, -9.47759778e-04,
       3.26610217e-03, 5.12567349e-03, 5.15953870e-03, -4.73304419e-03,
       -1.11012917e-03, 1.34391754e-04, -6.27234112e-03, 5.43515198e-03,
       4.54911729e-03, -2.16068025e-03, 1.17262010e-03, 5.06041246e-03,
       -9.29714006e-04, 2.51978124e-03, 2.73864390e-03, 3.81091889e-03,
       -2.91504024e-04, -9.43501189e-04, -9.42447048e-04, 3.34932609e-03,
       2.91558215e-03, -5.73233352e-04, -4.20290465e-03, -7.25338235e-03,
       -2.46865209e-03, 2.11210246e-03, -2.31353682e-03, 2.26561422e-03,
       -1.94103736e-03, 3.87603563e-04, -3.69394710e-03, 2.60961871e-03,
       -1.95333664e-03, -4.45307977e-03, 4.89374762e-03, 4.32997197e-03,
       -4.50818043e-04, -1.08385831e-03, -7.51799997e-03,
       -1.13423737e-02, 2.05496652e-03, 4.26213490e-03, 2.34539132e-03,
       3.23382858e-03, 2.06511561e-03, 1.76084542e-03, 1.61944318e-03,
       3.45512759e-03, -1.35894597e-03, -4.10486537e-04, -4.15061647e-03,
       -4.80844959e-04, 1.53335591e-03, 2.25742045e-03, -1.97521667e-03,
       -2.30414211e-03, 2.29713420e-04, -2.00845604e-03, 5.32788225e-03,
       8.57589487e-03, 5.29152155e-03, -4.35491512e-03, 4.38056421e-03,
       -2.57445703e-04, 4.89107741e-04, 4.51887818e-03, -3.74537148e-03,
       -2.94792885e-03, 5.70082525e-03, -4.01680963e-03, -7.63278501e-03,
       4.84915962e-03, 1.82953692e-04, 1.57794205e-03, 6.95329392e-03,
       7.03630550e-03, -6.72248425e-03, 3.34134419e-03, -2.99721071e-03,
       -9.84495200e-05, 6.91216299e-03, -3.59455985e-03, -4.50952537e-03,
       2.92917993e-03, 3.17414268e-03, -2.21477938e-03, 6.48358511e-03,
       -1.92394387e-03, 1.46449939e-03, 1.82807655e-03, -5.90989133e-04,
       -6.91854744e-04, 1.16473921e-02, 4.05692356e-03, -5.63517492e-03,
       -1.56090665e-03, 4.59470932e-04, -4.38289298e-03, -4.18500137e-03,
       -4.68854094e-03, -7.93988444e-03, -3.21228174e-03, 4.28800052e-03,
       -1.00017972e-02, -4.05376405e-03, -3.27816000e-03,
       -4.87905135e-03, -4.09850571e-03, -1.69188611e-03, 2.43266230e-04,
       2.96090194e-03, -6.89778477e-04, 2.29446334e-04, -1.65190746e-03,
       1.15579438e-04, -2.43634669e-04, -7.10733095e-03, -1.68233737e-03,
       -3.46662337e-03, 3.35916039e-03, -2.91833794e-03, -6.12889417e-03,
       -1.52611508e-04, -8.10005586e-04, -1.02198031e-03,
       -3.40601988e-03, -2.16736598e-03, -4.60443413e-03, 1.72981340e-03,
       2.57984526e-03, 2.25568446e-03, 7.74579309e-03, 2.50014802e-03,
       -1.50290041e-04, 5.46366326e-04, 2.29807431e-03, -1.40977709e-03,
       -1.63350938e-04, -4.71312087e-03, 5.57485782e-03, 3.05906334e-03,
       -3.94063303e-03, -3.81297548e-03, 5.84602472e-04, -6.08120393e-03,
       -2.59076641e-03, 2.02140375e-03, -1.86180498e-03, 8.74207879e-04,
       -3.19420174e-03, -1.60681142e-03, -4.29542502e-03,
       -3.06324544e-03, 1.64239062e-03, -6.87093846e-03, -5.63193532e-03,
       -6.32910477e-03, -1.88527396e-03, 2.51110294e-03, -5.01615368e-03,
       -6.69772597e-03, -8.92452605e-04, 1.72939990e-03, -8.30975920e-03,
       -2.21959548e-03, -4.98394435e-03, -2.88755866e-03,
       -6.94059592e-04, -5.26232179e-03, 2.78495462e-03, 2.63011875e-03,
       8.59358232e-04, 3.57387890e-03, 5.24491351e-03, 7.38943974e-03,
       4.22931137e-03, 2.76684947e-03, 5.98842045e-03, -5.47382236e-03,
       -3.91854672e-03, -7.42824143e-03, 5.14893932e-03, 7.78177381e-03,
       6.00423431e-03, -7.28621380e-04, 3.67611391e-03, -5.23407990e-03,
       2.45132460e-03, -1.59574102e-03, -3.95728974e-03, -7.07734004e-03,
       -4.21001343e-03, -2.37313705e-03, -4.04520286e-03, 4.87592450e-04,
       3.70135880e-03, 9.18421894e-03, -2.54379073e-03, -1.37494309e-02,
       -8.26313626e-03, 1.82253745e-04, -4.31849668e-03, -3.38835688e-03,
       5.02169505e-03, 1.36316950e-02, -1.42743345e-03, -3.62434075e-03,
       -5.28460974e-03, 4.24934411e-03, 3.60065070e-03, 6.78253267e-03,
       -2.02294672e-03, 3.49957752e-03, -1.84022903e-03, -1.09023286e-03,
       2.28309701e-03, 3.91263561e-03, -3.54024908e-03, -2.10335921e-03,
       8.48939829e-03, 3.95029597e-03, 2.35386053e-03, 6.85872696e-03,
       2.28498224e-03, -4.29805415e-03, -9.12403967e-03, -5.09787071e-03,
       -4.33839485e-03, 7.42184580e-04, -2.17321282e-03, 6.36745011e-03,
       3.86919174e-03, 3.59658338e-03, 3.91457928e-03, 3.73215973e-03,
       3.06913001e-03, 6.92335842e-03, 1.98969687e-03, -9.09546390e-04,
       -1.98124629e-03, 1.94799074e-03, 7.00256368e-03, 2.46585323e-03,
       8.72577727e-03, -1.31914159e-03, 1.13279012e-03, 6.06070459e-03,
       5.02797170e-03, 3.47640296e-03, 5.85169019e-03, -3.12533136e-03,
       3.28574708e-04, 2.30584084e-03, -4.50101495e-03, 3.65476194e-03,
       7.50303129e-03, 1.02342367e-02, 7.53804715e-03, -9.48149886e-04,
       -2.71939789e-04, -1.43598812e-03, 1.07929914e-03, -4.29572770e-03,
       -1.55301043e-03, -6.97089592e-03, 3.42312487e-05, -1.78873539e-03,
       -5.64948842e-03, 2.48926715e-03, -2.03503342e-03, -6.86550885e-03,
       -6.33180235e-03, -2.21189740e-03, -3.68781062e-03, 7.51919392e-03,
       1.01071168e-02, 1.88656966e-03, 1.77037182e-05, -1.40492478e-03,
       -5.02112741e-03, -9.70660243e-03, -1.38889858e-03, 8.94651283e-03,
       7.54408864e-03, 6.06621243e-03, 2.36119586e-03, 4.27978858e-03,
       -8.99140490e-04, 1.16168708e-03, -9.40093654e-04, 8.98636691e-03,
       1.09056020e-02, 5.00164693e-03, 3.83112603e-03, 8.44752882e-03,
       5.87065145e-03, -2.15830328e-03, -9.74376313e-03, -1.65650956e-02,
       -2.67615938e-03, -7.15665845e-03, 2.58245831e-03, -3.09139979e-03,
       -1.02883659e-03, -3.80973355e-03, 1.20379799e-03, -5.42635191e-03,
       -8.98901559e-03, 5.05220797e-03, -5.23421867e-03, -9.40030382e-04,
       -6.96181366e-03, -1.81771000e-03, -3.98033112e-03,
       -7.74039561e-03, -2.31801649e-03, -6.90930174e-04,
       -1.36254195e-04, 7.48715550e-03, 4.13784944e-03, 4.02597897e-03,
       4.74824989e-03, -6.99226698e-03, -7.01284967e-03, -6.22314494e-03,
       7.81371375e-04, -3.04656196e-03, 1.44962373e-03, -6.01587957e-03,
       6.45744614e-04, -4.08940017e-03, -3.04202060e-03, -4.84040799e-03,
       -8.19194410e-03, -4.91316663e-03, 1.69733842e-03, -2.10940512e-03,
       -8.95131670e-04, 2.50512478e-03, 8.28611106e-03, -1.42776081e-03,
       3.30087286e-03, 1.65973848e-03, -2.89976853e-03, 1.45416614e-03,
       -2.93319649e-03, -7.76169298e-04, 4.73696599e-03, 8.04063957e-03,
       -3.93302739e-03, -8.68188776e-03, -7.22356513e-03, 1.09459495e-03,
       7.42643746e-03, 5.29694371e-03, -7.79386470e-03, -2.42509414e-03,
       -1.08910464e-02, -1.37876859e-05, -6.50380366e-03, 3.10832565e-03,
       8.31358787e-03, 2.52910703e-03, 7.96269160e-03, -2.72928225e-03,
       -3.46731604e-03, -5.97688369e-03, 4.88418946e-03, 6.11481955e-04,
       1.06449693e-03, -2.63592182e-03, 6.04879903e-03, 4.24305117e-03,
       -1.18606526e-03, 1.84332230e-03, 1.02908313e-02, 1.14943017e-03,
       -1.54523441e-04, 9.43931576e-04, 5.39126201e-03, -8.74704868e-03,
       3.61907342e-03, 3.04443436e-03, 1.63766986e-03, 2.37484463e-03,
       -7.22627249e-03, -2.36494187e-03, 2.20841845e-03, 5.34950756e-03,
       -1.43060705e-03, 2.82612722e-03, -3.35182133e-03, -5.37470914e-03,
       -7.00655766e-03, 1.47299550e-04, 2.80679623e-03, 5.65869175e-03,
       9.76722781e-03, -2.80863745e-03, 6.95923949e-03, -5.50332945e-03,
       -6.95258705e-03, -4.00303863e-03, 1.65250781e-03, -4.22224496e-03,
       -6.27028337e-03, -3.13776592e-03, -1.54751679e-02,
       -3.77439172e-03, 1.57165003e-03, -6.14316668e-05, 1.06870709e-03,
       7.31511449e-04, -3.67180724e-03, -5.40771708e-03, -1.37852738e-03,
       -7.40237813e-03, -2.55848654e-03, -5.55003062e-04, 3.47030768e-03,
       8.96716840e-04, -1.25140231e-03, -1.53031768e-04, 6.08425471e-04,
       1.19148437e-02, 5.77977626e-04, -5.13542436e-05, -7.04549858e-03,
       2.33057275e-04, -3.08216549e-03, -9.29030497e-03, -5.99573877e-06,
       7.60466733e-04, 1.07193850e-02, 7.29238708e-03, 6.15134276e-03,
       -3.56883451e-04, 7.75220105e-04, -7.13814795e-03, 1.35663396e-03,
       -8.86932854e-03, -8.99968296e-03, 4.38790722e-03, -8.21403693e-03,
       -8.77833553e-03, -6.53114542e-03, 1.00755412e-03, 2.19951849e-03,
       -3.25780408e-03, -4.15271055e-03, -1.09729879e-02,
       -2.95015122e-03, -9.61208530e-03, -4.27485723e-03,
       -4.58333548e-03, 1.22803811e-03, -1.95376296e-03, -6.09215442e-03,
       -2.06919081e-04, -6.19171442e-06, 4.47909770e-05, 5.54602873e-03,
       3.52547667e-03, 4.81236028e-03, 2.85013765e-03, 1.72541139e-03,
       -6.36821426e-03, 5.78062725e-04, 2.26298766e-03, 2.95622245e-04,
       -2.48868926e-03, 3.54064582e-03, -1.47477654e-03, 6.99713919e-03,
       1.91260665e-03, 2.40906654e-03, 3.13852378e-03, -8.11811350e-03,
       -1.01238722e-02, -4.00736276e-03, -4.10885783e-03,
       -5.73521247e-03, -2.46207905e-03, 7.58167217e-03, -3.76568991e-03,
       6.58610975e-03, -9.99947544e-03, -6.04468165e-03, -1.03724534e-02,
       -2.03603366e-03, -4.78115864e-03, 4.98046167e-03, 3.88389267e-03,
       1.46896066e-03, -1.33261166e-03, 2.67062546e-03, 9.78022144e-05,
       5.82992984e-03, 5.43475477e-03, -2.59247283e-03, 2.26095365e-03,
       6.52099447e-03, -1.07134867e-03, -2.04582023e-03, -2.96449452e-03,
       -5.36217913e-03, 4.95569175e-03, 1.03603564e-02, 1.99422264e-03,
       -2.84984754e-03, -6.16050558e-04, 3.79960123e-03, 1.62122911e-03,
       -2.10887357e-03, -1.69241731e-03, -8.51494353e-03,
       -5.10721048e-03, -8.79580714e-03, -2.27611559e-03, 3.33140464e-03,
       3.16968770e-03, 3.39750969e-03, -2.78191990e-03, -4.57713148e-03,
       -7.29105482e-03, -1.71680679e-03, -7.57978857e-03,
       -2.68755946e-03, -6.57258881e-03, 1.92567240e-03, 3.09531577e-03,
       -5.11846831e-03, -6.17980433e-04, 1.17312907e-03, 9.90682095e-03,
       1.05652204e-02, -7.43699027e-04, -7.29555148e-04, -2.13200413e-03,
       2.80822488e-03, 5.78233879e-03, 8.23811162e-03, -1.32252346e-03,
       3.85352224e-03, 4.05003317e-03, -9.76912852e-05, -2.86606170e-04,
       4.87653725e-03, 1.53392379e-03, -6.51153829e-03, -7.83953443e-03,
       -6.42244797e-03, -1.25194131e-03, -6.00753026e-03, 2.70922756e-04,
       2.50738836e-03, -1.68086123e-03, -5.89783886e-04, -4.56029316e-04,
       -1.70726294e-03, -1.22054638e-02, -2.55998282e-04,
       -4.08863090e-03, -6.11430965e-03, 9.11535579e-04, -3.14794225e-03,
       8.92621372e-03, 8.17372464e-03, 5.41954581e-03, -2.71049025e-03,
       -1.79031835e-04, 2.79917312e-03, -1.46528194e-03, -3.81251331e-04,
       -3.66250938e-03, 7.46259186e-03, -1.48208777e-03, 9.33684781e-03,
       4.83670534e-04, 2.50960235e-03, -1.13607035e-04, 2.35850166e-04,
       1.55779955e-04, 1.20728472e-02, -6.76609925e-05, 2.44030915e-03,
       -1.50596804e-03, -4.12385259e-03, -7.80263508e-04,
       -4.00112476e-03, -4.18047933e-03, 7.34343845e-03, 5.22484118e-03,
       -5.85749258e-05, -8.60743516e-04, 1.57659175e-03, -2.27308995e-03,
       2.26447685e-03, -1.03088655e-02, -3.75661853e-04, 9.36432043e-04,
       -3.33161280e-03, -2.35518417e-03, -4.94554732e-03, 3.40389507e-03,
       7.46446103e-03, 1.01208752e-02, -2.58370163e-03, -5.12006599e-03,
       -3.97411313e-05, -8.82295077e-04, -1.53404850e-04,
       -6.27105532e-04, 4.49180137e-03, 8.90427828e-03, 1.61395466e-03,
       -2.91229668e-03, -3.14845331e-03, 3.21066822e-04, 8.46149307e-03,
       -6.25036051e-03, 1.46014034e-03, 3.77242058e-03, -3.10517033e-03,
       6.79221144e-03, -6.65832264e-03, -1.14804972e-03, 1.05292499e-02,
       -1.36648340e-03, -3.41636152e-03, -4.79940837e-03, 6.12901524e-03,
       -9.00946208e-04, 6.27317186e-03, -3.14621022e-03, -4.03879536e-03,
       9.13526921e-04, -1.01204275e-03, 6.03757333e-03, 4.04916750e-03,
       -3.50918970e-03, -2.49248301e-03, -4.42498084e-03,
       -5.53724635e-03, -2.94518471e-03, 1.04968110e-03, -1.54664344e-03,
       4.44950676e-03, -1.43123604e-03, 5.83342230e-03, 6.34473225e-04,
       -2.24934658e-03, -7.55750667e-03, -2.52009835e-03, 3.37188831e-03,
       1.05353876e-03, 4.00161603e-03, -4.43623448e-03, -8.45027040e-04,
       -7.89157208e-03, 3.89176141e-03, -9.05981637e-04, 1.64665922e-03,
       4.40457324e-03, 5.75627200e-03, 7.16822362e-03, -3.84748867e-03,
       6.07953873e-03, -4.13779076e-03, 2.82484107e-03, 2.61652353e-03,
       4.56915144e-03, 2.80148955e-03, -2.04996695e-03, 2.18683295e-03,
       -5.40183624e-03, 9.15324129e-03, 6.14078809e-03, 3.45352222e-03,
       -1.51979097e-03, -1.77736941e-03, 1.70242845e-03, -6.87837321e-03,
       1.11715065e-03, -4.95010863e-05, 2.36997963e-03, 3.99743766e-03,
       -2.66833254e-03, -1.30912280e-02, -6.25339290e-03,
       -6.68247743e-03, 8.71051801e-04, 3.38901859e-03, -7.43409526e-03,
       9.12143558e-04, -4.42616781e-03, 2.29741214e-03, 1.11117428e-02,
       6.88025961e-03, 2.32839398e-03, -5.78308525e-03, -1.14505447e-03,
       -3.34290764e-03, -2.30548414e-03, 3.56383716e-05, -3.67116346e-03,
       -7.20484008e-04, 6.02594158e-03, -2.80364155e-04, 3.53184901e-03,
       8.07571039e-03, 7.08075822e-04, 2.91867601e-03, 4.78471443e-03,
       -2.24983343e-03, -1.42972330e-02, -4.91779298e-04, 8.80687125e-03,
       -6.38300029e-04, 6.57198997e-03, 5.97673189e-03, 3.90332378e-03,
       -1.12207769e-03, -2.08685035e-03, -1.34720337e-02,
       -2.26251269e-03, 6.45620888e-03, -2.90722062e-04, -6.13233773e-04,
       -5.18922321e-03, -7.85887358e-04, -3.84141458e-03,
       -7.75537500e-03, -1.06208036e-02, 7.26776524e-03, 8.18301272e-03,
       -8.72759148e-04, -4.91702417e-03, -2.86326883e-03, 2.39753188e-03,
       -3.28945555e-03, -3.79487663e-03, -1.58524346e-02, 2.28372798e-03,
       -4.12959140e-04, 3.55724012e-03, 5.75086987e-03, 6.93055522e-03,
       5.99998981e-03, 1.76914944e-03, 7.31984200e-03, -3.71793960e-03,
       -4.02402505e-03, -8.81705026e-04, -8.72616540e-04, 1.22019332e-02,
       4.67657018e-03, 1.16552291e-02, 5.36312955e-03, 9.14149731e-03,
       -6.43481780e-03, -5.17510250e-03, 1.05453341e-03, -1.89855730e-03,
       -9.24453791e-03, -2.31238268e-03, -3.46261251e-04,
       -8.62746907e-04, 3.29764211e-03, -3.93342896e-04, 2.50523328e-03,
       1.79055589e-03, -8.49131495e-03, -6.11905707e-03, -9.36819147e-03,
       -4.09222720e-03, -5.77570638e-03, 1.96899520e-03, 6.21380750e-04,
       -1.17949094e-03, 2.65591941e-03, 3.17552616e-03, 8.66538379e-03,
       1.52806053e-04, 2.38616858e-03, 2.95402901e-03, -2.03590549e-04,
       -5.15156146e-03, 2.38313200e-03, 6.66755112e-03, 1.08619034e-03,
       1.23679014e-02, 6.63673133e-03, -1.80583738e-03, -2.46289279e-03,
       -6.33768924e-03, -6.17596926e-03, 6.71027694e-03, -5.43128815e-04,
       -2.56239250e-03, -4.85000899e-04, 1.16764021e-03, 1.05579046e-03,
       -5.43881999e-03, -1.17389597e-02, -1.66710885e-03,
       -2.10539787e-03, 7.50330230e-03, 7.24988058e-04, 1.08342955e-03,
       -1.93888045e-04, -7.29087798e-04, 8.45560990e-03, -5.89915412e-03,
       1.01813655e-02, 9.83539852e-04, -6.00173778e-04, 6.01110468e-03,
       8.58142413e-03, 3.08481418e-03, 3.71516449e-03, 2.83754640e-03,
       -5.61613031e-03, -5.11407526e-03, 3.01817246e-03, 2.25665211e-03,
       6.65830506e-04, 3.82806943e-03, 8.97578243e-03, 8.45790189e-03,
       3.97382857e-04, -3.17225652e-03, -3.73646012e-03, 2.84761400e-03,
       9.60843917e-03, -1.76243705e-03, 2.09359080e-03, 4.98173358e-05,
       -2.14113481e-03, 3.39215016e-03, -8.75872001e-03, 7.92474020e-03,
       -7.62602664e-04, -7.84837082e-03, 6.09398959e-03, -2.68362463e-04,
       2.29370897e-03, -3.12651787e-03, -5.45367459e-03, -1.26116388e-02,
       7.61010277e-04, -1.97410630e-03, 7.68956868e-03, -1.65862392e-03,
       -1.49990187e-03, 7.71688647e-04, 9.65898449e-04, 6.63521281e-03,
       -5.67702763e-03, -3.75575200e-03, -2.74428166e-03, 3.35014798e-03,
       3.23574105e-03, 3.58458119e-03, 2.81884405e-03, 2.94634025e-03,
       1.25583576e-03, -2.35005235e-03, -2.04370660e-03, -1.30801098e-04,
       3.16642807e-03, -6.36696164e-03, -3.99151957e-03, -1.73655775e-04,
       4.82756132e-03, 4.14544949e-03, -4.50013299e-03, 1.24218676e-03,
       -2.17260123e-04, 1.78425293e-03, -8.31916986e-04, 2.14682473e-03,
       -2.81514041e-03, 9.93795972e-03, 3.49410635e-04, 9.30768962e-04,
       8.96427967e-03, 7.01555051e-03, 3.25557054e-03, 1.52861117e-03,
       6.73966901e-03, 5.60265966e-04, -2.04334781e-03, 4.79993141e-05,
       -2.20968784e-03, -1.36439875e-03, 5.06953476e-03, -1.59047020e-03,
       -2.19505536e-03, 5.03406441e-03, 3.85584822e-03, 2.98449420e-04,
       -8.61141132e-04, 3.09581927e-04, -2.26907153e-03, -2.42870025e-04,
       -3.69532430e-03, 3.33167642e-04, 7.37123331e-03, -3.00081866e-03,
       -1.54959480e-03, -1.65720831e-03, 1.92628149e-03, 8.45586695e-03,
       1.09456247e-02, 1.41209248e-03, -6.89472654e-04, 1.62891272e-04,
       -8.22303176e-04, -3.04517569e-03, -2.44198320e-03,
       -4.18545445e-03, 2.54265702e-04, 7.67765846e-03, -2.46719050e-04,
       1.51765344e-04, 2.36360030e-03, 8.70728586e-03, -5.99337160e-04,
       8.87707621e-03, 7.70835811e-03, 6.20517007e-04, 1.05151406e-03,
       -4.02688328e-03, -5.54742990e-03, -1.65298861e-03, 4.60179849e-03,
       -3.20864911e-03, 7.05121784e-03, -2.90122768e-03, 1.86551770e-03,
       1.41931538e-04, -7.93561619e-03, -5.06648514e-03, -1.10740971e-03,
       5.51789952e-03, -2.18623551e-03, -1.03107549e-03, 1.87902537e-03,
       7.59705494e-04, 4.53244010e-03, 2.46561854e-03, -4.67327610e-03,
       -1.18599762e-03, 1.61685154e-03, -7.83992000e-03, -5.85387507e-03,
       -6.11516926e-03, -3.51394597e-03, 2.32000067e-03, 1.12650159e-03,
       -8.90437746e-04, -6.75333315e-04, 4.97915735e-03, -5.78009896e-03,
       -2.90578860e-03, 1.76156944e-04, -4.74293438e-06, -3.23768822e-03,
       1.78984087e-03, -4.94468492e-03, -1.65722927e-03, -1.00138970e-03,
       3.33722564e-03, -4.83570574e-03, -1.91824301e-03, -3.44011234e-04,
       1.15814584e-03, -4.85552987e-03, 1.83717581e-03, -2.82261730e-03,
       4.29815613e-03, -5.29575348e-03, -1.06962072e-03, 2.49702926e-03,
       -4.45040991e-04, 3.53404297e-03, 4.21145326e-03, -6.68761833e-03,
       -2.84799049e-03, 3.34217283e-03, 4.20196168e-03, 4.02832346e-04,
       1.35551230e-03, -2.18090112e-03, 7.12424377e-03, -2.85635097e-03,
       -2.33045168e-04, -2.26310664e-03, -1.51022221e-03,
       -1.82258675e-03, 4.69403109e-03, 4.28759900e-04, -2.66190688e-03,
       4.28444566e-03, -3.84083134e-04, 2.90578348e-03, 4.88307327e-03,
       -3.39856301e-03, -5.83581859e-03, 1.02216238e-03, 3.49957868e-03,
       -3.16431397e-05, 6.51073968e-03, 2.54907971e-03, -4.00983775e-03,
       -2.48591579e-03, -7.32832297e-04, 3.95419821e-03, 1.25225699e-02,
       5.37356734e-03, -3.99212760e-04, 8.45123921e-03, -6.00621477e-03,
       -6.83562271e-03, -3.96357244e-03, -4.13329387e-03, 5.39690198e-04,
       -1.27521972e-03, 8.85217916e-03, -1.82790228e-03, 3.36884451e-03,
       -3.48896929e-03, -1.33965208e-04, 2.05429387e-03, -5.20837400e-03,
       -1.90842885e-03, -1.13652437e-03, 6.05359022e-03, 3.97826824e-03,
       4.26003290e-03, 8.96546349e-04, -1.00311986e-03, 1.13201607e-03,
       -2.80461926e-03, -5.50747674e-04, 8.32883827e-03, 5.66894840e-03,
       1.41622405e-03, -6.78233150e-03, -1.12652790e-03, -1.40133279e-03,
       5.62432641e-03, -1.59136252e-03, -3.54980165e-03, 7.69601623e-03,
       7.58589758e-03, 1.31617126e-03, 7.60108698e-03, 6.03899406e-03,
       -1.73471344e-03, 8.31700582e-03, -1.15090050e-03, 4.39831754e-03,
       2.67007668e-03, 7.19368597e-03, 3.87984468e-03, 2.21239659e-03,
       3.04528628e-04, -3.03153554e-03, 3.58479738e-04, -1.73022063e-03,
       -4.29190742e-03, 7.44820572e-04, -3.52378329e-03, -6.34496158e-04,
       -4.67361743e-03, -5.61365765e-03, -4.37003473e-04,
       -2.28981677e-04, -2.75567849e-03, -1.00089526e-02,
       -6.36332342e-03, -3.87869799e-03, -1.79183111e-03, 3.74454469e-03,
       2.87526962e-03, -8.68209754e-04, 1.21881103e-03, -4.84358100e-03,
       -2.04922236e-03, -4.25633648e-03, 3.74237495e-03, 4.75141406e-03,
       2.16664295e-04, -4.55820234e-03, 1.43425900e-03, -6.47640927e-03,
       -5.14620915e-03, -3.60523979e-03, -4.43839887e-03,
       -1.48057682e-03, -3.25031299e-03, 5.65049564e-03, 2.55370419e-03,
       -8.78531253e-04, -1.71873253e-03, -3.59991891e-03,
       -7.60965701e-03, -9.46811400e-04, 1.80077355e-03, -5.71433268e-03,
       -2.54169758e-03, 6.23056141e-04, -1.66545738e-03, -1.40737055e-03,
       1.11905602e-03, -4.59340075e-03, 3.87547351e-03, -1.14516669e-03,
       -3.60749778e-03, 2.22435547e-03, 4.24130680e-03, 2.37736432e-03,
       1.38655433e-03, -4.80600260e-03, -1.14884190e-02, -2.21425667e-03,
       -3.48414149e-04, -6.21451996e-03, -1.12240319e-03,
       -2.91101099e-03, 1.39754062e-04, 2.78191152e-03, -1.03591254e-03,
       -8.78757611e-03, 1.37535697e-02, 3.66741209e-04, -7.55973451e-04,
       2.73380242e-03, 2.80477107e-04, -7.26658676e-04, 6.25870330e-03,
       7.54566723e-03, 7.10217340e-04, -8.40127841e-03, -5.61845442e-03,
       -3.70535976e-03, 5.10229683e-03, 3.71382223e-03, -3.07728536e-03,
       4.23196517e-03, 7.90271349e-03, -2.69702240e-03, -1.17464140e-02,
       -1.35790044e-03, 2.52380781e-03, 3.70971113e-03, -2.61867349e-03,
       -5.48266806e-03, 7.61074014e-03, 7.50425598e-03, -1.86329451e-03,
       -7.32816290e-03, -8.11324734e-03, -5.29291714e-03,
       -2.92002200e-03, 1.22400548e-03, -1.16868122e-02, 1.93005172e-03,
       3.10499850e-03, -3.79295531e-03, -4.93089529e-03, -4.23427112e-03,
       -3.59985186e-03, -4.95369267e-03, -6.16826350e-03, 1.60868326e-03,
       1.20486170e-02, 1.85385440e-02, 5.24618616e-03, -6.66593807e-03,
       5.42230997e-03, 2.93856533e-03, 4.73617110e-03, -2.53676251e-03,
       -1.20698279e-02, 1.10187167e-02, 1.69608928e-02, -3.15654394e-03,
       -1.37701808e-02, -1.28219766e-03, -6.90313464e-04, 1.37702504e-03,
       -1.73413157e-02, -8.98396224e-03, 1.06404514e-04, 1.04619646e-02,
       -6.18928345e-03, -8.93544592e-03, -7.55758607e-04,
       -3.68179195e-03, -4.19693487e-03, -9.12610814e-03,
       -1.14606600e-02, -7.12505309e-03, -1.13942928e-03,
       -6.68044435e-03, -4.02777083e-03, -6.07836060e-03,
       -4.13604081e-03, -3.25028133e-03, -7.10800290e-03, 3.68932425e-03,
       8.15607142e-03, 4.49016504e-03, -3.74513073e-03, -9.59293731e-03,
       2.05995678e-03, 1.55902060e-03, 2.47129658e-03, 1.78029350e-05,
       1.22907385e-02, 1.06935585e-02, -7.64393527e-03, -9.05086938e-03,
       -8.57698824e-03, -7.42583955e-03, -9.24609508e-03,
       -1.35768938e-03, 4.91098268e-03, -7.87121430e-03, -3.45007190e-03,
       9.14322212e-03, 5.64122666e-03, 5.15818654e-04, 2.53996369e-03,
       2.44369410e-04, -4.90820408e-03, 2.12085317e-03, 1.00830942e-03,
       5.16150100e-03, 6.62929192e-03, 1.29039055e-02, 2.35955277e-03,
       2.94483779e-03, -6.45928131e-03, -6.16693404e-03, -3.35452030e-03,
       9.84566286e-03, 1.15530333e-03, -1.08961733e-02, -6.55520195e-03,
       -1.65050128e-03, -2.05438235e-03, -9.42729320e-03,
       -5.96000953e-03, 4.05630562e-03, 2.31205886e-05, -2.86427327e-03,
       -6.76004915e-03, -3.08614736e-03, 1.63424318e-03, -3.44898691e-03,
       -3.71900317e-03, -6.85790041e-03, -8.86804610e-03, 1.26523320e-02,
       1.45592010e-02, 1.04691158e-03, 1.06956633e-02, 7.70009309e-03,
       6.15459401e-03, -6.93074847e-03, -8.32588226e-03, 3.10055260e-03,
       9.37205553e-03, 1.05590113e-02, -1.16964383e-02, 7.40423566e-03,
       4.51775454e-03, 2.05329363e-03, -2.70879571e-03, 2.55038310e-03,
       9.19157919e-03, 1.59175205e-03, 4.70673759e-03, 4.71184030e-03,
       -2.68275337e-03, 1.81020252e-04, -1.00163557e-03, -1.46317168e-03,
       3.17895878e-03, -8.76933616e-03, 2.87267240e-03, 2.99813598e-03,
       4.71766060e-03, 6.01844490e-03, 1.21700857e-02, 3.24627315e-03,
       1.92463072e-03, 2.25139037e-03, -6.11779327e-03, 1.31220520e-02,
       5.48000040e-04, -8.05866905e-03, 2.95920763e-03, 6.16914732e-03,
       5.98326791e-03, 7.33867870e-04, 6.84139272e-03, 7.27875950e-03,
       2.19503650e-03, -2.75697140e-03, -6.00891793e-03, 1.18146399e-02,
       1.06253624e-02, 1.33405505e-02, 1.27532554e-03, 5.21493237e-03,
       -1.80549701e-04, 5.47865173e-03, 1.31538752e-02, 6.26032706e-03,
       -1.41938857e-03, -2.81670131e-03, -1.86427741e-03,
       -1.22273725e-03, -2.82412535e-03, -3.48903961e-03,
       -3.76194483e-03, 2.36396305e-02, 1.39083266e-02, -1.12301973e-03,
       -1.06801428e-02, -1.44057116e-03, -4.65660775e-03,
       -5.28376177e-03, -6.80940738e-03, 7.53868511e-03, 3.87716992e-03,
       -2.55562807e-03, 1.11213408e-03, 3.02546890e-03, 1.82083657e-03,
       5.16359112e-04, 1.49678010e-02, 7.47318985e-03, 5.25655132e-03,
       2.01847255e-02, 1.02628199e-02, 1.11387065e-02, 6.84320694e-03,
       1.34788395e-03, -6.46342011e-03, 2.58294493e-03, -2.94810883e-03,
       -8.83612130e-03, 5.74386399e-03, -4.30007279e-03, -3.26415012e-03,
       -1.00114811e-02, -2.68329284e-03, -7.71969603e-03,
       -5.54520078e-03, -2.17692577e-03, -5.67902578e-03, 2.07117721e-02,
       1.86306201e-02, 2.46014190e-03, 3.45574605e-04, -1.24312111e-03,
       -4.44510573e-04, 5.95451519e-03, 1.16683403e-02, -1.82996951e-02,
       1.60864426e-03, -2.12531374e-03, -6.98968722e-03, -8.32849834e-03,
       -3.83281265e-03, -1.46275694e-02, -7.47297984e-03,
       -1.35642784e-02, 7.29181850e-03, 1.82529576e-02, 1.52377440e-02,
       -5.06003853e-03, -5.92152867e-03, -2.43041082e-03,
       -1.70022016e-04, -3.40379053e-03, -1.48177973e-03, 9.05692577e-04,
       -3.11972480e-03, -3.15042707e-04, -3.30307661e-03, 5.26723405e-03,
       4.04339796e-03, -1.67479418e-04, -2.05043238e-03, 1.02719720e-02,
       1.99897541e-03, -5.98155148e-03, -6.41061645e-03, 3.26513126e-03,
       3.00333253e-04, 4.08900110e-03, -1.15990173e-02, -8.19029752e-03,
       4.72917315e-03, -1.74091442e-03, -6.57734228e-03, -1.71406905e-03,
       3.18770646e-03, 1.42603936e-02, 1.40118720e-02, 7.48432195e-03,
       -5.33027109e-04, 4.85963514e-03, 5.04282117e-03, -4.34655260e-04,
       -3.04794917e-03, 3.40696704e-03, 1.88542008e-02, 1.79335270e-02,
       -2.86764652e-03, 1.18394883e-03, 9.68832988e-03, 3.64457723e-03,
       -8.17341078e-03, -8.43438227e-03, 1.67694630e-03, 1.17844914e-03,
       1.37909455e-03, -1.54851628e-02, -1.20056039e-02, 9.69509315e-03,
       4.35929419e-03, -1.05602955e-02, -8.75784084e-03, -1.43904320e-03,
       -3.07628179e-05, -4.67745401e-03, -1.29265953e-02,
       -8.80777184e-03, 6.65278127e-03, 1.21021159e-02, -7.97157921e-03,
       -4.02059732e-03, 7.94711988e-03, 1.69865079e-02, 1.19158952e-02,
       -9.05845407e-03, -8.97160172e-03, 1.93419736e-02, 1.70205510e-03,
       -8.23729485e-03, -1.97821134e-03, 6.29589148e-03, 4.51110769e-03,
       1.04957642e-02, 1.78216479e-03, 5.91704343e-03, 3.61730903e-03,
       2.25830008e-03, -1.26006939e-02, -5.24338474e-03, 4.51375218e-03,
       -3.63708474e-04, -7.03763566e-04, -7.04090251e-03,
       -2.31580902e-03, 6.17257319e-03, 4.64749942e-03, -7.91047420e-03,
       -4.76231286e-03, 6.94080780e-04, 3.03144660e-03, -2.92883348e-03,
       -7.69356359e-03, -3.36067891e-03, 9.59194265e-03, 5.68782073e-03,
       -9.94584989e-03, -4.04733559e-03, 6.06442941e-03, 1.17239228e-03,
       1.37739480e-02, 6.02584239e-03, 1.04154833e-02, 9.42062866e-03,
       -1.15662304e-04, -1.13997376e-02, -1.50011042e-02, 4.87087900e-03,
       1.04278019e-02, 1.46338353e-02, -2.39249459e-03, 5.29861310e-03,
       -8.59842636e-04, 4.97485278e-03, -3.31937452e-03, -3.92943155e-03,
       -5.17941779e-03, 1.24306860e-03, -8.63056444e-03, -1.29355211e-02,
       -4.97026043e-03, 4.79459204e-03, -3.40692303e-03, 2.06745462e-03,
       -4.65155253e-03, -8.04393366e-03, 5.56196552e-03, -5.71661629e-03,
       -8.34532827e-03, 1.28289149e-03, 3.69805028e-03, 9.82779544e-03,
       -6.73158793e-03, -6.61717635e-03, -1.94489968e-03, 1.36057409e-02,
       1.65569130e-03, -2.51830486e-03, -2.86088069e-03, 1.01657789e-02,
       -4.59909020e-03, 6.57862052e-03, 5.20017417e-03, 1.90719252e-03,
       1.24230869e-02, 1.13290688e-03, 1.37430942e-02, 1.10506294e-02,
       -7.99197878e-04, -1.74993963e-03, 2.93801096e-03, 1.12281495e-03,
       -3.93917272e-03, -9.86600644e-05, -4.11196053e-03,
       -3.20657599e-03, 3.25390860e-03, 2.00895104e-03, -7.20806420e-04,
       -9.90709406e-04, 4.29367088e-03, -3.74433934e-03, 1.72607170e-03,
       -3.95308802e-04, -5.72350575e-03, -1.60647172e-03,
       -4.36520251e-03, 1.60772400e-03, 5.12348302e-03, 1.53184810e-04,
       -6.31296216e-03, 1.50407143e-02, -4.57535149e-04, 9.98288859e-03,
       1.30711831e-02, 8.38852581e-03, -5.92071284e-03, 1.70301029e-03,
       -5.83452522e-04, -8.27412680e-03, 1.34969335e-02, 7.66753964e-03,
       1.96174695e-03, 9.63251106e-03, -7.45933503e-04, 1.04182530e-02,
       -2.41824100e-03, -2.93738884e-03, -2.04757578e-03, 9.80240572e-03,
       3.55220796e-03, -5.67006785e-03, 3.39303375e-03, 1.08292932e-02,
       -4.01644083e-03, -6.85242610e-03, -1.48276577e-03, 1.43973657e-03,
       -2.12375703e-03, -1.74716604e-03, -7.42945401e-03, 1.47054973e-03,
       1.21255117e-02, 9.57396626e-03, 2.73723505e-03, -3.09952721e-03,
       -7.71057967e-04, 7.98977818e-03, 4.76390682e-03, -8.71091802e-03,
       7.81292282e-03, 1.09280664e-02, -9.14971530e-03, -7.45673804e-03,
       -3.53982206e-04, 7.03583763e-04, 2.02645990e-03, 5.05238259e-03,
       -1.04381312e-02, 4.67812736e-03, -1.64655317e-03, -1.25315171e-02,
       -6.09963899e-03, -1.58227107e-03, 2.78579001e-03, 3.92336166e-03,
       -2.73446715e-03, -6.95906719e-03, -3.10044852e-03,
       -1.60664192e-03, 5.12247439e-04, -1.52172067e-03, 1.08646397e-02,
       6.56463439e-03, 1.69237866e-03, 8.40107445e-03, -3.42497579e-03,
       5.24751283e-03, 2.38231104e-03, -1.22474208e-02, -5.78377955e-03,
       1.18649052e-03, -8.14680607e-06, 1.09839896e-02, 7.49048032e-03,
       2.69731045e-05, 1.15443883e-03, -8.64284858e-03, -1.15989824e-03,
       1.09711774e-02, 7.84229953e-03, 1.01526100e-02, 1.05235409e-02,
       1.19955819e-02, 1.72407907e-02, 2.07913555e-02, 3.72597692e-03,
       8.19038879e-03, -1.19140865e-02, 2.03925231e-03, -3.07183102e-04,
       -1.35895181e-02, -3.38544906e-03, -9.17768851e-03,
       -1.21289212e-02, -2.32390501e-03, 7.58323539e-03, -4.97617153e-03,
       -2.16480647e-03, 5.15695720e-04, 2.31984165e-03, 4.73241368e-03,
       1.02842471e-03, -2.71753874e-03, -4.10087232e-04, 9.19357035e-03,
       3.93620040e-03, 2.48978264e-03, 4.99722641e-03, 9.73649148e-04,
       2.93656765e-03, 8.48185457e-03, -8.99150618e-04, 9.86086205e-04,
       7.33643770e-03, 7.50799291e-03, 2.01816601e-03, 9.28446883e-04,
       6.42113015e-03, 4.69950447e-03, 6.19960437e-03, 5.12330374e-03,
       1.87594735e-03, 5.80839813e-03, -6.00135885e-03, -7.54644535e-03,
       -2.47778534e-03, -2.53578695e-03, 6.04814943e-03, 2.38698907e-03,
       3.86649393e-03, -2.17054971e-03, 6.54382585e-03, -6.08668057e-03,
       -9.50299948e-03, 6.58689125e-04, -1.14913248e-02, -3.22520384e-04,
       7.63350213e-03, -3.04953894e-03, -4.48731845e-03, 6.31041965e-03,
       1.06864213e-03, -4.09902493e-03, -1.16020488e-02, 4.53097513e-03,
       6.32505957e-03, 7.68150948e-03, 7.17449468e-03, 6.42320188e-03,
       -4.23048483e-03, 6.16958481e-04, -9.53951944e-03, 5.04897092e-04,
       -2.47813092e-04, 4.77811042e-03, 8.75073858e-03, -5.06004319e-03,
       -4.23031952e-03, 1.09531858e-03, -1.91437139e-03, -7.70371268e-03,
       3.18705733e-03, 3.68175074e-03, 7.81966001e-03, 2.46188864e-02,
       1.22252079e-02, -1.22595055e-03, -6.60780678e-03, -3.24881054e-03,
       -4.68337117e-03, -7.36990431e-03, -1.98509675e-04,
       -1.66779588e-04, 3.86342569e-03, 5.78851113e-03, -6.46232255e-03,
       4.05374588e-03, 4.19867830e-03, 5.23353554e-03, 1.09258536e-02,
       8.58839136e-03, -3.54341813e-04, 8.41275603e-03, -3.47967632e-03,
       -1.11337111e-03, 6.37245225e-03, -3.33014573e-03, 5.54582756e-03,
       2.81252386e-03, 1.01797841e-03, -1.73798646e-03, 1.18449861e-02,
       1.07380305e-03, -2.41424353e-03, -6.97593903e-03, -5.47941122e-03,
       -4.15049680e-03, -4.60160384e-03, -4.37507080e-03,
       -4.67320392e-03, -8.38459097e-03, 3.01764638e-04, -4.77638841e-03,
       -6.13255287e-03, -4.10740776e-03, 3.03542754e-03, -3.67280911e-03,
       -5.31291729e-03, -3.24248266e-03, -4.33063507e-03, 1.07419735e-03,
       -1.45239774e-02, 2.89163738e-03, -3.67331039e-03, 1.19813262e-02,
       -1.16849225e-03, 5.41496091e-03, -1.87355990e-03, 1.50455320e-02,
       8.17129761e-03, 5.17784106e-03, -8.12140387e-03, 7.72170664e-04,
       4.17361269e-03, -6.73088199e-03, -1.00661116e-03, 2.50914134e-03,
       7.35411886e-03, 1.36072468e-02, 2.87602015e-04, 1.22046960e-03,
       -5.52786700e-03, 1.22762844e-03, -1.47742068e-03, -5.51726157e-03,
       -8.02696124e-03, -4.97260178e-03, 1.76117942e-03, -1.18355369e-02,
       4.31517325e-03, -4.48172819e-03, -1.81938254e-03, 5.26205113e-04,
       -9.81086306e-03, -9.53338109e-03, 3.73116974e-03, 3.53665859e-03,
       1.00384594e-03, 3.83835891e-03, 1.13139106e-02, 6.95824204e-03,
       4.38651419e-04, 3.42702377e-03, 5.21724252e-03, 1.79308525e-03,
       1.31045002e-02, -3.08016365e-06, 1.04866168e-02, 3.09479586e-03,
       5.49770100e-03, 5.16071031e-03, 1.15123242e-02, -3.22404620e-03,
       6.61940733e-03, 5.30151976e-03, 9.69912275e-04, 3.53672076e-03,
       -6.04891451e-03, -1.08114583e-03, -1.63381291e-03,
       -1.25876600e-02, -1.09288963e-02, 3.46526294e-03, 4.37096413e-03,
       1.62626582e-03, -3.05606239e-03, -2.70472490e-03, -3.40443989e-03,
       -9.80224833e-03, -7.77016999e-03, -2.12931912e-03, 8.98774806e-03,
       -9.87395179e-04, -9.14542377e-03, 8.63191020e-03, -2.82711093e-03,
       -2.93066306e-03, 1.58589566e-03, -5.89615246e-03, -1.39245344e-03,
       1.15522062e-02, 2.68523255e-03, 5.67323482e-03, 4.19247779e-04,
       -7.00956676e-03, -7.13419635e-03, -7.05070049e-03, 1.33631274e-03,
       5.37598785e-03, 1.26939937e-02, -1.61672512e-03, -3.66859976e-03,
       -2.35789316e-03, -2.36583012e-03, 1.25471153e-03, -7.73158157e-03,
       -7.57506955e-03, 1.88792183e-03, 1.52659109e-02, 4.55546519e-03,
       -3.74870980e-03, -1.00825133e-03, -3.99733102e-03,
       -3.78027861e-03, -7.94571359e-03, -1.58713758e-02, 2.23039556e-03,
       1.20913535e-02, 2.75390735e-03, -1.85780611e-03, 1.44767563e-03,
       -9.03588068e-03, -2.33554607e-03, -8.42167158e-03,
       -4.61682770e-03, 1.87100144e-03, 6.20193128e-03, -7.56793655e-03,
       -8.60858429e-03, 3.03217815e-03, 4.01421729e-03, 1.17504923e-03,
       -2.72054411e-03, -1.59275858e-03, -2.71230284e-03, 1.35128684e-02,
       1.62977830e-03, -3.70566454e-03, -5.34821162e-03, -5.76097146e-03,
       -1.58456503e-03, 2.31751823e-04, -7.35147716e-03, -3.03620659e-03,
       3.35144857e-03, -5.90950344e-03, -8.73508118e-03, 1.11088681e-04,
       1.33021188e-03, -8.25356133e-03, -7.50845007e-04, -1.29933180e-02,
       -5.49420202e-03, -2.42603896e-03, -4.45559993e-03,
       -5.94082521e-03, -1.03609255e-02, 1.86496717e-03, -3.18321725e-03,
       -3.30323516e-03, 4.68296790e-03, 1.14950994e-02, 1.20934695e-02,
       -3.40394140e-03, -1.17733935e-02, 5.86271146e-03, 3.34253954e-03,
       -6.70856447e-04, 4.29700362e-03, -6.88206501e-06, 1.17724994e-02,
       7.97967706e-03, 4.97145625e-03, -3.06061422e-03, 5.65986801e-03,
       2.17708573e-03, -9.12981760e-03, -6.15603756e-03, -6.59071375e-03,
       -5.19585563e-03, 3.06765549e-03, 1.15148479e-03, 1.82672672e-03,
       1.35195165e-04, 4.39891964e-03, -3.70197510e-03, 3.31672636e-04,
       8.34126899e-04, -3.84728843e-03, -4.59394272e-04, 5.58285834e-03,
       -1.11620896e-03, 4.61572455e-03, -1.10973895e-03, -2.49219942e-03,
       5.41770889e-04, 1.72620115e-03, 5.58017660e-03, 8.05726089e-03,
       -9.02283762e-04, 3.84715782e-03, -7.29735661e-03, -2.54208222e-03,
       -4.72689327e-03, -8.51888326e-04, 1.54703611e-03, -5.88902258e-05,
       7.19719857e-04, 3.90760554e-03, -5.81948319e-03, -3.79575207e-03,
       8.15802719e-03, -8.17220891e-04, -5.06638410e-03, -2.83474289e-03,
       4.33289865e-03, 3.91927781e-03, 4.39019827e-03, 3.60031216e-03,
       -8.63125839e-04, 5.74203907e-03, 8.37173080e-04, -5.40781766e-04,
       -6.21030282e-04, -1.86197553e-03, -6.40841294e-03, 1.64266222e-03,
       6.57493342e-03, -3.98181193e-03, 4.67554200e-03, 1.60138065e-03,
       -1.61301068e-04, -7.73927011e-03, 5.93057042e-03, 9.50022507e-03,
       7.78814126e-03, -5.06181596e-03, -8.62125424e-04, 4.17498592e-03,
       2.69667432e-03, 1.27655733e-03, -9.29300860e-03, -4.30844864e-03,
       -7.79401883e-03, -3.49734304e-03, -4.00109775e-03,
       -3.19892145e-03, -1.02019915e-02, -4.19466785e-04,
       -3.07354075e-03, -7.62021262e-03, -3.97023326e-03, 4.84872842e-03,
       1.90853875e-03, -3.73095693e-03, -1.59726929e-04, -6.42198371e-03,
       -6.83058403e-04, 2.15252466e-03, -4.86337580e-03, -7.44400034e-03,
       2.66975793e-03, 4.83402144e-03, -3.40254803e-04, -3.22051521e-04,
       1.09004206e-03, 9.67239402e-03, 3.04744416e-03, -2.55670329e-05,
       -1.91356579e-03, 2.82865047e-04, -3.98739576e-05, -1.64993759e-03,
       9.79031785e-04, -1.03250996e-03, 7.26398919e-03, 6.14618743e-03,
       3.93863162e-03, -3.31296562e-03, -4.46198322e-03, -3.04416823e-03,
       -3.27123585e-03, -6.43379870e-04, -4.90444247e-03,
       -8.63321009e-04, 4.43208171e-03, -3.80073814e-03, -1.02603612e-02,
       -6.01628935e-03, 4.56657261e-03, -2.73463270e-03, -5.32792835e-03,
       -3.65920691e-03, 7.05092098e-04, 1.59846724e-03, -5.43731125e-03,
       -7.72589305e-03, -5.09548793e-03, -2.69051455e-03, 1.03131984e-03,
       -5.91824949e-03, -4.71430086e-03, -4.15455829e-03,
       -5.34763234e-03, -1.13219128e-03, -4.27929033e-03,
       -4.80169384e-03, 4.91058314e-03, 5.18798688e-03, -7.14118406e-03,
       -5.05582104e-03, -1.64801558e-03, 8.41545116e-04, -8.40376690e-03,
       -2.78911856e-03, -3.79440910e-03, 2.56525888e-03, 4.65661846e-03,
       6.55145478e-03, 8.60001147e-03, 2.00641924e-03, 1.61296106e-04,
       -6.67914224e-04, -3.83512559e-03, -2.54474697e-03, 4.58905008e-04,
       7.74026988e-03, -5.43718808e-04, 7.99182430e-03, -5.21799782e-03,
       3.79092380e-04, -6.18608715e-03, -5.98416477e-03, -6.57272432e-03,
       -7.81854894e-03, 3.67614673e-03, -2.80245440e-04, 1.24217069e-03,
       3.55969096e-04, -2.60788220e-04, 7.82381219e-04, -2.48193415e-03,
       3.47582536e-04, -1.41358934e-03, -4.83640004e-04, 3.09700775e-03,
       -4.52108728e-03, -4.95526846e-03, -8.01965594e-03, 4.07911837e-03,
       -1.14528583e-02, -7.13241892e-03, -6.49084756e-03, 6.36807177e-03,
       1.50218187e-03, -4.86213434e-03, -7.22997170e-03, -2.14881380e-03,
       -6.77745847e-04, 3.48440115e-03, 9.14744975e-04, -1.92627858e-03,
       5.26195113e-03, -2.62733945e-03, -9.04512312e-03, -3.81189841e-03,
       -1.69649778e-04, 4.64188168e-03, 2.30829860e-03, 1.42457895e-03,
       4.70727263e-03, 2.28350959e-03, 7.37317000e-03, -4.91024181e-03,
       -5.86277805e-03, -1.18871387e-02, -8.65477603e-03,
       -5.06743276e-03, 9.73959046e-04, 3.98487924e-03, 1.48761328e-02,
       1.12563313e-03, 1.73134892e-03, 6.02016132e-03, -3.34877777e-03,
       1.52085349e-03, -4.20186343e-03, -9.82406433e-04, 2.13297759e-03,
       7.09907524e-03, 8.29244207e-04, 7.73288682e-03, 5.16887009e-03,
       1.39273718e-04, -6.39577908e-03, 3.13220243e-03, 6.09756541e-03,
       1.15388613e-02, 7.45225511e-03, 8.45723611e-04, 5.29590389e-03,
       3.36848409e-03, -1.45550203e-02, -1.93101808e-03, 6.65222155e-03,
       3.84140294e-03, 7.06285937e-03, 3.40495282e-03, -1.06420480e-02,
       -6.64707785e-03, -8.89922492e-04, -2.66470923e-03, 5.01591538e-04,
       -1.01641235e-05, -5.23383031e-04, 4.67743113e-04, -1.65850227e-03,
       -4.57617268e-03, -3.28398729e-03, -4.12082579e-03,
       -2.10034195e-02, 6.63076807e-03, -1.40076503e-03, -4.34784777e-03,
       6.64779590e-03, 5.68728847e-03, 4.37094504e-03, 2.04095524e-02,
       2.43493300e-02, 7.03571690e-03, -4.92891017e-03, 7.14933919e-03,
       6.22281758e-03, 5.91705739e-03, 1.74688350e-03, -7.62822200e-03,
       5.27178030e-03, 1.40541662e-02, 4.63264110e-03, -3.74820339e-03,
       -3.78451450e-03, 4.08357987e-03, -1.62795582e-03, -9.07852221e-03,
       -4.40105191e-03, 5.95301576e-03, 7.88754225e-03, -6.12038933e-03,
       -8.29195417e-03, -1.74675835e-03, -4.41368623e-03, 1.22844242e-03,
       1.83453131e-03, -1.37237436e-03, 3.80002474e-03, 4.57843347e-03,
       -7.81168370e-03, -7.91427959e-03, -8.19958188e-03,
       -1.58315059e-03, -4.77287220e-03, -5.34963608e-03,
       -7.56948674e-03, 3.47969541e-03, 1.08080031e-02, -2.23683473e-03,
       -8.19148216e-03, 5.96869213e-05, -2.57003761e-04, -3.30176874e-04,
       -8.68809596e-03, -1.07748462e-02, 1.07222714e-03, 2.02126503e-02,
       8.90768692e-03, -3.38351377e-03, -5.74753992e-03, -6.82620611e-03,
       -4.18599322e-03, -5.22214174e-03, -4.32603853e-03,
       -4.00244119e-03, 4.22226591e-03, -4.00012080e-03, -2.66290619e-04,
       -6.40159752e-03, 1.41596785e-04, -1.36742106e-04, -7.16872234e-03,
       7.01620663e-03, 1.30902659e-02, 9.28854011e-03, 1.74108390e-02,
       2.64945766e-03, 8.41960893e-04, -2.56023975e-03, -2.44161859e-03,
       4.23550198e-04, -1.28070796e-02, -1.20616248e-02, -5.60702709e-03,
       -5.89835225e-03, -1.12764109e-02, -3.82954557e-03,
       -5.18958410e-03, -8.17815028e-03, 1.54694135e-03, -1.52800344e-02,
       -3.70001304e-03, 8.06902722e-03, 7.43279699e-03, -5.29024005e-03,
       4.50353930e-03, -8.06655036e-04, -2.02371317e-04, -5.08650858e-03,
       4.85028395e-05, 3.32235103e-03, -1.97427929e-03, 4.50418302e-04,
       -1.07230721e-02, -2.00072117e-03, -1.37627521e-03,
       -3.75308935e-03, -2.21608323e-03, 4.76232637e-03, 9.53052286e-03,
       6.29371870e-03, 1.32665681e-02, 2.01927978e-04, 1.31389806e-02,
       1.61973797e-02, 1.31891361e-02, 8.74187425e-03, -6.05089590e-04,
       5.09454403e-03, 5.42739267e-03, 9.83256940e-03, -3.94005794e-03,
       2.40267790e-03, 1.93437681e-05, -1.87496631e-03, -4.16878844e-03,
       5.74594643e-03, 4.12243279e-03, -3.48652061e-03, -5.13269985e-03,
       -2.01905757e-04, -7.44113326e-03, -3.68988956e-03, 5.52106590e-04,
       -1.21367734e-03, -9.05299187e-03, 6.52675750e-03, 9.85235069e-03,
       1.05622523e-02, 4.26178100e-03, 1.21223470e-02, 4.35930630e-03,
       6.42863614e-03, 6.03067037e-03, -1.18889697e-02, -2.85174523e-04,
       1.12968415e-03, 5.73070440e-03, 1.35966791e-02, 3.19322152e-03,
       -2.69241468e-03, -1.96232554e-03, -2.38086635e-04, 8.50408897e-03,
       -2.00206949e-03, -6.33773534e-03, 9.67363175e-03, 5.32873254e-03,
       -6.83219684e-03, -3.65113188e-03, 3.81484954e-03, 1.52253616e-03,
       -9.50156827e-04, -1.16552068e-02, -1.92914829e-02, 1.15460260e-02,
       3.52083752e-03, 1.23082165e-04, -3.78982862e-03, 6.68999599e-03,
       -5.46415336e-03, -1.50105497e-03, 6.38827216e-03, 4.96686390e-03,
       1.29123721e-02, 5.58571564e-03, -3.57347424e-03, -4.86963149e-03,
       3.07722297e-03, 2.68140400e-04, -1.90123639e-04, -2.93180579e-03,
       -8.72187875e-03, 1.99357290e-02, -1.80911517e-03, 1.11338927e-03,
       -1.05088511e-02, 5.14855096e-03, 5.17580146e-03, 1.35291682e-03,
       -1.08678779e-02, -1.68932527e-02, 1.39728759e-03, 4.15646937e-03,
       1.79435126e-03, -3.86748230e-03, 9.45676956e-03, 1.88869424e-03,
       -2.04768676e-05, -4.62612556e-03, -9.85134300e-03, 1.36816250e-02,
       8.59996397e-03, -2.40019843e-04, -1.33449240e-02, -1.61091681e-03,
       -4.32886323e-03, 6.52417541e-03, -6.03820151e-03, -1.73858739e-02,
       1.19503736e-02, 4.28939611e-03, 7.75027415e-03, -4.40608384e-03,
       7.38380197e-03, 8.57093930e-03, 4.21995623e-03, 3.38493101e-03,
       -8.45932961e-03, 2.18043812e-02, 4.40418348e-03, 5.08233951e-03,
       -9.96550731e-03, 7.85580080e-04, -1.70053099e-05, -8.61582533e-03,
       -8.06794874e-03, -8.37124977e-03, 5.54315653e-03, 1.12418560e-02,
       1.00485533e-02, -7.54600484e-03, 4.68911931e-05, -1.20891717e-04,
       4.10668924e-03, 8.32550600e-03, 6.97746314e-03, 7.41895128e-05,
       -5.78069048e-05, 2.00043214e-04, 1.04090653e-03, 6.93314662e-03,
       1.24619296e-02, -1.55121472e-03, -5.84415393e-03, -1.39052803e-02,
       5.25785750e-03, -3.11286398e-03, 1.11351330e-02, -4.67322767e-03,
       -1.60673307e-03, -4.41774121e-03, 1.47935888e-03, 8.15946609e-03,
       -5.10678720e-03, -4.53610090e-04, 7.58781470e-03, -7.54408829e-04,
       -2.21759337e-03, 4.19552933e-04, -5.89368585e-03, -9.11825523e-03,
       -6.46412000e-03, -5.79803577e-03, -1.66136760e-03, 2.58542807e-03,
       4.07282612e-04, -3.70250293e-03, 1.60348578e-03, 5.73236914e-03,
       4.67938930e-03, 5.86492708e-03, 9.89854708e-03, 4.29267623e-03,
       3.07332003e-03, 3.64071410e-03, -8.17637332e-03, 1.57056114e-04,
       1.76394656e-02, 8.63204617e-03, -3.47065064e-03, -1.56555176e-02,
       -1.23787997e-02, -1.36007434e-02, -1.21596148e-02,
       -3.84950498e-03, -3.44686978e-03, -5.11068793e-04, 5.21591213e-03,
       1.61974560e-02, 1.23862000e-02, -7.00659398e-03, -2.03764858e-03,
       -6.26559975e-03, 2.25070096e-03, -1.53727224e-03, 1.16911680e-02,
       -9.28744301e-03, 7.62858719e-04, 7.30963098e-03, -1.46571954e-03,
       -9.26992856e-04, -1.17205689e-02, -1.20565491e-02,
       -1.56684779e-02, -8.21114331e-03, -4.01598448e-03,
       -5.84820693e-04, 8.34100414e-03, -6.80959970e-03, -3.12402286e-03,
       -5.08942595e-03, -9.83187347e-04, -2.07374198e-03, 5.95368794e-04,
       9.13144613e-05, 1.13527272e-02, 1.30429771e-02, -1.41034983e-02,
       -1.28668325e-03, -1.50371920e-02, -9.66596417e-03,
       -1.57059710e-02, -2.37873709e-03, -3.60102829e-04, 1.05624124e-02,
       1.50296520e-02, -1.03769721e-02, -1.42064635e-02, -6.20745029e-03,
       3.12996749e-03, 2.65313755e-03, 3.32951406e-03, -7.71642989e-03,
       -7.36949407e-03, 9.28239524e-03, -5.70234656e-03, -6.94620598e-04,
       -4.14546439e-03, 6.70313416e-03, -9.29352944e-04, -3.64596862e-03,
       -2.03696475e-03, -1.15383016e-02, -4.56916261e-03,
       -6.76456885e-03, -7.02255347e-04, -3.49247566e-04, 6.83655636e-03,
       2.80119688e-03, 1.64346618e-03, 3.35666165e-03, 7.52148777e-03,
       8.77522118e-03, -5.18931076e-03, -1.35558816e-02, -5.34935668e-03,
       1.01371324e-02, 8.68653506e-03, 2.45021936e-03, -4.42227209e-03,
       1.07172010e-02, 6.41547423e-03, 8.35135393e-03, -8.43704562e-04,
       2.87998351e-03, -9.47227818e-05, 2.37741182e-03, -4.69714822e-03,
       -3.18078185e-03, -6.84965309e-03, -4.32153558e-03,
       -8.47134925e-03, -5.98451635e-03, -7.44804507e-03, 1.74526172e-03,
       -5.04979026e-03, 1.98841770e-03, -5.45051694e-03, -1.63593690e-03,
       1.53259956e-03, 5.48476004e-04, 7.43161363e-04, -6.69472152e-03,
       1.14212818e-02, -1.40034987e-04, -2.24088388e-03, 3.75937147e-04,
       1.19468588e-02, 1.22857029e-02, -8.62056913e-05, -2.28343561e-04,
       -1.80244329e-03, 9.25811566e-03, 3.38841439e-03, 3.27030732e-03,
       -2.66914791e-03, 5.37660113e-03, 6.54101931e-03, 6.71385275e-03,
       -4.98870248e-03, 4.41505254e-04, 1.19200023e-02, 5.30129205e-03,
       3.53637012e-03, 2.70748598e-04, -6.76863035e-03, -5.89757366e-03,
       -2.81784986e-03, -2.06511864e-03, -3.42724193e-03, 7.95438234e-03,
       6.00618171e-03, 6.33458793e-03, -1.89229869e-03, -5.89063298e-03,
       -8.55061412e-03, -4.57096891e-03, -4.10457549e-04,
       -6.35285536e-03, 8.63491208e-04, 3.48047446e-03, 5.18297951e-04,
       -1.88261445e-03, 6.08707918e-03, 4.49987594e-03, 5.04500046e-03,
       -7.08235195e-03, -5.85139636e-03, 1.10068265e-02, 3.94255063e-03,
       -8.72228236e-04, 6.58629835e-03, 2.81247613e-03, 7.45844515e-03,
       1.40555305e-02, -1.24404207e-02, -7.97440205e-03, -5.32348547e-03,
       -5.58141526e-03, 4.74658608e-03, 8.84619169e-03, 7.37969065e-03,
       -4.19654371e-03, -1.10253633e-03, -7.17779808e-03,
       -2.48480611e-03, -4.09817044e-03, 3.46312788e-03, 3.79858376e-03,
       -3.88716790e-03, -4.66249604e-03, -6.11564005e-03,
       -4.00450686e-03, -3.56291165e-03, 1.08875451e-03, -1.74612657e-03,
       -3.84646724e-03, -1.24227433e-02, 1.11569073e-02, 1.16852075e-02,
       1.80281904e-02, 1.59351472e-02, 9.86304833e-04, -7.68936006e-03,
       -3.87771288e-03, -7.83632882e-03, 6.08582329e-03, 5.60803665e-03,
       -1.10293198e-02, -9.02126916e-03, -4.35374863e-03,
       -6.92240195e-04, -1.07661700e-02, -7.20201107e-03,
       -5.81747200e-03, -4.97515604e-04, -8.34980328e-03,
       -1.06868427e-02, -1.31924907e-02, -2.85839685e-03, 4.80988715e-03,
       8.67495313e-03, 1.38300480e-02, 6.58470253e-03, -1.16456440e-02,
       1.88523310e-03, -2.80536339e-03, -9.18379426e-03, 8.60758871e-03,
       8.17061216e-03, 7.88775366e-03, 2.07613818e-02, 1.88381877e-02,
       6.19002152e-04, 6.86606346e-03, -1.21682705e-02, -1.75396316e-02,
       -8.26124195e-03, -1.06306542e-02, -3.17158713e-03,
       -1.30910310e-03, 1.68839120e-03, -4.01872769e-03, 4.69483389e-03,
       7.01285526e-03, -3.78797110e-03, -1.34664532e-02, -1.05264103e-02,
       -9.31188278e-03, -2.31425813e-03, -4.98535763e-03,
       -9.35581233e-03, -4.75894986e-03, -8.57476238e-03,
       -4.26872401e-03, 3.70248198e-03, -4.74474626e-03, -3.50089464e-03,
       -2.18128576e-03, -9.52222198e-03, 9.43761668e-04, 1.47039546e-02,
       -4.65724384e-03, 9.17897280e-03, -5.67002862e-04, -5.67868073e-03,
       2.23220116e-03, 4.04850626e-03, 3.95099260e-03, 1.05860708e-02,
       -4.36483417e-03, 8.13018158e-03, 7.46972905e-03, -1.89583714e-03,
       -1.17852669e-02, -7.30174268e-03, -7.07564456e-03,
       -1.24239819e-02, -7.67373433e-03, 1.82543742e-03, -2.62428657e-03,
       -1.61522810e-04, 4.01930325e-03, -8.60417914e-03, 2.92634265e-03,
       2.70721433e-03, -7.06659118e-03, -1.08173443e-02, 1.75444074e-02,
       4.39328328e-03, 8.02409183e-03, -6.25685370e-03, -2.55336426e-03,
       8.13791470e-04, 4.44921432e-03, 2.99970526e-03, 1.31858774e-02,
       6.13169465e-03, 3.26486770e-03, 3.87687422e-03, 6.47881208e-03,
       4.85169049e-03, -9.76672454e-05, -3.41363926e-03, -1.00064827e-02,
       4.62994445e-03, 1.09951878e-02, 4.17859713e-03, 4.15051309e-03,
       6.45006250e-04, -4.74102516e-03, -6.50896691e-03, -6.33437326e-03,
       -5.43607166e-03, -5.00336464e-04, -2.23600705e-06,
       -6.74422691e-03, 5.83464140e-03, 7.62509226e-05, -5.39648812e-03,
       -4.90066595e-03, -4.98116016e-03, -3.65550001e-03,
       -3.74986022e-03, -4.30376455e-03, -3.84538015e-03,
       -3.71740479e-03, -4.12073266e-03, -2.81461689e-04,
       -1.12483893e-02, 1.01444381e-03, -1.15678925e-02, -4.82932618e-03,
       1.90750114e-03, -5.78964921e-03, 1.08420523e-02, -6.28708804e-04,
       7.86391669e-04, -1.20132242e-03, 7.20127951e-03, -2.16693152e-03,
       1.56210316e-03, -1.05542997e-02, -2.62520975e-03, 1.23718381e-02,
       7.40199001e-04, 5.68712363e-03, -2.68237782e-03, 7.81977829e-03,
       2.07308889e-03, -4.51172516e-03, 3.07029579e-03, -1.32257713e-03,
       1.54927615e-02, 1.14850383e-02, 7.66141620e-03, 4.32214001e-03,
       2.60853465e-03, 8.34182650e-03, 6.32041506e-03, -3.25171277e-03,
       -9.87871736e-03, 3.25989001e-03, -9.01948009e-03, 1.97013491e-03,
       -8.70686676e-03, 5.83834480e-03, -4.31808038e-03, -1.99615862e-03,
       -2.51988554e-03, -1.12192212e-02, 1.70093495e-04, -1.25858989e-02,
       -4.24888858e-04, -7.79045280e-03, -3.84609099e-03,
       -8.98732431e-03, -2.58526159e-03, 1.44086266e-02, -3.46589996e-03,
       1.14383083e-02, 4.93433326e-03, 5.97110298e-03, 7.92273041e-03,
       -7.23939593e-05, 4.34928620e-03, 1.29563352e-02, 9.16683767e-03,
       -6.08307542e-03, 6.57924637e-03, 4.70022857e-03, 9.99024604e-03,
       5.60924923e-03, 1.52101286e-03, -8.93203542e-03, -5.58761938e-04,
       5.42630209e-03, -5.98135462e-04, 5.45875449e-03, -4.75724600e-03,
       -4.18771571e-03, 1.09165593e-03, -2.13576015e-04, -2.63910485e-03,
       2.56569660e-03, 1.66701572e-03, -3.46412510e-03, -2.26281141e-03,
       -3.91079066e-03, 2.36865971e-03, -7.96280243e-03, 1.15259201e-03,
       -1.05278799e-02, -7.90389348e-03, 1.62438937e-02, -6.70345442e-04,
       8.12195521e-03, 5.96884731e-03, 4.15727030e-03, 1.23680234e-02,
       7.22245499e-03, -3.78583325e-03, 1.22146346e-02, 7.44811352e-03,
       -3.56000499e-03, -5.14945155e-03, 2.10268167e-03, -2.49679014e-03,
       6.58476911e-03, 9.34058893e-03, -5.66007150e-03, 6.75815344e-03,
       6.91728340e-03, 1.29281054e-03, -1.47794257e-03, 1.30279642e-03,
       -1.02984183e-03, -3.68443551e-03, 6.25360385e-03, -3.62180430e-03,
       3.23012192e-03, -1.48403214e-03, -8.39688256e-03, -8.36677756e-03,
       -1.00642135e-02, -4.60996339e-03, 1.13371555e-02, 2.79142754e-03,
       -8.51002894e-03, -3.12676793e-03, 6.34869561e-03, 7.57231392e-05,
       -4.99121007e-03, 5.68335224e-03, 5.50548593e-03, 9.61538684e-03,
       1.15347691e-02, -8.20698508e-04, 2.69814162e-03, -4.22827434e-03,
       -9.57573205e-03, -8.25923774e-03, -5.50908456e-03, 8.41238257e-03,
       1.40906833e-02, 9.56607331e-03, -4.12792107e-03, -8.49823561e-03,
       -4.71906876e-03, -7.30997883e-03, -1.77705986e-03,
       -1.20071927e-02, -5.99633530e-03, 9.05483123e-03, -2.02671019e-03,
       -1.29205193e-02, -7.29944836e-03, -9.64568695e-04, 3.61939368e-04,
       1.92654243e-05, -3.84338456e-03, -9.22682974e-03, 2.80185882e-03,
       -8.13808758e-03, -8.26667156e-03, -8.59914464e-04,
       -8.78236350e-03, -6.57075085e-03, -4.09151381e-03,
       -1.16865151e-02, 4.31357790e-03, 1.78296678e-02, 5.06996457e-03,
       -1.91327592e-03, -2.68211914e-03, 4.46816115e-03, 8.90127965e-04,
       3.73264751e-03, 5.48251730e-04, -1.84066105e-03, 9.93236154e-03,
       1.86521102e-05, 2.36947974e-03, 4.88106720e-03, -3.06680496e-03,
       1.29787088e-03, -6.96716597e-03, -6.87770825e-03, -3.56631796e-03,
       5.43312309e-03, -1.91869738e-03, -1.32010672e-02, -1.02898814e-02,
       6.40951283e-03, 1.05616376e-02, 1.27074064e-03, 2.02950952e-03,
       -1.82099594e-03, 6.71949657e-03, 1.03291087e-02, 4.72644903e-03,
       -2.36532651e-03, -1.99384033e-03, -3.67117603e-03,
       -6.05356880e-03, -7.33093685e-03, 6.26345049e-04, 5.75825293e-03,
       -9.34173912e-03, -1.05743948e-02, -7.75978994e-03, 2.75446946e-04,
       4.78481990e-04, -5.79539919e-03, -6.19088206e-03, -4.17146645e-03,
       1.96227431e-03, 1.00141680e-02, 1.43359206e-03, -1.09421508e-03,
       2.74052261e-03, 3.37566808e-03, 2.05935980e-03, 9.66637686e-04,
       4.87849815e-03, 3.75441718e-03, 1.06486427e-02, 1.60019740e-03,
       1.89908384e-03, -1.03527801e-02, -3.48589336e-03, -4.44540987e-03,
       -7.76641723e-03, -1.74330128e-03, -8.50912742e-03,
       -9.10394266e-03, -1.63479876e-02, -1.02645345e-02, 5.13655925e-03,
       3.39431758e-03, 1.31784444e-04, -2.41704634e-03, 4.08934150e-03,
       5.83977625e-03, 1.55025404e-02, 4.41663247e-03, 2.27308110e-03,
       -2.86888587e-03, 4.73480759e-04, -4.79340553e-03, -1.12125259e-02,
       3.30587523e-03, -4.31106193e-03, -5.23798959e-03, -1.42508801e-02,
       8.64929636e-04, 1.30748481e-03, -2.80545093e-04, 5.66606410e-04,
       -1.24568050e-03, -6.80747302e-03, -4.35756301e-05, 2.70740595e-03,
       -3.54094955e-04, -3.89364734e-03, 1.33455102e-03, -4.66172467e-04,
       2.79656379e-03, 7.81599665e-04, -4.83143888e-03, -4.18819208e-03,
       -5.04504144e-03, -2.08031107e-03, -6.64682966e-03,
       -5.40305162e-03, 8.63653608e-03, -2.12804171e-05, -3.64274881e-03,
       -5.91972470e-03, -2.55737756e-03, -3.34742689e-03,
       -4.84439358e-03, -3.43535119e-03, 2.17001280e-03, 6.47439482e-03,
       1.13404985e-03, 3.02990782e-03, 5.66349272e-03, 1.88296603e-03,
       4.41525830e-04, 6.56171469e-03, 4.49460262e-04, -7.70862025e-05,
       3.66102468e-04, 1.37428883e-02, 3.29648238e-03, -4.27902909e-03,
       3.31767462e-03, -2.35081621e-04, -1.15081936e-03, -1.80949690e-03,
       -5.41821914e-03, -2.67209695e-03, -3.50023940e-04,
       -3.31724249e-03, 2.50650500e-03, -2.07641744e-04, -4.72817308e-04,
       -3.72449774e-03, -1.15745254e-02, -6.24123542e-03, 3.07670911e-04,
       6.28590491e-03, 2.35705147e-03, -2.89713871e-03, 7.51745189e-03,
       -4.90434561e-03, 4.18648450e-03, -3.56088369e-03, -1.79456233e-03,
       -3.36979050e-03, -4.37129475e-03, -4.89574391e-03,
       -1.22599362e-03, -7.48759077e-04, -7.58725335e-04, 6.53417828e-03,
       2.23052967e-03, -1.88190746e-03, -8.56928818e-04, 2.14872370e-03,
       -2.18828395e-03, -9.75352619e-03, 3.16816079e-03, -3.21207568e-03,
       -1.83065084e-03, -9.01842141e-04, -6.00308180e-03,
       -7.37620285e-05, 9.38444864e-03, 9.73139051e-03, 5.04325144e-04,
       2.39573256e-03, -7.87404180e-03, -4.69083292e-03, 2.77294102e-03,
       -2.35490571e-03, -5.46308607e-03, -9.29665111e-04, 4.37171292e-03,
       -8.85314832e-04, -4.92071873e-03, -3.05731990e-03, 2.84145959e-03,
       1.90149900e-03, -5.98507514e-03, -3.26598715e-03, 2.28417004e-04,
       1.02094244e-02, 4.00294457e-03, 6.87261252e-03, -9.16617736e-03,
       -7.40450202e-03, -3.65102594e-03, 2.96053104e-03, 3.70255962e-04,
       9.89080220e-03, 1.16509898e-02, 5.08592837e-03, -2.96449545e-03,
       -5.14412066e-03, -4.10572859e-03, -7.38763250e-04, 5.70785627e-03,
       -2.50228308e-03, -2.71961233e-03, 1.07841697e-02, 3.10519408e-03,
       -2.45274603e-03, -9.41581186e-03, -8.66838358e-03, 9.44158435e-03,
       -4.78488253e-03, -4.63999482e-03, -1.96902733e-03, 2.15264340e-03,
       -5.32692065e-03, -9.85654769e-04, -7.39534013e-03,
       -2.61364318e-03, 4.62362356e-03, 5.76175470e-03, 2.87983776e-03,
       1.14143547e-03, 1.28557710e-02, -5.41676208e-03, 9.04485676e-03,
       -8.83882120e-03, -8.27116147e-03, -2.20171118e-04, 8.95883609e-03,
       3.10011394e-03, -1.46611105e-03, 4.18533711e-03, 1.54283608e-03,
       8.94392491e-04, 2.54664687e-04, 8.54027923e-04, 1.29376240e-02,
       4.81838128e-03, 1.08431792e-03, 3.92788323e-03, 4.79223160e-03,
       7.15274690e-03, 2.63491971e-03, -8.25815310e-04, -3.62719293e-03,
       6.18254580e-03, 5.60022239e-03, -4.93088737e-03, -7.76711386e-03,
       1.38810724e-02, 1.15317246e-02, 8.45501386e-03, -2.10644183e-04,
       3.39098478e-04, 2.08287081e-03, -3.56261758e-03, -1.45379351e-02,
       -8.15800577e-03, 4.04856307e-03, 1.01113459e-02, 3.06524523e-03,
       -4.86883195e-03, -7.03470735e-03, -2.06442433e-03, 1.34652257e-02,
       3.66772548e-03, 8.61051958e-03, 1.55260740e-02, 1.35959079e-02,
       1.06223226e-02, 3.72364046e-03, 5.90173807e-03, 1.77904181e-02,
       1.60919933e-03, -1.39480340e-03, -2.52693682e-03, 2.48115510e-03,
       8.78699403e-03, -7.03211117e-04, -6.14326354e-03, 4.22907155e-03,
       5.14951115e-03, 1.12596862e-02, -1.01808542e-02, -4.70862957e-03,
       8.58064555e-03, 1.57071266e-03, 2.15516004e-04, -3.79190384e-03,
       -1.03606726e-03, 1.06922397e-02, -2.74835038e-04, -1.52596096e-02,
       -6.67116186e-03, 6.78923912e-03, -2.91831396e-03, -8.04843288e-03,
       -7.65840197e-03, -5.20699238e-03, -3.38137522e-03, 5.48502197e-03,
       9.77733545e-03, 6.54079439e-03, 9.55556240e-03, 9.84696089e-04,
       2.57976353e-03, -2.06774240e-03, 6.01186091e-03, 9.15853120e-03,
       -2.93502305e-03, 1.05809681e-02, 2.20212322e-02, 1.29721696e-02,
       2.64517753e-03, 3.28243105e-03, 1.60101603e-03, 3.07973009e-03,
       2.66123097e-03, -7.52185564e-03, -1.00873820e-02, -5.17483335e-03,
       1.44612463e-02, -3.26877274e-03, -2.52309372e-04, -1.54820236e-03,
       -2.10797135e-03, -5.88102639e-03, -1.05191758e-02, 1.55375013e-03,
       3.54692223e-03, -1.73219375e-03, -5.99896023e-03, 5.33847045e-03,
       -3.54259834e-03, -4.78033471e-04, -3.73464101e-03,
       -9.38038435e-03, -4.39377641e-03, -4.75725764e-03,
       -1.52546214e-02, -6.13693940e-03, -3.15575977e-04,
       -1.55857427e-03, 5.15351188e-04, -5.91854751e-03, 9.16377082e-03,
       3.11050285e-02, 6.62396615e-03, 1.53630436e-03, 5.45389950e-03,
       -3.51096067e-04, -4.99740290e-03, -5.83536318e-03,
       -5.44388779e-03, -8.08939151e-03, -1.15858414e-03, 1.64407003e-03,
       -1.40958074e-02, -8.46361276e-03, -2.08069128e-03,
       -3.30488803e-03, 4.31622565e-03, -5.73591911e-04, 4.72012581e-03,
       2.16331165e-02, 1.04892878e-02, -2.96947779e-03, -1.68250652e-03,
       5.86353103e-03, 2.86174729e-03, 3.37427948e-03, 2.02901871e-03,
       -1.32556236e-03, -8.06400366e-03, -1.69412103e-02,
       -2.13402417e-02, -1.17643932e-02, -5.96290780e-03,
       -8.95361882e-03, -1.05387922e-02, -4.89261886e-03, 9.26647685e-04,
       5.81992371e-03, -3.53586557e-03, -1.50321396e-02, -1.88126862e-02,
       -1.14261843e-02, -5.85028902e-03, -9.02411807e-03,
       -7.61350384e-03, 6.11516647e-03, 4.73421253e-03, -2.76560872e-03,
       -1.20216869e-02, 1.41216451e-02, -4.08806000e-03, -2.27747229e-03,
       -5.81026962e-03, 7.90816359e-03, 1.75086297e-02, 1.35601861e-02,
       5.20930113e-03, -9.99132055e-04, 2.06110440e-02, -3.91937606e-03,
       -1.23250618e-04, -7.86686782e-03, 6.16892939e-03, 4.04592324e-03,
       1.76667329e-02, 1.30444821e-02, 9.62631963e-03, -4.93481348e-04,
       1.45397102e-03, -2.56465166e-03, 1.68618164e-04, 8.95234384e-03,
       -1.41407046e-02, -1.19240675e-02, -1.44917909e-02, 1.69574982e-03,
       5.32956421e-03, -1.79206289e-03, -2.03482807e-03, -4.15534060e-03,
       -5.78522496e-03, 1.35827791e-02, 6.60489546e-03, 6.39694137e-03,
       4.99976054e-03, 5.23313321e-03, 7.03081489e-04, -3.34687158e-03,
       -4.62272018e-03, 1.58926509e-02, 2.34856922e-03, -1.70918240e-03,
       -1.00430688e-02, -7.32639339e-03, -5.79471607e-03,
       -6.17756275e-03, -8.96500796e-03, -9.70442686e-03, 2.29421165e-03,
       -7.82801246e-04, 6.49149437e-03, 1.49376341e-03, 2.31660996e-02,
       -3.76731670e-03, 5.24817221e-03, -1.44829997e-03, 3.83442407e-03,
       3.62832053e-03, -6.21195557e-03, -1.76908565e-03, -5.30380476e-03,
       2.27004997e-02, -2.59640747e-05, 1.13046281e-02, -6.70292554e-03,
       3.82936629e-03, -4.34810529e-03, -8.11410788e-03, -1.68895558e-03,
       -6.96083484e-03, 1.25825610e-02, -7.80629134e-03, 4.37276933e-04,
       -5.76741854e-03, -8.07477045e-04, 2.76577007e-03, -1.03304787e-02,
       -5.56249591e-03, -4.75508301e-03, 7.42599601e-03, 3.43864528e-03,
       2.30911863e-03, -1.30370690e-03, 5.09572309e-03, -1.82938843e-03,
       3.70949926e-03, 3.37934913e-03, -5.33552049e-03, 1.36582917e-02,
       -1.05385378e-04, 1.58318635e-02, 1.77245494e-03, 8.94683413e-03,
       -1.72458775e-03, -2.10790941e-03, 8.64654593e-03, -9.42725746e-04,
       1.60150006e-02, 7.97230285e-03, 1.71346609e-02, -3.20521445e-04,
       6.43262919e-03, -7.78881367e-03, -3.02422163e-03, -3.41222389e-03,
       -1.11676368e-03, -2.03275867e-03, -1.26798404e-02, 9.74964909e-03,
       8.79688188e-03, 1.89468767e-02, 2.84241210e-03, -6.94899587e-03,
       -4.00725240e-03, -2.32238858e-03, 3.76733043e-03, 7.94866867e-03,
       7.70193292e-03, 5.47824986e-03, 9.84187704e-04, 3.87723907e-03,
       -1.72962167e-03, 1.18493373e-02, -2.38794205e-03, 3.80329043e-03,
       -6.46297913e-03, 1.42544182e-02, -4.57747979e-03, -7.15424831e-04,
       -1.13004334e-02, 1.01755857e-02, 3.16164084e-02, 1.50541486e-02,
       4.94566979e-03, -8.32921593e-04, 3.44265980e-04, 6.10913662e-03,
       2.34557246e-03, -1.32838832e-02, 3.83830513e-03, 1.51187263e-03,
       5.72518632e-03, 1.09297386e-03, -3.26967658e-03, 7.26436730e-03,
       -4.26482316e-03, -1.32865505e-02, -1.70455035e-03, 7.10945018e-03,
       -3.99082759e-03, 9.94909927e-03, 3.21494089e-03, -1.16581926e-02,
       -3.49090761e-03, -1.18014810e-03, -6.74079638e-03, 1.14209689e-02,
       2.55340873e-03, 9.29972157e-03, -1.92050962e-03, -9.37493891e-03,
       -2.26962157e-02, -8.81214906e-03, 4.83372109e-03, -5.01311338e-03,
       -2.21649557e-02, 1.36291087e-02, 3.19765620e-02, 2.05472633e-02,
       5.37041982e-04, 1.76657345e-02, 5.53159509e-03, 2.98358947e-02,
       1.36797559e-02, 1.89213397e-03, -1.23667894e-02, -1.83225274e-02,
       -5.28910803e-03, -5.92492986e-03, -1.04264496e-02,
       -1.22762267e-02, -6.36025658e-03, -1.65072251e-02,
       -8.26251786e-03, -3.89714655e-03, -1.37092248e-02,
       -9.99171752e-03, -1.18714524e-02, 1.29891909e-03, 6.86953776e-03,
       7.71393022e-03, 7.28421751e-03, -8.03739298e-03, -3.39761167e-03,
       -1.95403863e-03, -5.27375331e-03, -1.36863133e-02, 1.58450135e-03,
       -5.67500014e-03, 8.72363243e-03, -7.73459021e-03, -1.28501328e-02,
       9.20590572e-03, 4.96957451e-03, 1.02806520e-02, 2.14118231e-03,
       -5.69520937e-03, 5.69144404e-03, 1.17706042e-02, 2.19433825e-03,
       -5.02636656e-03, -1.11156190e-02, -1.68961119e-02,
       -1.16970958e-02, -1.07677951e-02, -3.47840809e-03,
       -3.76102771e-03, 2.24429946e-02, 2.08007847e-03, -1.32935364e-02,
       4.24922764e-04, 1.24794489e-03, 1.53097743e-03, 1.21678347e-02,
       7.98277464e-03, 8.67563393e-03, -4.20723855e-03, 3.49034613e-04,
       -8.01447593e-03, -2.32907390e-04, -3.16919293e-03,
       -6.81933342e-03, -3.02418601e-03, -6.66680280e-03,
       -7.66886910e-03, -1.13025066e-02, -8.88284016e-03,
       -6.34389045e-03, -2.96790618e-03, 2.42221213e-04, 5.53750386e-03,
       4.58989805e-03, 2.34972127e-03, 6.85431436e-03, -1.79096255e-02,
       -1.04984529e-02, -1.82859600e-03, 3.85025027e-03, -1.82073307e-03,
       8.66601337e-03, -3.18968389e-03, 1.47312684e-02, 2.29513599e-03,
       8.68287217e-03, -1.48820039e-03, 1.03354803e-03, 7.52149615e-03,
       5.35049243e-03, 5.11053624e-03, 1.70523524e-02, -5.00486465e-03,
       1.25460504e-02, -1.09002842e-02, -9.86918807e-03, 3.45330196e-03,
       1.31978653e-02, -5.27794822e-04, 4.52702167e-03, -3.50136589e-03,
       1.02773793e-02, -6.74634532e-04, -1.33544309e-02, -1.04792025e-02,
       1.56282913e-02, 4.19838168e-03, -3.22602480e-03, 7.61016971e-03,
       3.81303625e-03, 1.35340793e-02, -6.52361894e-04, 5.41403890e-04,
       -7.85204023e-03, 7.76456995e-03, 5.73660154e-03, -1.07799154e-02,
       -1.79500564e-03, -2.72014318e-03, 1.02587100e-02, 7.67476764e-03,
       -3.31382547e-03, -1.03646666e-02, 3.45577067e-03, -5.04012080e-03,
       -2.09053885e-02, -2.85270857e-03, -7.74333067e-03, 3.96841485e-03,
       -9.49317683e-03, -9.57904290e-03, -1.41619295e-02,
       -2.74135818e-04, 3.37919919e-04, 4.27695969e-03, 8.30543600e-03,
       -2.16273358e-03, 1.06871454e-02, -5.36908582e-03, 2.29099160e-03,
       -8.90546478e-03, 2.13048398e-03, -1.80310966e-03, 1.89256656e-03,
       1.12597365e-02, 8.98604840e-03, 6.64166687e-03, -8.29275697e-03,
       2.44385359e-04, -9.79648996e-03, -2.17497093e-03, 1.11181871e-03,
       -2.45513837e-03, 4.97884816e-03, -1.34777203e-02, 1.73803177e-02,
       -8.13878048e-03, 1.15320962e-02, -7.92658684e-05, 1.91385183e-03,
       -5.55302203e-03, -2.74949917e-03, 2.47259811e-03, -1.22984685e-02,
       -7.91999418e-03, -1.87493097e-02, 1.76789972e-03, -1.17072044e-02,
       -8.89297668e-03, -6.24210155e-03, -3.85596766e-03, 1.14599699e-02,
       1.19985156e-02, 1.41279334e-02, -3.70710483e-03, 3.99377290e-03,
       -2.05512554e-03, -8.41218047e-03, -5.50621981e-03,
       -1.45082725e-02, -5.96012129e-03, 1.81200868e-03, 3.56005761e-03,
       -1.26833068e-02, -2.91500892e-03, -5.68829244e-03,
       -2.16996600e-03, -3.69337969e-03, 6.44274615e-03, 1.08256498e-02,
       1.40460301e-02, 9.87259392e-03, 1.47237501e-03, 5.63860405e-03,
       -2.68314237e-04, -1.52238049e-02, 3.19539709e-03, 1.21323147e-03,
       4.12105164e-03, 5.41805569e-03, 4.25388367e-04, 8.73977877e-03,
       1.39089366e-02, 5.08098211e-03, -2.13478979e-05, -2.65050377e-03,
       -9.80493054e-03, -9.00200754e-03, -1.16133410e-02,
       -1.93369226e-03, -1.42329913e-02, -4.67147538e-03,
       -8.46621301e-03, 9.38092999e-04, -5.98050095e-03, 5.87020023e-03,
       8.56446382e-03, -1.89382844e-02, -1.96162593e-02, -1.53725035e-02,
       -1.45189958e-02, -1.24816177e-02, -1.22256819e-02, 8.14973097e-03,
       8.51427484e-03, 1.42714102e-02, 7.60428738e-05, -1.48290396e-03,
       -1.53053377e-03, 4.25036438e-03, 1.67381635e-03, -3.39482003e-03,
       5.58426278e-03, 1.63504854e-02, 1.55623164e-02, -3.73976398e-03,
       2.33197003e-04, 3.83186503e-03, -4.35964763e-03, -3.14650289e-03,
       -8.39358754e-03, -9.40042548e-03, 8.95990711e-03, 1.52621539e-02,
       -3.74283129e-03, -3.20722139e-03, -8.79830681e-03,
       -1.52544659e-02, -1.39456298e-02, -1.01377470e-02, 2.04959605e-03,
       2.77569960e-03, 6.32618694e-03, -9.79283545e-03, -3.62259382e-03,
       -3.38054146e-03, -8.53062235e-03, -1.01590715e-02,
       -5.52507443e-03, 1.28167821e-03, 1.87042430e-02, 2.18848214e-02,
       -5.75275021e-03, -5.87907061e-03, 2.56686378e-03, -9.71356779e-03,
       -5.88983810e-03, -1.72736477e-02, 1.02195814e-02, 5.39222732e-03,
       2.12889127e-02, -9.23234411e-03, 3.15832836e-03, 2.64473958e-03,
       1.28000521e-03, -7.67064700e-03, 1.09949871e-03, 9.57617187e-04,
       -9.78926197e-03, -3.06806964e-04, -8.78807809e-03,
       -3.01193912e-03, -4.81583504e-03, -1.95128145e-03, 9.16960242e-04,
       -3.78766633e-03, -6.70551835e-03, -1.79497935e-02,
       -4.34382446e-03, -5.62031148e-03, -6.30218536e-03,
       -6.03796775e-03, -7.68963248e-03, -8.81059933e-03,
       -6.59628911e-03, 7.48296408e-03, 3.79727781e-03, 1.77202187e-02,
       1.33914305e-02, 5.96456183e-03, 1.08217271e-02, 1.25031564e-02,
       1.12831006e-02, 6.20283652e-03, -5.74121252e-03, -9.71448142e-03,
       2.32280721e-03, 6.61064312e-03, 1.27676560e-03, -1.18303671e-03,
       2.96755484e-03, -3.37358564e-03, 7.73828942e-05, -7.98512530e-03,
       -1.37600508e-02, -2.49921856e-03, -6.65837619e-03, 3.15119559e-03,
       -1.04526617e-02, -2.56940024e-03, -5.09530352e-03, 2.20864802e-03,
       -2.21030135e-03, -6.58181554e-04, 1.59638915e-02, 5.15288580e-03,
       -3.48573085e-03, -6.80250721e-03, -6.97722705e-03, 2.23106472e-03,
       5.32270595e-03, -7.20136613e-03, -1.34238256e-02, -4.13159141e-03,
       -2.87605799e-04, 4.67211101e-03, -3.46412067e-03, 4.63037053e-03,
       -4.61638533e-03, -1.52717507e-03, -5.84228616e-03, 4.80114436e-03,
       1.25546549e-02, 9.74001549e-03, 1.21319259e-03, 4.14778385e-03,
       1.41481617e-02, 1.34757278e-03, -5.63132018e-03, -3.49549460e-03,
       -8.78369343e-03, 3.99219757e-03, -1.39781423e-02, -6.81332964e-03,
       -7.15432782e-03, -6.02000766e-03, -6.49269251e-03, 8.32532882e-04,
       2.58554239e-04, -3.32583976e-03, 2.56835180e-03, -7.36191450e-03,
       1.52257911e-03, 2.56456900e-03, 8.71250057e-04, -6.58977265e-03,
       -2.43832660e-03, -4.31489246e-03, -4.57961904e-03, 5.94108831e-03,
       -1.49431173e-02, 6.52903086e-03, -1.21545559e-03, 1.95467751e-02,
       7.05626793e-03, -2.02348898e-03, -5.57717402e-03, 3.38313985e-03,
       9.58974008e-03, -1.78432360e-03, -1.55434420e-03, 1.23940669e-02,
       8.55596643e-03, 4.65278281e-03, -4.74969577e-03, -2.29570665e-03,
       -2.00439664e-03, 4.41057811e-04, -7.84104224e-04, 7.52026075e-03,
       6.94992812e-03, 7.53975008e-03, -7.44428718e-03, 1.03877624e-03,
       -5.78891579e-03, -8.12629052e-03, -5.20787854e-03,
       -5.29078441e-03, 4.27038223e-03, 4.99561802e-03, -5.68888267e-04,
       -1.38690164e-02, -6.81819115e-03, -2.85210926e-03,
       -1.73982524e-03, 8.57393257e-03, 1.25002405e-02, -9.57145039e-06,
       1.32083315e-02, 1.30405659e-02, -5.91476122e-03, -2.78884755e-03,
       5.54741221e-03, -4.52597579e-03, 6.40338240e-03, 4.38688975e-03,
       -4.82328190e-03, -1.72545412e-03, -2.43059616e-03,
       -1.11266896e-02, 2.45214847e-04, -4.39216383e-03, -5.07595669e-03,
       -4.61063441e-03, -3.66507238e-03, 4.36529238e-03, 7.64487032e-03,
       3.33419186e-03, -4.17458219e-03, -6.15490647e-03, -1.70668738e-03,
       -4.95826127e-03, -3.56489490e-03, -5.36804693e-03,
       -5.27653792e-05, 4.87881247e-03, -2.51301611e-03, -5.18166274e-03,
       -4.76386445e-03, 7.15163955e-03, 5.88883925e-03, 8.85366369e-03,
       6.67434139e-03, -3.08764679e-03, 7.97978195e-04, 8.15950613e-03,
       2.01339182e-03, 3.42233106e-03, -3.57190846e-03, -1.16249919e-03,
       2.09778990e-03, -3.53004877e-03, -1.05813760e-02, 2.10753479e-03,
       1.47580123e-03, -3.27508803e-03, -5.75821428e-03, -2.88232206e-03,
       -5.49622811e-04, -2.26093107e-03, -3.98204615e-03, 5.47744986e-03,
       1.45157818e-02, -1.49802840e-03, -3.33638489e-03, -1.29292894e-04,
       3.92635074e-03, 8.23819952e-04, 3.27137369e-03, -2.63659516e-03,
       -2.74872361e-03, 6.16468955e-03, -3.60280182e-03, 7.72102037e-04,
       3.43607459e-03, -7.13962596e-04, -3.33550666e-03, -3.19993054e-03,
       -1.97951635e-03, -1.12187648e-04, 1.08093740e-02, -5.42514492e-03,
       -5.93540352e-03, -3.92868789e-03, -1.39827572e-03, 5.75916935e-03,
       -4.29780781e-03, 3.56223038e-03, -4.86430433e-03, 8.04755837e-03,
       -2.75849295e-03, -7.05452927e-04, -4.31855023e-03, 3.16514261e-03,
       -5.40001644e-03, -1.17637210e-04, -4.06163000e-03, 6.49833446e-03,
       9.07157455e-03, -8.30787513e-03, -8.12070537e-03, -2.24265430e-04,
       2.87042139e-03, -1.17876623e-02, -4.64704726e-03, -4.01638495e-03,
       9.44352616e-03, 5.09858876e-03, 3.56147275e-03, -4.45257407e-03,
       1.04612904e-02, 3.81972967e-03, 8.61797668e-03, 4.35888814e-03,
       -1.10082957e-03, 2.71626841e-03, 3.07638105e-03, -5.85822389e-03,
       1.66724715e-03, 5.74467517e-03, 3.37238261e-03, -5.64005645e-03,
       -1.81622885e-03, -6.74932147e-04, 4.62004356e-03, -6.39131642e-04,
       -4.55228239e-03, 4.16620023e-04, 4.66279546e-03, 7.22206431e-03,
       -6.78951805e-03, -4.77992324e-03, -4.67920629e-03, 2.68793595e-03,
       7.86287896e-03, 1.23329172e-02, -4.09562048e-03, 4.78801923e-03,
       5.32808295e-03, 1.53555989e-03, -5.68091637e-03, -4.63048788e-03,
       9.71623138e-03, -2.02247803e-03, -2.98059871e-03, -1.06140207e-02,
       6.02341164e-03, 9.73809161e-04, -6.84593106e-03, -4.55973763e-03,
       -1.90119538e-03, -2.10924656e-03, -2.18124012e-03,
       -2.31545605e-03, -5.38197905e-03, 4.12220089e-03, 6.62028324e-03,
       -2.27849418e-03, -6.21818751e-03, 1.16861332e-03, -1.32050831e-03,
       -1.41057500e-03, -7.65894656e-04, -3.07133025e-03, 7.87365157e-03,
       -1.86831073e-03, 6.66432269e-03, -6.38108328e-03, -5.25051774e-03,
       7.06773903e-03, -2.76811328e-03, -5.81407826e-03, -7.36948336e-04,
       -1.75778929e-03, 3.00553278e-03, 4.23023989e-03, -6.36895653e-03,
       4.30584000e-03, 4.17966302e-03, 4.69511189e-03, -2.69559445e-03,
       8.34977813e-03, -3.91389290e-03, 2.21076515e-03, 1.13284495e-03,
       -9.34082456e-03, -5.52924955e-03, -1.75947242e-03,
       -4.87615913e-03, -2.34764582e-03, 3.77001800e-03, 2.24422850e-03,
       7.65915844e-04, 3.35792522e-03, -3.05625750e-03, 2.58177100e-03,
       -6.38000062e-03, 6.24688901e-03, -1.33425172e-03, -3.27591365e-03,
       -8.23251251e-03, -6.34188438e-03, -2.04247655e-03, 3.59486579e-03,
       8.96640122e-03, 5.95036894e-03, 4.94419597e-03, -6.93562580e-03,
       -3.25647183e-03, -2.29367148e-03, 4.06648172e-03, -4.32716450e-03,
       -7.80346571e-03, -7.49596767e-03, 4.15454665e-03, 1.10644556e-03,
       -4.75242734e-03, 1.20611978e-03, 1.12044094e-02, -1.73803791e-03,
       -1.76200771e-03, 7.20187440e-04, 4.94704256e-03, -1.51422177e-03,
       1.95238204e-03, 1.19316345e-03, 4.73171519e-03, -4.01506620e-03,
       8.00053123e-03, 2.89818924e-03, -1.03466436e-02, -5.63908694e-03,
       5.43295452e-03, -4.82839579e-03, -6.51598349e-03, -2.88468227e-03,
       3.20155686e-03, 1.00906314e-02, -7.03433109e-03, -5.26775513e-03,
       6.82893256e-03, 7.63153250e-04, 3.34349484e-03, 1.35344593e-03,
       3.85015528e-03, 1.41843865e-02, -6.17059972e-03, -1.49755813e-02,
       -5.32989623e-03, 1.73784140e-02, 5.10601839e-03, 6.95689581e-03,
       -4.91507351e-03, -2.64461222e-03, 1.20656169e-03, 1.15088047e-02,
       -1.47530562e-04, -5.17831417e-03, 5.80087258e-03, 1.82816922e-03,
       7.87892751e-03, 1.54078961e-03, -1.05888594e-03, 6.15053438e-03,
       -2.58124620e-03, -6.03970187e-03, -4.66834567e-03, 1.60124060e-02,
       1.12579227e-03, 4.31164587e-03, 2.34337430e-03, -6.67585933e-04,
       -4.61956160e-03, 2.16109422e-03, -8.84353556e-03, -6.38694968e-03,
       8.83866940e-03, -5.02807042e-03, -4.66591865e-03, -1.17534390e-02,
       1.19687384e-03, 9.87255760e-03, 9.05917957e-03, 7.82540999e-03,
       3.24360630e-03, 1.57757774e-02, -7.55596440e-03, 3.57215339e-03,
       -2.90812668e-03, 2.17390107e-03, 7.83946831e-03, 7.78634707e-03,
       -6.59049395e-03, -1.39833232e-02, 6.37126807e-03, 3.20827332e-03,
       -1.19846575e-02, -1.18245250e-02, -2.06997967e-03, 1.01955375e-02,
       8.16054177e-04, 6.98645774e-04, -7.91735761e-03, 6.26754109e-03,
       -6.86510280e-03, -9.24960710e-03, -5.61024109e-03,
       -2.11594766e-03, 2.72215507e-03, 4.13836399e-03, 5.29482169e-03,
       8.05293396e-03, 3.68403979e-02, 1.44959204e-02, 1.82078537e-02,
       7.27771781e-03, 4.40550782e-03, -3.23300506e-03, -7.89236184e-03,
       -7.77975563e-03, 2.25938624e-03, 1.82807390e-02, 1.11757750e-02,
       9.14678443e-03, -6.62393076e-03, -3.25622573e-03, -6.65246043e-03,
       -4.24532825e-03, -7.16046663e-04, -4.46353760e-03, 6.87474385e-03,
       -9.31627990e-04, 9.81998746e-04, -5.33000682e-04, -1.75404304e-03,
       -8.28816369e-03, -1.19354092e-02, -6.10225834e-03, 2.04235839e-04,
       -5.98711893e-04, -1.13005964e-02, -4.63543413e-03,
       -8.23456701e-03, -5.24734752e-03, -9.18562431e-03, 7.37548759e-03,
       7.71505944e-03, 1.08873397e-02, 2.08124071e-02, 7.41433166e-03,
       1.18506951e-02, 9.22540494e-04, 5.93635254e-03, 8.60504061e-03,
       2.68820184e-03, -2.53231707e-03, 1.85651716e-03, 1.36550404e-02,
       6.31019613e-03, 1.12800868e-02, 5.05845202e-03, 5.63550217e-04,
       4.48409439e-04, -5.31839952e-03, -3.05402005e-04, 8.07993487e-03,
       -1.18449284e-02, -1.17017599e-02, 2.13718461e-03, -7.62617961e-03,
       -3.76460352e-03, -7.17030081e-04, 8.91532225e-04, -4.45070537e-03,
       -6.48352783e-04, -9.70592606e-04, -2.96891783e-03,
       -7.94589520e-03, -3.03802709e-03, -3.75835295e-03,
       -5.23517374e-03, -5.64376824e-03, -4.06900514e-03, 9.08180897e-04,
       2.13831328e-02, -6.68822275e-03, 7.03746872e-03, 1.76329433e-03,
       -2.22150981e-03, -5.30848792e-03, 4.51655680e-04, -5.04594715e-03,
       -1.09671836e-03, 1.42088952e-02, -2.37046927e-03, 7.74759008e-03,
       -3.19834356e-03, -4.32402687e-03, 1.96257397e-03, 6.39111409e-03,
       -1.54048868e-03, -4.25237376e-04, 8.77838954e-03, 3.52261844e-03,
       -5.88454027e-03, -5.08217746e-03, 3.76026001e-04, -8.78500636e-04,
       2.91858427e-03, -1.22826314e-02, -1.22420210e-02, 1.53382877e-02,
       1.19637512e-02, -1.12550436e-02, -7.75583275e-03, 1.19193154e-03,
       7.19532603e-03, -8.21113493e-03, -1.57309435e-02, -4.30961512e-03,
       4.70534293e-03, -1.34860016e-02, -1.26481000e-02, -7.62511743e-03,
       -2.61483761e-03, -3.73463007e-03, -1.20330695e-03, 1.96223310e-03,
       1.37459207e-02, 1.12336120e-02, 2.67295283e-03, 9.24978231e-04,
       -1.36174331e-03, -2.81475601e-03, -4.55477415e-03,
       -1.05806477e-02, -1.89773198e-02, -2.13444959e-02, 5.43003902e-03,
       -2.17357674e-03, -2.15870608e-02, -1.07553890e-02,
       -7.17497291e-03, -4.27044462e-03, 7.47240614e-04, -7.01733353e-03,
       1.25292543e-04, 1.63017213e-02, -2.35406775e-03, -2.80570704e-03,
       5.67632215e-03, -1.12130959e-03, 1.56953291e-03, -1.02679373e-03,
       -2.55633215e-03, -2.80693243e-03, -1.51677951e-02,
       -2.74477585e-04, -1.03311501e-02, -3.01439082e-03,
       -6.47537690e-03, 2.04879604e-03, 9.48183239e-04, 9.53086652e-03,
       4.61241743e-03, -1.82935279e-02, 4.23380127e-03, -1.29324580e-02,
       -7.13436306e-03, -9.73306503e-03, -3.31119285e-03, 1.03063777e-03,
       8.11508100e-04, -3.51717463e-03, -1.58798154e-02, -2.42436444e-03,
       -6.68747909e-03, 9.02403798e-03, 4.63744014e-04, 6.94286078e-03,
       -6.51896093e-03, 5.22223907e-03, 4.52781981e-03, -9.64473840e-03,
       9.90881957e-03, -5.49819227e-03, 1.02853887e-02, 3.81165743e-03,
       -2.12482875e-03, 1.32560479e-02, 1.23074846e-02, 8.24365020e-03,
       -1.40548451e-03, 7.52558000e-03, 6.18053076e-04, 1.04007982e-02,
       4.41128388e-03, 1.75449960e-02, -8.05623550e-03, -8.91574938e-03,
       -1.45565905e-02, -1.30210640e-02, -7.91603513e-03,
       -5.45153022e-03, -2.98138446e-04, -2.22436199e-03,
       -3.78732383e-03, 1.70181459e-03, 1.21262679e-02, 1.18147321e-02,
       6.59135729e-03, 5.62800746e-03, 3.88096320e-03, 1.07926540e-02,
       7.17433402e-03, 4.02811216e-03, -1.15702329e-02, -1.38041573e-02,
       -5.31317061e-03, -7.57981930e-03, 7.17392005e-03, -1.10997800e-02,
       -3.75775457e-03, -1.09403459e-02, -8.89169797e-03,
       -1.00557227e-02, -1.25878176e-03, -5.87393949e-03, 1.63906589e-02,
       -7.64935790e-03, -2.81478651e-03, -7.08343554e-03, 6.53612707e-03,
       -1.91582856e-03, -4.90907626e-03, -1.75486703e-03, 1.05666369e-03,
       4.90756752e-03, -9.00982041e-03, -3.25209275e-03, -4.24390659e-04,
       5.00284275e-03, -3.28362896e-03, -9.06817056e-03, -1.12537444e-02,
       -5.67238405e-03, 1.36580477e-02, 1.61959918e-03, -5.03497990e-03,
       -1.15314303e-02, -1.09732067e-02, -4.19364311e-03, 1.99349085e-03,
       -4.63077473e-03, 1.28251025e-02, 2.08794251e-02, -4.35432419e-03,
       -2.45639845e-03, 1.12564592e-02, 5.73318778e-03, 6.15374139e-03,
       -8.38620216e-03, -6.78998046e-03, 2.09924605e-04, -9.86812264e-03,
       -1.91310700e-02, -9.44370963e-03, 3.62827210e-03, 1.07457433e-02,
       -7.87986792e-04, -1.53318383e-02, -1.51628023e-02,
       -1.29019804e-02, -1.79675873e-02, -1.69140063e-02,
       -1.55974645e-02, 7.53670838e-03, 3.70691763e-03, -1.09540916e-03,
       -8.98518506e-03, -1.05483346e-02, 9.33803059e-03, 6.49083732e-03,
       9.22092516e-03, -4.53438330e-03, -9.27907065e-04, -1.04445340e-02,
       -4.72118612e-03, 1.51000088e-02, 2.32974207e-03, 1.93309989e-02,
       1.67873185e-02, 3.14445421e-03, -1.00640208e-03, 7.05145160e-03,
       2.98218126e-03, 2.19716802e-02, -6.69069169e-03, -6.44551357e-03,
       -6.37592981e-03, -2.68188994e-02, -2.79223956e-02,
       -2.39897054e-02, -1.08620860e-02, -1.40879098e-02,
       -8.85977224e-03, -6.20141346e-03, -2.09850650e-02,
       -1.43786054e-02, -3.00698821e-02, -1.06979739e-02,
       -5.93330851e-03, -2.67272210e-03, -1.03059374e-02,
       -5.54493512e-04, -1.16364425e-02, 1.73114650e-02, 2.88570840e-02,
       1.77312717e-02, 9.02191736e-03, -1.30254952e-02, -2.09833253e-02,
       -2.62752920e-02, -1.54127413e-02, -4.89188591e-03, 1.34517169e-02,
       3.09652667e-02, 7.10963551e-03, -5.93912276e-03, 1.98137742e-02,
       1.21878216e-03, -1.43411942e-02, 2.18331092e-03, -7.76545377e-03,
       -2.53531728e-02, -1.56048983e-02, -2.43917666e-02,
       -1.92634761e-02, -1.07207820e-02, -4.38016560e-03,
       -6.70088734e-03, 4.91058407e-03, -9.71930660e-03, -2.64570862e-02,
       -2.35282201e-02, -1.81157012e-02, -1.66102666e-02,
       -2.08563870e-03, -3.02145054e-05, 4.53511078e-04, -1.25033865e-02,
       5.21252397e-03, 1.93994809e-02, 1.88607089e-02, 1.78812742e-02,
       1.16604492e-02, 4.35331371e-03, 1.79956434e-04, 2.13982537e-03,
       1.62165761e-02, 9.14235134e-04, 3.31995985e-03, 3.98167176e-03,
       -8.23068712e-03, -7.88771827e-03, -2.57900637e-03, 4.39673569e-03,
       2.86974269e-03, 1.68910844e-03, -2.41729920e-03, -1.39430612e-02,
       -9.91155393e-03, -1.30486535e-02, -6.14873646e-03,
       -7.97204766e-03, 1.19634019e-02, 4.09381371e-03, 3.27915582e-03,
       2.28788774e-03, 9.11249779e-03, 1.18250484e-02, 5.45920385e-03,
       9.87317879e-03, 8.55695643e-03, 1.64546743e-02, 1.82172004e-02,
       3.59560200e-03, -8.95955134e-04, -1.82373039e-02, -2.05798373e-02,
       -9.18227248e-03, 2.78031174e-03, -2.18204828e-03, 7.67834065e-03,
       1.05422931e-02, 5.19689638e-03, 2.52458313e-03, -1.97615195e-02,
       -2.35574972e-02, -1.95657481e-02, 6.93615945e-03, -1.29499026e-02,
       6.15226105e-03, -8.34655203e-03, -1.42635433e-02, 3.01840086e-03,
       6.00620639e-03, 1.78778879e-02, -8.21994711e-03, 1.19667929e-02,
       -1.76902337e-03, 1.49871018e-02, 1.58750417e-03, -6.99777971e-04,
       5.22354245e-03, 1.29473545e-02, 1.09553086e-02, 1.36854453e-02,
       -6.14541408e-04, 9.10891779e-03, 7.20373075e-03, -3.98773089e-04,
       -1.20557416e-02, 5.07439626e-03, -4.95453645e-03, -7.23853288e-03,
       -1.61295198e-02, 2.54044309e-03, -9.32612363e-03, 9.22163599e-04,
       -1.31737171e-02, -1.61631238e-02, 1.09186303e-02, -2.64556450e-03,
       -6.51845895e-03, -9.19700880e-03, 9.77905653e-03, -5.06883953e-03,
       1.18824886e-02, 5.84982382e-03, -1.29205640e-02, 3.34594212e-03,
       -9.57917701e-03, -3.19952657e-03, 1.21364414e-04, 7.61155179e-03,
       1.26450295e-02, 2.57636514e-02, 9.39814467e-03, -7.91322161e-03,
       -1.23376288e-02, -2.19079666e-02, -1.00479703e-02,
       -9.60176624e-03, 1.99677446e-03, -2.74747051e-03, -1.86615391e-03,
       -8.74943659e-03, -1.53247891e-02, 1.32282348e-02, -7.28149479e-03,
       -1.71779387e-03, -6.94100140e-03, 3.09276371e-03, -1.16685797e-02,
       1.64111499e-02, 1.17156142e-02, -4.78920061e-03, -2.26708269e-03,
       -1.10197281e-02, 1.65053247e-03, 3.00084543e-03, 5.36381500e-03,
       -1.25015024e-02, 8.08920362e-04, 5.89426700e-03, -5.18285064e-03,
       1.12292292e-02, 2.82511290e-04, 7.14982161e-03, -1.34219015e-02,
       6.25164434e-03, -4.98044584e-03, 2.26038378e-02, 5.31380298e-03,
       1.05317673e-02, 2.30895029e-03, 5.67317428e-03, 9.46160592e-03,
       -7.67439464e-03, -9.49043664e-04, -1.66372396e-02, 1.26430104e-02,
       -7.97712430e-03, -6.08271640e-03, 3.81231454e-04, -1.25610514e-03,
       1.08458037e-02, -3.35897994e-03, -6.44137245e-03, -1.44952629e-02,
       1.87717043e-02, 1.74531266e-02, 1.27424067e-03, -1.06903967e-02,
       -5.89295710e-03, 7.25938799e-03, -4.65791300e-03, -1.45960308e-03,
       -1.76544506e-02, 3.83521710e-03, -7.66518433e-03, -1.41563416e-02,
       3.49399075e-03, 8.54809955e-03, 1.05277188e-02, -2.61670328e-03,
       -1.16276678e-04, -3.98747670e-03, 1.94014572e-02, -1.19805825e-03,
       -5.43712405e-03, 4.78089461e-03, 6.22186251e-03, -2.11368944e-03,
       -6.71754219e-03, -2.61125248e-03, -1.20989524e-03, 9.14950669e-03,
       3.71174049e-03, 1.47840555e-03, -5.66179864e-03, -3.13972658e-03,
       3.59230954e-03, -7.06364913e-03, 1.09410190e-04, -1.67119622e-04,
       1.83746312e-02, 6.12487458e-03, -4.34039580e-03, 2.44835531e-03,
       -5.42007899e-03, -2.90394924e-03, 3.13246460e-03, 5.75751113e-03,
       6.24954328e-03, -3.00309714e-03, 4.61947359e-03, 9.14648455e-03,
       1.95089192e-03, 4.63168463e-03, 4.63186065e-03, -2.96852202e-03,
       3.75253032e-03, -9.02722310e-03, 1.12902923e-02, 4.03660256e-03,
       -2.33994634e-03, 3.52730183e-03, 4.08466812e-03, 1.35929242e-03,
       -4.73861489e-03, -2.53350986e-03, 3.02424212e-03, 5.95672987e-03,
       5.97310532e-03, -2.91201170e-03, -4.71174764e-03, -2.23980611e-03,
       -1.39975350e-03, -5.10220835e-03, -4.24830709e-04,
       -9.68657807e-03, 1.14674517e-03, 5.89319272e-03, 9.00654308e-03,
       3.86885484e-03, 8.46934412e-03, -2.56654079e-04, -1.01501122e-03,
       3.44694196e-03, -7.41320953e-04, -3.48013383e-03, 6.70941267e-03,
       6.71939179e-03, 4.30460973e-03, -3.11073777e-03, -2.41546589e-03,
       -6.56127930e-03, 4.01566876e-03, -3.35201184e-04, 9.02802451e-04,
       6.38583879e-05, -2.60423613e-03, 8.07207730e-03, -1.38731825e-03,
       7.64695229e-03, -7.39781931e-03, 5.54461451e-03, -2.01379880e-03,
       8.55172798e-03, 2.30510347e-03, 5.64556941e-03, 5.63567178e-03,
       -4.83916840e-03, -5.12073981e-03, 2.12489371e-03, 1.37950908e-02,
       -5.01476042e-03, -5.72669832e-03, -4.81178053e-03, 2.66773946e-04,
       1.39985085e-02, 1.64313382e-03, 1.68678351e-03, -2.65548378e-03,
       1.19352462e-02, -3.82442889e-03, 5.46066463e-03, -3.88048174e-05,
       2.53211893e-03, 1.57086197e-02, 3.74056515e-03, 6.89619407e-03,
       -5.66561066e-04, 5.71768871e-03, -5.77589450e-03, 3.25159263e-03,
       1.17000910e-02, 1.76078863e-02, -5.42315131e-04, -9.63639747e-03,
       -3.59541597e-03, -2.63120397e-03, -1.34080008e-03,
       -6.40707044e-03, 4.85454570e-04, -2.46681296e-03, 5.97561477e-03,
       1.12385098e-02, -1.94161851e-03, -1.10155772e-02, -1.05719576e-02,
       2.22974946e-03, -1.33804735e-02, 6.26900652e-03, 8.54380924e-05,
       6.00932585e-03, 1.47328083e-03, -7.46274274e-03, -6.78873854e-03,
       -4.79032006e-03, 7.60372495e-04, -4.87541035e-03, -5.56455634e-04,
       -7.58000650e-03, -1.67363905e-04, 6.08587079e-03, -6.37329835e-03,
       2.31769960e-03, 5.06921951e-03, 5.51762013e-03, -2.64031230e-03,
       5.91753097e-03, -4.69354168e-03, 8.12993664e-03, 6.05447392e-04,
       -6.59663288e-04, 1.65327685e-03, -3.45958909e-03, -3.58880218e-03,
       1.31595707e-05, 7.69477151e-03, 2.02444685e-03, -2.15506041e-03,
       4.12494323e-04, -3.41570051e-03, 4.56375215e-04, 9.20803472e-03,
       4.56834212e-03, -5.82830096e-03, 4.51396313e-03, -4.61371662e-03,
       3.26328416e-04, 1.73230458e-03, 6.17818790e-04, 4.69536986e-03,
       -8.68435251e-04, 3.64608481e-03, -6.45169942e-03, -5.41973487e-03,
       -8.58499575e-03, 2.36758916e-03, -3.77350114e-03, -4.60038660e-03,
       3.17866937e-03, -1.43623929e-02, 3.70534440e-03, -4.53698402e-03,
       1.31862899e-02, -2.03647581e-03, -4.18705866e-03, 2.35114293e-03,
       -9.57718468e-04, 9.22988448e-03, -2.46494845e-03, -3.21848108e-03,
       3.34136002e-03, 1.22785997e-02, 6.82671415e-03, 1.31073245e-03,
       5.16059855e-03, -5.04887290e-03, -3.79884313e-03, -1.08029265e-02,
       7.94557296e-03, -1.26496619e-02, -2.39259869e-04, -1.02164142e-03,
       4.06722631e-03, 3.63760954e-03, -3.69973527e-03, -3.35328514e-03,
       -1.07020903e-02, -4.70118178e-03, -1.07680364e-02,
       -5.51876426e-03, 9.25575849e-04, 6.21558772e-03, 5.15517266e-03,
       -8.44782917e-04, 8.61219876e-03, 6.22437475e-03, 8.73989332e-03,
       9.41969641e-03, 1.35393245e-02, 5.01723844e-04, 3.53925466e-03,
       3.05088307e-03, -1.23800919e-03, 4.74765990e-03, 1.91585021e-03,
       5.11433231e-03, 5.20909391e-03, 1.02701667e-03, -5.14472974e-03,
       -2.12302990e-03, 5.21667814e-03, -7.62765529e-03, -4.75469418e-03,
       -1.88372179e-03, -4.29101288e-03, -1.79973824e-04,
       -7.95943011e-03, -6.85471715e-03, 4.35044942e-03, 8.89080577e-04,
       -1.12534072e-02, -1.99709728e-04, 2.08582217e-03, -2.49321363e-03,
       4.22699656e-03, -5.67625975e-03, -1.02355992e-02, -1.41783280e-03,
       7.95959774e-03, 4.05340339e-04, -2.28918833e-03, 3.42082069e-03,
       3.35444952e-03, 1.61668826e-02, 2.99771084e-03, 5.86768729e-04,
       5.12795383e-03, 4.59930720e-03, -3.50017636e-03, -5.50133456e-03,
       -1.31853018e-02, 1.89198833e-03, 5.64081781e-03, -7.26441666e-03,
       -1.72307587e-03, 5.17854188e-03, -3.01024731e-04, -9.20361094e-03,
       -9.08542832e-04, 6.50106184e-03, -5.57223381e-03, 1.52105289e-02,
       1.26730491e-04, 2.68992648e-04, -1.44616992e-03, 2.23589013e-03,
       -2.91838381e-03, -5.92945283e-03, -5.87214343e-03,
       -5.93786361e-03, 9.54687782e-03, -4.03714739e-03, 1.40875881e-03,
       7.35122571e-03, 3.43659497e-03, -5.83051937e-03, -2.64342874e-03,
       -2.94911838e-03, 7.04815658e-03, 2.18442380e-02, -1.04520731e-02,
       -2.73411162e-03, 2.63307104e-03, 5.49106975e-04, -6.15279205e-05,
       -2.45252834e-03, -1.43444748e-03, 4.79714293e-03, 1.15145103e-03,
       -4.80386103e-03, -1.73867960e-03, -4.21631522e-03, 4.80708154e-03,
       -2.41204444e-03, -2.79630744e-03, 7.78844161e-03, 3.42358998e-03,
       1.07010324e-02, -2.60032504e-03, -1.48041465e-04, 8.98808055e-03,
       -3.11273127e-03, 3.61370854e-03, -2.66745978e-04, 6.78514224e-03,
       -4.82731313e-03, -8.75932444e-03, -7.98624009e-03,
       -1.27334648e-03, -4.66099335e-03, 4.96563828e-03, 4.32525203e-03,
       -8.31052253e-04, -4.35847370e-03, 9.28241294e-03, -1.93618398e-04,
       1.57002581e-03, 2.27204640e-03, 5.06871426e-03, 7.97041412e-03,
       -9.70379406e-05, -3.01354448e-03, -1.63558114e-03, 9.06501990e-03,
       -2.13161367e-03, -2.90220603e-03, 4.40967298e-04, 7.80362496e-03,
       2.15574098e-03, 5.07812994e-03, 1.95954955e-04, -4.19171847e-04,
       -4.51459130e-03, -4.74000489e-03, 3.85180931e-04, 4.70274035e-03,
       -2.10155733e-03, 6.71643065e-03, 2.41744565e-03, -1.11206213e-03,
       -3.43275536e-03, 1.49510906e-03, 7.21129356e-03, 8.30200035e-03,
       8.69170483e-03, 4.42104461e-03, -4.99167480e-03, -1.93891558e-03,
       -2.28154636e-03, -3.63468716e-04, 6.99737528e-03, -2.02786573e-03,
       -3.92579753e-03, -7.40987388e-03, -4.42592287e-03,
       -2.76004663e-03, 7.15916220e-04, 2.42191250e-03, 4.19558585e-03,
       8.50772206e-03, 5.18639525e-03, 5.08847507e-03, 3.50470492e-03,
       4.90329461e-03, -1.51240267e-03, 2.19845562e-03, 2.29604822e-03,
       -3.65961506e-03, 9.42427665e-03, 5.83936414e-03, -3.69104394e-03,
       -1.07372412e-03, -3.10491188e-03, 2.60946993e-03, 4.09099460e-03,
       6.23534387e-03, -1.75643247e-03, 8.38287733e-03, -1.66507985e-03,
       -8.46487877e-04, 7.37315696e-03, -1.26020436e-03, -2.80875620e-03,
       5.46564534e-03, 3.71462852e-03, 1.03903329e-03, 5.21265250e-03,
       2.47976580e-03, 2.06957036e-03, 6.70060189e-03, 1.22005388e-03,
       1.07297266e-03, 2.44999398e-03, 2.33072769e-05, 4.55529522e-03,
       -8.43234768e-04, 1.08810151e-02, 7.98595836e-04, -3.38921731e-04,
       2.47960235e-03, 1.27194356e-03, 6.65731449e-03, 7.61500001e-03,
       -3.14649660e-03, 5.88682434e-03, -8.90270050e-04, -8.06774711e-04,
       5.60604362e-03, -1.63331768e-03, -5.96991340e-05, -4.20053909e-03,
       -1.92246295e-03, 8.55655596e-03, -1.34579081e-03, 6.02909457e-03,
       2.29451925e-05, 4.28489968e-03, 3.51579860e-03, -2.01618415e-03,
       -2.62721186e-03, 6.46503002e-04, 2.80846190e-03, 6.56816643e-03,
       -3.84795875e-03, 4.54927748e-03, 7.08772894e-03, -3.76332365e-03,
       3.23036592e-03, 1.48226239e-03, -6.05184631e-03, -6.32234942e-03,
       9.91229550e-04, -4.80357092e-03, -1.61477190e-03, -6.05692912e-04,
       -9.84383631e-04, -8.02856032e-03, -2.27831537e-03, 2.26009428e-03,
       1.26668653e-02, 5.15384367e-03, -1.40188518e-03, 1.14065642e-02,
       1.81125745e-03, -3.54615529e-03, -1.27092400e-03, 2.01284513e-03,
       -1.83906872e-04, 2.93591851e-03, 6.21556630e-03, -1.14283303e-03,
       5.34065487e-03, -3.97397322e-04, -7.49396719e-03, 1.17626302e-02,
       -1.93825492e-03, -2.54588807e-03, -4.40136204e-03,
       -5.25953621e-03, 4.55556018e-03, -2.66732113e-03, -2.95976782e-03,
       6.19096076e-03, -5.70153026e-03, 1.51274167e-03, -6.76064054e-04,
       -4.39883908e-03, -7.80056883e-03, 7.94725376e-04, -1.64374453e-03,
       2.82984204e-03, -7.34821521e-03, 6.32866239e-03, -1.67402555e-03,
       -6.03495445e-03, -3.23152915e-03, 5.79922320e-03, 3.62930470e-03,
       -1.43747812e-03, 2.33285711e-03, 5.49041375e-04, -5.83110517e-03,
       1.12496247e-03, 4.61985997e-04, -1.53842848e-02, -2.02030386e-03,
       -2.62715109e-03, -4.10375884e-03, 1.71773555e-03, -2.54008430e-03,
       1.30019160e-02, 6.64727297e-03, 2.15995894e-03, 4.31922171e-03,
       6.52252871e-04, -2.85451999e-03, -3.59834475e-03, 5.94203826e-04,
       1.03642978e-02, 7.61239324e-04, -8.14321171e-03, -6.90100063e-03,
       8.22042860e-03, 7.52403261e-03, -2.50877836e-03, -4.09959769e-03,
       -3.86861991e-03, 4.71512001e-04, 8.98965728e-03, 1.16060069e-02,
       1.09395792e-03, -1.36229713e-02, -8.77149310e-03, 4.29693144e-03,
       2.12140661e-03, 2.56875437e-03, 1.54679837e-02, 1.57695287e-03,
       -2.13284162e-03, -1.43217761e-03, -6.86033908e-03, 1.52570929e-03,
       3.77907208e-03, 2.81967572e-03, 2.15044268e-03, 3.17736733e-04,
       4.54833964e-04, -1.59281981e-03, -2.79597682e-03, 4.61514853e-03,
       8.28132208e-04, 1.18184381e-03, -2.40556709e-03, -2.56920350e-03,
       -2.52568303e-03, -5.66148711e-03, 3.77857243e-03, -2.71069002e-05,
       -4.61763563e-03, -3.42840981e-03, 2.86181434e-03, -9.78516322e-03,
       -5.12125716e-03, -5.35977725e-03, 1.45966606e-02, 8.53418466e-03,
       4.63648001e-03, -3.99477407e-03, 7.70366192e-03, 6.46562409e-03,
       4.88661649e-03, 8.33241921e-03, 1.43284909e-02, 6.32318668e-03,
       5.89457247e-03, 6.09890511e-03, -3.15315067e-03, 4.38959105e-03,
       1.21293440e-02, -3.53888958e-03, 7.09403912e-03, 1.13948770e-02,
       -6.19731657e-03, 3.46818910e-04, 3.40087619e-03, -1.06904302e-02,
       -6.20660279e-03, 5.24654938e-03, -1.87236129e-03, -1.68295333e-03,
       -3.38061713e-03, -2.36581592e-03, -2.64791586e-03,
       -8.50548618e-04, -2.57608038e-03, 2.77326931e-03, -2.32414063e-03,
       -1.73246115e-03, 3.48361302e-03, -9.62779275e-04, 2.57218862e-03,
       1.28513156e-02, 9.46131255e-03, 3.10214050e-03, -7.40753906e-03,
       1.59572735e-02, 1.23585798e-02, 8.43953062e-03, 4.19383915e-03,
       8.92850105e-03, 1.12652984e-02, 2.69370247e-03, -4.87770746e-03,
       1.16597880e-02, 1.54348128e-02, 1.65300425e-02, 1.12782922e-02,
       1.65917235e-03, -2.68265750e-04, 3.85149196e-03, -3.15929810e-03,
       -2.28079781e-03, 5.91915974e-04, -4.44060983e-03, -5.25217177e-03,
       5.77972096e-05, -3.41637852e-03, -2.59679812e-03, -2.22870288e-03,
       -1.39757926e-02, 5.91459032e-03, 5.98586630e-03, -4.49834019e-03,
       -1.23342369e-02, -7.22702965e-03, 1.96741126e-03, 3.88885289e-03,
       5.07305842e-03, 5.51823061e-03, -6.02162490e-03, 1.11627784e-02,
       1.39604136e-02, 2.07952596e-02, 1.08296769e-02, 3.55124706e-03,
       -1.10462504e-02, -1.59567595e-02, -1.13736289e-02, 4.13464941e-03,
       -5.34957973e-04, 8.13000463e-03, 1.27224699e-02, -1.44711966e-02,
       -6.31438289e-03, -6.11189380e-03, -9.57836956e-03,
