%YAML:1.0
orio--96x120--: !!opencv-object-detector-hog
   winSize: [ 96, 120 ]
   blockSize: [ 16, 16 ]
   blockStride: [ 8, 8 ]
   cellSize: [ 8, 8 ]
   nbins: 9
   derivAperture: 1
   winSigma: 4.
   histogramNormType: 0
   L2HysThreshold: 2.0000000000000001e-01
   gammaCorrection: 1
   nlevels: 64
   signedGradient: 0
   SVMDetector: [ 1.71043053e-02, 1.94651505e-03, 1.82501227e-02,
       6.19172445e-03, 3.69662456e-02, -4.44764178e-03, 3.63290682e-03,
       -5.40330866e-03, -3.35826795e-03, -1.32065024e-02,
       -7.18895579e-03, -9.81046911e-03, -2.99811363e-02,
       -3.23869623e-02, -1.08096632e-03, -1.70232896e-02,
       -1.71549823e-02, -1.48532353e-02, -5.28981024e-03,
       -1.38502326e-02, -1.43904025e-02, 1.80271529e-02, -8.67857691e-03,
       3.28059169e-03, 3.76413502e-02, 1.91480182e-02, -8.16775765e-03,
       -1.94189027e-02, 1.32539915e-02, -3.57227796e-03, 2.25730110e-02,
       -9.62405186e-03, 3.00770365e-02, 1.82883646e-02, 1.14049064e-02,
       -1.81280505e-02, 5.03700599e-03, 1.54141858e-02, -2.43989704e-03,
       -2.31339782e-02, 6.55487366e-03, -1.19725596e-02, -1.05958467e-03,
       -1.66546181e-02, -1.42909922e-02, 1.05616320e-02, 1.25369160e-02,
       8.78458470e-03, -2.07259748e-02, 6.71086274e-03, 5.81320701e-03,
       1.15873776e-02, -1.94589589e-02, 1.38211977e-02, -8.95190146e-03,
       -1.18031050e-03, 1.58679113e-02, -6.54097600e-03, 1.14818513e-02,
       -1.44141484e-02, 1.47470727e-03, -8.25128518e-03, -6.89783273e-03,
       3.84342484e-03, 1.54545717e-02, -5.12452004e-03, -7.38728931e-03,
       7.85362348e-03, 5.48831047e-03, 2.70274524e-02, -1.42923854e-02,
       4.93502943e-03, 2.82282718e-02, -8.43806367e-04, 5.86652849e-03,
       -1.28916986e-02, -3.93217057e-03, -2.14462401e-03, 1.73541047e-02,
       -5.17292228e-03, 9.72060952e-03, 4.63117175e-02, 1.62092280e-02,
       5.17719053e-03, -1.05106561e-02, 1.48510449e-02, -4.25967574e-03,
       5.04072709e-03, 1.71761978e-02, 3.62282209e-02, -1.12859404e-03,
       2.31752042e-02, 4.42461483e-02, -3.65207368e-03, 6.34021079e-03,
       1.07450187e-02, 3.61097418e-02, -3.01873218e-03, -1.72143662e-03,
       -1.85352052e-03, 1.93814971e-02, 1.15168770e-03, -2.47462303e-03,
       1.19321235e-02, 1.26173790e-03, -3.30076576e-03, -5.75615605e-03,
       1.30884256e-02, 8.82375613e-03, 7.30705727e-03, 1.08117955e-02,
       -1.19462470e-02, 7.35402899e-03, -9.59803909e-03, -7.35315494e-03,
       -6.75825728e-03, 1.53781986e-02, 4.91001010e-02, 1.59462616e-02,
       1.82367135e-02, 2.24515833e-02, -4.92414506e-03, 9.00946092e-03,
       1.47510581e-02, -1.13886688e-02, 1.43415350e-02, 3.62892523e-02,
       1.35896541e-02, 1.28608681e-02, -1.19590871e-02, -9.68464464e-03,
       -1.83280949e-02, 9.16027557e-03, 3.97399883e-04, 1.48771610e-02,
       2.26264298e-02, 1.16574643e-02, 3.10832392e-02, 1.02043478e-02,
       2.72139460e-02, 2.07302626e-03, 1.81030054e-02, 1.56843197e-02,
       3.93590331e-02, 2.60360576e-02, -6.51691342e-03, -1.65085234e-02,
       -1.16697391e-02, 2.01157155e-03, -6.68912753e-03, -1.26310380e-03,
       -2.07523387e-02, 1.04655325e-02, 1.27741080e-02, 9.48762614e-03,
       2.32275054e-02, 8.40827357e-03, -8.76395963e-03, 1.04051847e-02,
       9.16025881e-03, -1.97846945e-02, 8.99445359e-03, -2.87914230e-03,
       3.23475036e-03, -3.55326943e-03, 1.38778891e-03, 2.87651122e-02,
       -6.70359191e-03, 1.83577444e-02, 4.36390488e-04, 2.69178916e-02,
       -1.68197770e-02, 1.25961160e-04, -3.94175947e-03, 2.13382952e-02,
       1.05670448e-02, -2.00315919e-02, 4.49516717e-03, 1.27929766e-02,
       1.15208104e-02, -9.20944323e-04, -1.42058916e-02, -2.00746791e-03,
       -2.35166382e-02, -2.95822322e-02, -2.10932847e-02, 4.72726161e-03,
       -2.89851669e-02, -1.30352913e-03, -1.89873818e-02, 6.17839722e-03,
       3.07970028e-02, -5.94875356e-03, -1.92080718e-02, -7.99243990e-03,
       1.52967703e-02, -2.22775992e-02, -2.48205774e-02, -1.05437143e-02,
       -1.79918688e-02, -2.02004761e-02, -1.70055907e-02,
       -8.43599439e-03, -1.30258314e-02, 2.55266838e-02, 1.78787932e-02,
       -1.89372916e-02, 2.67202500e-04, 3.95491160e-03, 7.06386869e-04,
       4.94082633e-04, 1.14343632e-02, -8.34426191e-03, 1.09795406e-02,
       3.55241983e-03, -2.77541503e-02, -1.14884367e-02, 6.59895502e-03,
       1.33006042e-02, -5.17079653e-03, 1.97746344e-02, 2.68581584e-02,
       1.03145540e-02, -2.92864104e-04, 6.38794247e-03, 5.82988374e-03,
       1.22785792e-02, 3.11766658e-02, 1.00489147e-02, 2.21973602e-02,
       2.32947916e-02, -3.77905439e-03, 1.04397768e-02, -8.67089664e-04,
       1.07711991e-02, -1.56655777e-02, -3.26268142e-04, 1.25962840e-02,
       2.05356404e-02, 1.01396702e-02, -1.43725157e-03, -1.19412234e-02,
       -8.21838039e-04, 1.84373138e-03, -1.07448623e-02, -1.68190000e-03,
       6.93713315e-03, -2.51169503e-02, 6.83891959e-03, -3.02202534e-02,
       -1.88775416e-02, -9.64450010e-04, 1.29151670e-02, 1.79893840e-02,
       1.51603166e-02, 4.89494996e-05, 4.82087024e-03, 2.19271630e-02,
       -1.12258503e-02, 1.28754694e-02, -7.54321646e-03, -3.88608867e-04,
       6.40561804e-03, -1.05191870e-02, 6.93141203e-03, -1.09536592e-02,
       4.29036748e-03, -7.97259808e-03, 1.50210150e-02, -8.89540836e-03,
       5.29293716e-03, 1.72409583e-02, 1.52544612e-02, 5.57951815e-03,
       -1.17828334e-02, 7.14106206e-03, -3.37416828e-02, -1.64118148e-02,
       -1.64589081e-02, -4.50809393e-03, 3.31162997e-02, -2.20321398e-03,
       2.52105426e-02, -6.33736327e-03, 2.20254045e-02, -2.94082565e-03,
       1.03293348e-03, -3.32549983e-03, -1.14328153e-02, 5.88465203e-03,
       1.61149688e-02, 4.23423277e-04, -2.70102974e-02, -3.29428446e-03,
       1.08548626e-02, 1.21021643e-02, -1.17343469e-02, 6.51358766e-03,
       -5.95979625e-03, 1.82387289e-02, 2.02115555e-03, -2.00096890e-02,
       8.41131806e-03, -1.19654192e-02, -1.51975052e-02, 7.33218435e-03,
       -1.86569095e-02, 2.58146469e-02, 1.13398358e-02, 2.67192572e-02,
       -2.31821695e-03, 1.72283463e-02, -1.85343449e-03, 1.14849769e-02,
       -5.13993064e-03, -1.71582531e-02, -8.78827181e-03,
       -2.36435365e-02, 1.76005112e-03, -1.54168746e-02, 2.43432820e-02,
       -1.57363771e-03, -1.06030917e-02, -2.21622624e-02, 7.11582880e-03,
       -2.63270410e-03, 1.55676054e-02, 3.63836437e-03, -1.32501414e-02,
       -2.87478697e-03, -2.84678545e-02, 2.92116450e-03, 2.52074259e-03,
       2.01324169e-02, 5.84020186e-03, 3.17855105e-02, 2.80748103e-02,
       1.01786982e-02, -6.66406751e-03, -6.37801643e-03, -3.43455281e-03,
       6.60112593e-03, -1.33801680e-02, -6.26791222e-03, -9.73641232e-04,
       -2.61760666e-03, 1.49700912e-02, 3.46684665e-03, -2.44205669e-02,
       -5.82734123e-03, -2.13646926e-02, 2.40325043e-03, 1.64537895e-02,
       -9.32520535e-03, 5.87935140e-03, -3.11284047e-03, -4.21063788e-03,
       -1.62122138e-02, 1.29284533e-02, 1.06197351e-03, -1.05689345e-02,
       -1.13067301e-02, -4.89418022e-03, 9.60377418e-03, -9.93581861e-03,
       1.37313074e-02, 1.04004620e-02, -2.60049710e-03, 7.44174642e-04,
       -1.18730431e-02, 5.28490776e-03, -3.05800117e-03, 2.32971366e-02,
       -2.27877721e-02, 8.61041620e-03, 1.25005143e-02, 1.08840102e-02,
       6.12891279e-03, -4.56406781e-03, -2.22924929e-02, -3.81390122e-03,
       1.47689590e-02, -2.89461315e-02, 5.41091897e-03, -1.40922526e-02,
       -5.46539202e-03, 3.09847808e-03, 1.05123650e-02, -3.41954525e-03,
       -1.49055719e-02, 1.25702387e-02, -1.28347520e-02, -9.09096445e-04,
       1.14436890e-03, -2.13722466e-03, 9.75717325e-03, -1.48932058e-02,
       -7.47046946e-03, 6.01589493e-03, 8.29234626e-03, 2.44803224e-02,
       -4.52741748e-03, 2.21419148e-02, 2.31670868e-02, 3.60957492e-04,
       -1.17495582e-02, -9.86491609e-03, -1.45708201e-02, 5.26002143e-03,
       9.97101609e-03, -3.03107838e-04, -4.39180946e-03, 6.40792074e-04,
       -8.79114610e-04, -3.07164388e-03, 4.35356284e-03, 9.25671030e-03,
       1.73250940e-02, 1.29697807e-02, -2.39163227e-02, 2.76571084e-02,
       9.87540372e-03, 1.44329923e-03, 1.19901306e-04, -4.39590774e-03,
       -8.44357349e-03, 1.88588463e-02, -1.66548714e-02, -5.86905342e-04,
       1.59284988e-04, -2.85102939e-03, -4.18968592e-03, -1.70547385e-02,
       -4.68820566e-03, 6.72049136e-05, 1.65701956e-02, -2.47579087e-02,
       -2.27716137e-02, -7.27216946e-03, -2.58105025e-02,
       -1.82344113e-02, -2.80148555e-02, -1.70740276e-03, 1.16754547e-02,
       2.41361521e-02, 1.43859126e-02, -4.70934343e-03, 1.37774926e-02,
       -2.03169994e-02, -1.14424601e-02, 7.26323808e-03, -6.62990380e-03,
       6.46447483e-03, 2.05554646e-02, 1.23664858e-02, -9.12041962e-03,
       -1.27045540e-02, -6.31233351e-03, -3.31666297e-03,
       -2.17682980e-02, -2.84239836e-03, -3.89578356e-03,
       -1.51311243e-02, 1.85893010e-02, -7.80455349e-03, 1.03966733e-02,
       4.81901877e-03, -1.57087017e-03, -1.52046643e-02, 6.60466403e-03,
       3.38026858e-03, 7.47030228e-03, -2.10648328e-02, -1.69518944e-02,
       2.55067758e-02, 9.95120127e-03, 1.55616915e-02, -6.56341435e-04,
       2.96846554e-02, 8.06416199e-03, -1.55099807e-02, -1.61794182e-02,
       1.80345611e-03, -1.80041399e-02, -1.52853774e-02, 4.30707633e-03,
       4.21221135e-03, 1.86718360e-03, 3.65125365e-04, -1.10263061e-02,
       2.76061217e-03, -1.21422959e-02, 3.13978107e-03, -6.29839906e-03,
       1.93792731e-02, 4.80178697e-03, -3.10709258e-03, -3.88227636e-03,
       -9.80051048e-03, -5.11293672e-03, -1.12046823e-02, 1.40141882e-03,
       2.87671341e-03, 1.14325508e-02, 5.33422269e-03, -6.51019346e-03,
       -2.58969571e-02, -3.45365331e-03, -2.68363883e-03,
       -1.79334916e-02, 1.43203763e-02, 3.94205842e-03, -1.02169374e-02,
       6.06189424e-04, -6.60726707e-03, -2.12693177e-02, -3.28577776e-03,
       -8.25194735e-03, 1.03815878e-02, -9.08892893e-04, -7.62283849e-03,
       -2.16116626e-02, -5.07693156e-04, -5.39456028e-03,
       -1.92202535e-02, -2.12871571e-04, 9.38329287e-03, -8.57195258e-03,
       1.87468696e-02, 3.93933952e-02, 2.10171398e-02, 1.15578016e-02,
       -1.05737792e-02, -1.68477129e-02, -1.51483379e-02,
       -6.68357220e-03, 9.56505258e-03, -1.77367206e-03, -1.03000123e-02,
       -2.00953428e-03, 2.05387175e-02, -2.55106925e-03, 2.38237604e-02,
       1.39195817e-02, 1.60540212e-02, -2.97076497e-02, 7.84127694e-03,
       -4.53978963e-03, 1.25493633e-03, 3.83873493e-03, -2.45989370e-03,
       5.66875450e-02, -1.74651109e-02, -9.66543332e-03, -2.19602380e-02,
       3.77875008e-03, -1.29347108e-02, -1.09189795e-02, 1.44392839e-02,
       -7.04711536e-03, 3.82762253e-02, 3.35684605e-02, 1.85793347e-03,
       7.19129061e-03, 1.81690212e-02, -5.48779219e-03, -9.82378703e-03,
       3.89204151e-03, 3.71255772e-03, 5.75567670e-02, 2.86509679e-03,
       -3.85671010e-04, -6.33300701e-03, 2.11149431e-03, 8.08349578e-04,
       2.07712241e-02, -2.37321053e-02, 1.56342294e-02, 7.95575529e-02,
       -1.31477416e-02, -3.34098167e-03, 1.21219002e-03, 2.86427010e-02,
       -7.06992019e-03, -2.90688947e-02, -4.16175872e-02, 3.88123910e-03,
       4.00256664e-02, -2.10361672e-03, -2.72036307e-02, -1.17177805e-02,
       -4.01692325e-03, -1.50899468e-02, -8.00727401e-03,
       -2.33595911e-02, -1.08499350e-02, 4.21573333e-02, 1.81534025e-03,
       -1.47475526e-02, -3.82127217e-03, -1.26263946e-02,
       -1.63985149e-03, -7.63070944e-04, -2.22519878e-02,
       -2.42669322e-02, -7.81812239e-03, 1.10604651e-02, -3.54242027e-02,
       -2.60576364e-02, -1.60424709e-02, -1.43438540e-02,
       -3.63920990e-04, 2.26837886e-03, 1.08870054e-02, 1.45085184e-02,
       -1.53768137e-02, -7.18671689e-03, -1.11643961e-02,
       -1.23955039e-02, -3.81260552e-02, -1.32945878e-02, 1.60369258e-02,
       2.34078132e-02, 2.78512295e-02, 6.32067025e-03, -6.64620148e-03,
       3.16187590e-02, 2.23260075e-02, -1.42907454e-02, -1.21399956e-02,
       5.61123341e-03, -1.31243104e-02, -2.99397344e-03, -2.06995406e-03,
       -9.37973335e-03, -1.72902402e-02, -3.16852592e-02,
       -3.61170657e-02, 8.36068066e-04, 1.05888173e-02, -3.25493999e-02,
       -3.15573774e-02, 1.38435699e-02, -8.86250753e-03, 6.62789028e-03,
       6.81479042e-03, -1.67429261e-02, -7.69245485e-03, 9.01759416e-03,
       5.28071681e-03, 7.87010975e-03, -1.09235924e-02, -2.45105922e-02,
       -1.49996998e-02, 3.36514004e-02, -8.68918840e-03, -2.79147760e-03,
       -2.83025578e-03, 1.57385822e-02, 2.02748161e-02, 8.68913438e-03,
       1.64838154e-02, -3.19789606e-03, 2.38074102e-02, 3.24503519e-02,
       3.03602293e-02, 6.30341936e-03, -3.50303249e-03, -1.33553436e-02,
       -8.59423075e-03, -2.83918213e-02, -9.49214026e-03, 9.90968198e-03,
       -1.13516990e-02, -8.73509701e-03, 1.31720863e-02, 8.23618192e-03,
       2.05259360e-02, 1.90082155e-02, 5.29727712e-03, 3.08102556e-03,
       9.63605009e-03, 6.84510125e-03, -2.89121061e-03, -2.29570530e-02,
       -1.43444408e-02, -2.11391971e-02, -2.84574199e-02,
       -2.13971958e-02, -2.44744346e-02, 5.14961481e-02, 5.11989780e-02,
       -6.47198595e-03, -6.69183908e-04, -1.57320332e-02,
       -3.85714229e-03, -1.09012257e-02, -1.30420960e-02,
       -1.85530670e-02, 2.04143431e-02, 2.15771552e-02, -2.21707905e-03,
       1.13179656e-02, -6.16752496e-03, 5.02648065e-04, -1.10605415e-02,
       -8.07517581e-03, -1.88865736e-02, 5.90116577e-03, 3.28487571e-04,
       7.93880969e-03, -2.81275865e-02, -1.93121880e-02, -1.60079934e-02,
       -3.36813405e-02, -3.19719054e-02, -3.43932062e-02, 3.69311310e-02,
       2.08010674e-02, 4.70817974e-03, 9.58875474e-03, -9.37460549e-03,
       1.41253853e-02, 2.01128516e-02, 2.23727524e-02, -2.29517836e-02,
       1.84279960e-02, 1.52681684e-02, 1.15740485e-02, -1.08647170e-02,
       -4.23531188e-03, 5.50797908e-03, -9.22949112e-04, 5.68779930e-03,
       -1.08667975e-02, -3.33190896e-02, -2.73310281e-02, 7.25656003e-03,
       -5.64096402e-03, 9.19857621e-03, 8.95736739e-03, -7.79985776e-03,
       -8.07315111e-03, -1.69126596e-02, 1.57971941e-02, 1.32415919e-02,
       6.59486512e-03, 6.69010822e-03, -1.94854885e-02, 2.52161990e-03,
       -1.35095855e-02, -1.20364595e-02, -7.47629115e-03,
       -6.87561976e-03, -5.39406855e-03, 9.53384396e-03, -1.10588660e-02,
       3.37518170e-03, 7.35315494e-03, 9.46519990e-03, 1.57659519e-02,
       9.39654745e-03, -9.56117455e-03, -9.45865922e-03, 1.43162906e-02,
       -1.11915474e-03, 2.53461860e-02, -2.64074508e-04, 1.35783618e-02,
       -6.38834853e-03, 6.55309437e-03, -2.38981601e-02, -7.02343276e-03,
       -1.78645807e-03, -4.04607272e-05, -7.21494714e-03, 4.74563194e-03,
       7.97773898e-03, 3.38773057e-02, 2.26362292e-02, 2.56599132e-02,
       2.26333225e-03, 1.25952438e-02, 1.70744825e-02, 5.51013695e-03,
       -1.83042814e-03, 4.21625860e-02, 1.25709865e-02, 1.69780776e-02,
       -1.35744782e-02, -9.41168889e-03, -1.73540395e-02, 5.67484368e-03,
       1.61589738e-02, -1.89996685e-03, -3.33298976e-03, -9.48445173e-04,
       7.97978509e-03, -2.84635536e-02, -1.73760597e-02, 6.64122449e-03,
       -1.77875962e-02, -1.99700408e-02, -1.48248281e-02,
       -1.15440171e-02, -2.45248191e-02, -1.14852404e-02,
       -2.21058559e-02, 4.77546081e-03, 4.24903957e-03, 2.47369502e-02,
       6.99814130e-03, 1.34839984e-02, 3.91557328e-02, 7.53135188e-03,
       6.41130563e-03, -1.03204465e-02, -4.22824966e-03, 6.22555241e-03,
       -3.69427074e-03, 7.60679832e-03, 1.60470586e-02, 1.27722919e-02,
       -7.41743576e-03, 4.73315874e-03, -7.92879262e-04, -1.11846691e-02,
       -6.38276525e-03, -1.81461480e-02, -2.27989741e-02,
       -9.00940318e-03, 7.61103060e-04, 2.89206603e-03, -7.07263732e-03,
       7.68197177e-04, 9.53591708e-03, 6.72301464e-03, -1.59252509e-02,
       3.87659646e-03, -8.85606743e-03, -1.03871580e-02, -1.12806028e-02,
       -1.61171257e-02, 2.03126459e-03, 8.16256646e-03, -7.18135526e-03,
       -2.50120498e-02, 1.86678059e-02, 1.60885472e-02, 1.38724782e-02,
       3.43470997e-03, 8.28447007e-03, -7.19884923e-03, -7.54074566e-03,
       -7.65934167e-03, -8.03683791e-03, 2.24901736e-02, 7.64579419e-03,
       -9.32034571e-03, 4.55240998e-03, -5.25155291e-03, 3.61219374e-03,
       9.50436667e-03, -1.96119193e-02, -1.24835242e-02, -8.17486271e-03,
       3.75018944e-03, -1.80151756e-03, 1.01085082e-02, 5.58494031e-03,
       -4.84169414e-03, -1.69364512e-02, -1.07121142e-02,
       -1.45422183e-02, 8.43928754e-03, -9.76250693e-03, -1.04980608e-02,
       3.49853449e-02, 4.37064329e-03, -4.91285417e-03, -8.73995200e-03,
       -2.93943239e-03, 2.56694425e-02, 1.21866334e-02, 7.99250416e-03,
       -9.34079755e-03, 1.88149419e-02, 2.00693728e-03, -6.82810927e-03,
       -2.32690400e-05, 4.53230785e-03, 1.06535770e-03, 2.11391430e-02,
       -1.86792947e-02, -2.13670898e-02, 1.51967779e-02, 3.05675250e-02,
       -2.53183767e-02, 1.11718494e-02, 1.03646927e-02, -1.08144516e-02,
       5.63623151e-03, -2.64532976e-02, -1.35142822e-02, -1.20592639e-02,
       -2.33540852e-02, 5.16923470e-03, 1.62474364e-02, 1.12201292e-02,
       1.61258429e-02, 6.38201414e-03, 3.65973654e-04, 1.25097949e-02,
       5.15847059e-04, -1.49788139e-02, -6.81589451e-03, 7.16604479e-03,
       5.78659307e-03, -8.62740632e-03, 1.25577943e-02, -4.63461829e-03,
       1.92643865e-03, -6.78253779e-03, 1.79969557e-02, 1.21282227e-03,
       4.01513241e-02, 9.11559258e-03, -6.07577059e-03, 5.13277133e-04,
       -3.25522479e-03, 2.83742659e-02, 3.77587066e-03, -9.58750956e-03,
       -1.71803392e-03, 1.51295802e-02, -1.95116305e-03, -7.50500150e-03,
       -7.23476429e-03, 2.13581743e-03, -2.78367684e-03, 9.77647211e-03,
       -6.70085615e-03, -1.34366064e-03, -6.34947186e-03,
       -9.20180755e-04, -1.14142289e-02, -1.40610815e-03, 2.54858080e-02,
       -1.58330780e-02, 4.71002096e-03, -3.20725190e-03, 5.62291779e-03,
       8.50850437e-03, 9.00844298e-03, -5.70068834e-03, -9.79883876e-03,
       -4.26658569e-03, 1.21560087e-02, 1.21739302e-02, 1.12723829e-02,
       -2.20422931e-02, -7.50189275e-03, 1.36059783e-02, 1.26862596e-03,
       -8.82659006e-05, 1.10007804e-02, 1.09020881e-02, 1.17329014e-02,
       -1.94627699e-02, -3.42161246e-02, -2.09990628e-02, 1.05688546e-03,
       1.17073245e-02, -2.19132751e-03, 2.63198279e-03, -1.48307532e-02,
       1.13164668e-03, -1.35732871e-02, 5.52190281e-03, 7.30468007e-03,
       8.69369879e-03, 1.14493994e-02, -1.11222211e-02, -5.02546597e-03,
       1.04230195e-02, 7.98997562e-03, -1.17898062e-02, 6.90108724e-03,
       -9.29348520e-04, 3.64297396e-03, -3.04367882e-03, 2.78031211e-02,
       9.32836253e-03, -1.23875961e-02, -1.31631028e-02, -8.63941200e-03,
       -1.77355036e-02, -1.93452891e-02, -1.76935680e-02,
       -1.56487022e-02, 3.27407732e-03, -3.41902371e-03, 6.47488656e-03,
       -4.06919094e-03, 3.75919268e-02, -3.08414805e-03, -1.21266190e-02,
       -2.25655604e-02, -1.74142327e-02, -2.65594572e-02,
       -1.04630748e-02, 1.82658602e-02, 2.08685044e-02, -1.26782088e-02,
       1.91865619e-02, -3.40802921e-03, -8.32100119e-03, 1.45267590e-03,
       -3.20816301e-02, 1.36740552e-02, 2.57997843e-03, -2.51739775e-03,
       -1.75760686e-02, 2.18468122e-02, 6.79849787e-03, -9.91141982e-03,
       1.04467701e-02, -2.08479650e-02, -1.08644115e-02, 2.81785009e-03,
       -1.29207158e-02, -1.72082298e-02, 1.69594884e-02, 7.27003161e-03,
       1.36880931e-02, 2.01130267e-02, -1.29485670e-02, 5.54296793e-03,
       3.07246950e-03, -7.69788539e-03, -1.75290450e-03, 3.03394869e-02,
       2.50413846e-02, 2.10640840e-02, -1.82334967e-02, -2.38488317e-02,
       4.25379053e-02, 3.95843647e-02, -1.03651462e-02, -8.22495297e-03,
       -7.82418158e-03, -1.58142895e-02, -2.07596701e-02,
       -2.33111810e-02, -1.61752626e-02, 4.35706079e-02, 1.03004668e-02,
       -5.94841363e-03, -3.43620032e-02, -2.89015938e-02,
       -1.91688519e-02, -5.46891801e-03, -9.30837821e-03,
       -3.69617192e-04, 3.74806337e-02, 6.42760321e-02, -1.28681920e-02,
       4.23872052e-03, -1.09154750e-02, 3.80120403e-03, 9.23405495e-03,
       -8.40000343e-03, 6.72827661e-03, -1.45087368e-03, 1.11108283e-02,
       -2.36928463e-02, 1.95444957e-03, -3.01668309e-02, -1.42037440e-02,
       1.59375351e-02, -2.45981663e-02, -2.74134893e-02, 1.91116873e-02,
       3.48584191e-03, -6.76435127e-04, 1.33742429e-02, -1.58581156e-02,
       -8.95829964e-03, -4.78671677e-03, -2.74543539e-02,
       -3.60430107e-02, -1.18189519e-02, -2.32843403e-02,
       -1.46437213e-02, 1.09515768e-02, -3.66724678e-04, -4.78948243e-02,
       -2.96076443e-02, -9.69592389e-03, -1.69801395e-02, 1.37826968e-02,
       4.28946801e-02, 8.93095322e-03, 4.02090438e-02, -2.58777314e-03,
       8.76386650e-03, -1.78531595e-02, -1.49619607e-02, 9.69809014e-03,
       9.93332267e-03, 6.17899885e-03, -1.60960741e-02, 4.91771996e-02,
       4.34117392e-03, 5.00067463e-03, -1.43285468e-02, 2.27385107e-03,
       -1.70988813e-02, -1.29593688e-03, -4.09667231e-02, 1.25829233e-02,
       7.36014452e-03, 7.35158427e-03, -3.92314419e-02, -1.01642858e-03,
       -1.11852139e-02, -3.95371243e-02, -2.91306432e-02,
       -3.27768736e-03, -5.38411783e-03, 1.67270545e-02, 2.95341257e-02,
       -1.67376008e-02, -3.07558402e-02, 1.65598316e-03, 2.40948051e-02,
       3.76879945e-02, 1.35140885e-02, 1.41298557e-02, 6.39386252e-02,
       -1.06500238e-02, 8.94038845e-03, 8.63569416e-03, -2.73367157e-03,
       -3.73858847e-02, -9.89640132e-03, 2.69004051e-02, 1.02073047e-02,
       4.32230458e-02, 6.05033804e-03, -4.61525330e-03, -1.77862849e-02,
       2.59692199e-03, -2.28516906e-02, -3.83129902e-02, -3.20947617e-02,
       -1.33696487e-02, 3.53010260e-02, 5.63672371e-02, 1.90238990e-02,
       -7.29128858e-03, -1.60535909e-02, -1.62488199e-03,
       -1.13429595e-02, 7.32621737e-03, -2.15786770e-02, 1.89224873e-02,
       2.44620871e-02, -8.12789425e-03, -4.21816111e-02, 4.46388945e-02,
       3.92802246e-03, -6.68445881e-03, 3.83170624e-03, 1.27505604e-02,
       3.28097083e-02, 2.78535131e-02, 1.66317280e-02, 3.26289088e-02,
       2.81207706e-03, -2.36456227e-02, -4.21380587e-02, -4.25457780e-04,
       -1.15963491e-02, -7.59463804e-03, 1.30129308e-02, 1.09931305e-02,
       -1.26745291e-02, 3.53184082e-02, -1.23677868e-02, -1.60100944e-02,
       2.94584185e-02, 1.49227716e-02, -1.25590723e-03, 1.20106470e-02,
       1.88826378e-02, 1.43947359e-02, 2.74038091e-02, -2.01613158e-02,
       -1.82768106e-02, 1.11715151e-02, 3.08181066e-02, 1.92220490e-02,
       1.02464631e-02, 1.03803677e-02, 1.90530196e-02, 2.30747089e-02,
       6.65960927e-03, -4.00664955e-02, 5.63836237e-03, -1.34586832e-02,
       -2.70297453e-02, -4.97494824e-03, 8.91228952e-03, 1.47895366e-02,
       3.59374881e-02, 2.00420525e-02, -8.36589746e-03, 1.82717014e-02,
       -2.98348535e-02, -2.50877757e-02, -2.96928827e-02, 1.64668006e-03,
       9.84881818e-03, 2.87486035e-02, -1.35916080e-02, -2.18154024e-02,
       -2.90441643e-02, -6.23892434e-03, -1.41143510e-02, 4.21370426e-03,
       5.32258255e-03, 6.79278746e-02, 2.96809152e-03, -2.00027917e-02,
       -1.20568331e-02, -2.24198420e-02, -8.36080685e-03,
       -1.93019547e-02, -8.37022439e-03, 1.98064409e-02, 4.29598540e-02,
       1.68348327e-02, -3.59940599e-03, -2.17306484e-02, -2.07225010e-02,
       -6.78520836e-03, -6.63722493e-03, 4.77711484e-03, 3.88364703e-03,
       2.29751859e-02, 7.30522117e-03, 1.88983288e-02, -7.81617872e-03,
       -7.91679136e-03, 1.70808211e-02, -1.34362457e-02, -9.89151187e-03,
       1.32567547e-02, -2.28111312e-04, -1.61949769e-02, -3.92612256e-02,
       -3.05159949e-02, -1.88079998e-02, 1.15013504e-02, -2.90376097e-02,
       -8.23735353e-03, 3.46265920e-02, 6.46410808e-02, 1.47858802e-02,
       -1.96170267e-02, -4.23338544e-03, 2.00006552e-02, 2.35350318e-02,
       7.88084883e-03, 3.47919622e-03, 3.34364548e-02, 3.54543477e-02,
       1.71940923e-02, -1.53768463e-02, -2.43653581e-02, -3.30893248e-02,
       -2.14894265e-02, -6.45786300e-02, -4.33711410e-02,
       -8.60852096e-03, 8.51333048e-03, 1.86110660e-02, -3.44228819e-02,
       -1.44425081e-02, -2.27597356e-02, -3.42950079e-05,
       -3.38177476e-03, -1.37513382e-02, 1.93164758e-02, 2.21635029e-02,
       8.17050051e-04, -2.00303979e-02, 1.89564959e-03, -3.60385515e-03,
       8.03352240e-03, -1.55246081e-02, -1.19250836e-02, 1.38717405e-02,
       5.16084880e-02, 4.76172718e-04, -1.85373449e-03, 8.21783300e-03,
       2.70260684e-03, 2.21171370e-03, -1.05833020e-02, 3.52574955e-03,
       1.73275247e-02, 3.18743847e-02, -2.59533729e-02, -4.26440425e-02,
       -2.74303462e-02, -3.50329690e-02, 1.14920838e-02, -2.27455283e-03,
       2.90856394e-03, 5.30025968e-03, 3.21514793e-02, 2.50152126e-03,
       -8.77202861e-03, 1.51981786e-02, 4.17025154e-03, 6.45149406e-03,
       1.69785023e-02, -1.27495518e-02, 3.70104797e-02, 3.71441394e-02,
       -1.86506398e-02, 2.05438994e-02, 2.94183381e-02, 1.80146098e-02,
       1.45613411e-02, -1.44721670e-02, -4.96310275e-03, -9.98026412e-03,
       1.20932274e-02, 1.81070957e-02, 7.46903941e-03, 3.87609005e-03,
       -1.89391198e-04, -1.00981500e-02, -1.58786923e-02, 5.98216755e-03,
       -2.43368056e-02, -2.18337160e-02, 1.61802731e-02, 3.75720253e-03,
       1.79051273e-02, 1.72014479e-02, 1.16364462e-02, -1.27833177e-04,
       2.26450432e-02, 4.53133620e-02, 2.28987262e-02, 1.41337952e-02,
       2.45143697e-02, 1.29805896e-02, -7.44849583e-03, -8.65094271e-03,
       -1.73014763e-03, 3.60591076e-02, -4.83857933e-04, -4.34426032e-03,
       3.60460319e-02, -8.83757696e-03, 2.03180104e-03, 4.07507131e-03,
       1.41737368e-02, -1.76413879e-02, -2.56755929e-02, -2.44036429e-02,
       1.07304780e-02, 2.08933987e-02, 1.34605132e-02, 4.77245916e-03,
       -1.70958240e-03, 1.27125131e-02, -1.60293607e-03, -2.21195091e-02,
       1.77400410e-02, 3.36339325e-03, 9.39865247e-04, 8.53905641e-03,
       7.76981935e-03, 2.63680296e-04, -1.02000649e-03, -8.61444324e-03,
       4.55212826e-03, 6.53029326e-03, 3.01164784e-03, 2.03928370e-02,
       1.81957744e-02, 1.20706912e-02, -5.30111091e-03, -2.10438650e-02,
       -2.66931560e-02, 7.55225483e-04, 1.93979498e-02, -4.70637111e-03,
       -7.06211198e-03, 4.78112139e-03, 1.51472678e-02, 2.48272321e-03,
       -2.53308960e-03, -9.31696314e-03, -2.60386132e-02, 2.98855174e-02,
       -1.75101287e-03, 4.89911530e-03, 7.10097188e-03, -7.92073086e-03,
       9.48703103e-03, 7.40620913e-03, -2.81176642e-02, -2.53872909e-02,
       3.56531106e-02, 7.47701665e-03, 7.63675431e-03, 6.19638711e-03,
       -1.76837563e-03, -1.73283070e-02, -2.00625956e-02,
       -3.25317346e-02, -1.08323377e-02, 4.20097150e-02, -5.98083297e-03,
       9.62621439e-03, 6.74689375e-03, -1.11706415e-02, 1.65097089e-03,
       -1.20263733e-02, 1.28616290e-02, -1.15251793e-02, 1.57396253e-02,
       -1.77004524e-02, 4.45056148e-03, -1.56261362e-02, -1.67938303e-02,
       -2.21998664e-03, -9.61285736e-03, -1.52470833e-02, 1.52462795e-02,
       1.88441649e-02, 5.73289627e-03, -1.95271391e-02, -1.53874815e-03,
       1.05519798e-02, -7.04541989e-03, 2.81593343e-03, -4.89198901e-02,
       -2.54747272e-02, -2.27090344e-02, -2.00458113e-02, 4.80316160e-03,
       2.59423442e-02, 2.27603111e-02, 9.09847114e-03, -1.48544973e-03,
       3.70327197e-02, 1.41463587e-02, 4.28062417e-02, -1.96054913e-02,
       -1.38374919e-03, 6.16275845e-03, 4.93217213e-03, -7.60746328e-03,
       -1.51740890e-02, -1.49255395e-02, 5.06236684e-03, 4.38818336e-03,
       -2.01004501e-02, -4.01756214e-03, 9.51173436e-03, 4.78590047e-03,
       -1.40892155e-02, -1.65441185e-02, -1.32012961e-03, 1.32342624e-02,
       -3.03789362e-04, -7.26010604e-03, -1.17314877e-02, 2.37922883e-03,
       -6.85989670e-03, 2.10466882e-04, -6.13334589e-03, 1.92751195e-02,
       -1.77009068e-02, -4.40411095e-04, -3.51602063e-02, 1.70103200e-02,
       1.05288606e-02, -2.08125403e-03, 7.05349119e-03, -2.18880363e-02,
       -5.72776655e-03, 1.52421379e-02, 2.19328050e-02, -7.04928115e-03,
       -2.97375303e-02, 5.52631100e-04, -1.30687840e-02, -7.49860844e-03,
       3.11867124e-03, 1.74146034e-02, 2.99607543e-03, 1.88777056e-02,
       -3.06890476e-02, 4.98681562e-03, -2.26049498e-02, -2.00261083e-02,
       -3.03168949e-02, 5.50184166e-03, -3.96299884e-02, 1.46976346e-02,
       4.10902407e-03, 1.03968168e-02, 1.42822042e-02, -1.60929970e-02,
       -2.37866472e-02, -4.01642267e-03, 3.33126895e-02, -2.80284304e-02,
       -4.69019497e-03, 5.61550446e-03, 1.86634418e-02, 1.90371983e-02,
       2.53075245e-03, -3.08255218e-02, -2.53187101e-02, 8.42894241e-03,
       -6.83465274e-03, 2.02931240e-02, 1.39322877e-02, 3.86086432e-03,
       1.65787097e-02, 3.29134800e-02, -2.23382493e-03, -7.87003618e-03,
       -4.30987738e-02, 1.21161742e-02, 3.46780531e-02, 2.24101618e-02,
       -7.66035868e-04, -1.18451435e-02, -2.24351417e-02,
       -2.21054014e-02, 2.22595949e-02, 6.59931302e-02, -2.39475090e-02,
       -2.01352052e-02, -9.80059337e-03, 2.37888494e-03, -6.88149221e-03,
       -3.03741526e-02, -5.80123393e-03, -9.77551006e-03, 3.74438949e-02,
       -1.21917091e-02, -2.25809049e-02, -3.62297483e-02, 4.37053060e-03,
       -1.44595979e-02, -5.47088264e-03, 9.91842058e-03, 3.38260531e-02,
       1.39425322e-02, 4.52195853e-03, -7.49122933e-04, -8.75832327e-03,
       -2.23821122e-02, 7.39684515e-03, 8.49951897e-03, 4.86514270e-02,
       1.91653520e-02, -2.32865904e-02, 3.37842070e-02, 1.27741136e-02,
       7.91000854e-03, -9.04735643e-03, -2.63657775e-02, -6.18523918e-02,
       -1.91080291e-02, -5.48054324e-03, 7.59029062e-03, -6.25374401e-03,
       -2.21214164e-02, -3.72907519e-02, -2.49939989e-02,
       -1.10153714e-02, -3.50251049e-02, -1.88828586e-03,
       -4.98489756e-03, -5.44308731e-03, 7.59880664e-03, -2.96866684e-03,
       -6.04169164e-03, -1.10579701e-02, 1.20445024e-02, -9.53246653e-03,
       3.57689746e-02, 3.96003686e-02, -2.86409426e-02, 1.87175218e-02,
       -2.03236025e-02, -1.42041463e-02, -2.41435575e-03, 2.70708352e-02,
       -4.51081293e-03, 1.90410838e-02, 3.98894176e-02, -2.11110637e-02,
       1.20156584e-02, 1.44699076e-02, 3.11410613e-03, 6.35029748e-03,
       -1.15419719e-02, -2.38954686e-02, 2.97849867e-02, -1.21567985e-02,
       6.47615016e-05, 3.90016995e-02, -4.86776885e-03, 1.20414831e-02,
       6.94052177e-03, -3.89868617e-02, -6.58934042e-02, -3.64737436e-02,
       -3.81561667e-02, -1.09932879e-02, -1.00072124e-03,
       -2.02461216e-03, 4.87118959e-03, -3.09910737e-02, 4.14961390e-03,
       1.04829352e-02, 1.83476917e-02, 2.51840558e-02, 8.99747573e-03,
       2.64539868e-02, 2.10938640e-02, 3.14820954e-03, 2.17452422e-02,
       -4.01091538e-02, -3.07448581e-02, -2.32822616e-02,
       -3.53027917e-02, -2.31238063e-02, 5.98812522e-03, 1.92290414e-02,
       -5.99083863e-03, -6.77935872e-03, 3.07744718e-03, -6.82691997e-03,
       -2.63172667e-02, -2.59731002e-02, 9.25626792e-03, 2.71498412e-02,
       3.16597596e-02, 2.42528711e-02, -9.50670242e-03, -7.19564967e-03,
       1.55996857e-02, -1.46002853e-02, -8.13536812e-03, 1.18927779e-02,
       1.05476817e-02, -7.12457625e-03, 8.01984780e-03, -1.43197952e-02,
       2.73997393e-02, 1.26355123e-02, -3.26671894e-03, 4.00664145e-03,
       -6.94199186e-03, -3.10785673e-03, 1.95936654e-02, 4.20427090e-03,
       1.28696009e-03, 7.78874056e-03, 3.07524614e-02, 2.87886560e-02,
       -6.77898107e-03, -7.93769211e-03, -3.99291441e-02,
       -2.67631710e-02, -3.79241556e-02, -3.22559252e-02,
       -1.31742200e-02, 2.60392036e-02, -2.16569174e-02, 4.73225256e-03,
       -2.67362520e-02, -2.59683784e-02, -6.29683165e-03,
       -1.02464063e-02, -2.39260904e-02, 2.13348139e-02, 6.67025745e-02,
       3.34343128e-02, 6.14209771e-02, -5.07951854e-03, -2.08680667e-02,
       2.29129791e-02, 7.17962021e-03, -5.60362078e-03, 6.93659438e-03,
       2.61209067e-02, 2.68770475e-02, 1.53064413e-03, -2.17502955e-02,
       -3.19130979e-02, -7.75600784e-03, -1.83402039e-02,
       -4.53947391e-03, 1.93939246e-02, 4.49776575e-02, 1.75653882e-02,
       3.88899185e-02, -2.30833772e-03, 1.13854771e-02, 3.42185982e-02,
       1.68759152e-02, 3.66869643e-02, -2.88403220e-02, 1.47848427e-02,
       -1.62439235e-02, -2.06149044e-03, 1.21711306e-02, -1.12876773e-03,
       4.89812978e-02, -1.08351093e-03, -6.60346774e-03, -2.14759121e-03,
       2.77300142e-02, 3.64035438e-03, -6.14084397e-03, 9.18603968e-03,
       1.70390662e-02, 1.22786108e-02, -4.29356024e-02, -4.73042466e-02,
       -1.40392277e-02, -3.71539290e-03, -1.13163039e-03,
       -9.55527183e-03, 2.56319121e-02, 7.13658286e-03, 5.07062860e-02,
       4.27030064e-02, 2.14081910e-02, -4.27008383e-02, -6.05839910e-03,
       -7.87097123e-03, -2.09714435e-02, -4.04035626e-03, 1.46463802e-02,
       2.19793455e-03, 1.55404219e-02, -2.67101061e-02, 2.95546781e-02,
       2.45494153e-02, 7.56605901e-03, -1.43738175e-02, -3.27510834e-02,
       2.86101131e-03, 1.00175394e-02, -2.89990995e-02, -1.46984905e-02,
       8.37282650e-03, 9.02499724e-03, 2.05112845e-02, -5.06326091e-03,
       -7.40525639e-03, 3.00916960e-03, 2.57472252e-03, 4.45373543e-02,
       -2.70193629e-02, -9.98614263e-03, 2.18476355e-02, 6.18407037e-03,
       -2.60492489e-02, -4.22776677e-02, 5.44579374e-03, 1.05347550e-02,
       2.60202382e-02, -2.54414044e-03, -1.03153754e-02, 2.45884936e-02,
       3.12176496e-02, -1.83022451e-02, -1.34754684e-02, 3.26600932e-02,
       -2.84197344e-03, 4.32409309e-02, 2.60789711e-02, -3.51476632e-02,
       -1.80063657e-02, -3.62277660e-03, -1.25579536e-02,
       -1.25257028e-02, -8.10831226e-03, 1.63585059e-02, 2.86652073e-02,
       -8.29806738e-03, -5.17563429e-03, -7.89261831e-04,
       -4.05383715e-03, -1.72000080e-02, -3.09091490e-02, 9.48939100e-03,
       3.09001026e-03, 9.69955232e-03, -2.40179915e-02, -4.02123183e-02,
       -1.94432437e-02, 8.83832760e-03, -1.22781079e-02, 6.52648183e-03,
       8.36314913e-03, 2.29323916e-02, 3.06163002e-02, -1.39720505e-02,
       1.65999159e-02, 1.14686647e-02, -4.55123233e-03, -1.42013272e-02,
       -1.72128845e-02, 2.07964377e-03, -2.16778368e-02, 2.33553201e-02,
       4.73244861e-03, -6.08755276e-03, -2.01046858e-02, -2.24669185e-02,
       -2.49572638e-02, 1.05091855e-02, 1.09951606e-03, 4.79523353e-02,
       6.18581772e-02, 1.21052619e-02, -2.34177243e-02, -1.15152961e-02,
       -1.38649894e-02, -1.69047657e-02, -1.05569661e-02, 1.22554759e-02,
       5.36143817e-02, 3.43352519e-02, -2.10410375e-02, 4.42831591e-03,
       -2.60603502e-02, -1.61551088e-02, -1.51400995e-02,
       -1.41759240e-03, -1.19070616e-02, -9.66875756e-04, 4.73438849e-04,
       5.55375358e-03, -1.22270621e-02, -2.40705088e-02, -1.53940814e-02,
       -1.26459049e-02, -1.24227311e-02, 2.62131933e-02, 1.33580370e-02,
       2.50460487e-02, 1.14316521e-02, -3.49133760e-02, -2.66566444e-02,
       -1.46529749e-02, 1.35892583e-02, 1.54505884e-02, 5.38579281e-03,
       5.87038286e-02, 6.29306212e-02, -2.88190041e-03, -2.11871080e-02,
       -2.84010861e-02, -1.88113190e-02, -2.04191394e-02,
       -2.94881058e-04, -1.42678013e-02, 1.89078953e-02, 4.67698909e-02,
       -6.62351493e-04, -2.07138713e-02, -1.56330951e-02,
       -1.05931833e-02, 2.12707277e-02, -1.32997250e-02, -9.10578668e-03,
       1.93866137e-02, 3.32661420e-02, -1.91316418e-02, -3.06635327e-03,
       -1.79345179e-02, -8.29542987e-03, 2.64087622e-03, 1.70210637e-02,
       -1.95525251e-02, -4.36649993e-02, 7.84737431e-03, -2.31338460e-02,
       -8.15021899e-03, -3.06204688e-02, -2.55111661e-02,
       -2.50458382e-02, -6.83059217e-03, -3.71604227e-03, 4.91330661e-02,
       7.49091506e-02, 1.15671782e-02, 2.09750980e-03, -1.52208786e-02,
       -2.25148723e-02, -1.11227913e-03, 7.45340157e-03, 1.23686548e-02,
       2.12920029e-02, 2.70311981e-02, -7.76133779e-03, -1.63572491e-03,
       -3.23078930e-02, -1.68891456e-02, -5.17798495e-03,
       -1.03775179e-03, -1.52671663e-03, 2.25191060e-02, 1.84991919e-02,
       2.53119553e-03, 1.96131393e-02, -5.84378082e-04, -3.61818187e-02,
       -3.18629295e-02, -1.91700365e-02, -3.42761837e-02, 1.03747146e-02,
       1.23904115e-02, -2.06613988e-02, -2.15838086e-02, -2.39730719e-02,
       -4.45211027e-03, 4.10830136e-03, -2.76817437e-02, -7.33975414e-03,
       4.37086932e-02, 5.06959073e-02, -2.95196716e-02, -1.91044938e-02,
       -1.94725748e-02, 1.13974009e-02, -1.85271408e-02, 1.08058257e-02,
       -1.73396841e-02, 1.93484630e-02, 1.10368514e-02, -1.95295829e-02,
       2.16339175e-02, -1.50903873e-02, -5.78123191e-03, -9.07591917e-03,
       -1.78694893e-02, -2.67711692e-02, 2.29172185e-02, 2.68604290e-02,
       -2.49104556e-02, -1.78523362e-03, -6.89598685e-03, 5.48070855e-03,
       -1.86872594e-02, 2.48269569e-02, 4.56732558e-03, 7.04039587e-03,
       2.08701566e-02, -2.21280102e-02, 2.28732191e-02, 2.97640152e-02,
       3.34426686e-02, 3.72747076e-03, -8.94681178e-03, -3.57138994e-03,
       2.21724417e-02, 1.01691531e-02, -4.36004717e-03, 7.01181917e-03,
       2.18128096e-02, 5.54733619e-04, -1.16597386e-02, 2.27160081e-02,
       1.14729358e-02, 3.75343231e-03, -1.26720658e-02, -2.03663353e-02,
       1.36408694e-02, 1.57473926e-02, 1.45799406e-02, 2.25123651e-02,
       -2.90193353e-02, 2.21571550e-02, -5.58214029e-03, -5.85429510e-03,
       -1.14964033e-02, 1.73662845e-02, 7.03195250e-03, -2.09791996e-02,
       2.32523493e-02, 9.79058212e-04, 1.01204189e-02, -2.60075857e-03,
       -1.96759962e-02, -2.32226625e-02, 2.48276219e-02, -1.63742539e-03,
       -3.10843308e-02, -1.15427664e-02, 2.76389569e-02, -1.43220546e-02,
       2.72794277e-03, 1.32026179e-02, -7.11283355e-04, -1.19416695e-02,
       1.14965169e-02, -2.55329702e-02, 1.49704022e-02, -2.46146461e-04,
       -1.91536099e-02, -3.94221628e-03, -9.04471707e-03,
       -4.54128580e-03, -1.07043879e-02, -1.06976572e-02,
       -1.21007329e-02, -2.76806355e-02, -2.43218262e-02,
       -5.01244096e-03, -1.33050885e-02, 2.16655862e-02, -1.24683939e-02,
       8.41605198e-03, 1.29438806e-02, 1.69310998e-02, 2.43882295e-02,
       -2.15812307e-02, 1.20161669e-02, -1.11523792e-02, -1.09483181e-02,
       1.48889218e-02, -2.49493886e-02, -1.68986637e-02, -2.41039582e-02,
       2.30749678e-02, 5.85821010e-02, -3.46286595e-02, -3.52716260e-02,
       -2.87550054e-02, -8.80203210e-03, 8.51139706e-03, -1.41487774e-02,
       1.72478575e-02, 1.95340123e-02, 4.06909063e-02, 1.25625925e-02,
       -1.25994477e-02, 3.38430610e-03, 1.08524645e-02, -2.85285972e-02,
       -2.15652566e-02, -4.22985703e-02, 6.34909840e-03, 3.72486897e-02,
       3.89417144e-03, -4.47087325e-02, -5.11718839e-02, -1.65207665e-02,
       3.98454778e-02, 6.27895631e-03, -1.13899326e-02, 2.08224338e-02,
       -5.63008944e-03, 3.61034088e-02, 1.69820916e-02, 4.00021225e-02,
       2.41297875e-02, 1.93229541e-02, -2.25687139e-02, 1.19108986e-02,
       2.58048624e-02, 1.92544349e-02, 8.23963434e-03, -5.69721311e-03,
       4.91368410e-04, 1.75555926e-02, -7.07551697e-03, -3.35913524e-02,
       -8.57460406e-03, -3.24762352e-02, -7.63775874e-03, 1.51557857e-02,
       -1.25922319e-02, -2.93670092e-02, -1.17137004e-02, 2.32488047e-02,
       4.58980817e-03, 1.40022803e-02, 3.89281176e-02, -1.09098910e-03,
       3.57655250e-02, 1.53809795e-02, 4.31546904e-02, 2.43219659e-02,
       9.35538393e-03, 5.07924659e-03, 5.13687148e-04, 6.04237430e-04,
       -8.10326356e-03, 2.64888499e-02, 3.90501367e-03, 7.27697369e-03,
       7.34116067e-04, -2.14739107e-02, 3.84340691e-03, -3.06964596e-03,
       3.22778313e-03, 5.38044199e-02, 6.32749349e-02, 1.26241695e-03,
       -1.08781420e-02, -1.41986432e-02, -1.96713153e-02,
       -1.94020513e-02, -2.93574156e-03, -3.12687531e-02,
       -9.27298423e-03, -3.07516307e-02, -3.00748479e-02,
       -2.57952157e-02, -1.13625834e-02, -1.27587728e-02, 6.93723839e-03,
       -2.68105580e-03, 6.07343949e-03, -8.42801202e-03, 2.37827301e-02,
       1.27216888e-04, -1.63796470e-02, -2.83192135e-02, -1.23756053e-02,
       -1.63023267e-02, -1.79801714e-02, 6.51543029e-03, -2.88508572e-02,
       -4.33895029e-02, -7.12020695e-02, -3.93954329e-02,
       -1.16967596e-02, 6.44373428e-03, -1.22143626e-02, 1.59677416e-02,
       6.68965280e-03, -9.03372769e-04, -2.83828396e-02, -1.57014988e-02,
       -1.33098243e-02, -1.88083900e-03, 2.67901598e-03, -2.54529528e-02,
       -3.02387075e-03, 9.05035879e-04, -2.30052206e-03, -3.86497863e-02,
       5.63188223e-03, -3.33339088e-02, -3.25611420e-02, 1.02948202e-02,
       1.81097705e-02, 1.21219913e-02, 5.55157326e-02, -1.23707606e-02,
       1.03178946e-02, -2.58467458e-02, -1.22396750e-02, -1.36851566e-02,
       9.02874675e-03, -8.27688084e-04, -1.37111722e-02, 3.19233686e-02,
       1.05838208e-02, -1.89493783e-03, 2.69761756e-02, -2.13934574e-02,
       -2.13445406e-02, -3.80359543e-03, -4.08239029e-02,
       -2.87629068e-02, -2.13499609e-02, 1.82352774e-02, -1.69177502e-02,
       4.46989052e-02, -1.36854954e-03, -2.06898116e-02, -3.84123735e-02,
       -5.25014140e-02, -3.64724956e-02, -1.62139535e-02, 1.29966168e-02,
       2.09856424e-02, 4.02838551e-02, 2.00770777e-02, -5.25229471e-03,
       2.69913096e-02, 1.76694766e-02, -2.93642725e-03, -9.22581740e-03,
       -1.23267462e-02, -1.82845183e-02, 3.50465365e-02, -2.61420733e-03,
       -2.43955515e-02, -1.50236720e-02, -3.19000296e-02,
       -1.33361770e-02, -2.99139842e-02, -1.25245741e-02, 4.47703619e-03,
       7.91129004e-03, 1.08950548e-02, -2.40978058e-02, -1.76811907e-02,
       -3.91119644e-02, -1.18688736e-02, -1.60906054e-02, 3.45548317e-02,
       -7.70580443e-03, 5.89857511e-02, 2.52124015e-02, 2.27190778e-02,
       -3.02890856e-02, -9.72537231e-03, -2.09188145e-02,
       -2.32778341e-02, 1.02949413e-02, -1.15082515e-02, -3.66967618e-02,
       9.11675766e-03, -1.33449938e-02, 1.33524360e-02, -1.50255943e-02,
       4.76969173e-03, -9.59613081e-03, -1.65219642e-02, -2.06224360e-02,
       1.05811078e-02, 2.49277726e-02, -8.72328971e-03, -1.26428269e-02,
       -2.69408189e-02, -3.04793380e-02, 3.21203023e-02, -1.35134347e-03,
       7.14571355e-03, -1.53605435e-02, -7.04923365e-03, -3.22069321e-03,
       -3.69036347e-02, 2.87932679e-02, 7.94805679e-03, -2.53702160e-02,
       -2.73947809e-02, -1.96046811e-02, -4.82172109e-02,
       -3.80898872e-03, -1.25673031e-02, -1.84925329e-02, 2.96543054e-02,
       2.38583889e-02, -3.78599577e-02, -2.14336738e-02, -1.61494575e-02,
       -1.71771292e-02, 1.19529963e-02, -1.71631959e-03, -1.21723330e-02,
       1.42518347e-02, 3.34221427e-03, 3.68616171e-02, -6.90153521e-03,
       -4.77753161e-03, -5.55182211e-02, -4.88985591e-02,
       -1.63108092e-02, -9.84943844e-03, 3.21083367e-02, 4.52232212e-02,
       3.29534225e-02, -1.43176513e-02, -8.68293084e-03, -3.44259404e-02,
       -1.43415872e-02, -6.52944110e-03, -8.30243621e-03,
       -3.46086733e-02, -2.07145810e-02, -3.08276340e-02,
       -7.03049824e-03, -7.87740014e-03, 6.82617873e-02, 3.64035890e-02,
       1.34809846e-02, 9.21922363e-03, -7.69331492e-03, 6.14010915e-03,
       -2.19932180e-02, -2.57405285e-02, 7.45098246e-03, 1.94089133e-02,
       1.15167871e-02, 1.43458694e-02, -4.20515798e-03, -1.97047200e-02,
       -1.52139291e-02, 1.90364209e-03, -5.04938466e-03, -1.98832620e-02,
       1.01350946e-02, -1.26637835e-02, 3.68876685e-03, 8.06807075e-03,
       2.36674352e-03, 1.08668795e-02, 1.71085205e-02, -1.34711841e-03,
       3.71660106e-03, 7.71246487e-05, 1.91017408e-02, 3.33641730e-02,
       5.03559085e-03, -1.82245802e-02, 9.77961440e-03, -1.44213634e-02,
       -2.40563229e-03, -1.53311053e-02, -5.62691130e-04,
       -4.75341566e-02, 1.10269953e-02, 2.85282470e-02, -1.05030034e-02,
       -4.71242424e-03, -2.77064294e-02, 1.60253402e-02, -5.79729071e-03,
       1.59844961e-02, 8.10971111e-03, 2.22823080e-02, -5.21130254e-03,
       -1.21538769e-02, 1.45235602e-02, -2.58123875e-03, 4.15946990e-02,
       -3.22544016e-02, -2.78601665e-02, -1.33909378e-02, 1.18194381e-02,
       2.81545240e-02, 4.52389289e-03, 3.45778023e-03, -1.60136763e-02,
       2.67636701e-02, -5.13297971e-03, -2.67892424e-02, 1.01035554e-02,
       1.70285553e-02, 3.05958418e-03, -9.45705641e-03, -1.26608638e-02,
       1.01207020e-02, 2.12825853e-02, 5.76796522e-03, 5.08651249e-02,
       2.42216066e-02, -1.01133743e-02, 1.36047760e-02, 4.35826136e-03,
       3.32519179e-03, -5.36023639e-03, 1.38343154e-02, -3.10631748e-02,
       -1.48222605e-02, -1.62816849e-02, -2.05297060e-02, 3.95777915e-03,
       -2.47357003e-02, -2.22911257e-02, 2.50773481e-03, -8.34780093e-03,
       9.04590171e-03, 5.39279692e-02, 3.92196327e-02, -1.14845186e-02,
       9.74525418e-03, 1.52417587e-03, -3.78248282e-03, -6.54580723e-03,
       1.42841656e-02, -3.50299850e-03, 8.69903993e-03, -2.11690404e-02,
       -1.30359260e-02, 4.29383013e-03, -1.56914834e-02, -2.55669467e-02,
       1.68463495e-02, 2.91892868e-02, 3.03180292e-02, 3.58139053e-02,
       2.71435734e-02, 2.06888560e-02, 2.37391535e-02, -2.65834737e-03,
       -2.46875230e-02, 2.02785339e-03, 5.80158550e-03, -2.81742844e-03,
       1.78866833e-02, 2.34109238e-02, 1.25582349e-02, 2.45271921e-02,
       4.40065097e-03, -3.74498707e-03, 3.30010541e-02, 3.19741806e-03,
       1.29460944e-02, 5.25210612e-03, -1.19236810e-02, 9.52935871e-03,
       8.69198982e-03, -2.72449316e-03, -1.21768033e-02, 2.89427470e-02,
       -1.90958381e-02, 2.04281155e-02, -1.06855333e-02, -2.71450058e-02,
       -1.36683807e-02, 8.15201644e-03, -2.05433834e-02, -1.86624154e-02,
       -2.12914348e-02, 4.06089472e-03, -8.81601404e-03, 2.90415306e-02,
       -3.88573413e-03, -4.54886025e-03, 2.39591785e-02, 1.22151775e-02,
       2.18468904e-02, 1.68351606e-02, -4.70890012e-03, 3.64191271e-02,
       2.47940365e-02, 1.87204238e-02, -3.41889192e-03, -4.97424416e-03,
       -1.34876498e-03, -2.68681534e-02, -4.18903232e-02, 3.21700051e-02,
       3.96420024e-02, -5.73646883e-03, -2.14629322e-02, -1.08494004e-03,
       -1.25164408e-02, -1.64491199e-02, 1.89090229e-03, 7.99791422e-03,
       -2.20783968e-02, 3.78510281e-02, 1.02958502e-02, -9.77316871e-03,
       -2.02583298e-02, 1.51970070e-02, 6.15769159e-03, 3.43750827e-02,
       1.27868559e-02, 3.69880092e-03, 2.93383133e-02, 3.32824402e-02,
       1.80539936e-02, 1.64365410e-04, 1.90220494e-02, 3.03087826e-03,
       -2.86658714e-03, -9.48807597e-03, -6.72615788e-05,
       -1.72191747e-02, 2.01654639e-02, -1.01276161e-02, -1.14431614e-02,
       2.19778940e-02, -6.25704927e-03, 2.61290129e-02, 2.52404865e-02,
       1.40953790e-02, 4.35663713e-03, 2.54398421e-03, -1.24763977e-03,
       6.14334084e-03, 2.88629215e-02, -5.58808725e-03, -1.58696920e-02,
       -1.33413980e-02, -1.36139560e-02, -7.45429005e-03, 1.82352550e-02,
       -7.49152899e-03, 3.81401856e-03, 5.96939540e-03, -1.34663982e-02,
       -3.10474169e-02, -2.66783703e-02, -1.75718181e-02,
       -1.92420837e-02, -1.86984930e-02, 1.35423196e-02, 8.06897972e-03,
       -6.75591547e-03, 5.59653062e-03, 1.59179755e-02, 2.26756372e-02,
       1.67558361e-02, 7.00058183e-03, -2.82715950e-02, -1.60401948e-02,
       1.53863011e-02, 7.76790921e-03, 1.63405724e-02, -2.56580096e-02,
       -1.02837449e-02, -4.21569543e-03, -4.28450527e-03,
       -4.03009281e-02, -1.30926108e-03, 4.59819986e-03, -1.99533664e-02,
       -3.82594735e-04, -3.28635331e-03, 4.43072468e-02, -7.64034456e-03,
       3.33467424e-02, -1.68507099e-02, -9.55045316e-03, -5.55462902e-03,
       -5.37123112e-03, -1.84511933e-02, -2.64340993e-02,
       -6.60063745e-03, 7.30614513e-02, 2.10719109e-02, -2.76724100e-02,
       -3.21614295e-02, 1.01739625e-02, 3.22160758e-02, -8.39983765e-03,
       8.12840648e-03, 2.13425010e-02, 2.83256471e-02, 2.95221768e-02,
       -1.23127261e-02, 1.49751715e-02, 1.32760499e-02, -1.04639819e-02,
       -3.60773280e-02, -4.73939106e-02, -2.52248906e-02, 9.56407096e-03,
       2.41401009e-02, -1.27596175e-02, -2.87410840e-02, -1.55014237e-02,
       1.19262887e-02, -2.90433341e-03, 1.87662989e-02, 5.13275526e-03,
       -2.27155648e-02, 2.64749043e-02, 1.07992180e-02, -5.56748407e-03,
       3.54153402e-02, 1.88717078e-02, 3.97644052e-03, 1.51201570e-02,
       5.29226242e-03, 1.41529078e-02, -1.77203771e-02, -1.31479213e-02,
       2.83849258e-02, -2.53965985e-03, 2.89834179e-02, -1.72690628e-03,
       -6.21625362e-03, -1.23771187e-02, 4.39647445e-03, 1.84142578e-03,
       1.89845869e-03, 2.38886811e-02, 6.61999127e-03, 2.91821081e-02,
       4.38722707e-02, 6.40377849e-02, 1.85829420e-02, 5.43771079e-03,
       6.84636552e-03, 4.72994298e-02, 4.87280264e-02, 3.21096294e-02,
       1.35658951e-02, 3.09749115e-02, 6.57814555e-03, 9.83379286e-05,
       2.59821047e-03, 1.17313359e-02, 2.94816820e-03, 3.29176635e-02,
       1.15457466e-02, 2.31348514e-03, -1.05985291e-02, -1.80662684e-02,
       -1.48033053e-02, 7.59509392e-03, 5.56614390e-03, -9.77999251e-03,
       -6.09090785e-03, -2.15105284e-02, -4.56111273e-03,
       -2.26687212e-02, -2.33848281e-02, 1.25697413e-02, 8.61466490e-03,
       -4.16779108e-02, -4.40519825e-02, -4.75479886e-02,
       -1.20993508e-02, -7.89405033e-03, 8.53978214e-04, -1.74668059e-02,
       1.59153230e-02, -6.16045063e-03, 8.78326688e-03, -3.26188765e-02,
       -1.72636844e-02, -9.79781710e-03, 3.88012640e-03, -2.03268453e-02,
       -1.84871964e-02, -1.07431384e-02, 3.01725906e-03, -3.85469827e-03,
       -3.52713689e-02, -3.82972099e-02, -1.30024394e-02, 1.40738243e-03,
       -2.95329397e-03, -1.85609143e-02, 3.97777036e-02, 3.00678443e-02,
       1.98214035e-02, -2.40574796e-02, -2.44778171e-02, -3.53536545e-03,
       -2.78741797e-03, -2.05249451e-02, -5.92210665e-02, 1.20321531e-02,
       4.73493012e-03, -7.12836767e-03, -4.48611053e-03, -1.94280408e-02,
       -1.55624114e-02, 5.44263702e-03, 4.45807027e-03, 4.22756886e-03,
       2.85410453e-02, 5.49642835e-03, 2.93920040e-02, 8.53358768e-03,
       -1.02351885e-02, -2.70600282e-02, -1.89952739e-02,
       -4.59950007e-02, -4.08674516e-02, 1.65538657e-02, -5.16792014e-03,
       1.10534141e-02, -1.38099929e-02, -2.67187338e-02, -5.07314987e-02,
       1.34805599e-02, -3.57211917e-03, -1.43139930e-02, 1.02841081e-02,
       1.89830475e-02, -1.57662239e-02, 2.18093023e-02, 1.96598191e-02,
       -7.89124053e-03, 1.69518366e-02, 5.77597506e-03, 1.73195209e-02,
       2.89500002e-02, 1.85413100e-03, 2.83687236e-03, 1.35352574e-02,
       2.09263153e-02, 2.59935874e-02, 1.64661389e-02, -9.15164314e-03,
       -4.43185493e-02, 4.43316717e-03, -2.82114539e-02, 8.65751691e-03,
       -2.93569416e-02, -2.17656903e-02, -1.50515018e-02,
       -1.21957641e-02, 2.26980094e-02, -2.21633445e-02, 1.85705407e-03,
       -1.23206358e-02, -5.14816726e-03, -3.72647159e-02,
       -2.71613449e-02, -1.63217895e-02, 3.16303951e-04, -2.44792923e-02,
       1.14029832e-02, 2.66337600e-02, -4.47540078e-03, -5.62293176e-03,
       -1.55455582e-02, -1.61255561e-02, 5.87339792e-03, 3.48409191e-02,
       -1.63313244e-02, -1.85924992e-02, 4.83337753e-02, 2.37448011e-02,
       2.99274381e-02, 1.45288522e-03, -1.34321507e-02, 2.03327667e-02,
       -5.10034664e-03, 1.95297431e-02, 3.84042300e-02, 2.25175098e-02,
       -2.54730752e-04, 3.20766829e-02, 1.34596014e-02, -1.86644401e-02,
       -1.58758406e-02, 2.49327179e-02, 1.16206761e-02, 1.25732496e-02,
       3.79213318e-02, 1.15352543e-02, 4.51352000e-02, 2.58686673e-03,
       5.39581710e-03, 1.54215824e-02, 1.05741033e-02, -5.01873856e-03,
       -7.30766030e-03, 5.62582090e-02, 2.86106542e-02, 5.71062751e-02,
       -4.58608521e-03, -1.77826006e-02, 8.19568615e-03, -1.92528311e-02,
       5.46431402e-03, 6.88912626e-03, 6.24016393e-03, 2.47797444e-02,
       2.31391434e-02, 2.43125819e-02, 1.86288599e-02, -5.48480544e-03,
       3.96111235e-02, 2.92235222e-02, 2.27717664e-02, 9.00953915e-03,
       -3.50989052e-03, 1.60748996e-02, -1.25142084e-02, -2.97046583e-02,
       1.30427713e-02, 1.83334183e-02, -1.04289902e-02, -1.56818815e-02,
       -9.17304400e-03, 4.08359524e-03, -1.95474159e-02, -2.07712483e-02,
       -1.36352619e-02, -3.64881046e-02, -9.36157629e-03,
       -2.78473161e-02, -1.22481314e-02, 5.16057201e-03, 3.83156771e-03,
       5.12650097e-03, 2.73115598e-02, 8.15891754e-03, 9.91727132e-03,
       1.91454813e-02, 1.93438735e-02, 3.38295735e-02, 4.48278636e-02,
       1.80336516e-02, 1.11902487e-02, 2.96241660e-02, 2.63667218e-02,
       3.01218219e-02, 2.79084081e-03, -2.35431455e-03, 3.02438810e-03,
       -9.83002968e-03, -2.91132997e-03, -8.86685308e-03, 6.50513312e-03,
       6.55062450e-03, -1.16190435e-02, 2.09224760e-03, 2.61548776e-02,
       2.15571541e-02, 2.15398185e-02, -4.17093001e-02, 2.41116229e-02,
       1.51462229e-02, 2.06356943e-02, -3.69319180e-03, -1.44376354e-02,
       -1.94158696e-03, 1.87195763e-02, -1.69151220e-02, 3.49301584e-02,
       -2.22216044e-02, 5.96642541e-03, -1.48706408e-02, -9.26387124e-03,
       1.13857482e-02, 1.28395818e-02, 3.12444530e-02, -1.39372861e-02,
       3.57539281e-02, -7.20269466e-03, 1.90593656e-02, -1.15280075e-03,
       2.36982983e-02, -9.08679981e-03, 3.82107403e-03, 1.45647908e-02,
       3.66916880e-03, 2.02429984e-02, -2.45918557e-02, 1.05668176e-02,
       -3.67806144e-02, -5.28307073e-03, -9.00640897e-03,
       -1.41898021e-02, 2.40236297e-02, -1.04093617e-02, 1.32334800e-02,
       -1.79191828e-02, -2.13638302e-02, -9.86431073e-03, 3.28749008e-02,
       -5.97418891e-03, -3.64911780e-02, -5.66282135e-04, 2.69559994e-02,
       3.35029699e-02, 1.54485665e-02, 5.65807596e-02, 1.14298835e-02,
       1.43102696e-03, -6.24490157e-03, -3.02397236e-02, -3.42130996e-02,
       3.42993357e-04, 2.07799282e-02, 1.94991417e-02, 1.53780067e-02,
       -1.13803474e-02, -2.00351607e-02, -1.02670696e-02,
       -1.04711158e-02, 3.76450233e-02, 1.32152056e-02, 2.31791940e-02,
       1.13344416e-02, 2.39215922e-02, -1.37807084e-02, 2.11056098e-02,
       -1.48181114e-02, -3.97521593e-02, -2.88080946e-02, 1.16906187e-04,
       4.39331261e-03, 8.94648861e-03, -1.55910552e-02, -1.17178913e-02,
       -2.90120300e-02, 2.91293785e-02, -2.62002293e-02, -1.82493813e-02,
       3.31340618e-02, 2.64477246e-02, 5.38664721e-02, 2.19914168e-02,
       7.36934133e-03, 1.34601146e-02, 4.13181931e-02, 2.79726759e-02,
       1.50517421e-03, 3.48927677e-02, -2.29526330e-02, 2.74714772e-02,
       -1.13153150e-02, -1.57302096e-02, 5.42713003e-03, 2.47625280e-02,
       -2.45630518e-02, -5.52261341e-03, 3.99582572e-02, 9.38199554e-03,
       2.53180079e-02, -7.28744688e-03, -1.89991016e-02, -1.97615772e-02,
       3.49935442e-02, -1.80238746e-02, -3.79013941e-02, 1.33566596e-02,
       7.39989709e-03, 2.40779836e-02, -1.73253156e-02, 6.17347658e-03,
       1.33892205e-02, 4.92199585e-02, 6.89160312e-03, -2.42450312e-02,
       -2.96614822e-02, 5.24753183e-02, 1.41314128e-02, -1.02860434e-02,
       -2.55391411e-02, 1.88416597e-02, 2.36016288e-02, -6.45844871e-03,
       -2.02725027e-02, 5.98876551e-02, 9.39625688e-03, 3.74963954e-02,
       -2.80535519e-02, -3.04326117e-02, 4.08978434e-03, 2.00783610e-02,
       -2.40486264e-02, -3.04895174e-02, 2.23684832e-02, 4.52716984e-02,
       -6.44328631e-03, -1.91881340e-02, -6.46783551e-03, 1.79742295e-02,
       5.61503833e-03, 2.64258240e-03, 9.29376483e-03, 5.75498417e-02,
       -1.97494440e-02, 4.73603494e-02, 7.13926041e-03, 7.73071498e-03,
       2.02676393e-02, 1.36972964e-02, -9.42968298e-03, -1.03128497e-02,
       3.75401862e-02, 3.75067480e-02, 5.07136527e-03, -2.70935036e-02,
       -2.22291443e-02, 9.96416993e-03, 1.22890715e-02, 2.92884442e-03,
       -2.76729725e-02, -2.84770746e-02, 4.04320005e-03, -1.51207042e-03,
       -2.57137399e-02, -1.91279706e-02, 1.94497721e-03, -8.45069997e-03,
       -6.57465169e-03, 1.44838644e-02, 5.69695942e-02, 3.07816472e-02,
       5.28095439e-02, 3.51647288e-03, 1.08342282e-02, 3.20231915e-02,
       1.73662137e-03, -2.66004223e-02, -2.99972408e-02, 1.55722359e-02,
       1.10795686e-03, 5.50500210e-03, -3.52099277e-02, -3.11135373e-04,
       3.24790105e-02, 2.02638265e-02, 2.07250398e-02, -2.02180222e-02,
       -2.31424402e-02, 6.62884163e-03, -4.86762449e-03, -2.71953084e-02,
       -3.02245258e-03, 3.36788781e-02, 9.87830479e-03, 2.36942060e-03,
       -9.28829145e-03, -2.16559321e-03, 1.43417018e-02, 3.92511785e-02,
       -1.34164188e-02, -9.90873575e-03, 9.09644552e-03, -1.42557370e-02,
       1.19259665e-02, -7.39711896e-03, -1.86280031e-02, -1.93313695e-02,
       -1.62582863e-02, -3.96336950e-02, -2.11585350e-02, 6.93451520e-03,
       -3.20995264e-02, 2.39472603e-03, -1.41272200e-02, -4.57216986e-03,
       -1.95928235e-02, 2.78467629e-02, -4.44825552e-03, 2.25429726e-03,
       1.09507202e-03, -1.47424582e-02, -2.74955332e-02, -4.05782536e-02,
       -5.82278110e-02, 4.54393737e-02, -1.58091709e-02, -1.36086894e-02,
       -3.51889469e-02, -1.47059131e-02, 8.71552154e-03, 3.82188633e-02,
       4.34219949e-02, 1.94479208e-02, 9.85649694e-03, 7.40759075e-03,
       2.76582278e-02, -6.57111080e-03, 1.66878086e-02, -1.79503504e-02,
       -3.51841748e-02, -4.95380610e-02, -6.29647076e-02, 3.43551561e-02,
       7.91202486e-03, -4.10971959e-04, -3.54508609e-02, -1.32855866e-02,
       2.42877267e-02, 2.90898364e-02, -4.15559625e-03, 5.51556842e-03,
       -1.08392378e-02, 3.82574238e-02, 4.44229618e-02, 1.05563402e-02,
       2.71570049e-02, 1.32642100e-02, 3.48452367e-02, 5.48972711e-02,
       -1.17621766e-02, 1.87706519e-02, -7.30717741e-03, 3.45201083e-02,
       4.68882397e-02, 2.34158449e-02, 5.44072944e-04, 1.20468698e-02,
       6.28713937e-03, -1.54660642e-02, 1.46347722e-02, -3.41839157e-02,
       1.99428741e-02, 3.27000618e-02, 2.90138163e-02, 3.50480229e-02,
       3.30753885e-02, 3.35690007e-02, 1.16854385e-02, 2.34683044e-02,
       -1.24993082e-03, 1.55828940e-02, 1.85371023e-02, 4.50475588e-02,
       1.68742295e-02, 1.37991062e-03, 1.37941195e-02, 9.97824874e-03,
       -1.58189815e-02, -3.80583182e-02, -8.67706072e-03, 3.18452978e-04,
       2.01944876e-02, -2.42470931e-02, -1.56162884e-02, -8.63415748e-03,
       -3.29093938e-03, -4.51672729e-03, 3.84966144e-03, -1.10610733e-02,
       -1.98591221e-02, 3.79074551e-03, -3.28745227e-03, -6.39026845e-03,
       -2.07039434e-02, -2.42342800e-02, 9.76101216e-03, -3.19790840e-02,
       -2.31533721e-02, -2.43288595e-02, -4.26772807e-04,
       -1.35800829e-02, -1.57511551e-02, 1.58358812e-02, 2.95837969e-02,
       3.66639122e-02, 1.71918049e-02, -5.69313206e-03, -7.12925661e-03,
       -2.11477722e-03, -1.76408198e-02, -2.55364385e-02,
       -1.70571990e-02, -1.87205113e-02, 2.54668090e-02, -3.96036506e-02,
       -2.34634075e-02, -7.92955700e-03, 4.14438499e-03, 1.05925007e-02,
       4.71658772e-03, -5.42827602e-03, -5.18322736e-03, -1.09441057e-02,
       7.08806608e-03, 1.69005971e-02, 1.20563358e-02, 1.55195016e-02,
       4.43984196e-03, -2.04750504e-02, -4.15329263e-02, -3.89648154e-02,
       2.56692842e-02, 3.09539190e-03, 1.73711851e-02, -2.61873696e-02,
       -1.62503086e-02, -1.17320719e-03, 1.53686339e-02, 1.93503872e-02,
       1.44241164e-02, 5.34361089e-03, -1.47514241e-02, -3.02352733e-03,
       1.91706643e-02, 2.85789631e-02, -2.53912564e-02, -2.17668936e-02,
       -3.49374372e-03, -2.28897110e-02, 1.48037747e-02, 1.27187194e-02,
       9.33196582e-03, -2.19020457e-03, 6.69948803e-03, 2.67708916e-02,
       -1.70021653e-02, -5.42340502e-02, -4.50278819e-02, 1.72382612e-02,
       -1.34706954e-02, -1.51910062e-03, -2.09400374e-02,
       -1.05716307e-02, 1.56396180e-02, 1.94501746e-02, -4.44638170e-02,
       -5.40042594e-02, 1.85011309e-02, -1.70458877e-03, -1.25316437e-02,
       -3.36359181e-02, -8.29737540e-03, 2.29960810e-02, 2.41282135e-02,
       -1.21176550e-02, -1.34320753e-02, 4.31539379e-02, 1.40249534e-02,
       2.85322755e-03, -1.07712783e-02, 1.42903626e-02, 1.99719407e-02,
       1.13153076e-02, -1.30822584e-02, -3.45438346e-02, -3.71079706e-02,
       3.31822969e-02, -2.12600641e-02, -3.52589861e-02, -1.31346630e-02,
       -1.76330619e-02, 3.06766033e-02, 3.53443250e-02, -2.65845004e-03,
       -4.85859392e-03, 7.92219583e-03, 3.71776633e-02, -6.00773981e-03,
       -7.44084921e-03, -2.21762974e-02, 2.33148653e-02, 2.08582133e-02,
       -1.24524813e-02, -2.35324148e-02, -2.19103228e-02, 3.65002602e-02,
       2.24227365e-02, -1.20343445e-02, -6.15515513e-04, 8.34694877e-03,
       2.48081796e-02, -1.05599617e-03, -2.92814728e-02, -3.12574231e-03,
       4.33141977e-04, -2.80158948e-02, -2.09782273e-02, -4.55756634e-02,
       -4.01326939e-02, 2.25545024e-04, 3.06495558e-03, -3.64455618e-02,
       -5.21989167e-02, 1.16648376e-02, -2.43222131e-03, -2.77018845e-02,
       -9.55270417e-03, 3.39802355e-02, 2.10048519e-02, -2.35864855e-02,
       -9.42159351e-03, -2.81891990e-02, 1.06218364e-02, -1.41949123e-02,
       -9.94519703e-03, 1.76367946e-02, 6.44727005e-03, -2.70209368e-02,
       -1.18558118e-02, -2.27007084e-02, -5.75838462e-02,
       -4.36365195e-02, 3.53023387e-03, -1.51406741e-02, -3.49858999e-02,
       1.28067937e-02, 1.37806712e-02, -3.54999956e-03, 2.58863159e-03,
       -4.03249785e-02, 2.86643580e-02, 2.12886054e-02, -2.11563520e-03,
       -1.59071535e-02, 9.15608741e-03, -3.08404341e-02, -7.77086383e-03,
       -3.17315161e-02, -2.26151776e-02, -8.78971070e-03, 4.23811004e-02,
       3.99268372e-03, 6.43033441e-03, -1.54108973e-03, -2.46229265e-02,
       -5.19702844e-02, -2.35291570e-02, -2.96600889e-02,
       -3.82227041e-02, -1.32372258e-02, -3.29200644e-03, 8.66377261e-03,
       2.84496620e-02, 1.66933741e-02, 1.77930971e-03, -2.22775601e-02,
       2.96206363e-02, 2.81583089e-02, 3.51841748e-02, 2.97147296e-02,
       1.18656158e-02, 1.36693725e-02, 4.04801732e-03, -1.31712398e-02,
       -2.97480007e-03, -6.18417934e-03, -1.62686314e-02, 7.15583237e-03,
       1.25629436e-02, 2.64226869e-02, 3.54612945e-03, 1.34319882e-04,
       7.50509929e-03, 5.30866999e-03, 3.46563645e-02, 4.23783995e-02,
       4.03847881e-02, 4.69800793e-02, 1.13169821e-02, -1.54942535e-02,
       5.39315911e-03, 3.74196330e-03, 1.38354832e-02, -2.75570713e-02,
       -1.09858839e-02, -1.15400907e-02, 8.85992404e-03, 2.36872081e-02,
       6.56662462e-03, 2.91939210e-02, 1.17249181e-02, 1.35707483e-02,
       -4.15621437e-02, -1.20166196e-02, -4.67919139e-03, 4.33272421e-02,
       -1.26903197e-02, -2.91647352e-02, -9.86749865e-03, 1.02332523e-02,
       -2.54453571e-05, -2.17229072e-02, 6.76320912e-03, -9.76569671e-03,
       4.46674367e-03, 3.25301336e-03, 1.56622101e-02, -8.38939659e-03,
       1.09687475e-02, 1.41057797e-04, -9.72058158e-03, 1.63478497e-02,
       -1.01937121e-02, 2.46556923e-02, -1.49059109e-02, 2.88534220e-02,
       5.77149540e-02, 1.72384419e-02, 7.67428568e-03, 2.41310809e-05,
       1.52100166e-02, -1.15437657e-02, 1.03091560e-02, -3.74435894e-02,
       -3.90177476e-03, -6.13388233e-03, -9.31346323e-03, 2.26888880e-02,
       -1.25615634e-02, -1.26364687e-02, -1.70792751e-02,
       -4.30207811e-02, -2.94890464e-03, 6.40018955e-02, 4.25306968e-02,
       1.38921933e-02, -2.25212183e-02, 7.45071936e-03, 5.22271469e-02,
       1.06031755e-02, 1.69034880e-02, -3.89859527e-02, -3.34073454e-02,
       -4.58810925e-02, -3.11263613e-02, -5.51952422e-03, 6.88845571e-03,
       2.97529828e-02, 5.22414222e-03, -1.34127389e-04, 1.27607435e-02,
       -1.08806998e-03, -4.26506437e-03, 1.35218361e-02, 1.91088691e-02,
       2.78488155e-02, 2.92697940e-02, -6.49170775e-04, -2.12648306e-02,
       4.53342218e-03, -1.63010396e-02, -3.37861590e-02, -4.92844312e-03,
       4.28377278e-03, 1.20660132e-02, -1.62647907e-02, -1.20337065e-02,
       1.63169000e-02, 1.99762098e-02, 8.99804663e-03, 6.76591927e-03,
       1.50713837e-03, -7.21176295e-03, 2.55935080e-02, 2.41603348e-02,
       -5.45301521e-03, 2.42036395e-02, -8.69377423e-03, -1.56410597e-02,
       -7.10744597e-03, 7.16134347e-03, -7.89847318e-03, 3.22696678e-02,
       2.15587020e-03, -5.22797403e-04, 3.91491763e-02, -2.39172056e-02,
       -4.23107147e-02, -2.32089665e-02, -1.96313374e-02, 1.61153777e-03,
       -2.12758351e-02, -2.71436479e-02, -1.92491319e-02, 7.15825427e-03,
       9.44110099e-03, 1.54999178e-03, 3.24379094e-02, 5.91466054e-02,
       3.13158296e-02, 3.83482426e-02, 6.19695894e-03, 1.18962424e-02,
       2.30506938e-02, -4.17183824e-02, 1.22206025e-02, 4.37978320e-02,
       -8.65201186e-03, 1.07791228e-02, 2.64688046e-03, -2.28754897e-02,
       -1.62959918e-02, 1.29512949e-02, -7.37246359e-03, 1.98265091e-02,
       4.84345071e-02, 2.20098794e-02, -7.13570218e-04, 2.01749001e-02,
       2.69194343e-03, -1.18163582e-02, 6.60034036e-03, 1.59014035e-02,
       -5.88159729e-03, -9.73047968e-03, 3.09427362e-02, 2.64280681e-02,
       1.57003254e-02, -3.77160194e-03, 2.07673572e-02, 3.90900336e-02,
       -2.43951920e-02, -5.30598611e-02, -2.19491217e-02, 9.48731694e-03,
       1.78950012e-03, -2.07074005e-02, -7.51411263e-03, 1.17844352e-02,
       8.33948981e-03, 9.84032452e-03, -5.24104852e-03, 1.72868688e-02,
       1.90016720e-02, 8.80865194e-03, 4.91502695e-03, -7.80487433e-03,
       9.73152695e-04, 1.36676868e-02, -3.35967541e-02, -3.85291502e-02,
       5.96744101e-03, 7.33593758e-03, 3.80492993e-02, -2.13574767e-02,
       -9.50304698e-03, 8.08040053e-03, -8.35504383e-03, -1.18923839e-02,
       1.17640542e-02, 2.30177538e-03, -6.81658881e-03, 3.08790011e-03,
       -9.79568809e-03, -2.68823858e-02, -9.44330450e-03,
       -7.03261839e-03, 1.16076712e-02, 2.17031557e-02, -2.03044489e-02,
       1.08529916e-02, 1.76964607e-02, 3.54702249e-02, 1.01268003e-02,
       2.80958181e-03, 1.27120735e-02, 1.26766544e-02, 5.78915840e-03,
       -3.36878886e-03, 1.58812106e-02, 2.41350802e-03, 3.42015107e-03,
       -9.81573947e-03, -1.76352616e-02, 1.35167176e-02, 9.06449091e-03,
       2.37497073e-02, 3.51114362e-03, 2.12457478e-02, -3.73027520e-03,
       2.51169559e-02, 1.36171710e-02, -1.17977597e-02, -7.86689948e-03,
       -1.66620482e-02, -1.37016363e-02, -4.26096283e-02,
       -3.92235257e-02, 1.68690607e-02, 3.38311382e-02, -4.83026262e-03,
       -4.04344872e-02, -1.90461110e-02, 2.11113207e-02, 2.37926580e-02,
       -2.63681985e-03, -7.10304081e-03, 1.02763800e-02, 6.83584288e-02,
       3.94008458e-02, 2.44110506e-02, 2.04543956e-02, 8.06637667e-03,
       -1.22114029e-02, -1.89760737e-02, -2.69784443e-02,
       -2.44629532e-02, 6.23693177e-03, -1.25262141e-02, -5.01529537e-02,
       -2.81661246e-02, 2.21374203e-02, -2.31351182e-02, -3.92353758e-02,
       -2.84506790e-02, -2.80861426e-02, 6.14205655e-03, 1.35907857e-02,
       5.65075455e-03, 1.63298380e-02, 1.79519020e-02, 2.21445747e-02,
       1.36644198e-02, -7.21351057e-03, 1.97767206e-02, 1.48657542e-02,
       4.79736961e-02, 2.19325125e-02, 1.89077985e-02, -2.74623055e-02,
       -1.19213983e-02, 4.55027409e-02, 3.18950117e-02, 2.00633984e-02,
       -2.03936198e-03, 4.20100195e-03, 9.84687265e-03, -1.50913773e-02,
       1.43891666e-02, -5.95101109e-03, -1.16138672e-02, -2.27496661e-02,
       -4.17242236e-02, -4.31560576e-02, -2.08465215e-02,
       -3.49803194e-02, -1.36165116e-02, -6.34899642e-03,
       -6.23018853e-03, -1.77499484e-02, -1.29103917e-03, 1.32672349e-03,
       -9.81493760e-03, -7.01921713e-03, -1.29667781e-02, 4.43662237e-03,
       -1.25029571e-02, -1.59951691e-02, 3.25269140e-02, 1.99563559e-02,
       4.06968519e-02, 3.02961133e-02, 1.98153835e-02, 1.83434524e-02,
       2.35152729e-02, -3.12276650e-03, -2.48136520e-02, 1.06983948e-02,
       -3.53384838e-02, 2.95210909e-02, -7.97634665e-03, 1.04587274e-02,
       -4.69611678e-03, 1.61261111e-02, -1.63798069e-03, -1.48788486e-02,
       7.87889026e-03, 1.99647788e-02, 2.53857784e-02, -5.61898760e-03,
       5.92656897e-06, -4.65497281e-03, 2.11592261e-02, -2.05892492e-02,
       -4.23199162e-02, -3.34720649e-02, -2.95737758e-02,
       -9.22171772e-03, -3.28318812e-02, -3.93882580e-02,
       -5.48839569e-02, -3.49913687e-02, 1.75543912e-02, 2.46495791e-02,
       4.81850989e-02, -5.18769957e-04, 1.95111148e-02, 1.70152318e-02,
       2.22078096e-02, 2.06604879e-02, 1.88840777e-02, 4.85604256e-03,
       2.91802902e-02, 2.77048405e-02, -2.87189763e-02, 5.19360527e-02,
       2.13302337e-02, 7.09844334e-03, -7.09270407e-03, 2.82117072e-03,
       1.39375562e-02, 7.18428427e-03, -5.95323090e-03, -2.25780867e-02,
       -1.54103087e-02, 7.67732970e-03, -4.81199324e-02, -2.00837236e-02,
       -1.89292766e-02, -6.93702186e-03, 1.98440403e-02, -2.45214701e-02,
       -6.02091942e-03, -1.19189946e-02, 2.42929161e-02, 3.01078684e-03,
       -6.28862390e-03, -1.95808429e-02, 1.32662682e-02, 2.57963017e-02,
       1.68477613e-02, -8.62974953e-03, 3.01356260e-02, 8.11547693e-03,
       3.80213186e-03, -2.30186656e-02, 3.95839056e-03, 5.64779574e-03,
       1.77680813e-02, 1.72593091e-02, 1.56839527e-02, 4.39618388e-03,
       1.65911261e-02, 1.28386924e-02, -4.28896723e-03, -1.87818427e-02,
       -9.13849752e-03, 2.61188913e-02, -2.60778307e-03, 7.77130201e-03,
       2.36672684e-04, 2.25342195e-02, 1.18751451e-02, -4.67272336e-03,
       -1.21236332e-02, -4.30012457e-02, -1.77801810e-02, 3.16098868e-03,
       3.21263000e-02, -6.40289451e-04, 4.95173000e-02, 3.13807838e-02,
       3.68104801e-02, 1.05554853e-02, -1.28359599e-02, 1.20780077e-02,
       1.72850825e-02, 2.47147791e-02, 6.66972622e-03, 7.39554968e-03,
       2.10678694e-03, -7.45889172e-03, -3.10244095e-02, 9.86881275e-03,
       5.45721920e-03, 1.29672932e-02, 2.45998390e-02, 4.34324518e-02,
       -1.38021139e-02, 1.13187144e-02, -3.84920975e-04, -1.05830072e-03,
       -3.87416743e-02, -1.33987796e-02, 1.50594506e-02, 3.35971601e-02,
       -7.78831018e-04, 1.99042466e-02, 1.00871315e-04, 8.89004616e-04,
       -1.27322413e-02, -1.86332017e-02, -8.97500571e-03, 2.14777440e-02,
       5.05864210e-02, 2.60460074e-03, -6.19700598e-03, -1.87730510e-03,
       3.83148622e-03, 6.57780562e-04, -1.30274501e-02, -1.38315083e-02,
       -8.67261458e-03, -3.53216119e-02, -7.02363206e-04,
       -2.27295402e-02, 2.74013504e-02, 9.33153089e-03, 2.51098275e-02,
       -8.00319773e-04, 4.94639762e-03, -3.79376207e-03, -2.56082080e-02,
       1.05149522e-02, 1.96977686e-02, 3.55737470e-02, 3.07778567e-02,
       2.63056420e-02, -1.92724261e-02, -1.34298988e-02, 4.23553623e-02,
       7.84884952e-03, -2.16459595e-02, 9.45231039e-03, -4.77328803e-03,
       8.66922736e-03, 6.14131615e-03, -2.84180921e-02, -5.84636442e-03,
       3.78596298e-02, 6.79153716e-03, -2.82711498e-02, 4.11716476e-02,
       2.13145837e-02, 8.39038566e-03, -1.21725434e-02, 4.74844547e-03,
       -1.01726670e-02, 1.47195766e-02, -3.24950479e-02, 1.47304228e-02,
       3.91587578e-02, 2.52450630e-02, -5.88335050e-03, 2.10434687e-03,
       -1.15449028e-02, -5.29086799e-04, 8.47742893e-03, -5.31193465e-02,
       -3.38474661e-03, 7.74664665e-03, 3.23354080e-02, 2.26326380e-02,
       8.71828757e-03, -1.03547471e-02, 2.32949923e-03, 3.41389813e-02,
       -2.02562567e-02, -7.30378693e-03, 2.79000197e-02, 3.71294767e-02,
       -1.30693242e-02, -1.54188238e-02, -2.80620605e-02,
       -1.27294660e-03, 2.45518275e-02, -3.86800133e-02, -1.82985328e-03,
       4.95425705e-03, 3.99755165e-02, -1.38510880e-03, 6.44659810e-03,
       -1.25705861e-02, -1.67763960e-02, 2.06908379e-02, -2.92256847e-02,
       6.44953270e-03, -7.60717737e-03, 1.94835421e-02, 1.14757707e-02,
       2.65417676e-02, -3.86309903e-03, 4.53991443e-02, 3.68995480e-02,
       -3.87401762e-03, -6.05455879e-03, -4.67832293e-03, 2.37122066e-02,
       5.38016902e-03, 7.38621131e-03, -9.30518901e-04, -1.39462147e-02,
       4.81911935e-02, -1.71262212e-02, -2.21690373e-03, 3.68324900e-03,
       1.04772218e-03, -1.77867897e-02, 3.52178775e-02, -3.07049621e-02,
       -1.31554133e-03, 2.50042812e-03, -1.28780659e-02, 9.84761026e-03,
       1.74898468e-02, 7.31528504e-03, -1.78004820e-02, -1.27087254e-02,
       -8.50908516e-04, 9.27170888e-02, 5.70846274e-02, 1.62806474e-02,
       -1.52037488e-02, -1.63106956e-02, 2.75094602e-02, -1.28909145e-02,
       -1.51811698e-02, -2.05595698e-02, 2.58509498e-02, 2.49181166e-02,
       -2.55558901e-02, 7.05691008e-03, -3.25751826e-02, 6.39142515e-03,
       -2.91260090e-02, -3.26246768e-02, -5.30287763e-03, 5.18297665e-02,
       3.42745073e-02, 6.34633284e-03, -3.50157842e-02, -2.42440272e-02,
       -2.16335244e-02, -3.42262499e-02, -2.15419065e-02,
       -5.07752225e-02, -4.01097815e-03, 3.31397168e-02, -1.95927499e-03,
       -2.53636744e-02, -2.94671431e-02, -4.12665345e-02,
       -1.75374839e-02, -2.23587900e-02, -1.66872274e-02, 2.39719474e-03,
       1.94475539e-02, -1.86044946e-02, -1.15391538e-02, -1.88261010e-02,
       -6.89998642e-03, -3.21745835e-02, -1.83817688e-02,
       -8.34203820e-05, 3.79593410e-02, 3.39160152e-02, 2.30397619e-02,
       1.32224075e-02, -7.00014038e-03, -2.78439466e-02, -2.54822671e-02,
       2.85912994e-02, 1.47586726e-02, 4.97693233e-02, 6.88381046e-02,
       7.23682623e-03, -2.91747949e-03, -2.44562607e-02, -1.84224602e-02,
       -2.33552251e-02, 1.41195590e-02, 1.02988910e-03, 7.49810226e-03,
       -1.02979597e-02, -8.17986485e-03, -2.59115715e-02,
       -1.59095433e-02, 7.67228240e-03, 7.79054360e-03, 3.21922377e-02,
       -4.00233828e-02, 2.47257948e-02, 6.64546937e-02, 5.40772779e-03,
       -8.39505438e-03, -4.88858065e-03, -1.71573944e-02,
       -2.00367663e-02, -3.00567308e-06, -2.06961147e-02, 3.26795913e-02,
       8.60582367e-02, 2.81045139e-02, -1.90698858e-02, -6.38492731e-03,
       -2.85443682e-02, -4.40725908e-02, -1.35553442e-02,
       -2.94768997e-02, 5.73123060e-02, 4.65626828e-02, -1.60269309e-02,
       1.74760504e-03, -1.70420967e-02, -6.98114047e-04, -5.16375853e-03,
       5.11897588e-03, -3.04756779e-02, 1.60154607e-02, 2.38413233e-02,
       -6.94059487e-03, -2.47318950e-03, -1.53085068e-02,
       -1.17443725e-02, -3.62306088e-02, 1.81816856e-03, -3.43408552e-03,
       5.38602797e-03, 1.63508356e-02, 9.45386291e-03, 7.40652252e-03,
       1.91415753e-02, 9.84982308e-03, 3.54550988e-03, 2.62376014e-02,
       -1.20099843e-03, -4.18654010e-02, -2.30221655e-02, 1.93834566e-02,
       3.33102532e-02, -2.23797373e-02, 1.86444470e-03, 1.17680533e-02,
       1.77294314e-02, -6.11134991e-03, 2.34629158e-02, 2.42933892e-02,
       9.39879194e-03, 7.72028929e-03, 1.06641259e-02, 1.82457268e-02,
       -3.33735882e-03, 9.64381546e-03, 7.81744195e-04, -3.43548059e-02,
       -1.95394438e-02, 8.65119696e-03, -8.23078863e-03, -8.12139176e-03,
       1.00552030e-02, 1.06429737e-02, 1.27033647e-02, 2.75692753e-02,
       1.15614384e-03, -1.38276685e-02, 1.21827247e-02, 7.61829410e-03,
       -2.18026806e-02, 6.47339970e-03, -4.10397444e-03, 1.42126763e-02,
       1.77867804e-02, 5.10075269e-03, 1.01733382e-03, 2.13782638e-02,
       -7.27103325e-03, -3.55615746e-04, 2.04688329e-02, 1.30571947e-02,
       -8.21197405e-04, 1.06900893e-02, 2.15512025e-03, 4.71312320e-03,
       -4.42464743e-03, 2.68289098e-03, -5.12424111e-03, -4.97188279e-03,
       -1.34527846e-03, -1.03195263e-02, -4.64706030e-03, 4.81456373e-04,
       -9.63508990e-03, 5.84236393e-03, 1.86329167e-02, -2.97055729e-02,
       -1.64480321e-02, 2.34737294e-03, -1.00974338e-02, 1.06837815e-02,
       -1.07422015e-02, 1.29572265e-02, -5.75264404e-03, 2.28736997e-02,
       4.46926132e-02, 5.57897463e-02, 1.85731575e-02, 3.33435321e-03,
       -1.18922703e-02, -2.39622183e-02, -1.07673033e-04, 4.23949939e-04,
       1.91511586e-02, 2.22149249e-02, 3.63087505e-02, 7.69679435e-03,
       -2.62748916e-02, -1.87387783e-02, -1.46524040e-02,
       -2.97313370e-02, -1.31024485e-02, 1.95553270e-03, 3.07975505e-02,
       4.95608971e-02, 2.54764166e-02, -5.41940378e-03, -2.53331922e-02,
       -1.48671232e-02, -2.92644016e-02, -1.35346884e-02, 1.28240995e-02,
       5.30580478e-03, 9.95628536e-03, 3.20939906e-02, -2.50109807e-02,
       -2.82520370e-04, 7.39841955e-03, 2.98286080e-02, 2.83412077e-02,
       -1.87026877e-02, -8.43392126e-03, 1.55257573e-02, -1.40056480e-02,
       -3.14202383e-02, -1.34381640e-04, 1.27670420e-02, 3.20826732e-02,
       2.65131909e-02, -2.33872868e-02, -1.93306175e-03, 3.03125172e-03,
       -8.29361752e-03, -1.68206748e-02, -3.12165543e-02, 3.12898904e-02,
       2.88789924e-02, -6.59407582e-03, -5.11535071e-02, -4.65789177e-02,
       -1.11385295e-03, -9.02133249e-03, -5.96565828e-02,
       -1.33748101e-02, -1.26303721e-03, -2.58268625e-03,
       -4.74209711e-02, -1.95109937e-02, -2.46316548e-02,
       -2.89504025e-02, -1.65947452e-02, -7.44864764e-03,
       -3.12930462e-03, 1.45804863e-02, 5.76662272e-02, 2.35975813e-02,
       -6.07958436e-03, -9.95226018e-03, 9.01484210e-03, -9.95820761e-03,
       3.15390038e-03, -1.71902869e-02, -1.82464011e-02, 1.33463098e-02,
       2.75811516e-02, 2.84004882e-02, 5.72711462e-03, -2.74442025e-02,
       -2.81552207e-02, -3.59224044e-02, -1.40802367e-02, 7.96776637e-03,
       3.58025022e-02, 2.69836448e-02, 2.67671254e-02, -3.98979113e-02,
       -1.26867527e-02, -1.19727412e-02, -1.47506772e-02,
       -3.31741348e-02, -4.18333486e-02, -7.23227509e-04, 2.65650786e-02,
       -3.55254412e-02, -2.63541527e-02, -2.67811697e-02,
       -1.41489394e-02, -1.46082239e-02, 2.41838582e-02, 5.87521493e-03,
       4.68258280e-03, 2.11134390e-03, 6.63606683e-03, 1.30505320e-02,
       4.28573741e-03, 8.86217877e-03, 7.77213695e-03, 6.44616270e-03,
       2.36360431e-02, -6.96540985e-04, -5.95719693e-03, -1.07553648e-02,
       1.17776943e-02, -1.87693089e-02, -1.08960858e-02, -4.64008516e-03,
       6.92042615e-03, -3.71656939e-03, 1.81673262e-02, 1.89303830e-02,
       -1.51803587e-02, 3.30422845e-05, 5.30392397e-03, 6.21669786e-03,
       1.36392666e-02, -1.72019266e-02, 9.13148094e-03, -2.71907430e-02,
       1.18240330e-03, -1.74826514e-02, -1.36922309e-02, -2.71344930e-02,
       -7.34601868e-03, 1.45995682e-02, -2.90956901e-04, -5.13727032e-03,
       -1.83565263e-03, 2.69827782e-03, 2.20675152e-02, -2.50964193e-03,
       -3.52348317e-03, -1.33553259e-02, -7.54751125e-03,
       -3.81665560e-03, 1.75965056e-02, -4.20721155e-03, -1.40301352e-02,
       -1.31717008e-02, 1.31327687e-02, 1.87072798e-03, -4.26078448e-03,
       3.46353687e-02, 9.19501111e-03, 3.33770029e-02, -4.57940344e-03,
       -1.67919043e-02, 7.52170198e-03, -2.10740790e-02, -2.59324182e-02,
       -1.97249111e-02, 7.11820263e-04, -2.35494096e-02, 3.80396396e-02,
       -6.36357535e-03, -1.41824000e-02, 4.03081672e-03, 8.62804055e-03,
       -1.63833052e-02, -4.33506304e-03, 5.36898524e-03, 8.06232821e-03,
       2.94526573e-02, -3.28401133e-04, -2.11472213e-02, -2.62845904e-02,
       -2.43506506e-02, -2.69064792e-02, -3.20546925e-02,
       -2.56822468e-03, 4.33526859e-02, 3.99789959e-02, 1.98908933e-02,
       2.98977066e-05, -1.42438598e-02, -2.39576586e-02, -1.23762498e-02,
       -1.97028350e-02, 1.02396812e-02, 4.72478233e-02, 6.28645569e-02,
       -9.07985494e-03, -1.77811068e-02, -2.32233889e-02,
       -2.49657277e-02, -3.86157520e-02, -3.06480341e-02, 1.99285578e-02,
       1.08931866e-02, 8.20253137e-03, -1.72744486e-02, -1.26712546e-02,
       -2.40775999e-02, -7.88257644e-03, 1.16791409e-02, 1.22336065e-02,
       2.78619677e-02, 1.96378548e-02, 1.73200909e-02, 1.25454227e-02,
       -2.66736951e-02, 9.95297544e-03, -1.25489291e-02, -2.70801205e-02,
       -1.82544459e-02, -8.19824357e-03, 8.84280074e-03, 3.95764224e-02,
       5.73023260e-02, -8.52551870e-03, 2.17379872e-02, 4.43165191e-03,
       -1.88398163e-03, -1.03029544e-02, -5.28794574e-03, 4.70272116e-02,
       4.07209210e-02, 1.28957909e-02, 5.11683384e-03, 6.30385848e-03,
       -1.08183054e-02, -3.11844349e-02, 2.69340747e-03, 6.54596463e-03,
       1.48829455e-02, 4.15429920e-02, 4.24054526e-02, 2.78879572e-02,
       2.47877836e-02, 1.34615693e-02, -1.13999508e-02, 5.61932428e-03,
       7.32700014e-03, 1.06521016e-02, 1.82683747e-02, 2.73476709e-02,
       7.60059012e-03, 8.05957150e-03, -1.40852826e-02, -4.42368677e-03,
       -4.21782322e-02, -1.90316904e-02, 3.85593660e-02, 4.72927690e-02,
       4.64832596e-02, 4.10459796e-03, -9.95161105e-03, -2.47959755e-02,
       8.74178950e-03, -2.29640231e-02, 1.64553449e-02, 1.63308866e-02,
       1.73076447e-02, 4.83208190e-04, 2.56311800e-02, 2.44264547e-02,
       -9.21144988e-03, -1.32273212e-02, -6.94071036e-03,
       -3.18189487e-02, 5.59906848e-03, -1.83189251e-02, -1.25423737e-03,
       1.50281498e-02, 2.92580780e-02, -1.22540137e-02, 4.08023177e-03,
       4.52635204e-03, -2.06402820e-02, 3.72804143e-02, 2.51648203e-02,
       5.35760336e-02, -6.66787196e-03, -6.11395249e-03, -1.00777876e-02,
       9.09522921e-03, -3.65024572e-03, 3.98320295e-02, 5.38187660e-02,
       1.58083756e-02, 1.90977417e-02, -1.89643782e-02, 8.34421813e-03,
       6.46826997e-03, -3.31646763e-03, -1.87671613e-02, 2.15797424e-02,
       1.29322624e-02, -2.67793182e-02, -1.69593394e-02, -3.94883478e-04,
       -1.33031495e-02, -2.06961501e-02, -3.19507718e-03,
       -2.73152255e-02, 1.79470833e-02, -4.47871600e-04, -2.08178759e-02,
       -2.83881160e-03, -7.66791450e-03, -4.15775401e-04, 2.06739316e-03,
       -2.05075983e-02, -5.90910353e-02, 6.48672110e-04, 7.21765310e-02,
       1.01079885e-02, 1.96003690e-02, -1.14381509e-02, -9.71529866e-04,
       -2.38688495e-02, -2.44295243e-02, -3.76963541e-02, 1.35465581e-02,
       8.12624767e-03, -6.86594984e-03, 5.60186943e-03, -3.36300172e-02,
       -3.15598361e-02, -2.43915357e-02, -3.41464430e-02,
       -2.10839622e-02, 1.29424883e-02, 3.08339894e-02, 2.52680853e-03,
       2.53116107e-03, 1.03578856e-02, 2.20369939e-02, -2.43782252e-02,
       -1.82245430e-02, -3.22968550e-02, 4.72097285e-02, -2.09468007e-02,
       8.56830832e-03, -2.04879548e-02, -2.25320663e-02, -1.14351604e-02,
       -4.94074775e-03, 1.21982107e-02, -5.30399475e-03, 2.98951734e-02,
       -1.41946934e-02, -7.56661734e-03, 4.06419393e-03, -4.56549488e-02,
       -2.20891386e-02, -2.64548231e-02, -4.30596713e-03,
       -1.07429903e-02, 4.06450871e-03, -1.57403480e-02, 3.75608057e-02,
       3.71490978e-02, -3.42650898e-02, -1.15140565e-02, -3.30441333e-02,
       1.44243811e-03, -1.09930327e-02, -4.26981458e-03, 1.69337876e-02,
       2.09843274e-02, -9.90744564e-04, -2.39684600e-02, -9.75570455e-03,
       -8.41241330e-03, 6.76284730e-03, -1.37216561e-02, 1.85936913e-02,
       1.75257563e-03, -4.36963979e-03, -2.87212268e-03, -2.75179837e-02,
       -5.69841359e-03, -8.57451279e-03, -7.41420500e-03,
       -4.74051619e-03, 9.29843634e-03, -3.28068547e-02, 6.35346323e-02,
       6.40308559e-02, -6.51838444e-03, 2.72351820e-02, -1.75412640e-03,
       1.20799234e-02, 2.29553832e-03, 4.26609907e-03, -3.64092700e-02,
       6.50607701e-03, 2.89926212e-02, -9.65732988e-03, 8.18373729e-03,
       -6.13653567e-03, -1.82025670e-03, -1.17783956e-02,
       -5.38418395e-03, -2.55526341e-02, 2.03881599e-02, 1.19908610e-02,
       -2.26821993e-02, -2.55158152e-02, 1.31431408e-03, 1.42996004e-02,
       -1.63680129e-02, -1.92007013e-02, -8.13444331e-03,
       -6.34644739e-03, -2.20390484e-02, -2.52757818e-02,
       -1.75221507e-02, -8.27378500e-03, 4.42431169e-03, -1.82138197e-02,
       -3.72680761e-02, -1.38865896e-02, -3.20900069e-03, 6.80595357e-03,
       -1.00859478e-02, 1.03776427e-02, 1.23470677e-02, 2.22695712e-02,
       2.05025785e-02, -1.30414590e-03, -8.00029957e-04, 4.41251369e-03,
       8.54759011e-03, 1.42637650e-02, -1.39727117e-02, -1.98838841e-02,
       -1.08015547e-02, 1.33793801e-02, -5.59084537e-03, -1.04660087e-03,
       7.16005964e-03, -7.18182465e-03, -1.76484045e-02, 2.13469882e-02,
       1.20245833e-02, 1.70356575e-02, 2.60147406e-03, -1.72534455e-02,
       -9.78061580e-04, 5.38853602e-03, -1.03821037e-02, -2.14102082e-02,
       7.43206684e-03, -1.06380237e-02, -5.11485152e-03, 3.85025516e-03,
       9.99462605e-03, -7.70693552e-03, -4.85044485e-03, 1.34558324e-02,
       -1.16862357e-02, 3.79150431e-03, -1.04678348e-02, -5.25314547e-03,
       1.15028524e-03, -7.07494421e-03, 1.35403294e-02, 9.42468457e-03,
       2.27559507e-02, 9.93859023e-03, -9.43846069e-03, -1.78954732e-02,
       1.36856956e-03, 9.21684131e-03, 7.45806517e-03, -2.75441501e-02,
       -5.95476478e-03, 6.01546559e-03, -5.74342441e-03, 1.01318546e-02,
       -7.10207457e-03, -1.78471599e-02, -9.66437161e-04, 1.49347493e-02,
       -6.19969890e-03, -1.84084568e-02, -1.11218011e-02, 6.07313961e-03,
       -2.71433145e-02, 6.92726905e-03, 5.75926434e-03, 4.54525882e-03,
       2.02316064e-02, 1.22685470e-02, -4.46710922e-03, -1.32790441e-02,
       -2.17356626e-02, -2.10009385e-02, 1.05358874e-02, 6.21690080e-02,
       2.20903736e-02, 1.79609917e-02, -4.59261332e-03, 5.40616782e-03,
       1.96156204e-02, -8.23777169e-03, 1.78638343e-02, -6.37417985e-03,
       2.26240158e-02, 4.01841365e-02, 9.35230497e-03, -6.69203757e-04,
       -2.36948561e-02, 9.16685164e-03, -4.36704932e-03, -1.88907646e-02,
       1.55829722e-02, 2.88408250e-02, 2.06350908e-02, 6.01355545e-03,
       -1.91167295e-02, -2.90533714e-03, 8.68183561e-03, -2.53935507e-03,
       2.33917143e-02, 3.31132277e-03, 3.11402865e-02, 8.35438166e-03,
       -1.33619299e-02, -4.75201756e-02, 2.26160008e-02, 5.06477654e-02,
       -3.40471491e-02, -3.35611925e-02, -1.42018124e-02, 3.41755189e-02,
       2.54076980e-02, -2.02381238e-03, -1.87213626e-02, 1.43901026e-02,
       3.48502062e-02, -2.51577478e-02, 1.04282200e-02, -2.72665881e-02,
       1.20395899e-03, 3.32299480e-03, 1.47745311e-02, -4.72916998e-02,
       3.66043369e-03, 1.68677960e-02, -2.27546915e-02, -2.10989569e-03,
       -2.41018254e-02, 2.65140291e-02, 1.90658458e-02, -1.70767109e-03,
       -2.88708098e-02, -2.82058250e-02, -1.59411237e-03,
       -2.84469910e-02, -4.56239544e-02, -3.58575247e-02,
       -2.07020380e-02, -2.69065960e-03, -1.31604671e-02,
       -5.53391548e-03, 1.56204989e-02, 5.88270947e-02, 7.49638025e-03,
       1.43823738e-04, -2.34231092e-02, -7.95834698e-03, -9.41891316e-03,
       1.80553626e-02, 2.05185288e-03, 1.14609832e-02, 7.02760592e-02,
       2.09680349e-02, -1.61538180e-02, -2.51864530e-02, -1.19972611e-02,
       -2.36615296e-02, 7.46834185e-03, -1.77147817e-02, 1.11208539e-02,
       4.02049646e-02, -1.59344468e-02, -4.11658138e-02, -2.76262667e-02,
       -2.52721012e-02, -1.36349322e-02, 9.96586168e-04, -2.41764821e-02,
       1.55333234e-02, 3.61494981e-02, -2.09527351e-02, -2.05039550e-02,
       -3.51266861e-02, -1.88336279e-02, -4.14470071e-03, 9.09522059e-04,
       -1.70149244e-02, 1.15326839e-02, 3.05900984e-02, -2.99148937e-03,
       1.58697460e-02, -2.79398747e-02, 7.72395125e-03, -2.09231842e-02,
       -1.28894188e-02, -3.59466719e-03, 3.86000089e-02, 3.10391141e-03,
       7.73618650e-03, 2.19093598e-02, -1.11862607e-02, -1.19500300e-02,
       -1.78429931e-02, -1.52954664e-02, -6.33525709e-03, 3.41536887e-02,
       4.20517437e-02, -1.85492337e-02, -1.07758045e-02, -1.26044480e-02,
       1.16749415e-02, -1.18397092e-02, -1.13573018e-02, 3.68313515e-03,
       2.04511322e-02, 1.09883258e-02, 2.50795968e-02, -6.99554477e-03,
       -1.90784670e-02, -4.74256347e-04, -1.97494235e-02,
       -1.27352206e-02, 1.64669901e-02, 3.62147279e-02, 5.86406887e-03,
       -3.00513301e-02, 9.89663135e-03, -1.14941001e-02, 1.11307129e-02,
       4.45518084e-03, -1.54534057e-02, 1.48955574e-02, 4.14444096e-02,
       -5.04122442e-03, -2.87247561e-02, 1.35440973e-03, -7.31889857e-03,
       -7.15303421e-03, 8.79746862e-03, -3.85241024e-03, -7.83968624e-03,
       7.97311403e-03, 1.68743189e-02, 4.38598450e-03, -1.77638084e-02,
       -2.42584553e-02, 3.60877160e-03, -1.30247921e-02, -1.79384779e-02,
       -3.12587642e-03, -2.36825421e-02, -2.25540493e-02, 5.82888816e-03,
       -2.99629965e-03, -4.64539946e-04, 3.27075124e-02, 1.39364814e-02,
       8.16861726e-03, 4.32495959e-02, 1.26638263e-02, -1.48082552e-02,
       -1.29815303e-02, -1.18712685e-03, -2.80489679e-02,
       -1.93499718e-02, -2.09823381e-02, 2.09713983e-03, 8.29779729e-03,
       -8.57697148e-03, -2.14610081e-02, -1.13800094e-02,
       -1.01953223e-02, -1.15746995e-02, -1.00149764e-02, 6.81341277e-04,
       1.18991127e-02, 2.60523916e-03, -2.97094434e-02, -1.89099126e-02,
       1.56753995e-02, -1.20592874e-03, -2.19473196e-03, 3.96784116e-03,
       -1.91707313e-02, 8.66710488e-03, -1.68187935e-02, -3.66891548e-02,
       -2.40016263e-02, -7.59070972e-03, -1.40272137e-02, 6.04823371e-03,
       -1.29941944e-02, -1.32885820e-03, 4.70823725e-04, -1.25632212e-02,
       -1.28424121e-02, -7.77033763e-03, 1.35219563e-02, 3.57070155e-02,
       -5.35922591e-04, -5.48374606e-03, 9.85930581e-03, -2.01010471e-03,
       4.02056798e-03, -6.54750317e-03, -9.06201452e-03, -2.67136842e-03,
       1.77441817e-02, -2.21039308e-03, -1.16206915e-03, 1.79876089e-02,
       1.42701548e-02, -3.26458830e-04, -1.39545230e-03, 5.59964171e-03,
       2.39058025e-03, 2.82110851e-02, 4.44670878e-02, 7.89355207e-03,
       -8.97328276e-03, 1.49922064e-02, 4.49475646e-03, -1.38874752e-02,
       -2.13358589e-02, -3.89131531e-03, 2.91347085e-03, 1.72563060e-03,
       -1.01413289e-02, -1.91258695e-02, 1.18175754e-02, -2.27451255e-03,
       6.38165465e-03, -1.37498882e-02, 4.38612700e-03, 1.45423757e-02,
       1.41763873e-03, 1.57738756e-02, 3.01135816e-02, 6.07258268e-03,
       -1.97075475e-02, -8.83597601e-03, -2.84264865e-03, 8.32824316e-03,
       2.19516139e-02, -1.17160394e-04, 1.35499295e-02, 2.09312160e-02,
       -2.45879889e-02, -2.56738160e-03, 5.86587610e-03, -3.91328661e-03,
       -1.18090631e-02, -1.94677580e-02, 2.36089416e-02, 1.63270645e-02,
       1.55412331e-02, 3.50118778e-03, -6.64848043e-03, -6.92137145e-03,
       -1.56514123e-02, -1.63297344e-03, -5.74325211e-03, 9.08925664e-04,
       -5.62201254e-03, -5.21343108e-03, -4.39114403e-03,
       -2.84673297e-03, -1.52799929e-03, -1.67127454e-03, 1.96391363e-02,
       6.59571122e-03, 1.18884090e-02, 1.71321388e-02, -1.05791008e-02,
       -1.66605860e-02, 1.18363528e-02, -1.20092724e-02, 3.29802278e-03,
       1.46192135e-02, 9.65908542e-03, 2.30815727e-02, 1.01581626e-02,
       -1.68590657e-02, -8.68322386e-04, -1.61001477e-02,
       -1.02295056e-02, -1.45087922e-02, 2.46179458e-02, -6.44953875e-03,
       1.72499344e-02, -9.98838432e-03, -1.59777440e-02, -3.06276157e-02,
       -1.11911260e-03, -8.35662615e-03, -3.25240120e-02, 2.09010337e-02,
       -3.11409123e-03, -1.15547068e-02, -1.42601095e-02,
       -8.59726220e-03, -3.95127526e-03, -1.37829892e-02,
       -8.01673159e-03, -1.35414386e-02, 2.17774101e-02, 4.63913754e-03,
       6.89622015e-03, 2.26531718e-02, 7.40059698e-03, 1.36345197e-02,
       -5.23120165e-03, 1.64617263e-02, -2.83448142e-03, 5.60311275e-03,
       -5.78252599e-03, 3.46786790e-02, 3.10350973e-02, 1.78032834e-02,
       1.73763819e-02, -9.08859354e-03, 1.06160960e-03, 3.91543377e-03,
       2.90909950e-02, -3.87447071e-03, -5.64943766e-03, 5.68743655e-03,
       -9.53273557e-04, -6.83143688e-03, -1.96448900e-02,
       -7.90041126e-03, -1.64652895e-02, -1.44678196e-02,
       -6.54349942e-03, 8.05609487e-03, -1.50511805e-02, 2.41497103e-02,
       1.55275678e-02, -1.16168130e-02, -5.83455898e-03, 8.07744265e-03,
       1.79462191e-02, 1.89691298e-02, 1.38032278e-02, 1.56222107e-02,
       -8.55310634e-03, -1.23840496e-02, -8.50231294e-03,
       -6.38715038e-03, -3.50578735e-03, 1.13616325e-02, 3.02729923e-02,
       1.31269926e-02, -5.03637223e-03, -1.90761536e-02, -9.05027613e-03,
       2.61758314e-03, -1.03297057e-02, -6.82240678e-03, 1.89378671e-02,
       1.31193968e-02, 2.47207470e-02, -2.00473461e-02, 1.58233065e-02,
       1.79566815e-02, 1.65019635e-04, -8.27970821e-03, -2.42529754e-02,
       -1.57207940e-02, 3.64956027e-03, 6.09571161e-03, -1.98059846e-02,
       -1.34699093e-02, -2.74355873e-03, 2.37510563e-03, 2.89462283e-02,
       -7.85963237e-03, -6.16657361e-03, 2.65307003e-03, 1.74989440e-02,
       2.92311497e-02, -7.58918794e-03, -1.53405825e-03, 4.32492839e-03,
       1.31374886e-02, -2.72175274e-03, -2.59890803e-03, 9.58637055e-03,
       -8.70521530e-04, 1.86029449e-02, -1.77956186e-02, -1.98216680e-02,
       1.47514399e-02, 2.26423307e-03, -8.15937063e-04, -6.86517591e-03,
       -1.63574275e-02, -5.56776859e-03, -1.61468016e-03,
       -1.32447341e-04, 8.24276300e-04, 9.97412251e-04, 5.36309462e-03,
       8.23005289e-03, 9.30565223e-03, 2.70701508e-04, 1.12482812e-02,
       -1.14726247e-02, -1.67089216e-02, -1.18715521e-02, 7.59616552e-04,
       1.64057426e-02, -1.13909990e-02, -2.06672661e-02, 7.57280272e-03,
       -4.07670345e-03, 2.79367026e-02, 4.45942814e-03, -3.81417712e-03,
       -1.75498594e-02, 1.43018998e-02, 5.14383428e-03, -1.07429200e-03,
       8.61480925e-03, 2.48345110e-04, 1.22848097e-02, 1.56185823e-02,
       -2.02385685e-03, 2.20199637e-02, 3.21446056e-03, 4.18997282e-04,
       1.73247848e-02, -1.75916255e-02, -7.71819381e-03, -3.38312471e-03,
       -3.41531867e-03, 1.44094927e-02, -1.37508865e-02, 7.13369856e-03,
       -3.88114760e-03, 2.81624477e-02, -6.63801003e-03, 2.18384415e-02,
       1.69447586e-02, 1.17716808e-02, -7.07035884e-04, 1.53663252e-02,
       -6.57637091e-03, -2.19061058e-02, -1.24304025e-02, 4.24582921e-02,
       -6.89029973e-03, -6.46971224e-04, -1.50911054e-02,
       -8.03901698e-04, 1.07132271e-02, 4.44714585e-03, 2.40902286e-02,
       2.59108692e-02, -1.02838560e-03, 1.14971139e-02, 2.24519521e-02,
       6.80759270e-03, 1.40403549e-03, -2.19860524e-02, -7.61832716e-03,
       -4.98295166e-02, 2.98773521e-04, 3.42250690e-02, 1.28055108e-04,
       -1.29763465e-02, 8.16023163e-03, -1.89560335e-02, 1.14205908e-02,
       4.61966824e-03, 2.85850856e-02, 1.61834657e-02, -2.09174789e-02,
       4.07515140e-03, -9.33676772e-03, -3.59235634e-03, 7.38868862e-03,
       1.57164875e-04, 2.17284984e-03, 1.35879926e-02, -4.65932593e-04,
       5.82862319e-03, -2.90032499e-03, 3.28836069e-02, 1.20013896e-02,
       -7.95056298e-03, 2.93928222e-03, 7.40963081e-03, 1.24042295e-02,
       1.61158312e-02, 9.94039979e-03, -5.16309962e-03, 2.45645549e-02,
       2.53416039e-02, 1.29369916e-02, 1.35878399e-02, -6.76379912e-03,
       -2.26933137e-03, 2.13126093e-03, 6.62522682e-04, 1.82409808e-02,
       4.18062648e-03, 1.15673314e-03, 3.63087989e-02, 1.84347183e-02,
       -1.95324272e-02, -1.40136080e-02, 2.91401614e-03, 2.91894786e-02,
       1.71131343e-02, -1.03848819e-02, 1.67032145e-02, 3.37332971e-02,
       -7.40611553e-03, -1.72819179e-02, 3.35121974e-02, -1.05219716e-02,
       4.69081709e-03, -1.62173342e-02, 4.03404795e-02, 2.32943483e-02,
       2.86412407e-02, 3.19756148e-03, -3.08476333e-02, 2.23311465e-02,
       -2.88585108e-02, 1.20148212e-02, 1.02664903e-02, 2.74593029e-02,
       1.47326449e-02, 8.36150069e-03, -1.08871702e-03, -2.58581322e-02,
       -2.63941358e-03, -2.51816660e-02, -2.27786768e-02,
       -1.40093185e-03, -1.13627706e-02, 1.48142464e-02, 2.02810038e-02,
       8.17625504e-03, -1.22870263e-02, 5.52964304e-03, -1.20377336e-02,
       1.13830883e-02, -8.59149173e-03, 5.70656685e-03, 1.60257053e-02,
       3.11339716e-03, -5.90781961e-03, 9.01967433e-05, 1.89661961e-02,
       -2.64101364e-02, 1.25257345e-02, -3.31626181e-03, 5.91833284e-03,
       -7.84653425e-03, 1.09627908e-02, 3.02973911e-02, 1.20619144e-02,
       2.69466434e-02, -4.50787833e-03, 7.79714482e-03, 1.48225026e-02,
       9.04419459e-03, -2.03750422e-03, 4.30337079e-02, 1.59232151e-02,
       1.93322673e-02, 2.19074488e-02, -1.75665866e-03, -6.30345987e-03,
       -1.70657914e-02, -7.95420259e-04, -1.13239381e-02, 1.40205687e-02,
       2.40898244e-02, 4.59796283e-03, 7.13598542e-03, 9.07636061e-03,
       3.28627415e-02, 1.76003296e-02, 1.04986748e-03, 1.14219747e-02,
       3.41987684e-02, 2.81564984e-03, 1.07334880e-02, 3.43716107e-02,
       -1.53257987e-02, -3.20898816e-02, -2.39902805e-03, 2.22061966e-02,
       -1.48615623e-02, 2.43035741e-02, -4.28153761e-03, 7.96788651e-03,
       4.35924856e-03, 9.83748585e-03, 1.29933162e-02, -1.48799298e-02,
       6.61030039e-03, -1.44590596e-02, 3.88232945e-03, 1.75286606e-02,
       -1.75781790e-02, -1.77402142e-03, -7.27335596e-03,
       -3.40330112e-03, 1.47456361e-03, 1.46687198e-02, -1.22148870e-02,
       1.36061274e-02, -2.22228118e-03, -2.85471305e-02, -2.89950408e-02,
       1.31251486e-02, 1.45214358e-02, 6.33225590e-03, 3.13338614e-03,
       1.27021573e-03, -8.25971458e-03, -2.48115864e-02, -1.22487321e-02,
       1.05025638e-02, 5.24455262e-03, -6.44035754e-04, -4.30423766e-03,
       3.47322854e-03, -1.09950043e-02, -8.73851404e-03, -1.42759895e-02,
       -1.74885895e-02, -2.39150668e-03, 2.30085086e-02, 3.66589963e-03,
       6.94260653e-03, 1.42002413e-02, 8.33390094e-03, -6.91261794e-03,
       -1.16875526e-02, -2.61105169e-02, -3.25416506e-04, 1.08903879e-02,
       -4.72583226e-04, 1.57860271e-03, 1.29974016e-03, -4.07596724e-03,
       -7.54216686e-03, -1.36879534e-02, -2.56446190e-02,
       -8.37500021e-03, 2.58252621e-02, -3.06772459e-02, 1.90955531e-02,
       1.11133326e-02, -2.95736041e-04, -1.62554197e-02, -1.15989335e-02,
       -2.82458682e-02, -4.52558249e-02, 2.29184125e-02, 5.71273966e-04,
       8.63116514e-03, 1.62555389e-02, 9.94938798e-03, 1.11515364e-02,
       -7.12244352e-03, 7.01102847e-03, -1.64778391e-03, 2.28962768e-02,
       6.59581739e-03, 3.12078802e-04, -1.17616821e-02, 7.45901559e-03,
       -1.27394106e-02, 7.91561790e-03, -9.93527193e-03, -2.53604613e-02,
       2.31353231e-02, -1.17192538e-02, 5.89290343e-04, 7.70053314e-03,
       1.46533493e-02, 2.50132047e-02, -1.51401991e-03, 5.51269948e-03,
       -2.46229060e-02, 1.15943523e-02, 4.92902193e-03, -7.98122585e-03,
       -7.66923744e-03, -1.04427058e-02, -1.35564934e-02,
       -8.66298191e-03, 8.31221754e-04, 4.55653481e-03, -4.33666259e-03,
       1.84148131e-03, 2.83778980e-02, 1.43068712e-02, 5.32145798e-03,
       -2.09609568e-02, -1.76670384e-02, -1.82249174e-02,
       -4.83160745e-03, 9.50452592e-03, 1.15917772e-02, 2.11633537e-02,
       4.61367518e-03, 1.03673236e-02, -1.35156354e-02, -8.13608710e-03,
       1.59108434e-02, -1.35328257e-02, -5.71335200e-03, -1.38654057e-02,
       1.03539573e-02, 7.12800818e-03, -1.20749967e-02, -2.20460594e-02,
       -2.18653702e-04, -1.66035332e-02, -3.98106538e-02, 2.01572734e-03,
       -2.32056919e-02, 4.18153126e-03, -4.62037092e-03, -4.36386326e-03,
       -1.01747178e-03, -2.81679574e-02, 2.94840196e-03, 5.09564672e-03,
       -2.05122912e-03, -8.23725667e-03, 8.22704565e-03, -9.47392953e-04,
       2.59363167e-02, -1.50964120e-02, -7.56979128e-03, 5.52735990e-03,
       -1.26210153e-02, -1.03131682e-03, -1.01934839e-02,
       -2.54611615e-02, -4.83312085e-03, 5.40647190e-03, 5.75537002e-03,
       8.37606192e-03, 3.15615651e-03, -4.43593739e-03, 4.48103668e-03,
       -1.65203251e-02, 1.24583440e-03, -1.00042205e-02, 7.98574369e-03,
       7.45700556e-04, 1.08838817e-02, 4.90468973e-03, -1.93701038e-04,
       1.10487374e-04, -1.24707315e-02, -8.42436217e-03, -1.39256539e-02,
       -9.83319059e-03, -9.97794885e-03, -1.52998476e-03,
       -7.59150228e-03, -1.51545769e-02, 7.60347629e-03, 5.19147748e-03,
       1.72546704e-03, 5.24168322e-03, 6.46478543e-03, 2.32874230e-03,
       -9.61491372e-03, 1.57432202e-02, -3.15205165e-04, 1.78821874e-03,
       -1.23537760e-02, -6.78736903e-03, -1.40113784e-02, 1.64447930e-02,
       -2.74111587e-03, -5.60884504e-03, -3.71794892e-03, 8.68565869e-03,
       8.06994457e-03, 5.57874795e-03, 9.30022728e-03, 4.46151989e-03,
       1.29479039e-02, -1.21605312e-02, -1.43551147e-02, -2.75206733e-02,
       -8.02207366e-03, -2.92978175e-02, -1.56146223e-02, 2.58557405e-02,
       -4.74008033e-03, 1.90163068e-02, -9.99063905e-03, -7.18360068e-04,
       1.50620025e-02, 1.11900372e-02, 5.35368826e-03, -3.28620267e-03,
       -4.28319955e-03, 1.90635386e-03, 1.03081968e-02, -1.61958560e-02,
       1.78155198e-03, 1.82959642e-02, 5.24413353e-03, -1.17245177e-03,
       1.31313121e-02, -5.88116236e-04, -5.66750066e-03, -2.09863624e-03,
       -8.22663773e-03, -1.25975264e-02, 3.41859716e-03, 6.55352231e-03,
       -7.87581597e-03, -1.26139056e-02, 5.15512750e-03, 5.39836893e-03,
       7.87933450e-03, -9.24665388e-03, -1.30953547e-02, -5.42779407e-03,
       -1.04910200e-02, 1.95200127e-02, -8.35725293e-03, 1.29384012e-03,
       -2.33884081e-02, 2.36865622e-03, -1.42354211e-02, 5.92963072e-03,
       -3.96633381e-03, -4.18973016e-03, -8.48131534e-03, 1.05428351e-02,
       6.16067043e-03, -1.29994005e-05, 4.25778097e-03, 8.29127152e-03,
