%YAML:1.0
pringle--72x144--: !!opencv-object-detector-hog
   winSize: [ 72, 144 ]
   blockSize: [ 16, 16 ]
   blockStride: [ 8, 8 ]
   cellSize: [ 8, 8 ]
   nbins: 9
   derivAperture: 1
   winSigma: 4.
   histogramNormType: 0
   L2HysThreshold: 2.0000000000000001e-01
   gammaCorrection: 1
   nlevels: 64
   signedGradient: 0
   SVMDetector: [ 1.00900559e-02, 1.28914807e-02, 1.21074403e-02,
       2.80744280e-03, 1.92402059e-03, 1.69204711e-03, 1.33762639e-02,
       -2.03903373e-02, -1.61134116e-02, 6.33413577e-03, 6.77232211e-03,
       1.94178373e-02, -1.47781903e-02, -1.52698448e-02, -1.88651420e-02,
       4.75479849e-03, 1.56994611e-02, 2.44928394e-02, -2.30179653e-02,
       -1.37926536e-02, 8.05533305e-03, 1.08149434e-02, 1.37678320e-02,
       2.36391779e-02, 3.93136777e-03, 9.77871381e-03, -2.40430534e-02,
       -7.37577211e-03, -2.35143136e-02, -5.60802734e-03,
       -1.21259270e-02, 7.20945373e-03, 1.65519607e-03, 5.48215955e-03,
       1.74638852e-02, -6.55393233e-04, -7.16808252e-03, 1.02372011e-02,
       2.10240502e-02, 8.37639254e-03, 3.32365856e-02, -8.67050141e-03,
       -6.97679864e-03, -3.72604397e-03, 1.63008198e-02, -6.35610661e-03,
       2.03836206e-02, 2.67556775e-02, -1.89774763e-02, -2.04090718e-02,
       -1.40285902e-02, 3.85142560e-03, -2.93180551e-02, -1.79561507e-02,
       3.85006890e-03, -1.21551985e-02, 1.03266984e-02, 2.51458008e-02,
       -1.54872080e-02, -8.63484945e-03, 1.60187706e-02, 4.62091900e-03,
       -1.36270514e-02, 1.45994341e-02, 7.62593746e-03, 1.88422073e-02,
       -2.41025258e-02, 6.38777949e-03, -1.47627303e-02, 3.79692316e-02,
       8.99216812e-03, -1.54445851e-02, 1.06549310e-02, -6.63160672e-03,
       7.85084721e-03, -2.32863743e-02, -7.70486053e-03, -1.69150271e-02,
       8.49098712e-03, -1.89282782e-02, 1.98729374e-02, -3.25516006e-03,
       1.02095157e-02, 7.68280355e-03, -2.27367803e-02, -5.65935079e-05,
       -2.48470064e-02, 3.57037690e-03, -1.85857359e-02, -7.12095469e-04,
       4.83059743e-03, 9.42171144e-04, 1.24602392e-02, -2.93688290e-02,
       1.54094053e-02, -3.52012329e-02, 9.67613421e-03, 1.77670475e-02,
       -6.34631235e-03, 1.96707118e-02, 4.21890952e-02, 3.75871807e-02,
       2.73744203e-03, -1.72228236e-02, 2.12233234e-02, 2.34512035e-02,
       4.61929366e-02, 2.53698020e-03, -8.31992645e-03, -5.36708441e-03,
       -6.44160528e-03, -4.98266742e-02, 1.47311983e-03, -4.03300561e-02,
       -1.72466468e-02, -2.32498292e-02, -1.03017790e-02, 2.13570036e-02,
       1.96717065e-02, 2.00203117e-02, -2.48542912e-02, 1.68252382e-02,
       5.81397349e-03, -1.51995914e-02, -2.12053563e-02, 9.95911099e-03,
       5.33151440e-03, 1.47411637e-02, 1.76300481e-02, -1.66512746e-02,
       -8.50485638e-03, -1.24305300e-02, 3.82945091e-02, 4.61180396e-02,
       -2.03982624e-03, 1.08672939e-02, -1.14773437e-02, 4.83409548e-03,
       7.08155520e-03, 3.49739417e-02, 1.71942990e-02, 2.27023605e-02,
       2.58128364e-02, 7.41117168e-03, -9.85862687e-04, 5.98936167e-04,
       1.14705814e-02, -3.21494937e-02, -7.31319981e-03, -6.69346284e-03,
       -3.33689004e-02, -3.17665450e-02, 1.04987388e-03, -3.15821134e-02,
       1.19235110e-03, 9.56982933e-03, -5.36841480e-03, 4.41179099e-03,
       8.93497467e-03, -1.30988378e-03, -1.24110365e-02, -2.29183771e-02,
       -2.15009763e-03, -2.63528451e-02, -8.45332444e-03,
       -7.94847123e-03, 1.23511851e-02, 5.23197514e-06, -5.54250106e-02,
       -1.52315237e-02, -3.26994387e-03, -2.30240114e-02, 5.44034410e-03,
       -9.32517461e-03, -2.57768505e-03, -6.92699431e-03,
       -7.53836986e-03, -4.10633422e-02, -2.05545966e-02,
       -1.25535894e-02, -2.56819073e-02, 6.30852825e-04, -2.07050834e-02,
       -3.44678871e-02, -1.78429689e-02, -6.45142864e-04,
       -2.06380039e-02, -3.56592871e-02, -1.20974258e-02,
       -3.52299144e-03, 9.91834886e-03, -2.03469060e-02, -1.25277834e-02,
       -2.25243606e-02, -4.00605146e-03, -4.27165814e-03,
       -3.07913776e-02, 8.00185278e-03, -5.81654313e-04, -1.95438857e-03,
       -5.64548140e-03, -2.40905806e-02, -2.22991481e-02,
       -1.95095164e-03, -1.87484808e-02, -4.95674089e-03,
       -7.98470899e-03, -6.52583456e-03, 7.72767235e-03, -4.21576202e-03,
       7.95645826e-03, -2.58001387e-02, 5.58479223e-03, -6.25810213e-03,
       -2.07629669e-02, -1.28516937e-02, -2.23667035e-03, 1.29778460e-02,
       -3.11746728e-03, 8.57949071e-03, -8.49678274e-03, 8.31012055e-03,
       1.92079060e-02, -2.35878234e-03, -5.73871145e-03, 9.73853469e-03,
       9.53596737e-03, -1.80269331e-02, -1.03464294e-02, -7.63827516e-03,
       -7.59710651e-03, 1.80221274e-02, -1.30454833e-02, 5.73700713e-03,
       -2.66304873e-02, 1.84360202e-02, 8.46240763e-03, 3.10252737e-02,
       -6.31737849e-03, 1.34841353e-02, 1.01193432e-02, -3.87482764e-03,
       -1.30578699e-02, -1.41660068e-02, -1.45029724e-02,
       -1.52484560e-03, 1.01769501e-02, 5.19415655e-04, -7.59408344e-04,
       -2.05418188e-02, -2.93271635e-02, -2.68503185e-02,
       -9.70822666e-03, -1.74123924e-02, -5.33872750e-03, 1.09313531e-02,
       -1.43318735e-02, 2.18714145e-03, 2.98766382e-02, -7.11976038e-03,
       5.00809122e-03, 1.12153916e-02, -7.66394148e-03, -6.79860311e-03,
       2.63775568e-02, -1.39087979e-02, 1.08275171e-02, -2.83245090e-03,
       3.99596477e-03, 1.38408514e-02, -6.55350834e-03, -7.86956213e-03,
       -1.08361822e-02, 2.36979090e-02, -4.13900353e-02, 1.44615471e-02,
       4.42685373e-03, -1.80983841e-02, -2.35723443e-02, -1.30690234e-02,
       -3.19210021e-03, -6.43727183e-03, 1.74503010e-02, -1.83013622e-02,
       6.36775186e-03, -1.09671736e-02, -2.16907300e-02, -2.67994590e-02,
       -1.37508344e-02, -1.59057509e-02, -5.26951440e-03, 1.33565553e-02,
       -2.29779864e-03, 1.09143024e-02, -7.20085064e-03, -3.09952348e-03,
       -2.64205299e-02, -2.96657346e-02, 5.89823024e-03, 2.67773657e-03,
       -1.44495349e-02, -2.50228168e-03, 7.59065803e-03, 2.11124793e-02,
       2.09448412e-02, -2.05350406e-02, -3.45218442e-02, -3.54166962e-02,
       -3.75890126e-03, 1.96049325e-02, -1.52194658e-02, 2.35306425e-03,
       -3.09593063e-02, -4.57973965e-02, -5.27258217e-02,
       -2.04585120e-02, -1.85207892e-02, -6.85748179e-03, 3.30588259e-02,
       4.14277893e-03, 2.18451452e-02, 1.02703432e-02, 5.62520057e-04,
       -1.00066829e-02, -7.42744468e-03, -8.30908958e-03,
       -6.38586422e-03, -7.69581366e-03, -2.52273679e-02,
       -4.42405231e-03, -1.81703072e-03, 1.02840858e-02, 4.55518346e-03,
       -1.28338989e-02, 3.03381798e-03, 2.29008589e-02, 2.93684565e-02,
       -9.29854065e-03, -7.87870493e-03, -6.33331947e-03, 8.95726867e-03,
       4.32762550e-03, -3.52137573e-02, 3.85338417e-03, 2.54160520e-02,
       2.10853070e-02, -5.62137784e-03, 2.81728990e-03, -2.64010001e-02,
       -2.25181002e-02, -9.10704210e-03, -4.61922660e-02, 5.81583101e-03,
       1.25107318e-02, 2.63025034e-02, -2.25995798e-02, 6.06984599e-03,
       -2.73495466e-02, -2.07907166e-02, -1.76447928e-02,
       -2.14320887e-02, 6.54039346e-03, 1.64155010e-02, 3.52323544e-03,
       -5.97625505e-03, 6.44372404e-03, -4.43526125e-03, 1.02196215e-02,
       -3.24380882e-02, -1.08125797e-02, -1.89852100e-04,
       -2.49730237e-02, -2.12048963e-02, -4.48682047e-02, 1.91074237e-02,
       3.60528030e-03, 2.31743380e-02, -2.74011884e-02, 9.96479765e-03,
       4.57331957e-03, -8.13288428e-03, 2.37952676e-02, -1.68074656e-03,
       2.97164116e-02, 7.04641407e-03, -1.83268730e-02, 2.92336359e-03,
       -2.33436096e-02, -1.50756156e-02, -1.46330707e-02, 3.31684798e-02,
       -1.69753544e-02, 1.84050072e-02, -2.58899783e-03, -1.68351699e-02,
       -2.30682734e-02, -1.62419602e-02, -4.77578072e-03,
       -2.17553787e-02, 2.27612089e-02, -3.56035717e-02, 2.39567198e-02,
       -6.74356415e-04, 2.06527654e-02, -2.65624188e-02, -1.28909983e-02,
       8.68294912e-04, -4.57134889e-03, 3.01800407e-02, -2.85314256e-03,
       1.05606103e-02, -4.64150831e-02, -7.42192194e-03, -1.60222575e-02,
       -3.77371386e-02, -7.86209013e-03, -1.59055144e-02, 3.45321931e-02,
       -3.84710580e-02, 2.19709072e-02, 1.43543642e-03, 5.63754514e-03,
       -2.04673335e-02, -3.55109237e-02, 1.25104003e-02, -1.10880453e-02,
       2.47257631e-02, 2.07189210e-02, 2.45783851e-02, -1.75971314e-02,
       -2.44310275e-02, -2.81745922e-02, -1.27731292e-02, 1.67467259e-02,
       -1.93229169e-02, 1.06868241e-02, -4.99941455e-03, 1.46714458e-02,
       -1.11766607e-02, -3.96457035e-05, -3.51699698e-03,
       -3.47448140e-02, 2.64176796e-03, -3.47818807e-02, 1.76070426e-02,
       -1.13077434e-02, -4.82947705e-03, -1.61819924e-02,
       -4.22391063e-03, -2.07000673e-02, -1.57195888e-02,
       -8.75388552e-03, -6.25838665e-03, 2.49792561e-02, 3.13866176e-02,
       5.02441786e-02, 2.85696564e-03, 9.23171639e-03, -6.73676026e-04,
       -2.24871244e-02, 2.13993335e-04, 1.45839080e-02, 4.74856868e-02,
       1.98040418e-02, 2.30842996e-02, -1.90736633e-02, -1.60883833e-03,
       -1.23439403e-02, -1.95004174e-03, 4.57874686e-03, -1.26529792e-02,
       1.33560263e-02, 3.36039178e-02, -2.71492079e-02, -2.08576676e-02,
       8.67000199e-04, 1.96389691e-03, -1.98999327e-02, -2.95418454e-03,
       8.00359808e-03, 2.18780003e-02, 2.23467201e-02, -2.63372902e-02,
       -4.04647179e-02, -2.29371097e-02, -2.98078973e-02, 1.20649505e-02,
       1.23796854e-02, 2.15233746e-03, 3.41316834e-02, 3.78333479e-02,
       -2.49227654e-04, 6.66766718e-04, -1.65833684e-03, 8.85011256e-03,
       8.32639728e-03, 1.44226514e-02, 3.31355520e-02, 2.24000844e-03,
       9.27546714e-03, -2.34328620e-02, -9.44343768e-03, -8.88480153e-03,
       -2.24775728e-02, -1.03301369e-02, -1.47332693e-03, 1.89863984e-02,
       2.06458662e-03, 1.16447988e-03, -3.85009237e-02, -1.98618528e-02,
       -3.09759309e-03, -3.05116619e-03, 7.28057092e-03, -1.60670951e-02,
       8.22170079e-03, -2.62657572e-02, 1.45325633e-02, -4.32071649e-02,
       -4.77886833e-02, -1.10631110e-02, 1.38957556e-02, 2.16814317e-02,
       -3.62034468e-03, 2.32693125e-02, 7.47697568e-03, 1.34305917e-02,
       -3.79345007e-02, -3.70895746e-03, -4.63200780e-03, 2.23529106e-03,
       -1.13859139e-02, -2.77940929e-02, 2.57647485e-02, 1.25379981e-02,
       2.49354332e-03, -5.81982732e-02, -1.17262574e-02, -8.11442547e-03,
       -3.45307891e-03, -8.42339359e-03, -6.13485370e-03,
       -6.70799380e-03, -2.31494289e-02, -1.29405214e-02,
       -3.89547524e-04, -3.02342903e-02, -4.66762634e-04,
       -2.20739003e-02, -1.64364371e-02, -6.26799930e-03,
       -5.22308983e-03, 2.76198727e-03, 1.13865165e-02, 1.24000711e-02,
       -9.80894081e-03, -7.21366005e-03, -1.56172225e-02,
       -1.43225556e-02, -7.45232962e-03, 2.19906680e-02, 2.76465602e-02,
       3.86944343e-03, -2.73620598e-02, 2.49463762e-03, 4.95236181e-03,
       -1.21204471e-02, -5.17279794e-03, 1.59978424e-03, 2.48789601e-02,
       1.34482170e-02, 1.19733475e-02, -2.85534281e-03, 7.72141106e-03,
       -1.80897843e-02, -1.36771621e-02, -1.15131456e-02, 2.21289247e-02,
       2.62781549e-02, 2.54673813e-03, 1.14647311e-03, 2.66362634e-02,
       -8.61524546e-04, 8.81802989e-04, 5.44922054e-03, 1.24274129e-02,
       4.13826779e-02, 1.59414224e-02, -1.18169356e-02, -9.05950367e-03,
       -1.12864701e-03, -4.26904531e-03, 8.58535711e-03, 7.17703067e-03,
       -2.02320646e-02, -1.21680079e-02, 1.60104763e-02, 1.17818872e-03,
       -6.46295864e-03, -1.70284193e-02, -6.03975356e-03, 3.64443497e-03,
       -2.40003341e-03, -2.77100597e-02, -3.00482847e-03, 5.08981710e-03,
       1.35114435e-02, -5.55512437e-04, -2.30873097e-02, -7.48785818e-03,
       9.35280137e-03, -1.33616163e-03, -2.01923959e-02, -3.32030170e-02,
       3.26637208e-04, -1.02068996e-02, -2.07949639e-03, -2.42469683e-02,
       -1.98600758e-02, 1.90140158e-02, -3.92429624e-03, -2.20576301e-02,
       -2.80488636e-02, 1.59591269e-02, 6.43200707e-03, -9.64257959e-03,
       5.11769857e-03, -1.55771859e-02, 8.46248586e-03, -3.36487545e-03,
       1.03245871e-02, -3.78071889e-03, 5.22136083e-03, -1.28856385e-02,
       -1.52473496e-02, -2.01978888e-02, -9.71226394e-03, 7.82673713e-03,
       -1.76487099e-02, 4.03196411e-03, 7.46156136e-03, 4.17129919e-02,
       1.74519583e-03, 1.16956392e-02, 1.92299653e-02, -4.06764029e-03,
       4.10332764e-03, -5.52103808e-03, -7.77420076e-03, -3.12138000e-03,
       2.54675727e-02, 3.34814638e-02, -6.30532345e-03, -6.38671359e-03,
       8.66823178e-03, 1.00457557e-02, -4.35000844e-03, -4.12615761e-03,
       7.87117518e-03, 2.04426218e-02, -1.18371174e-02, 9.98546183e-03,
       -1.48329884e-02, 6.02358440e-03, 4.17269580e-03, -8.74461979e-03,
       -7.18344934e-03, 3.37686343e-03, 1.88064910e-02, -1.19579779e-02,
       3.75883002e-03, -1.21957362e-02, 2.53516342e-03, 2.09771208e-02,
       2.24809572e-02, -2.36867126e-02, -1.92368254e-02, 1.79997403e-02,
       -9.66454670e-03, 1.01097040e-02, 7.86123425e-03, 1.80075821e-02,
       5.23457723e-03, 2.04394832e-02, -1.73651881e-03, 2.23839357e-02,
       4.29490358e-02, -3.99389863e-03, 1.89732928e-02, -3.84512581e-02,
       4.58149472e-03, 3.19114551e-02, 8.20445921e-03, 8.63547437e-03,
       5.04569197e-03, 2.88517307e-02, 2.28705108e-02, -1.00708129e-02,
       2.80372370e-02, 3.67425941e-02, 2.44192183e-02, 2.93352641e-03,
       4.28580446e-03, -1.40092280e-02, 2.81714890e-02, 1.52760232e-02,
       -1.32450191e-02, -4.64760959e-02, -4.26037125e-02,
       -2.32578740e-02, 7.41122523e-03, 4.63543599e-03, -3.41451466e-02,
       6.86360570e-03, 4.81326925e-03, -1.69875026e-02, 9.41125769e-03,
       -3.22503820e-02, -3.17324512e-02, -1.22599490e-02, 3.19293924e-02,
       -6.80986419e-03, 1.53869434e-04, -7.53829209e-03, -2.32384708e-02,
       -3.02438205e-03, 1.57747827e-02, 2.51816530e-02, 2.58988757e-02,
       4.98064607e-02, 1.59161408e-02, 2.17767768e-02, 7.67053524e-03,
       1.47819994e-02, 1.85364317e-02, 3.09950151e-02, 6.30945787e-02,
       2.06850395e-02, -6.10773801e-04, -2.92788241e-02, -3.57843749e-02,
       -2.40273532e-02, 2.78766360e-02, 1.45957069e-02, -2.93783676e-02,
       -4.00056913e-02, -3.29886563e-02, 1.38100311e-02, 2.20008157e-02,
       -3.85209476e-03, 2.28366884e-03, 9.32638720e-03, 2.92729326e-02,
       -1.22475754e-02, -9.77691635e-03, 6.98738359e-03, 1.69195905e-02,
       -2.57829819e-02, 2.96344119e-03, -4.12823446e-03, -4.59201494e-03,
       -2.67699808e-02, -3.77855599e-02, 1.38086602e-02, 1.74485799e-02,
       4.11668234e-02, 1.45593248e-02, 6.32035313e-03, -2.88443826e-03,
       2.99024135e-02, -3.00327409e-02, 5.81246382e-03, 3.52575481e-02,
       1.52338119e-02, 1.89820919e-02, -1.64087710e-03, -1.39099574e-02,
       -2.53376514e-02, -2.15389039e-02, -3.75597328e-02,
       -4.83402349e-02, -3.17730494e-02, 1.23912664e-02, 6.49183244e-02,
       1.36708515e-02, 1.78761333e-02, 1.39542343e-03, 2.83151343e-02,
       -2.05971580e-02, 2.42376197e-02, 2.11409125e-02, 5.44280931e-02,
       6.96444279e-03, -2.27238145e-02, -3.86474025e-03, -2.74241399e-02,
       -2.02237200e-02, -2.79774275e-02, 1.35643696e-02, 4.09694463e-02,
       9.01279319e-03, 2.27572583e-03, -4.41382639e-03, 1.42951654e-02,
       -7.04508880e-03, 2.91602015e-02, -3.77322431e-03, 9.16179921e-03,
       2.62778476e-02, 5.20904665e-04, 2.00170204e-02, -2.36739051e-02,
       -2.57128496e-02, -4.01639640e-02, -1.62913240e-02,
       -3.09035666e-02, 2.31802482e-02, 2.93053519e-02, 2.36097760e-02,
       5.19801080e-02, 1.13424622e-02, -4.96362243e-03, -4.79319654e-02,
       -6.63611898e-03, -2.73121055e-03, 7.34397117e-03, 1.94972344e-02,
       -7.88552873e-03, 1.98502187e-03, -1.09945552e-03, 3.06123029e-03,
       -1.22338654e-02, -2.48504803e-02, -7.50682456e-03, 9.33031901e-04,
       1.66093782e-02, 6.55922620e-03, 9.82450135e-03, -1.70174502e-02,
       -2.54295301e-03, 2.23234901e-03, -7.50320219e-03, -7.21001951e-03,
       -1.82463806e-02, 5.27456310e-03, 1.94327086e-02, 2.54261643e-02,
       1.10014705e-02, 6.42745988e-03, -1.46166934e-02, -1.42341079e-02,
       -2.11966448e-02, -5.10245608e-03, -1.08258864e-02, 4.06733621e-03,
       -6.48460770e-03, 3.33848707e-02, 4.47077444e-03, 9.55328252e-03,
       -1.02218585e-02, 1.67340157e-03, -2.01816037e-02, 2.93714236e-02,
       1.43121341e-02, 3.04518323e-02, -2.09478606e-02, -1.46760279e-02,
       -9.31430422e-03, -4.19258559e-03, -1.61146596e-02,
       -1.66837312e-02, -7.57546048e-04, 1.63620431e-02, 2.46375315e-02,
       -2.53462382e-02, -2.88820397e-02, -1.61307622e-02,
       -1.30082224e-03, -1.61187556e-02, -8.57358798e-03, 6.23526890e-03,
       1.76167451e-02, 2.48025320e-02, 2.84394994e-02, -3.15805594e-03,
       -1.37855578e-02, -1.79198645e-02, -8.27611145e-03,
       -4.88620577e-03, 4.41594310e-02, 2.48405598e-02, 9.15098656e-03,
       3.35856937e-02, -2.17494229e-03, 2.51755561e-03, -1.99091211e-02,
       2.99803503e-02, 3.29240188e-02, 4.36917022e-02, -2.55662773e-04,
       -4.95765964e-03, -2.29533631e-02, -2.95203403e-02,
       -8.98196269e-03, 9.01243649e-03, -4.42113131e-02, -4.02858406e-02,
       -3.80299985e-02, -3.83479241e-03, -1.31888511e-02,
       -2.65124422e-02, -3.06000654e-02, -7.95658119e-03,
       -1.69031583e-02, -3.37295458e-02, -2.98451260e-02,
       -3.26374657e-02, 8.05665925e-03, 4.92432453e-02, 5.10676242e-02,
       -2.59433611e-04, 2.50725145e-03, -1.05232447e-02, 9.94043890e-03,
       2.07946356e-02, 2.64905412e-02, 2.61578690e-02, -1.84957311e-02,
       5.86851873e-02, 7.33985333e-04, 2.44885087e-02, -2.33063605e-02,
       2.24218760e-02, 2.78254505e-02, 7.46011138e-02, -4.78809234e-03,
       -1.81784388e-02, -3.85329351e-02, -1.11946631e-02,
       -3.01916488e-02, 2.68042758e-02, -2.35480368e-02, -5.09636551e-02,
       -5.55815287e-02, 5.22515504e-03, 6.19791774e-03, -2.75756214e-02,
       -1.50116384e-02, -4.53001894e-02, 6.67850161e-03, -1.48221338e-02,
       -3.76777872e-02, -3.82265858e-02, 2.14093477e-02, 1.45986974e-02,
       3.13843451e-02, 1.74765699e-02, 7.03938166e-03, -6.64445013e-03,
       2.42231283e-02, 5.77443279e-03, 3.49895954e-02, 2.84569487e-02,
       -2.50398293e-02, 2.37198081e-02, 2.72060651e-02, 1.23388013e-02,
       1.24821439e-02, 1.07714962e-02, 3.93382274e-02, 6.48646131e-02,
       -9.48875770e-03, 3.44959348e-02, -4.51975502e-03, -6.71319850e-03,
       -1.88843720e-02, -9.15170368e-03, -7.27567170e-03,
       -3.60174710e-03, -2.67460980e-02, -6.05145236e-03,
       -1.08086772e-03, -1.97359845e-02, -2.40133405e-02, 2.19740625e-02,
       1.26544386e-02, -9.01367702e-03, -7.40751438e-03, -2.71433424e-02,
       -1.51204346e-02, 2.81200241e-02, 2.54940912e-02, 1.93029772e-02,
       9.89550259e-03, -3.20375077e-02, -4.02544811e-03, 2.04890650e-02,
       6.44483119e-02, 2.15087850e-02, -4.27339179e-03, 9.55973472e-03,
       -2.56391312e-03, 1.59997330e-03, -8.31525121e-03, -1.27463182e-02,
       -2.93109398e-02, -6.98745344e-03, -3.19602643e-03, 5.03563099e-02,
       4.18622047e-03, -1.27398772e-02, 1.47634968e-02, -2.79394370e-02,
       1.89015251e-02, 7.35587673e-03, -1.16407452e-02, 3.30225043e-02,
       1.41809862e-02, 1.05819176e-03, -2.00388469e-02, 3.36659886e-03,
       3.20833782e-03, 7.34182261e-03, 3.78746749e-03, -2.79236771e-02,
       2.17250315e-03, 2.90593877e-02, -5.83571428e-03, -1.12507315e-02,
       -4.51426534e-03, -2.08004415e-02, -2.26354320e-02,
       -1.85876545e-02, -1.88146271e-02, 2.87902057e-02, -1.60694204e-03,
       -2.01534908e-02, -1.17841447e-02, -5.12558501e-03,
       -3.11538717e-03, -1.34373931e-02, -7.16311578e-03,
       -4.55410518e-02, -9.74279735e-03, 9.62929893e-03, 1.26122180e-02,
       1.55982245e-02, 3.90970660e-03, 1.38111319e-02, -4.98201814e-04,
       -8.33360665e-03, 7.13724038e-03, 2.24925615e-02, 4.63276776e-03,
       2.43963022e-02, 2.59252656e-02, 2.05610972e-02, -3.07359863e-02,
       -1.84873268e-02, -2.94538941e-02, -1.88641958e-02, 1.25978133e-02,
       2.21825857e-02, -1.41374208e-02, -2.78090453e-03, -1.05872797e-02,
       2.25179363e-03, -2.72436440e-02, -1.09275673e-02, -2.59612687e-02,
       1.62442103e-02, 8.64903443e-03, -6.07710239e-03, 2.03031879e-02,
       -1.21733416e-02, -1.54144950e-02, -1.76000018e-02, 3.40297003e-03,
       -2.61018835e-02, 1.83043648e-02, 4.79338579e-02, 1.84265021e-02,
       -3.94658884e-03, 7.77451182e-03, 3.88509147e-02, -3.85361202e-02,
       2.12905500e-02, 3.20191085e-02, 3.98405083e-02, 1.05298664e-02,
       -4.58953716e-03, -1.32544804e-02, -3.84140504e-03, 4.95325588e-03,
       -4.76115011e-02, 1.55306030e-02, 3.17767188e-02, -6.09160867e-03,
       2.50876378e-02, -2.31171325e-02, -2.65968200e-02, -1.91348847e-02,
       1.59668121e-02, 1.14689441e-02, 4.92104776e-02, 3.19774970e-02,
       2.26279348e-02, -2.73833168e-03, -4.15278152e-02, -3.58740464e-02,
       -2.76689101e-02, -1.41050443e-02, -5.17559052e-03, 5.00640348e-02,
       1.28435912e-02, -1.48472684e-02, 3.25771272e-02, -3.75493243e-03,
       2.33185454e-03, -2.96526472e-04, -3.10223782e-03, -3.14092003e-02,
       4.82370891e-02, 7.23650903e-02, 7.83372484e-03, 2.04734989e-02,
       5.14885085e-03, 1.13377869e-02, 9.30777751e-04, -1.07452115e-02,
       -2.61744838e-02, 3.85235474e-02, 5.72492853e-02, 1.43772028e-02,
       -1.26946636e-03, -1.61533616e-02, -1.85968094e-02,
       -2.76877265e-02, -2.90382002e-02, -1.47177335e-02, 6.26951829e-02,
       -1.17383134e-02, -9.61703435e-03, 1.56134535e-02, -1.80350915e-02,
       1.11569175e-02, -3.09457611e-02, -1.61783379e-02, -2.04646885e-02,
       4.68515940e-02, 2.94946786e-02, -2.23553251e-03, -1.36741558e-02,
       -4.32103127e-03, -5.18542156e-03, -1.45065291e-02,
       -2.71901805e-02, -2.60160342e-02, 3.71328294e-02, 3.37357596e-02,
       -4.95335273e-03, -1.33410264e-02, 6.37401652e-04, 2.45111082e-02,
       -3.57112614e-03, -7.37839518e-03, -1.95020195e-02, 2.22851951e-02,
       -1.89991184e-02, -1.53798768e-02, 6.37850584e-03, -4.51508560e-04,
       1.90528259e-02, -1.32906893e-02, -2.59455983e-02, 6.34121941e-03,
       5.85762672e-02, 2.47002095e-02, 1.44535792e-03, 1.19256573e-02,
       -3.10485763e-03, -2.47535482e-03, -1.06395306e-02, 1.06030854e-03,
       -2.85379216e-03, 1.87278874e-02, -4.50752443e-03, -1.40900770e-02,
       -2.33818982e-02, -1.38935102e-02, 7.95960799e-03, 9.24621522e-03,
       -5.88867487e-03, -1.96744185e-02, 8.55176710e-03, -3.53525393e-03,
       -1.12373335e-02, -2.46612995e-04, -1.29117146e-02,
       -1.60639882e-02, 1.07500395e-02, 9.10244882e-03, -7.36139389e-03,
       -1.44876987e-02, 7.35881459e-03, -1.15516335e-02, 2.31660157e-03,
       -8.74660444e-04, 1.74718201e-02, -8.84690415e-03, -1.10996664e-02,
       8.07826687e-03, 9.51509550e-03, 7.35414168e-03, -1.62583757e-02,
       -1.37472246e-02, -3.37065896e-04, 3.63347819e-03, 3.14888166e-05,
       1.71778805e-03, 5.81332250e-03, -1.55689530e-02, 2.07217801e-02,
       7.14401540e-05, 3.75805469e-03, -7.51206512e-03, -1.49328951e-02,
       -1.58891976e-02, -1.41945705e-02, 6.23099878e-03, -9.98598244e-03,
       2.37621404e-02, -1.97508745e-02, -2.56675649e-02, -1.64896867e-03,
       1.57592520e-02, -1.59396627e-03, -2.62872241e-02, 1.00680732e-03,
       -4.96735889e-03, 2.70110462e-03, -2.60832570e-02, -1.24709141e-02,
       -1.55577194e-02, -2.81406045e-02, -1.67769212e-02,
       -1.93753261e-02, -1.09534559e-03, -8.74523353e-03, 3.10930945e-02,
       1.75045151e-02, -3.55986739e-03, 3.72765283e-03, 7.49995699e-03,
       6.68250769e-03, -1.72221512e-02, -6.09362451e-03, -9.40890331e-03,
       9.47724376e-03, 1.28352707e-02, -3.64733674e-02, -1.60334562e-03,
       -2.91428342e-03, 2.02377397e-03, -2.35469006e-02, -3.01756547e-04,
       -1.10569056e-02, 4.47452953e-03, -2.47901119e-02, -3.64652164e-02,
       -2.44742110e-02, -3.74696404e-02, -1.27801914e-02,
       -1.14605604e-02, 5.62792737e-03, 2.09660293e-03, -2.03483668e-03,
       -2.00773571e-02, -1.08059412e-02, 4.83424217e-03, -2.66589411e-02,
       8.81780032e-03, -1.76313277e-02, 1.85185354e-02, -7.93114770e-03,
       1.42305326e-02, 1.16796847e-02, 1.96948629e-02, 1.15075298e-02,
       -5.26568247e-03, 2.28458289e-02, 9.92225762e-03, -2.08150013e-03,
       -1.02446806e-02, 9.85889230e-03, 1.59933213e-02, -1.69755910e-02,
       3.26875877e-03, 1.02978274e-02, 4.33532074e-02, 2.38932632e-02,
       2.08741101e-03, -9.04215872e-03, 4.91315848e-04, 6.80425204e-03,
       3.25412489e-04, -6.28146436e-03, -1.10068126e-02, -6.89307740e-03,
       -3.24913785e-02, 5.86351603e-02, -6.51243934e-03, -1.44738518e-02,
       -7.57866167e-03, -2.34135762e-02, 3.66128329e-03, 7.28064217e-03,
       5.78991510e-02, 1.48585457e-02, 3.58316884e-03, -5.36267227e-03,
       -1.31363105e-02, -3.17264069e-03, 9.58903972e-03, -1.23303821e-02,
       -1.34914294e-02, 1.64979510e-02, -5.12561239e-02, 3.63731720e-02,
       1.90948434e-02, -3.21969464e-02, 1.65708596e-03, -1.19498828e-02,
       3.44616383e-05, -2.85697896e-02, -3.16379890e-02, 2.34398358e-02,
       5.22610992e-02, 1.85186770e-02, -1.84984878e-02, -4.38256562e-02,
       -8.28540418e-03, 3.56277041e-02, -2.80474350e-02, 2.58686505e-02,
       1.12181772e-02, 6.25730157e-02, 2.36666948e-02, -7.89466128e-03,
       -2.77498979e-02, 1.70116052e-02, -4.73573664e-03, -3.64893116e-02,
       7.51981465e-03, -1.74398553e-02, 2.60739643e-02, 7.59691047e-03,
       -7.18929842e-02, -4.04506968e-03, 2.32195854e-02, 2.91239517e-03,
       -2.22256649e-02, 5.42605780e-02, -2.36259215e-02, 2.32189447e-02,
       2.21435986e-02, 1.69720966e-02, 9.02789994e-04, -1.38970325e-03,
       -6.16023177e-03, -2.20915396e-02, 9.14505217e-03, 2.66411509e-02,
       1.28272083e-02, 3.99329066e-02, -6.41326699e-03, -3.08716763e-02,
       -7.90939853e-03, 6.25608629e-03, 1.59749528e-04, 1.40936822e-02,
       1.86584040e-03, 3.68709788e-02, 5.87001890e-02, -1.41897621e-02,
       -3.56145576e-02, 2.91187894e-02, -7.40099465e-03, -2.17442270e-02,
       -7.03518605e-03, 2.06666812e-03, -3.17318179e-02, 3.89799923e-02,
       3.16415727e-02, 2.49842112e-03, 3.10082808e-02, 2.69489456e-03,
       -7.21369358e-03, -1.97139662e-03, -1.66920375e-03,
       -6.26924506e-04, 6.83286935e-02, 3.22498269e-02, 3.58845331e-02,
       -2.19051377e-03, -3.36427987e-03, -3.64356935e-02,
       -1.81182940e-02, 5.15428372e-02, 2.50480101e-02, 8.38491097e-02,
       3.28653157e-02, -2.80504730e-02, 3.08760516e-02, 3.48109156e-02,
       -7.41236517e-03, -4.31700237e-03, 4.37623300e-02, 2.29847245e-02,
       4.95195054e-02, 3.31783444e-02, -1.92691118e-03, -3.25090699e-02,
       -2.72633303e-02, -4.24961224e-02, -4.01457995e-02,
       -8.03532731e-03, -3.29406522e-02, 5.63416593e-02, -1.96903967e-03,
       -3.89713123e-02, 5.90042351e-03, -9.71349701e-03, -2.87558604e-02,
       -9.89907049e-03, -1.28444480e-02, -3.07274312e-02, 4.11443692e-03,
       -3.83096300e-02, -3.13131288e-02, 1.23159019e-02, 1.12755615e-02,
       -5.59873413e-03, -3.29577667e-03, 2.78609339e-02, -2.04314943e-02,
       2.94221658e-03, -2.77825445e-02, -1.53336544e-02, 5.51126488e-02,
       8.93738568e-02, 7.13411197e-02, 6.46007434e-02, 4.19147359e-03,
       2.19916701e-02, -3.64540587e-03, 1.51608819e-02, 3.85248698e-02,
       -1.46748535e-02, -2.99602635e-02, -1.79878380e-02,
       -2.64777113e-02, -1.08638247e-02, -4.06895801e-02, 8.89280438e-03,
       -3.66510823e-02, -3.71541530e-02, 2.55316272e-02, 3.25599201e-02,
       2.81156749e-02, 1.92018095e-02, -3.55733894e-02, 2.06433404e-02,
       -9.35668498e-03, -2.63680797e-02, -4.21494618e-03,
       -4.54690121e-03, 1.56428311e-02, 7.24460930e-04, -1.44968433e-02,
       -1.35094589e-02, -3.83190624e-02, -3.85204293e-02,
       -3.00374236e-02, -2.45385990e-02, 2.93490868e-02, 3.02426759e-02,
       7.54875364e-03, 2.93792374e-02, -1.26399900e-04, -9.33553558e-03,
       9.78559628e-03, 9.00862738e-03, 4.64799209e-03, -1.71911977e-02,
       5.83237875e-03, 2.32452080e-02, 3.58178793e-03, -8.03803932e-03,
       -5.84352063e-03, 2.42875330e-02, -6.46081381e-03, -3.11942436e-02,
       -3.25769782e-02, 3.66451498e-03, 1.23204049e-02, 2.35920399e-02,
       -1.35243926e-02, 3.56410220e-02, 5.60980104e-02, 3.36393341e-02,
       -2.82789301e-02, 1.50803104e-02, -2.84533482e-02, -2.50915289e-02,
       -3.29638273e-02, -8.90615489e-03, -3.63969356e-02,
       -9.04335082e-03, -3.98774557e-02, -1.76890884e-02, 6.23809500e-03,
       -5.53813530e-03, -9.64663271e-03, -1.81522071e-02,
       -1.55580062e-02, -2.84784995e-02, 1.52500737e-02, 7.64691446e-04,
       2.64971936e-03, 4.78716707e-03, -7.02092005e-03, 1.09980619e-02,
       -6.22776430e-03, 6.49866611e-02, 1.57443341e-02, 4.34276648e-02,
       2.63926964e-02, -1.61975175e-02, 5.10259308e-02, 4.49201912e-02,
       1.26655456e-02, 2.08433550e-02, 2.29115169e-02, 7.80162122e-03,
       4.62700352e-02, 2.74652429e-02, 1.38821378e-02, 2.13903189e-03,
       -2.73423269e-02, -4.88957437e-03, -1.11660445e-02,
       -3.73915560e-03, -2.71772780e-02, -1.23791425e-02,
       -2.72370856e-02, 2.95095984e-02, 1.05921105e-02, -3.76601629e-02,
       -2.91062742e-02, -1.53279807e-02, 6.20603794e-03, -5.82637005e-02,
       1.00752916e-02, -4.91456501e-03, 2.80583976e-03, 1.72695071e-02,
       -4.01342148e-03, 1.41248861e-02, 3.97921801e-02, 5.20530306e-02,
       -1.42798601e-02, 2.90502906e-02, -1.84679963e-02, -1.08363545e-02,
       1.18988752e-02, 3.64887714e-02, 8.18938832e-04, 3.42646725e-02,
       5.67742586e-02, -2.61514504e-02, 3.21081504e-02, -1.72416791e-02,
       -2.85113193e-02, 2.34636292e-02, -4.77772392e-02, -2.00655442e-02,
       1.86276566e-02, 1.77985653e-02, 4.24683979e-03, 4.32033613e-02,
       5.13334349e-02, 2.91199312e-02, -1.37262987e-02, -7.71712065e-02,
       -5.04307188e-02, -1.56229679e-02, 1.42606404e-02, -1.76594425e-02,
       4.67178831e-03, -7.57222180e-04, -2.06083097e-02, 6.08427264e-02,
       5.76723814e-02, 2.91676838e-02, 2.78914012e-02, 5.52850030e-02,
       2.49743816e-02, 4.32310402e-02, 1.48322079e-02, 3.13152820e-02,
       -2.43090447e-02, 1.80348251e-02, 5.17500332e-04, 9.93105583e-04,
       5.16748354e-02, 2.82920257e-04, 9.89669096e-03, -1.56470630e-02,
       -3.90661024e-02, 1.81308705e-02, -3.83454449e-02, -2.69067362e-02,
       5.97470347e-03, -1.99313983e-02, -1.97409075e-02, 3.38281803e-02,
       6.26808777e-02, 2.61815879e-02, -2.33889818e-02, -4.94750366e-02,
       6.70554815e-03, -1.24044782e-02, -1.89898492e-04, 1.74673868e-03,
       8.88374913e-03, 2.51358580e-02, -2.39906739e-02, 1.88237429e-02,
       -4.17630933e-03, 1.05171045e-02, 3.11290305e-02, -4.68306020e-02,
       -1.62500665e-02, 6.89083263e-02, 6.16951361e-02, 1.31679773e-02,
       9.06696171e-03, -4.64637056e-02, -1.08259097e-02, -1.75670162e-02,
       1.64628793e-02, -3.31721418e-02, 2.16484368e-02, 1.54165886e-02,
       -2.39761155e-02, 2.60847360e-02, -2.62306258e-02, 1.76809300e-02,
       -1.34161031e-02, -1.19648958e-02, 1.73778255e-02, 1.09772924e-02,
       2.19152998e-02, -2.09723064e-03, -3.08075193e-02, -6.10553334e-03,
       4.84593809e-02, -1.12544810e-02, -1.25689125e-02, 2.23677158e-02,
       7.73094874e-03, 3.58124799e-03, -3.63349915e-02, 5.58499768e-02,
       9.23501048e-03, 3.04697212e-02, -9.65499785e-03, 5.55257825e-03,
       -4.47400250e-02, -1.45492759e-02, 5.85680129e-03, -2.94067850e-03,
       3.39240618e-02, 1.28358724e-02, 3.67271714e-02, -1.83192883e-02,
       -9.58568882e-03, -8.50616489e-03, -1.45635530e-02,
       -1.71172097e-02, -2.48397030e-02, -1.95887238e-02,
       -2.24514175e-02, 3.35277840e-02, -1.70044824e-02, 7.70293828e-03,
       7.01853260e-02, 6.53092414e-02, 1.77676547e-02, 9.23574623e-03,
       -3.79799679e-02, -2.46944893e-02, -2.77473172e-03,
       -6.65783463e-03, -1.63636059e-02, 7.38505870e-02, 1.66377798e-02,
       -2.87068933e-02, -3.22646610e-02, 3.16405483e-02, 2.01550834e-02,
       4.49390076e-02, -3.20568383e-02, 2.50576157e-02, 4.19844911e-02,
       -2.41698301e-03, -1.82537781e-03, 2.27509029e-02, 2.07834411e-03,
       2.62641720e-03, -1.15416329e-02, -2.86900322e-03, -7.66419340e-03,
       7.10118115e-02, -3.51986252e-02, -5.59000345e-03, 9.10368189e-03,
       -3.01987352e-03, 7.94907287e-03, 7.33509474e-03, -8.99163540e-03,
       1.88688524e-02, 9.37168077e-02, 5.11487126e-02, -2.66003655e-03,
       1.77730471e-02, -1.20537775e-02, -2.47828905e-02, 3.84938437e-03,
       -2.96101868e-02, -3.76142067e-04, 4.62587401e-02, 3.43508497e-02,
       -1.63025185e-02, 1.95199880e-03, 3.43395653e-03, -2.36710557e-03,
       -1.47694647e-02, -1.85006447e-02, -2.58827093e-03, 6.52181059e-02,
       -8.64079688e-03, 5.47663681e-03, 2.31232941e-02, -1.26945172e-02,
       -2.12418791e-02, -3.34040858e-02, -1.35899829e-02, 1.40921930e-02,
       5.82782216e-02, 2.28370838e-02, 7.31042633e-03, 1.08371610e-02,
       1.68950390e-03, -2.41456050e-02, -1.08763296e-02, -4.19226065e-02,
       -7.83143286e-03, 3.34697440e-02, 3.86396274e-02, -2.30740234e-02,
       1.22017330e-02, 3.71165164e-02, 5.58974314e-03, 1.31245004e-03,
       -2.50569917e-02, -1.22492099e-02, 1.23285167e-02, 2.81569138e-02,
       -5.05633280e-03, 2.13269014e-02, -6.94474205e-04, -4.55463910e-03,
       -3.55847999e-02, -1.90900005e-02, 1.87754557e-02, 4.96577919e-02,
       2.48655993e-02, -7.73180882e-03, -7.54836074e-04, 1.94775257e-02,
       1.50403418e-02, -3.64462286e-02, 1.17887137e-02, 6.97329966e-03,
       -1.50723394e-03, 7.64837780e-04, -2.60595325e-02, -2.24172790e-03,
       1.85370427e-02, 1.30601376e-02, 9.22301505e-03, -2.39935168e-03,
       -5.82391256e-03, 1.43694477e-02, 6.00077631e-03, -1.43868830e-02,
       1.41592575e-02, -2.79622450e-02, 5.83874760e-03, 1.34477336e-02,
       -1.04617374e-03, 1.41865732e-02, 7.14053342e-04, -1.50475567e-02,
       5.38701471e-03, -7.86647387e-03, 2.83097774e-02, 2.53911968e-02,
       -1.22992974e-02, 1.11505361e-02, 6.41223835e-03, -4.66980878e-03,
       5.47378277e-03, -1.21941846e-02, 2.84586684e-03, -4.16681496e-03,
       6.98180113e-04, -1.63933448e-02, -3.28671113e-02, -2.77019618e-03,
       4.53603128e-03, 6.43645739e-03, -3.53389001e-03, -1.52877336e-02,
       -3.52816470e-02, -1.76136929e-03, 1.58596598e-02, -3.95037653e-03,
       2.53676996e-02, -1.85512472e-02, -9.17706452e-03, 2.30904799e-02,
       1.54645217e-03, -3.14806215e-02, -1.06874127e-02, 6.29502907e-03,
       -2.35768631e-02, -1.73512870e-03, -1.87629201e-02, 5.90103678e-04,
       2.00849678e-02, -1.67524070e-02, 1.01610841e-02, 5.05194440e-03,
       1.39508341e-02, -1.20365610e-02, -8.60044360e-03, -3.35815083e-03,
       -2.02310048e-02, -3.38109978e-03, 4.23703380e-02, -3.17979394e-03,
       -5.47288265e-03, -4.35981303e-02, -4.21836972e-02,
       -1.99397877e-02, 4.72184177e-03, -1.95409916e-02, -1.98374037e-02,
       8.81217606e-03, -2.05517616e-02, -1.88740864e-02, -2.72678658e-02,
       -1.30982799e-02, 3.11677121e-02, -5.97265828e-03, -1.13724673e-03,
       2.15373375e-02, 1.43210869e-04, -2.20641084e-02, -1.86697971e-02,
       -1.23817706e-02, 4.06283736e-02, 4.79366705e-02, -1.94621757e-02,
       -3.66767719e-02, -2.64174175e-02, -1.68897379e-02, 4.49968595e-03,
       1.48950182e-02, -1.29831359e-02, -8.97509628e-04, 9.68242344e-03,
       1.85709316e-02, -4.34275763e-03, -2.88446643e-03, 1.04201995e-02,
       1.49786938e-02, -1.06875319e-02, -2.71148607e-02, 3.24798971e-02,
       -8.93400796e-03, 3.22053954e-02, -3.74982692e-02, -1.25252753e-02,
       9.90443863e-03, -2.50268895e-02, -2.70966627e-02, -1.83700603e-02,
       6.55967742e-02, 2.54608300e-02, 4.05512601e-02, -1.44635106e-03,
       -2.00951807e-02, -1.51493363e-02, -1.20297528e-03,
       -5.23937941e-02, -4.59188186e-02, 2.95205787e-02, -1.52643467e-03,
       7.59717152e-02, 3.66563499e-02, -3.24375965e-02, -2.60107243e-03,
       -9.70223080e-03, -2.29553413e-02, -4.77829203e-02, 2.61396412e-02,
       -1.71973631e-02, 6.67969435e-02, -2.89996993e-02, -7.02593802e-03,
       -5.89114288e-03, -3.78647484e-02, -4.52242307e-02,
       -1.38827920e-04, 5.06712161e-02, -3.69547494e-02, 2.57845130e-02,
       1.19505180e-02, -3.54493894e-02, -4.19192910e-02, -1.24583312e-03,
       -2.46042404e-02, -3.10626291e-02, 2.39415932e-02, -1.17515456e-02,
       3.43590192e-02, 2.87144426e-02, -4.72549126e-02, -1.38132228e-02,
       -6.67141099e-03, -1.07262544e-02, -1.00195147e-02, 4.44643088e-02,
       -2.48834584e-02, 2.66396683e-02, 2.69763954e-02, 5.75726479e-03,
       -2.90670879e-02, 9.32818837e-03, -1.67347398e-02, 2.67811562e-03,
       3.27722169e-02, -1.23405568e-02, 3.19907703e-02, 3.03718913e-02,
       -3.63613367e-02, -2.72755548e-02, 9.13748983e-03, -2.09024455e-02,
       5.42612281e-03, 6.62577301e-02, -2.50556283e-02, 5.42707443e-02,
       3.11082266e-02, 1.86074469e-02, -1.83133781e-03, 1.33785708e-02,
       -3.97895637e-05, 1.94419399e-02, -1.05773099e-02, 1.55418394e-02,
       -2.75574941e-02, 2.55350508e-02, 1.19609479e-02, -2.36843098e-02,
       -2.71888245e-02, -1.16560189e-02, 6.56424649e-03, 1.55485682e-02,
       -8.86477181e-04, 9.32417251e-03, 4.37265225e-02, 1.70388892e-02,
       -2.65715756e-02, 1.29581168e-02, -5.45154326e-03, 1.86956264e-02,
       1.83184128e-02, 1.05217760e-02, -6.26363931e-03, -1.18147703e-02,
       2.06693471e-03, -2.92788376e-03, 3.12635079e-02, -1.61009207e-02,
       2.52447207e-03, 4.58502173e-02, -4.47909832e-02, 3.20427231e-02,
       3.72308716e-02, 2.37613581e-02, 6.75264804e-04, -5.26949540e-02,
       -1.75237451e-02, 9.88667738e-03, 1.42766284e-02, 5.74326739e-02,
       7.97017012e-03, 4.16129157e-02, -1.88584533e-02, -5.05098663e-02,
       5.04869856e-02, 1.73893012e-02, 1.42366970e-02, 2.26172023e-02,
       2.72589605e-02, 2.76937466e-02, 9.92528070e-03, -1.48229701e-02,
       1.57447513e-02, -4.67678308e-02, -1.51214106e-02, 2.40530446e-02,
       2.95907948e-02, 5.02699576e-02, -1.54564139e-02, 4.01461013e-02,
       -2.27304921e-02, -5.00397906e-02, -3.97240714e-04,
       -2.39761733e-02, -2.10558623e-02, -3.77939083e-02,
       -5.50179034e-02, -4.16295193e-02, -3.45986858e-02,
       -3.79716642e-02, 1.54804057e-02, -3.65869589e-02, -2.15718448e-02,
       1.42613435e-02, 2.00524507e-03, 5.96605614e-02, 9.56498459e-03,
       2.17612647e-03, -3.40875648e-02, -4.81701419e-02, 1.19423484e-02,
       7.10754395e-02, 5.59560433e-02, 4.89127450e-02, 2.10145712e-02,
       8.81364271e-02, 7.08132386e-02, 5.52493483e-02, 2.57467143e-02,
       -1.75777394e-02, -2.60666274e-02, -1.72446948e-02,
       -1.20864902e-02, -1.55393854e-02, -4.32935767e-02,
       -1.49654616e-02, -3.76869403e-02, -4.48748581e-02, 4.41476936e-03,
       -1.00219995e-02, -2.52967197e-02, -4.11145017e-03,
       -3.26043554e-02, -3.05884331e-02, 2.12586708e-02, 2.94914376e-02,
       1.65703483e-02, -3.94112431e-02, -1.39390882e-02, 5.23431273e-03,
       -2.72487048e-02, 1.10590421e-02, -2.53119338e-02, 9.52831178e-04,
       -9.77404229e-03, -2.15716138e-02, -4.41596331e-03, 4.79383804e-02,
       4.14689295e-02, -1.01064323e-02, -1.62636824e-02, -9.66273900e-03,
       2.00644210e-02, 2.25103647e-02, 1.47144431e-02, -3.79213914e-02,
       -7.76605308e-02, -4.32917699e-02, -4.34949733e-02,
       -1.91119276e-02, -7.16419816e-02, -3.27302031e-02,
       -4.31518070e-02, -2.53556902e-03, -2.55191252e-02,
       -1.72982290e-02, 2.81211715e-02, -2.16797944e-02, -4.13769744e-02,
       -5.76223806e-03, 6.75438577e-03, 5.26437759e-02, 8.13966841e-02,
       5.67900715e-03, -1.44170700e-02, 3.61001939e-02, -1.18808765e-02,
       1.43902814e-02, -2.69564576e-02, 4.15714877e-03, -1.78395640e-02,
       -7.16231484e-03, 4.85575497e-02, -8.39655846e-03, 8.59305263e-03,
       -1.28870569e-02, 1.25761889e-02, 4.70486330e-03, 3.34341228e-02,
       -9.98254865e-03, 1.36665823e-02, -3.09131313e-02, -2.29616147e-02,
       4.07663770e-02, -8.06865375e-03, 2.41548754e-02, -3.48718651e-02,
       -3.07157189e-02, -3.39714028e-02, -5.30242594e-03,
       -1.34257367e-02, 3.29373986e-03, 2.82781180e-02, -3.40265445e-02,
       1.22381188e-02, 1.04386434e-02, -3.22388159e-03, -3.04004122e-02,
       3.03226546e-03, 4.49317805e-02, -1.36481430e-02, -5.49205625e-03,
       -1.63129196e-02, 3.05329524e-02, 2.99781282e-03, 3.48853394e-02,
       -1.59172192e-02, 2.97424067e-02, 4.83486317e-02, 2.61659753e-02,
       3.21460981e-03, -8.01818259e-03, 4.70516570e-02, -4.54057306e-02,
       4.66328897e-02, -1.80736016e-02, 3.95451784e-02, 1.58024207e-02,
       -3.27443220e-02, -1.97882410e-02, -8.08716789e-02,
       -3.04463226e-03, -3.43452729e-02, -1.90629940e-02,
       -3.50594744e-02, 3.49635929e-02, -1.44360196e-02, -1.02762189e-02,
       2.02020328e-03, -2.26093773e-02, -6.05717907e-03, -1.85196400e-02,
       3.72074209e-02, -1.76355918e-03, -3.94159975e-03, 8.29195753e-02,
       1.76150929e-02, 1.78329684e-02, -1.64480619e-02, 2.41629370e-02,
       -2.24632733e-02, 4.32496369e-02, -1.38214473e-02, 6.82088882e-02,
       -1.95654435e-03, -2.62091514e-02, -1.85166989e-02,
       -3.82107310e-02, 4.36067097e-02, -3.77591215e-02, 1.64970756e-02,
       -3.74673344e-02, -3.02319787e-02, 3.14779654e-02, -3.23731489e-02,
       -1.13743069e-02, -1.87110770e-02, 7.72820180e-03, -1.49559230e-02,
       4.82931435e-02, 2.09825556e-03, 5.70545299e-03, 8.95731209e-04,
       -3.48128937e-02, -2.88145784e-02, -3.26110609e-02, 2.44956594e-02,
       -3.39866616e-02, 1.20245041e-02, -3.59416939e-02, -4.48907427e-02,
       4.76201884e-02, 1.55834584e-02, 3.38749867e-03, 9.79803852e-04,
       -1.02518275e-02, -6.29741058e-04, 8.19523036e-02, 5.00324890e-02,
       1.58039834e-02, -2.03492139e-02, -6.23338893e-02, -4.19286974e-02,
       -4.45496067e-02, 2.12044977e-02, -3.94985043e-02, 3.55019569e-02,
       3.99848493e-03, -4.92566526e-02, 8.25161487e-02, 6.12770356e-02,
       3.14129442e-02, 1.84826571e-02, -7.05704987e-02, 5.56749292e-03,
       6.37132227e-02, 3.78600024e-02, 5.78320138e-02, -3.11755445e-02,
       -3.63699086e-02, -2.81786155e-02, -3.06575414e-04, 1.28205111e-02,
       -3.99410985e-02, -1.59824211e-02, -1.76474955e-02,
       -4.85660583e-02, 5.01943193e-02, -1.28221251e-02, -2.89672497e-03,
       -2.89972331e-02, -5.75727932e-02, -5.24781495e-02, 2.88296454e-02,
       6.11405261e-03, 1.28919771e-02, 2.30188090e-02, -6.70054695e-03,
       2.95828320e-02, -3.75096649e-02, -3.50836776e-02, -2.30032243e-02,
       -1.94783323e-02, -3.08074281e-02, -3.56286429e-02, 1.36267412e-02,
       -1.46713331e-02, 8.19518603e-03, -2.72028688e-02, -5.54615892e-02,
       -4.84521538e-02, 5.85650466e-03, -1.03768976e-02, 4.98335902e-03,
       -2.08668113e-02, -1.20957978e-02, -1.03540421e-02,
       -5.02431020e-02, -4.20884229e-02, -4.05092947e-02,
       -2.21878458e-02, -3.70756090e-02, -1.57474671e-02, 4.04113485e-03,
       2.22587655e-03, 4.05110605e-03, -3.02331708e-02, 2.19168607e-02,
       2.36288123e-02, -4.99323569e-02, -2.49852315e-02, -3.69871967e-03,
       -2.93010790e-02, -5.00004180e-03, 1.86595763e-03, -2.08927784e-02,
       1.29938377e-02, 5.29951900e-02, -6.60467148e-02, -1.86623745e-02,
       -3.43995206e-02, 1.08870594e-02, 4.06680591e-02, 5.27588949e-02,
       -1.43759428e-02, -1.35634595e-03, -7.51359900e-03,
       -2.54514590e-02, -4.59810868e-02, -1.28618255e-02, 7.50668929e-04,
       1.73472874e-02, -5.48590859e-03, 4.52667624e-02, -2.34085917e-02,
       2.89909542e-02, -3.53666465e-03, -1.60922389e-02, -1.90431066e-02,
       -1.22352540e-02, -2.25906000e-02, -4.44570147e-02, 2.20282264e-02,
       6.56718388e-02, 6.03870340e-02, 3.34171741e-03, -1.08750658e-02,
       -9.36606992e-03, -1.42103098e-02, -4.33841944e-02,
       -8.55292529e-02, 2.69635599e-02, 4.55623381e-02, 7.33767152e-02,
       2.53982134e-02, 1.99710242e-02, 1.52752269e-03, -2.88568460e-03,
       -1.25416946e-02, -8.81772768e-03, 6.88944086e-02, 7.76519626e-02,
       -3.03480960e-03, -4.48734267e-03, -8.40495620e-03, 2.54118047e-03,
       2.38722581e-02, -2.72971317e-02, -4.56131697e-02, 6.60354272e-02,
       1.57048441e-02, 1.59876700e-02, 1.03472406e-02, -1.88163053e-02,
       1.44569203e-02, -1.05034874e-03, -1.08222887e-02, -4.04078476e-02,
       5.74755063e-03, 5.18401451e-02, 7.55024701e-02, 3.84842828e-02,
       -1.52179238e-03, -8.42041243e-03, 3.23787262e-03, 2.76391972e-02,
       -2.67587900e-02, 2.33817678e-02, 4.19417433e-02, 4.81248349e-02,
       2.05570944e-02, -2.43674312e-02, 6.48473855e-03, -8.43530521e-03,
       -3.68292094e-03, -8.78882781e-03, 3.07925548e-02, 4.55702804e-02,
       1.27575397e-02, 1.34262694e-02, -9.42189340e-03, -2.02835891e-02,
       -3.76053387e-03, -7.59846807e-05, -2.47055683e-02, 3.25248241e-02,
       1.57459313e-03, 1.69264376e-02, -9.08311829e-03, 1.10532262e-03,
       1.92066710e-02, 3.01754405e-03, 1.55483047e-02, -6.14998862e-03,
       -8.68763961e-03, 1.76742822e-02, 4.44878731e-03, 1.21538118e-02,
       -7.52001069e-03, 8.18147673e-04, -9.19467490e-03, 7.25177582e-03,
       -4.19259071e-03, -1.49129739e-03, 2.58323681e-02, 2.03182865e-02,
       -3.74958105e-03, -9.95106436e-03, 4.66804951e-03, 7.43936887e-03,
       1.87168065e-02, -1.36965001e-03, 1.28023019e-02, -1.28104147e-02,
       -3.99724260e-04, -3.24901193e-02, 1.62615422e-02, 1.64340455e-02,
       -1.64232738e-02, -4.94204927e-03, -4.21206467e-02, 2.08033528e-02,
       1.06381709e-02, 3.57584953e-02, -1.22216437e-02, 8.09615385e-03,
       -9.82821919e-03, 3.54741663e-02, -3.76698165e-03, -4.63144796e-04,
       -1.78113207e-02, -9.35557298e-03, -3.12412251e-02,
       -6.93915738e-03, 2.17225403e-02, 3.17962579e-02, 7.11931428e-03,
       -1.00902123e-02, -2.59879194e-02, -2.50686891e-02,
       -5.64227067e-03, -4.55956860e-03, -1.15537895e-02,
       -2.30787299e-03, 7.97219202e-03, 3.65661079e-04, 4.35537798e-03,
       -4.87617636e-03, -2.30501648e-02, -1.39627848e-02,
       -4.61787544e-02, 5.90806641e-03, 3.49311717e-02, 1.54153947e-02,
       3.42974789e-03, -1.05470251e-02, -7.95008522e-03, 1.19841076e-03,
       -5.27804298e-03, -5.48087119e-04, -9.62082949e-03,
       -1.50762703e-02, 2.87780748e-03, 6.66993903e-03, 1.62973702e-02,
       4.16072831e-03, -1.61589775e-02, 3.29495668e-02, 8.03586561e-03,
       -2.30427925e-02, -6.79035220e-05, -4.51259268e-03, 1.46459751e-02,
       5.51868742e-03, -2.92158723e-02, 1.50074906e-04, 5.49369399e-03,
       4.77724113e-02, -3.86304371e-02, -7.80690170e-04, 8.27895664e-03,
       5.12879901e-03, 1.54261151e-02, -1.59836235e-03, 3.39501980e-03,
       2.08563544e-03, 7.37847853e-03, -2.13666707e-02, -1.50694686e-03,
       -8.35226942e-03, 4.59167687e-03, -8.33067950e-03, -6.10411800e-02,
       5.88297006e-03, 2.53371149e-03, 4.09281254e-02, -3.37307318e-03,
       1.68184713e-02, -2.50863079e-02, -1.55983781e-02, -4.03434783e-02,
       -6.53418675e-02, 3.21528129e-02, 4.05777059e-02, 5.87714836e-02,
       -6.23522066e-02, -1.98717657e-02, -1.78021938e-02,
       -3.89342755e-02, -4.43341024e-02, 9.19941999e-03, 5.09184338e-02,
       7.94498250e-03, 2.91592386e-02, -2.89090481e-02, -5.16413525e-02,
       -3.85775492e-02, -4.03194726e-02, -4.22633737e-02,
       -5.12355007e-02, 5.35461418e-02, -6.26854366e-03, 6.34197444e-02,
       -5.55214705e-03, -2.10696626e-02, -3.23021375e-02,
       -5.84916063e-02, -5.84635288e-02, -2.10988743e-04, 7.06354231e-02,
       -2.18020612e-03, 3.12580653e-02, -3.34338136e-02, -7.19492510e-02,
       -4.21335697e-02, -6.22003805e-03, -2.95794271e-02, 1.53815616e-02,
       2.84151658e-02, -2.52261963e-02, 4.99089435e-02, -4.99820395e-04,
       -2.96464004e-02, -3.61361615e-02, 1.93633288e-02, -2.05907319e-02,
       3.49347368e-02, 5.42777739e-02, -2.42836364e-02, 6.62788972e-02,
       1.40255895e-02, 3.11929313e-03, 2.26105432e-04, -1.30084185e-02,
       -3.47546972e-02, 3.00383363e-02, 3.97265144e-02, -3.73879969e-02,
       1.51418475e-02, 2.87902541e-03, -3.48179601e-02, -1.99584961e-02,
       3.32262069e-02, 6.10499131e-03, 4.36294638e-02, 3.56889181e-02,
       -9.47461650e-02, 4.89955358e-02, 1.20340660e-02, 8.95532873e-03,
       -1.57857202e-02, -1.35680130e-02, -4.33999412e-02, 9.69161093e-03,
       3.37903411e-03, 5.13837300e-02, -1.44385621e-02, -3.71765532e-02,
       -1.10354926e-02, -1.44111384e-02, 2.32258588e-02, 3.05696600e-03,
       3.23093608e-02, 3.05644912e-03, 4.04392593e-02, 3.65890637e-02,
       1.35595016e-02, 3.31217074e-03, 6.76137023e-03, -2.84146946e-02,
       -1.48909157e-02, 3.21655422e-02, 1.48595301e-02, 2.84727532e-02,
       1.89648930e-03, -3.34610641e-02, -1.63054466e-02, -2.91173477e-02,
       -7.50676356e-03, 9.60729271e-03, 3.73518467e-02, 1.43112456e-02,
       -2.48339865e-02, 3.09259817e-02, -4.97048663e-04, 1.56753784e-04,
       9.11971554e-03, -1.34102143e-02, 3.41870799e-03, 5.06547764e-02,
       -2.33457647e-02, 7.69427717e-02, -5.79931820e-03, -8.10144469e-03,
       -4.24646996e-02, -3.41847166e-02, 2.57533025e-02, -8.49550031e-03,
       6.10116636e-03, -4.87335073e-03, 1.17776787e-03, -3.76272462e-02,
       5.78356255e-03, -2.35310681e-02, 3.05806044e-02, -3.69855724e-02,
       1.83889121e-02, 6.56668022e-02, 2.08574142e-02, 1.77165661e-02,
       5.72836399e-03, -3.04778107e-02, -3.85222621e-02, -3.43243070e-02,
       3.22047360e-02, -6.85662404e-03, -5.49171679e-03, 3.51496972e-02,
       -2.31010728e-02, 1.50614036e-02, 2.33114790e-03, -2.37226523e-02,
       8.12410377e-03, -3.05962674e-02, -4.93981410e-03, 6.46982901e-03,
       -8.39449465e-03, -5.79136517e-03, -5.20066433e-02,
       -1.18877739e-02, -3.74500751e-02, -3.27133089e-02, 4.87009343e-03,
       8.21577385e-03, -1.63432525e-03, 1.07166423e-02, -2.65403371e-02,
       -1.63391221e-03, 1.67724155e-02, 1.51546383e-02, 1.48642366e-03,
       -3.31930034e-02, -1.84280609e-04, 1.08714877e-02, 1.67265604e-03,
       1.32596223e-02, -1.24381948e-02, -3.15001644e-02, -3.90080810e-02,
       -2.84029003e-02, 3.21398862e-02, 1.71458814e-02, -1.03673972e-02,
       2.43272372e-02, 1.46148000e-02, 5.21877855e-02, 2.69708838e-02,
       5.68677746e-02, 2.15713121e-02, -7.19268918e-02, -4.77615185e-02,
       -1.61007456e-02, -3.75860184e-02, 2.53466181e-02, -3.62982526e-02,
       -2.80502960e-02, -4.56339009e-02, -4.79433835e-02,
       -2.15975642e-02, 3.99791375e-02, 2.72287764e-02, 4.47500497e-04,
       4.02065739e-03, 3.42386998e-02, 2.16892958e-02, 4.25064154e-02,
       2.69330963e-02, -3.62457410e-02, -3.37180570e-02, -2.13705562e-02,
       -1.43528404e-02, 1.55218039e-02, 7.01571535e-03, 8.81771091e-03,
       -1.02137747e-05, -2.80096028e-02, 2.00114138e-02, 1.37679484e-02,
       6.41274918e-03, 3.33780199e-02, 6.91738166e-03, 8.29120502e-02,
       4.26250435e-02, 5.55476248e-02, 1.63768847e-02, -3.24279703e-02,
       3.86889800e-02, 6.26893565e-02, 4.05418267e-03, 4.36470732e-02,
       -1.96466055e-02, -8.18404718e-04, -3.00212968e-02,
       -2.94060875e-02, 8.70331749e-03, 4.25978824e-02, 5.39494380e-02,
       -6.47204509e-03, 3.37731279e-02, -9.34342621e-04, 2.98742158e-03,
       -9.69317276e-03, 4.05030325e-02, -1.98767614e-02, -1.22472141e-02,
       6.64314162e-03, -1.51783163e-02, 5.16934618e-02, -7.50556123e-03,
       -4.26781252e-02, -3.66154127e-02, -1.77857913e-02,
       -1.25009669e-02, 2.47143977e-03, 2.58143377e-02, 8.61096475e-03,
       1.10100815e-02, 2.77008954e-02, -2.56682150e-02, -2.11987253e-02,
       2.00972389e-02, 6.42857179e-02, 1.53018357e-02, 2.79157814e-02,
       -1.21934107e-02, 5.38857747e-03, -2.30250284e-02, 3.38276220e-03,
       -1.10542318e-02, 7.64740705e-02, 3.67066339e-02, 7.85091519e-03,
       2.87519582e-02, -1.06283445e-02, 1.35191698e-02, -1.82336941e-02,
       2.30533700e-03, -2.35361289e-02, 2.09418703e-02, -7.52192875e-03,
       -1.29500255e-02, 2.38559972e-02, -5.50648023e-04, 3.35591063e-02,
       -1.09478198e-02, 7.12575717e-03, -3.63524295e-02, 1.49487332e-02,
       -5.68018332e-02, -3.94986644e-02, 1.12632159e-02, -2.19419505e-02,
       3.18567604e-02, 2.60687666e-03, 2.59983633e-03, -1.05690937e-02,
       -1.81891602e-02, 8.21326673e-02, 2.31484193e-02, 2.07579285e-02,
       -1.27313500e-02, 5.88985765e-03, 2.74168327e-03, 2.32701860e-02,
       -5.94809931e-03, 6.52501211e-02, 2.18681823e-02, -2.55438797e-02,
       1.81906612e-03, -3.83542366e-02, 1.30212773e-02, -1.92932822e-02,
       2.24297624e-02, 1.34996036e-02, -8.33654497e-03, -3.53731215e-02,
       -9.60418675e-03, 2.55548041e-02, -1.63936783e-02, 1.12244049e-02,
       2.52717119e-02, 4.01489213e-02, -1.69503447e-02, 2.40769871e-02,
       -4.40423153e-02, -3.58687118e-02, 7.40343705e-03, -2.69219819e-02,
       4.40821014e-02, 3.14965309e-03, 2.52671093e-02, 2.13846608e-04,
       -2.02542357e-02, 3.01746354e-02, 2.83332691e-02, 5.87975867e-02,
       1.73857603e-02, -2.99037667e-03, 2.65656747e-02, 6.31359443e-02,
       3.32441367e-02, 4.82120886e-02, -2.80229170e-02, -4.45821360e-02,
       -1.65689159e-02, -1.63745265e-02, 3.10245045e-02, -4.35968190e-02,
       -1.09325759e-02, -3.15886587e-02, -3.75021882e-02, 5.54687390e-03,
       6.24731034e-02, 4.34363745e-02, 4.79760021e-03, -3.19533125e-02,
       1.60889234e-02, 1.77793093e-02, 2.24873237e-02, 3.34936380e-03,
       -4.37262990e-02, -2.29721591e-02, -5.96000180e-02,
       -4.18513678e-02, 6.76452462e-03, -2.57047545e-03, -2.24314742e-02,
       -2.27806009e-02, -4.30216826e-02, 1.88596956e-02, -7.94093404e-03,
       2.79023293e-02, -2.70981565e-02, -2.44660918e-02, -4.43607531e-02,
       3.14401160e-03, -3.42068709e-02, 1.75068658e-02, -7.29982881e-03,
       -3.00021190e-02, 6.63290638e-03, -6.72557428e-02, -3.11416034e-02,
       -4.36658636e-02, 2.09007715e-03, -1.73107944e-02, 9.27913003e-04,
       3.83491442e-02, 3.26127075e-02, 2.99783982e-02, -4.76708226e-02,
       -5.82623556e-02, 6.47162274e-03, -3.97018250e-03, -4.10502777e-03,
       1.47398906e-02, -2.10323501e-02, 1.59768797e-02, -2.26015337e-02,
       -5.25939427e-02, -3.38285603e-02, -3.69671881e-02,
       -2.99565569e-02, -3.49404430e-03, -1.78496260e-02, 8.30770936e-03,
       -9.54760425e-03, 4.84881103e-02, -1.34531576e-02, -4.36337711e-03,
       -2.29697991e-02, -1.24796955e-02, -3.79801877e-02, 1.04852533e-02,
       -3.38980965e-02, -1.67073123e-02, 2.24113185e-02, 4.88773733e-02,
       -3.10554560e-02, -1.35803726e-02, 1.26838358e-02, -3.35719734e-02,
       -2.99590491e-02, -3.45268496e-03, 4.20589037e-02, 3.67858186e-02,
       7.48365698e-03, -5.01295812e-02, -4.07468602e-02, -3.23248878e-02,
       -2.40254197e-02, -6.54087169e-04, -5.11342660e-02,
       -2.41502468e-02, -5.53779630e-03, -7.89316092e-03,
       -6.12847693e-02, -5.58095686e-02, -2.80265845e-02,
       -3.41132432e-02, 1.24871852e-02, -1.77217080e-04, -1.38858706e-02,
       7.46363599e-04, 7.40054920e-02, 1.82943288e-02, -1.58428587e-02,
       8.22585658e-04, -1.97545961e-02, 1.45798866e-02, -7.40046054e-03,
       -1.46572674e-02, -9.30121820e-03, 5.99474944e-02, -1.04081463e-02,
       -1.62901804e-02, -3.65689509e-02, -3.33606191e-02,
       -1.98193528e-02, 7.30174175e-03, 1.81850810e-02, 6.92749172e-02,
       5.60597144e-02, 2.19901204e-02, -2.58991513e-02, -1.28838690e-02,
       6.80116378e-03, 5.39812148e-02, 1.05119664e-02, 6.88212865e-04,
       2.67099123e-02, 6.98456690e-02, -4.46233153e-03, -2.93391291e-02,
       -1.04499916e-02, 8.71161092e-03, 6.62267115e-03, -1.04059326e-02,
       2.88968012e-02, 2.46354416e-02, 4.99353819e-02, 2.47989148e-02,
       8.41027498e-03, 4.25861916e-04, -5.89653105e-03, -9.82005801e-03,
       8.44605360e-03, 1.08627677e-02, -1.71000957e-02, 4.17863876e-02,
       -4.63350397e-03, -1.07157230e-02, -2.61197034e-02, 1.01264066e-03,
       1.17737064e-02, 4.21129633e-03, -2.04237234e-02, 1.67290308e-02,
       3.78370471e-02, 2.88286284e-02, -1.64221898e-02, 3.39630060e-03,
       1.08841872e-02, -4.34129825e-03, 1.21679716e-02, -1.14632072e-02,
       4.77464125e-03, 1.60333719e-02, 3.27235274e-03, 1.27521884e-02,
       1.53475432e-02, 2.75802631e-02, 6.67740079e-03, 2.12048180e-02,
       1.21040661e-02, -1.24793258e-02, 7.44854147e-03, -8.42320547e-03,
       -5.96277742e-03, -9.47097875e-03, 1.84333790e-02, 2.24902742e-02,
       -1.35190357e-02, -2.15024073e-02, -1.35206999e-02, 2.08007600e-02,
       1.27644949e-02, 5.68889594e-03, 9.52942122e-04, 1.34913586e-02,
       9.85839497e-03, 7.91353057e-04, -3.22426873e-04, 1.81096978e-02,
       1.55146848e-02, 4.50729067e-03, -1.65359881e-02, 2.03575157e-02,
       2.30182968e-02, 8.08251742e-03, -1.86003372e-02, -2.60622185e-02,
       1.21591298e-03, 1.18633937e-02, 6.00386970e-03, 6.77540374e-04,
       4.05264683e-02, 2.74995472e-02, 5.46286115e-03, -1.06762229e-02,
       -1.04768137e-02, 1.50175877e-02, -1.13449581e-02, -7.16659473e-03,
       -3.55615281e-02, 1.62920561e-02, 8.73480551e-03, 1.50037147e-02,
       6.08486356e-03, 9.45988635e-04, 2.55044587e-02, -6.52457913e-03,
       5.14325686e-03, 4.00153250e-02, 1.57824010e-02, -1.25640724e-02,
       1.75254643e-02, -1.10521764e-02, 2.82130879e-03, 1.51208043e-02,
       -1.38988420e-02, -2.83006839e-02, -3.49818952e-02,
       -2.76666749e-02, -1.40346736e-02, 5.51870884e-03, 3.33127612e-03,
       -3.32533754e-03, -1.34621179e-02, -2.57004034e-02,
       -5.38768433e-03, 1.28869535e-02, -8.17840174e-03, -1.42175835e-02,
       5.97241893e-03, 3.92816551e-02, 2.99330242e-02, 1.57814883e-02,
       1.04342552e-03, 5.78658329e-03, 1.06774429e-02, -6.42330898e-03,
       -8.57768673e-03, 1.43870935e-02, 2.44913008e-02, 2.56157364e-03,
       -2.39215735e-02, 2.75467802e-02, 3.35397907e-02, 5.54536618e-02,
       2.44993977e-02, 4.08826694e-02, 1.36064291e-02, -1.58910975e-02,
       1.95057988e-02, 3.17078666e-03, -4.34019894e-04, -2.10170560e-02,
       2.53084712e-02, -6.56341761e-03, -1.13777593e-02, -2.76223123e-02,
       -3.10972184e-02, -2.39432808e-02, -1.50386384e-02, 1.81528479e-02,
       -3.82189713e-02, -6.58553327e-03, 2.72376626e-03, 5.36866626e-03,
       -3.08078397e-02, 9.09645855e-03, -1.19957076e-02, -1.49294017e-02,
       1.81369856e-02, 7.19701638e-04, 6.12180494e-02, 1.95048675e-02,
       1.55461421e-02, 1.53740654e-02, -6.91014109e-03, -2.07374226e-02,
       -1.41956657e-03, 2.27289442e-02, -3.10370568e-02, 6.65951986e-03,
       -2.41597332e-02, -8.22797418e-03, -6.74451422e-03,
       -1.90057773e-02, -1.23549653e-02, -1.07849936e-03, 2.82956548e-02,
       6.75247982e-03, 4.05182578e-02, 3.81129682e-02, -1.00199264e-02,
       -2.54561882e-02, -1.60001346e-03, 9.40812565e-03, 4.82522743e-03,
       5.37433736e-02, 1.01312771e-02, 2.78923083e-02, 3.81468353e-03,
       1.00044599e-02, -8.44023377e-03, 2.13503186e-02, -2.42364109e-02,
       -4.81848419e-03, 6.73138769e-03, 1.24642467e-02, -1.10276546e-02,
       -2.50624567e-02, -2.18389910e-02, 1.24611128e-02, 4.32470068e-02,
       -2.02772934e-02, -1.37901166e-03, 2.46151108e-02, -2.94198785e-02,
       2.88561210e-02, -1.51689481e-02, 5.10894042e-03, -2.24966599e-04,
       -1.17923357e-02, 3.32975201e-03, -4.23750989e-02, 2.30279900e-02,
       6.23230729e-03, -2.97752004e-02, -3.97517011e-02, -2.39446051e-02,
       -8.08556098e-03, 5.86843397e-03, -1.40270162e-02, -2.28272546e-02,
       7.22323433e-02, -1.80690375e-03, 5.39217405e-02, -1.14558367e-02,
       2.01248862e-02, -9.57010221e-03, 2.30435319e-02, -2.71464344e-02,
       -4.25885431e-03, -1.88441481e-02, 2.85581183e-02, -4.45174277e-02,
       -3.08927316e-02, -2.44590943e-03, 1.37793471e-03, 1.13341818e-02,
       1.91234257e-02, 5.96807823e-02, -1.14547163e-02, 3.39062363e-02,
       3.98442568e-03, 1.07220197e-02, 8.00018758e-03, 2.38605328e-02,
       2.14559212e-02, -2.84562167e-02, -1.98486540e-02, 2.11967286e-02,
       3.95350344e-02, -6.91274880e-03, -2.40501445e-02, -3.91376903e-03,
       2.73551606e-02, -3.23575037e-03, 7.05180597e-03, 3.20511237e-02,
       3.21169086e-02, 2.07825769e-02, -9.35814995e-03, -7.77257979e-03,
       -1.17268797e-03, 9.25609469e-03, -1.88080873e-02, -3.07330657e-02,
       4.57462817e-02, -3.36114727e-02, -2.09749881e-02, -4.07419577e-02,
       -2.75787711e-02, -1.82110295e-02, -5.62766753e-03,
       -1.28157688e-02, -1.85492430e-02, -3.93687189e-03,
       -1.61413625e-02, 7.32626347e-03, -3.18721831e-02, -1.48689467e-02,
       -1.08699603e-02, 8.82055331e-03, -2.38075722e-02, 1.07122147e-02,
       6.36297464e-02, 3.41533124e-02, 1.63811985e-02, -2.65309233e-02,
       -1.50060160e-02, -2.48139212e-03, 7.33718509e-03, -1.87219474e-02,
       1.28906714e-02, 6.93613617e-03, 2.32318398e-02, -1.28600840e-03,
       1.89811306e-03, 5.87045029e-03, 2.52979361e-02, -9.42443591e-03,
       -1.33209005e-02, -2.90730153e-03, 1.51903806e-02, -5.09668253e-02,
       1.56456791e-02, -5.66432327e-02, -2.37146877e-02, -2.35156715e-02,
       -3.24565894e-03, -1.41923483e-02, -2.76748929e-02,
       -5.98520190e-02, -4.02184986e-02, -2.47650389e-02,
       -1.21742785e-02, 2.33968124e-02, 3.60739417e-02, -5.37469983e-03,
       2.67597660e-03, 1.12786423e-02, 2.37120241e-02, -6.52662886e-04,
       -2.44129058e-02, -2.10829917e-02, 8.48696753e-03, -6.27152249e-03,
       1.21436175e-03, 2.97063682e-03, 2.93295737e-02, -3.20943817e-02,
       7.03113899e-03, -8.24225415e-03, 1.28950179e-02, 1.25467367e-02,
       4.25851457e-02, 2.41969153e-02, -3.05275917e-02, -2.74050869e-02,
       -3.59376073e-02, -2.20173858e-02, -8.83866218e-04,
       -1.72311477e-02, 1.76679641e-02, -8.45310642e-05, -1.09883137e-02,
       1.79375093e-02, 9.19038139e-04, -9.35649592e-03, 2.17201794e-03,
       2.49908324e-02, 3.50410268e-02, 4.38492149e-02, 5.08472584e-02,
       6.08852208e-02, -2.65549514e-02, -5.12070348e-03, -2.01480817e-02,
       -2.93524526e-02, 3.80035713e-02, 4.01022751e-03, 9.17208008e-03,
       2.37696283e-02, 1.80172827e-02, -2.60780528e-02, 5.18225469e-02,
       9.78627522e-03, -2.28929729e-03, -1.16618434e-02, 2.34928858e-02,
       4.93604178e-03, 4.04436477e-02, 3.73206884e-02, 4.71200794e-04,
       -1.24169970e-02, -9.13232565e-03, -2.03194525e-02, 3.69718261e-02,
       1.87297035e-02, -6.86135376e-04, 2.47625075e-02, 4.94948588e-02,
       1.68677829e-02, 3.04448996e-02, 3.94713730e-02, -8.90631322e-03,
       4.09308374e-02, 3.81850451e-02, 5.50951343e-03, 4.73357402e-02,
       6.64791688e-02, -1.62688848e-02, 2.40361299e-02, 2.76691979e-03,
       -3.30621488e-02, -1.86100951e-03, -2.82145385e-02,
       -2.17485987e-03, -1.44862803e-02, 2.18885485e-02, 2.67346366e-03,
       1.57527346e-02, 1.39206266e-02, -2.67611500e-02, 2.34411880e-02,
       -1.73482560e-02, -3.15066241e-02, 2.86532138e-02, 3.42963450e-02,
       3.04739270e-02, 2.67126393e-02, 5.69040515e-02, -1.37137230e-02,
       1.61115918e-03, -1.28266308e-02, -1.67472416e-03, 1.30435899e-02,
       5.11536188e-02, 1.98644288e-02, 3.69939650e-03, 3.91123779e-02,
       -2.15323623e-02, 2.90768445e-02, 9.13451519e-03, 8.86202697e-03,
       -1.16418896e-03, 2.43461188e-02, 2.25793459e-02, 1.08252689e-02,
       1.90969575e-02, -1.65887028e-02, -1.01022366e-02, -1.82177350e-02,
       -4.39379029e-02, -9.04331356e-03, 2.65633315e-02, -1.30920000e-02,
       5.52058453e-03, -2.01349873e-02, -1.26373172e-02, 3.75856496e-02,
       -6.96109468e-03, -3.52240428e-02, -3.49316113e-02, 6.28248183e-03,
       3.19856443e-02, 2.74123773e-02, 6.01757951e-02, -8.00959673e-03,
       -1.62898358e-02, 3.78967337e-02, 3.38731073e-02, 9.83460434e-03,
       3.14172246e-02, -1.13528222e-02, 3.23152095e-02, 3.18058804e-02,
       -5.21148555e-03, 9.82878823e-03, 2.02030353e-02, -8.33604136e-04,
       1.85714327e-02, 8.46694747e-04, 1.63288265e-02, 2.41354966e-04,
       2.43437141e-02, -6.52908115e-03, 1.48637062e-02, 2.26321910e-02,
       -2.37534586e-02, -1.74403694e-02, 4.19480093e-02, 2.76044710e-03,
       3.19806114e-02, 7.44152057e-04, -1.50767118e-02, 4.96531790e-03,
       4.04493976e-03, -3.65367793e-02, -3.02694328e-02, -8.12502299e-03,
       1.57020651e-02, 5.93908764e-02, 5.20512983e-02, 1.74395158e-03,
       -1.13989729e-02, 6.68150280e-03, -2.63580512e-02, -2.00101789e-02,
       -3.91912973e-03, 2.03871285e-03, 1.09326709e-02, 1.33953951e-02,
       -1.09360293e-02, 3.55835259e-02, 2.09906157e-02, -8.74661002e-03,
       -4.18981351e-02, -4.16100398e-03, 3.41548361e-02, 7.09501728e-02,
       2.01148875e-02, -2.80237664e-02, -5.64939640e-02, -1.85515918e-02,
       -4.32619937e-02, -2.33535375e-02, 1.90463811e-02, -6.69252034e-03,
       3.44772544e-03, 1.27036637e-02, -1.05371969e-02, -2.94439541e-03,
       7.63991568e-03, -6.94201561e-03, -1.80273075e-02, 1.90456249e-02,
       4.41312697e-03, 2.66083814e-02, 3.56978364e-02, -2.84242574e-02,
       1.99095886e-02, 2.57134475e-02, -6.14597322e-03, -1.79648921e-02,
       1.40456837e-02, -2.38479655e-02, 2.89641116e-02, -1.27276406e-02,
       -4.30408865e-02, 1.36502637e-02, -1.31638804e-02, -2.71953978e-02,
       -1.83280446e-02, 1.29151775e-03, 3.28775644e-02, 4.51989844e-02,
       4.06101868e-02, 7.82451034e-03, -9.65861604e-03, -7.47273257e-03,
       -2.75781993e-02, -2.38516163e-02, 1.88840590e-02, -3.21804248e-02,
       2.44519655e-02, 2.31775995e-02, -3.55902873e-02, -1.14599159e-02,
       -1.94835179e-02, -2.95170527e-02, -1.87870972e-02,
       -1.41298482e-02, -7.26279989e-03, 5.71449175e-02, 3.83164026e-02,
       2.18826365e-02, 2.13945229e-02, -3.13025503e-03, -1.57860257e-02,
       -2.05598008e-02, 3.92259285e-02, -5.27908579e-02, 2.35902541e-03,
       3.32277417e-02, 2.48713158e-02, -2.15991791e-02, -1.93299614e-02,
       8.32394604e-03, -1.95688345e-02, 7.80035567e-04, 1.91510953e-02,
       8.87842998e-02, 3.48709412e-02, 7.32048275e-03, -2.72135600e-03,
       -1.94402039e-02, -2.20976323e-02, -2.25841310e-02,
       -2.04510242e-02, -6.06982484e-02, 1.61955338e-02, 3.28537397e-04,
       -7.26510119e-03, -5.77229746e-02, -3.03067137e-02,
       -3.25825289e-02, -3.12242564e-02, -5.68444878e-02,
       -2.27691904e-02, -8.60558823e-03, 1.00482032e-01, 5.53208329e-02,
       -2.34552249e-02, -1.89728439e-02, 5.70068695e-03, -1.77876372e-02,
       -1.07196458e-02, -2.53541823e-02, -3.89783755e-02, 4.54182178e-02,
       4.82906476e-02, -1.42721627e-02, -1.60215572e-02, 1.26605909e-02,
       -2.81272107e-03, -3.29172090e-02, -3.78006287e-02, 4.96850833e-02,
       7.34130070e-02, 1.07051777e-02, -4.66170907e-02, -1.45972446e-02,
       -2.59553287e-02, -1.34675037e-02, -2.47689374e-02,
       -8.01607314e-03, 4.67920788e-02, 6.81765676e-02, 5.90687292e-03,
       -2.57626511e-02, 2.63108010e-03, 1.69949401e-02, -5.78920357e-03,
       1.11160171e-03, -1.33453393e-02, -4.73060198e-02, 1.62525494e-02,
       2.21765321e-02, -3.34948860e-03, -1.18612163e-02, 2.13891212e-02,
       6.01753080e-03, -2.10309979e-02, 9.32616554e-03, -3.33335181e-03,
       4.22087610e-02, 2.72728899e-03, 1.56287919e-03, -3.53697799e-02,
       -7.07793050e-03, 1.20454736e-03, -4.64102579e-03, -9.61241499e-03,
       1.41106695e-02, 7.52235129e-02, 1.59131233e-02, -1.57932825e-02,
       1.69584583e-02, 7.40467617e-03, -1.31941941e-02, -1.20869791e-02,
       1.05162170e-02, 1.50795709e-02, 2.65404955e-02, -8.28232616e-03,
       -6.50177943e-03, 6.53063180e-03, -7.25856051e-03, -5.63765271e-03,
       -2.75167264e-03, -1.08809434e-02, -1.24548445e-03, 1.70035176e-02,
       2.43571750e-03, 6.35755481e-03, -1.45536242e-02, 1.50168734e-03,
       2.04790756e-02, 1.54626044e-02, -1.50257419e-03, 8.21961276e-03,
       1.45464865e-02, 1.96159538e-03, 7.51105789e-03, -1.75853241e-02,
       -3.00868601e-03, -1.49360849e-02, 1.40431998e-02, -1.22840935e-02,
       -8.33745394e-03, -7.79547403e-03, -6.40206551e-03,
       -4.76647168e-03, -1.45157967e-02, -2.71108118e-03, 5.47561934e-03,
       1.51287327e-02, 1.35574499e-02, -2.06701402e-02, 6.58095907e-03,
       -3.55917982e-05, -1.35443946e-02, -7.27789197e-03,
       -1.96663365e-02, -1.73428946e-03, 3.91887240e-02, -1.91602041e-03,
       1.15669779e-02, 1.48866279e-02, -1.54199619e-02, 2.31653564e-02,
       -1.44563541e-02, -2.41050366e-02, -1.03083914e-02, 7.71891617e-04,
       3.43355373e-03, 3.38215418e-02, 5.41240117e-03, -3.94882634e-02,
       1.24490252e-02, 1.73128545e-02, 3.09094097e-02, 1.16723627e-02,
       -4.93250834e-03, -3.51754855e-03, 1.77891506e-03, -8.64630379e-03,
       -1.97683964e-02, 2.15429161e-02, -1.78804900e-03, -6.90679206e-03,
       1.17541309e-02, 2.45019048e-02, -1.73661634e-02, -6.81818277e-03,
       -6.89677848e-03, -2.39822865e-02, -1.91249494e-02,
       -3.49677587e-03, -1.93769503e-02, 1.05528161e-03, -8.86215549e-03,
       -1.06573552e-02, 2.05106735e-02, 1.13942921e-02, -1.70124625e-03,
       -2.78302282e-03, -1.39784371e-03, 1.41219972e-02, 1.35071389e-02,
       -1.24642253e-02, 1.67953223e-02, 7.19495304e-03, 6.90253312e-03,
       2.47188341e-02, -1.72352213e-02, -4.36956016e-03, 3.44436169e-02,
       3.12857926e-02, 9.86875780e-03, 1.81774199e-02, -3.15461704e-03,
       -6.83146250e-03, -3.59154795e-03, -3.23086008e-02, 2.42811674e-03,
       1.81350764e-02, 1.64266787e-02, 1.84978936e-02, 3.90235358e-03,
       -1.14280768e-02, -2.20344048e-02, -4.32946673e-03,
       -1.98118221e-02, -3.42382118e-03, 3.08610424e-02, 2.08624117e-02,
       -3.17743421e-02, -9.26386472e-03, -1.59500316e-02,
       -1.19322762e-02, -3.03085297e-02, -2.01064795e-02, 1.60245281e-02,
       3.68326046e-02, -2.37490404e-02, -8.92591197e-03, 2.03690100e-02,
       -2.68142438e-03, 1.30224526e-02, -7.67295435e-03, 1.30688706e-02,
       1.13308560e-02, 1.27787702e-02, -2.59108115e-02, 5.38208429e-03,
       4.06822003e-02, 3.24977152e-02, 4.33421135e-02, 1.68741904e-02,
       -4.34709387e-03, 1.87134445e-02, 4.17106822e-02, 1.42743466e-02,
       2.41663177e-02, 1.56401079e-02, 1.80508606e-02, 3.45587470e-02,
       2.50887182e-02, 1.13543179e-02, 6.74205869e-02, 4.93215397e-02,
       1.40799559e-03, 2.01731194e-02, 8.13803636e-03, -1.27830310e-02,
       -3.89781632e-02, -1.28269289e-02, 4.40173484e-02, -3.45453508e-02,
       -4.56005596e-02, -4.33041118e-02, 1.12623470e-02, 1.10441661e-02,
       -1.80481654e-02, -2.03257408e-02, 1.13676954e-02, 4.68567908e-02,
       -4.07396862e-03, -2.42729262e-02, 8.59415811e-03, -1.23682991e-02,
       1.65562872e-02, 2.59294938e-02, 1.96429640e-02, 6.61683455e-03,
       9.08888225e-03, 6.31669210e-03, 1.27334138e-02, -2.88810562e-02,
       -3.82321374e-03, 2.55353861e-02, 6.11240268e-02, 4.53521349e-02,
       3.25363018e-02, 3.29792015e-02, 1.96141694e-02, 2.12396402e-02,
       2.21330896e-02, 2.43476685e-02, 2.08252911e-02, -4.47225571e-03,
       -1.18722059e-02, -3.35408077e-02, -4.24739858e-03,
       -4.34024446e-02, -1.15959682e-02, -3.42886592e-03,
       -9.14516021e-03, 2.12791823e-02, 3.31926607e-02, 2.51599625e-02,
       1.48429051e-02, 6.03273232e-03, -2.08084960e-03, 3.21531072e-02,
       1.76521186e-02, 1.02774352e-02, 3.77269089e-02, 3.48958708e-02,
       1.77271515e-02, -2.77231969e-02, -6.45611947e-03, -1.91708915e-02,
       -4.63918783e-03, -2.13403702e-02, 2.37255208e-02, 5.37999114e-03,
       3.02702673e-02, 2.35232655e-02, 6.32151403e-03, 1.53495483e-02,
       1.05753010e-04, 2.86363829e-02, 1.84325688e-02, 3.18917707e-02,
       1.39508191e-02, 3.49322967e-02, 5.41006448e-03, -3.59814763e-02,
       -2.14117412e-02, -5.43605387e-02, -8.95661209e-03, 1.84569694e-02,
       3.15581419e-04, 1.83379836e-02, 4.03011627e-02, 1.47236045e-02,
       -4.63867094e-03, -1.33398483e-02, -2.04928741e-02, 1.47143216e-03,
       2.28526164e-03, 1.24753304e-02, 7.46802427e-03, 4.56633121e-02,
       -1.03785014e-02, -3.33035737e-02, -6.34295493e-03,
       -3.72242108e-02, 2.97728926e-03, 2.15975251e-02, 2.45593544e-02,
       -1.54337902e-02, 2.04220042e-02, -3.30228209e-02, 1.34116830e-02,
       1.08296294e-02, -1.94106288e-02, -2.22561136e-03, 1.77313723e-02,
       -1.00278109e-02, 1.29410280e-02, 1.16212945e-02, 2.25625075e-02,
       -1.77398417e-02, -1.83478892e-02, -3.70938331e-02, 4.60555591e-03,
       -2.93706357e-02, 1.09632416e-02, 3.03457840e-03, 3.18211913e-02,
       2.54463386e-02, -6.22894615e-04, -1.27385240e-02, -1.11647975e-02,
       -2.05491614e-02, -1.90021761e-04, 2.50639971e-02, -1.95032209e-02,
       -1.62728820e-02, -1.39036085e-02, 1.21041732e-04, 8.44637863e-03,
       -2.54198406e-02, -9.97790135e-04, -1.59285646e-02,
       -3.50042689e-03, -2.73681059e-02, -1.56154698e-02,
       -2.74589155e-02, 1.50564471e-02, -5.47115551e-03, 1.50537724e-02,
       -1.04416935e-02, 1.15118606e-03, 1.33684585e-02, 2.30831280e-02,
       3.14784534e-02, 3.42897512e-02, 1.53861800e-02, -1.12416111e-02,
       -3.16964858e-03, -5.52714337e-03, 1.08968662e-02, 2.33831313e-02,
       1.45452879e-02, 4.28867899e-02, 1.64994244e-02, -1.44477421e-02,
       -1.91790648e-02, -1.70879643e-02, -1.98328476e-02, 2.06806716e-02,
       2.92443205e-02, 7.73007004e-03, -4.14891634e-03, -1.00465445e-02,
       2.29063518e-02, -1.84417926e-02, 1.95524581e-02, -1.36907641e-02,
       -2.24669725e-02, 2.80028186e-03, 7.80446222e-03, -2.36233957e-02,
       -6.21628128e-02, -3.53583694e-02, 1.52097084e-03, -1.60520822e-02,
       -1.17058558e-02, -2.90893391e-02, 2.76377369e-02, -3.80420219e-03,
       5.07879481e-02, 4.30792905e-02, 1.49483504e-02, -9.38327145e-03,
       -2.64314208e-02, -7.25536374e-03, -3.20487516e-03, 1.79296862e-02,
       -1.18675344e-02, 3.38881649e-02, 3.99032421e-02, 1.98931955e-02,
       -1.09903072e-03, -1.24069182e-02, -1.63848754e-02, 1.61757655e-02,
       -4.99536283e-03, 2.24734191e-03, -1.90483574e-02, -3.14807668e-02,
       -3.80129111e-03, -3.40502273e-04, -1.55496066e-02, 1.51298419e-02,
       -7.40271248e-03, 3.57419718e-03, -6.75154431e-03, -3.17592435e-02,
       -5.73266111e-03, -9.17239394e-03, -8.78285710e-03,
       -1.21784322e-02, -1.76017135e-02, -8.49546492e-03, 3.45906802e-03,
       2.01543272e-02, 3.03618722e-02, 2.51907855e-02, 2.75432020e-02,
       8.97763763e-04, 2.08895411e-02, 4.98600164e-03, 1.21011622e-02,
       1.55615009e-04, -1.01504214e-02, 3.00575700e-02, -4.03313991e-03,
       1.14782639e-02, -2.92811519e-03, 2.03817803e-02, -3.02745099e-03,
       1.41571378e-02, -2.12190067e-03, -1.28206201e-02, -1.77940708e-02,
       1.97164458e-03, -5.48860808e-05, -1.89223439e-02, -1.05790170e-02,
       -3.34623493e-02, 1.57635496e-03, -1.42401606e-02, -1.05463052e-02,
       -2.32765060e-02, -3.71501856e-02, 1.46242995e-02, -1.19479215e-02,
       7.48905167e-03, -4.80960449e-03, -1.46110095e-02, -6.10451959e-03,
       1.68590096e-03, 1.21851196e-03, 3.78128048e-03, -6.18699240e-03,
       -3.29471268e-02, 1.07619902e-02, 8.26428458e-03, 2.53999904e-02,
       1.56429578e-02, -9.07157734e-03, 4.80264574e-02, -7.23066414e-03,
       -9.91964340e-03, -5.22991689e-03, 5.37207723e-03, 8.77361000e-03,
       3.33254300e-02, -1.27970474e-02, -8.43519624e-03, -1.15586892e-02,
       -3.26710828e-02, 7.43833231e-03, -1.71894450e-02, -5.35950623e-03,
       7.89518375e-03, -5.84041886e-03, 3.41728255e-02, -7.15352455e-03,
       1.67795718e-02, -3.19814608e-02, 8.77045840e-03, 2.92930808e-02,
       -1.41463066e-02, -6.84494665e-03, -1.54658325e-03, 2.17061248e-02,
       1.22268554e-02, 3.03927455e-02, -1.62589718e-02, 2.00624159e-03,
       1.47983804e-02, -2.04493776e-02, -5.53690642e-03, 9.84572154e-03,
       -1.26140472e-02, -2.00334727e-03, 1.16760964e-02, 2.21516881e-02,
       1.49188917e-02, 2.55109090e-02, 1.38489297e-03, 2.60052532e-02,
       2.70348042e-02, 5.57119213e-03, -3.22621800e-02, -1.23194233e-02,
       -5.59176281e-02, 1.01208249e-02, 2.96302978e-02, -7.52374018e-03,
       -1.83007098e-03, -1.82727482e-02, -3.53772976e-02,
       -2.48287227e-02, -1.61492918e-02, -3.94353457e-02, 1.17057553e-02,
       2.55038887e-02, 2.60872208e-03, 1.40276598e-02, -1.56074073e-02,
       -6.22492097e-03, 3.38134021e-02, -1.70843881e-02, 2.90165562e-03,
       -1.11614456e-02, 2.86442041e-02, 1.40953334e-02, 1.09561067e-02,
       2.56140940e-02, 4.25663516e-02, 4.29632748e-03, 3.46090295e-03,
       -1.50836809e-02, 2.87853787e-03, 1.22494353e-02, 2.40243003e-02,
       3.67636271e-02, 5.42036816e-02, 1.83156375e-02, 1.04958974e-02,
       -1.16210449e-02, -2.57206522e-02, 2.44448390e-02, 5.91373630e-03,
       2.62801722e-03, -2.21342500e-03, -9.02824756e-03, -5.09449514e-03,
       3.81193012e-02, -7.58587569e-03, -3.56190093e-02, 7.22164242e-03,
       5.16757043e-03, 2.68457998e-02, 1.98851023e-02, -2.71438994e-03,
       8.08496668e-04, 6.60233423e-02, 5.01852436e-03, -2.65285857e-02,
       -1.34437508e-03, 7.99334142e-04, 3.93332122e-03, 1.31932171e-02,
       1.64309908e-02, 1.52853001e-02, 5.07947206e-02, 6.82043191e-03,
       -2.78397072e-02, -7.11790770e-02, 2.02678647e-02, -1.27373654e-02,
       -1.19829718e-02, 1.53941279e-02, 2.16887761e-02, 4.77561355e-02,
       -2.90135052e-02, -3.06164008e-02, 1.05973259e-02, -2.54072938e-02,
       1.55671146e-02, 1.18683251e-02, 1.30965412e-02, 8.19305889e-03,
       1.72267221e-02, 4.49708384e-03, -3.46086100e-02, -2.02362146e-02,
       1.37840658e-02, 2.07005404e-02, 7.91873503e-03, 3.01278289e-03,
       1.58113018e-02, 2.40111705e-02, -6.09535817e-03, 1.52195459e-02,
       -5.30247763e-02, -1.95808019e-02, -6.84173265e-03,
       -8.21752381e-03, -3.68142943e-03, 1.05682416e-02, -1.08292643e-02,
       7.68268481e-03, 1.92502756e-02, -6.18141927e-02, -4.42193151e-02,
       -1.46096637e-02, 1.87096298e-02, -2.93561094e-03, 2.45803152e-03,
       2.08307598e-02, 1.79978739e-02, -1.37696881e-03, -1.62735209e-02,
       3.68697732e-03, 3.03956978e-02, 2.21189018e-02, 2.02688016e-02,
       1.99785531e-02, -6.97788363e-03, -1.23697370e-02, -5.47361653e-03,
       -3.07860021e-02, 2.30042282e-02, 1.93490670e-03, 2.62972023e-02,
       6.68736082e-03, 1.74443575e-03, 6.05397020e-03, 2.91980375e-02,
       2.90275309e-02, -2.30963738e-03, -1.46889698e-03, 3.31143700e-02,
       4.07595150e-02, 1.09860608e-02, -3.37104616e-03, -1.55455796e-02,
       4.69442038e-03, -4.54158289e-03, -1.48009667e-02, 1.13417869e-02,
       2.78380811e-02, 4.35758149e-03, -1.94982346e-02, -2.10617874e-02,
       1.69856064e-02, 2.23738346e-02, 2.25039218e-02, -2.23058742e-02,
       -1.41657740e-02, 1.71717126e-02, 1.52623402e-02, 9.28646885e-03,
       1.22509999e-02, 1.28575657e-02, -1.03079723e-02, -2.58537792e-02,
       1.62559692e-02, -1.03736166e-02, -8.10557860e-04, -6.05206378e-03,
       -1.28546986e-03, 1.41933642e-03, -1.46346223e-02, -1.85597464e-02,
       -2.46093702e-02, 2.27117389e-02, 3.22642364e-02, 1.94428302e-02,
       1.96376089e-02, -5.06530656e-03, -1.60662010e-02, -5.54189505e-03,
       -1.87737066e-02, -6.76347874e-03, 9.92950145e-03, -2.71891877e-02,
       -7.62293907e-03, 2.93562002e-03, 1.94267295e-02, 3.72757833e-03,
       -1.69089381e-02, -1.28428265e-02, 3.84662510e-03, 1.82984769e-02,
       -5.22305211e-03, -1.02724209e-02, -3.66345257e-03,
       -2.00003455e-03, -2.71567889e-02, -2.46633552e-02,
       -8.25754367e-03, 8.56854115e-03, -2.06646062e-02, 1.50247497e-05,
       -3.23290750e-02, 9.23089404e-03, 2.13589724e-02, 7.25450832e-03,
       -1.78916138e-02, 2.94021796e-03, -3.60822189e-03, -7.92981591e-03,
       -3.34498025e-02, -2.70553194e-02, -1.46058910e-02, 1.99113265e-02,
       6.87257806e-03, 5.08899754e-03, 2.56759133e-02, 3.08483131e-02,
       5.94551489e-03, -1.82660331e-03, 1.55819142e-02, -6.24292204e-03,
       2.39850935e-02, 1.39331874e-02, -4.69560698e-02, -3.19520496e-02,
       -5.74408099e-03, 1.22282468e-02, -4.31325519e-03, -1.20433345e-02,
       -2.18047742e-02, 1.61888245e-02, -1.61766987e-02, -2.33017560e-02,
       -1.36501063e-02, -3.84988682e-03, 8.90645944e-03, 3.01821008e-02,
       9.17711575e-03, -2.84173363e-03, 2.27349047e-02, 4.47339285e-03,
       -1.32108917e-02, -2.87745090e-04, 8.50368012e-03, -2.05952078e-02,
       -5.27630839e-03, -1.03085060e-02, 1.21548993e-03, -6.12554373e-03,
       1.34090465e-02, -9.47561953e-03, 8.51135515e-03, 2.74348538e-02,
       4.03240742e-03, -8.98053311e-03, -2.29882691e-02, 2.61845905e-02,
       -2.12137960e-02, -4.48226230e-03, 8.97441816e-04, -6.60692947e-03,
       5.31394035e-03, -3.27049866e-02, 3.64372060e-02, -1.06610125e-02,
       7.88650010e-03, -1.73557992e-03, -1.07033579e-02, 3.08951316e-03,
       -2.69105379e-03, -2.34979112e-02, 1.67029700e-03, 2.33752150e-02,
       -2.14213412e-03, -1.54578602e-02, -3.07305306e-02, 1.53105252e-03,
       4.41849278e-03, 1.28993178e-02, 1.74824949e-02, -1.05639631e-02,
       -1.98695511e-02, -3.71912085e-02, 4.94930297e-02, -3.73427593e-03,
       6.98259217e-04, 1.34353517e-02, 2.53292322e-02, 1.77094750e-02,
       -2.48618796e-02, 2.32478231e-03, 2.89262068e-02, 7.52918497e-02,
       3.87461782e-02, 4.40325551e-02, 6.76945038e-03, -2.05318956e-03,
       -1.53707108e-02, -1.08980034e-02, 3.06434091e-02, -4.40554395e-02,
       5.47494274e-03, -5.55063738e-03, 5.79666579e-03, 3.56151871e-02,
       4.54809656e-03, 7.75972963e-04, -3.66303921e-02, 6.36180164e-03,
       -2.81449296e-02, 4.39034812e-02, 2.86723748e-02, 1.78892408e-02,
       1.69276129e-02, 3.73467915e-02, 3.76585522e-03, -3.72673497e-02,
       -6.07398432e-03, -2.36053020e-02, 3.29806469e-02, 3.06236703e-04,
       2.15335805e-02, 2.38139480e-02, 2.28128415e-02, -9.19516105e-03,
       -2.50933375e-02, 3.01856752e-02, 1.18589047e-02, 2.36432143e-02,
       1.88074727e-02, 1.08001065e-02, 1.82633214e-02, -1.14995046e-02,
       -1.60796084e-02, -1.58755966e-02, -5.03340410e-03,
       -5.17532863e-02, -1.21150557e-02, -9.69364587e-03, 2.12688767e-03,
       8.61192308e-03, -2.93055922e-02, -3.11020967e-02, -2.13465691e-02,
       3.82621959e-02, -2.59175394e-02, 1.20473597e-02, 3.32239852e-03,
       6.97131781e-03, 1.86571968e-03, -1.49307074e-03, -1.55723952e-02,
       -1.34573011e-02, 4.28259000e-03, 8.93508177e-03, 1.46396132e-02,
       6.28068438e-03, -8.57285224e-03, -2.20856611e-02, 3.08994646e-03,
       -1.67666953e-02, 9.99778789e-03, 2.14493256e-02, 3.17015462e-02,
       2.11555939e-02, 1.95948668e-02, -1.43777821e-02, -7.09922146e-03,
       -2.93801054e-02, -2.41790060e-02, -3.35129816e-03, 6.33113366e-03,
       -1.28169786e-02, -1.99522655e-02, 2.50172056e-03, -1.00519066e-03,
       -2.21831668e-02, -9.49345250e-03, -6.02288358e-03, 1.98672917e-02,
       -6.17407495e-03, -5.00857411e-03, -3.46905924e-02,
       -9.15327854e-03, -1.92017145e-02, -9.84290242e-03,
       -1.12917367e-02, -2.20871028e-02, -1.25697963e-02,
       -2.97740176e-02, 4.78595408e-04, 2.00817101e-02, 2.93128323e-02,
       1.18290004e-03, 1.54590851e-03, 5.56857958e-05, 1.43289724e-02,
       3.85939628e-02, 2.95817591e-02, 6.91190269e-03, 1.91553272e-02,
       2.85032261e-02, 2.33842200e-03, -2.09323969e-02, -2.00305413e-02,
       -6.69747998e-04, 8.71779677e-03, -3.02132871e-02, -1.76433939e-02,
       6.22064108e-03, 1.26950899e-02, -4.68829693e-03, 3.29690729e-03,
       -2.66776010e-02, -6.55286713e-04, 7.91546050e-03, -2.86187287e-02,
       -7.73276528e-03, 1.66766196e-02, -1.38554694e-02, -1.13570364e-03,
       -1.14897788e-02, -4.45032958e-03, -1.33906852e-03,
       -1.77622563e-03, 1.78803166e-03, -2.17731483e-02, 8.22428148e-04,
       -2.47397553e-03, -8.98243487e-03, -2.48510782e-02,
       -2.47335732e-02, -3.16303447e-02, 7.81653263e-03, -2.46931822e-03,
       3.63209285e-02, 3.03708073e-02, 2.76640691e-02, -5.07095177e-03,
       9.08485241e-03, 1.78253800e-02, 6.46491069e-03, -3.62168327e-02,
       -8.96169338e-03, -2.12460086e-02, -2.79892907e-02,
       -4.21672538e-02, -2.04276480e-02, 9.59532708e-03, 3.87517102e-02,
       -1.30694592e-03, -2.27197469e-03, -7.57237372e-04, 3.22633050e-03,
       -5.79081755e-03, -1.15631400e-02, 5.58986096e-04, -1.02546578e-02,
       -1.17045850e-03, -2.42979750e-02, -1.00132227e-02,
       -1.37912352e-02, 1.16836084e-02, 1.02315028e-03, -1.76915759e-03,
       -3.65909003e-02, -2.98215612e-03, 1.23800253e-02, 4.84177796e-03,
       -7.36328494e-03, 4.42987250e-04, 4.71521262e-03, 2.32632691e-03,
       3.76053411e-03, -2.26809904e-02, 1.90569134e-03, 1.21499747e-02,
       -7.48338923e-03, -4.82149422e-03, -8.84514395e-03,
       -2.18971092e-02, -1.69650894e-02, -1.92015357e-02,
       -6.55737473e-03, -1.00804325e-02, -9.74070746e-03, 1.12405303e-03,
       8.83641001e-03, -9.18588880e-03, -2.23993100e-02, -2.37951204e-02,
       -1.32728321e-02, -1.96408797e-02, -8.85322131e-03, 3.82500608e-03,
       8.87331646e-03, -1.49934581e-02, -2.41449885e-02, 3.74278752e-04,
       6.71914779e-03, 1.13491751e-02, -3.28274295e-02, -2.21335795e-02,
       -3.09740240e-03, -1.81145482e-02, -2.63908487e-02,
       -2.54021753e-02, 2.81868479e-03, 1.09274844e-02, 1.11969048e-02,
       -3.95378880e-02, -1.29859950e-02, 4.15045256e-03, 3.17946030e-03,
       1.26887336e-02, -1.57594550e-02, 1.00684129e-02, -4.52110590e-03,
       -6.55165175e-03, -3.10810916e-02, -1.04851210e-02,
       -2.62945946e-02, -2.36073770e-02, 1.26011693e-03, -5.87970950e-03,
       2.30003428e-02, -2.69067218e-03, -7.10883643e-03, 8.69185757e-03,
       1.75249837e-02, 2.09762575e-03, 1.27194831e-02, -1.21983103e-02,
       -1.42581994e-02, -6.37734868e-03, -1.56416011e-03, 2.48642173e-02,
       -5.02956053e-03, 9.80716106e-03, -2.11915839e-03, -6.21263112e-04,
       6.29145093e-03, 3.32289422e-03, 2.66807228e-02, 1.53201632e-02,
       1.53882159e-02, -8.43715155e-04, 9.98434983e-03, -2.43397616e-02,
       -1.68905351e-02, -1.56984888e-02, -2.09320337e-02, 1.52284966e-03,
       -2.24898048e-02, -1.53123550e-02, 1.75012946e-02, -2.10400261e-02,
       -8.97318404e-03, -8.99426173e-03, 1.77691374e-02, -3.08799334e-02,
       3.16897258e-02, 1.11536076e-02, -2.32128426e-03, -5.36276447e-03,
       -3.24626314e-03, 8.26076721e-04, -3.28441337e-02, 1.18058482e-02,
       -6.11312455e-03, 1.05177695e-02, 7.27255130e-03, -1.11323996e-02,
       -4.13285242e-03, 1.75123638e-03, 9.75546706e-03, -1.53025854e-02,
       1.73741709e-02, -7.33323814e-03, 1.30153857e-02, 5.35737118e-03,
       -3.00544477e-03, -9.41522047e-03, -1.24383476e-02, 1.14690093e-02,
       -1.30938487e-02, 1.33419661e-02, -2.82965004e-02, 2.89857145e-02,
       1.65397655e-02, -9.80146788e-03, -2.52347123e-02, 1.67910736e-02,
       -5.62518660e-04, -9.52710956e-03, 6.53656258e-04, -2.62158527e-03,
       3.29895504e-02, -1.93391889e-02, -4.00915965e-02, -3.31719220e-03,
       -1.23220319e-02, 1.29208323e-02, -2.01083105e-02, 1.20149944e-02,
       -1.36522073e-02, 9.30975378e-03, -3.30562145e-03, -9.99331567e-03,
       -2.97502968e-02, -7.31622381e-03, 1.78727054e-03, -1.35965087e-02,
       1.57965645e-02, -2.61122570e-03, 3.28553095e-03, -8.06448050e-04,
       -3.16871679e-03, -1.46934167e-02, 2.68603908e-04, 1.03742136e-02,
       -5.31420298e-03, 1.28970733e-02, 2.31976379e-02, 1.80892870e-02,
       -6.77763237e-05, -5.18057728e-03, 1.33151095e-02, -1.14677139e-02,
       1.04970634e-02, 9.29640420e-03, 2.86960080e-02, 5.33334818e-03,
       2.18508020e-02, -1.04198407e-03, 2.03604791e-02, 1.72367727e-03,
       1.77151039e-02, 1.11581348e-02, -1.13611771e-02, 4.46973704e-02,
       -1.34346839e-02, -5.29185450e-03, 1.18686790e-02, -3.20903258e-03,
       -2.92533580e-02, 1.49525460e-02, 2.15718299e-02, -1.62523065e-04,
       2.55354736e-02, -3.38199316e-03, 3.20739369e-03, -2.60289921e-03,
       3.07108904e-03, -5.28970221e-03, 8.33997130e-03, 6.10673055e-03,
       -2.17502676e-02, 3.45225669e-02, 2.41261143e-02, 1.35549903e-02,
       -2.52867974e-02, -2.23852266e-02, -9.65374336e-03,
       -1.57726780e-02, -5.30592399e-03, -6.34567766e-03, 1.33798402e-02,
       4.42709820e-03, 1.22193266e-02, -8.90997984e-03, -3.15525127e-03,
       -2.04842407e-02, -1.98653229e-02, -5.80629939e-03,
       -1.25196679e-02, -7.88192358e-03, -1.21439956e-02, 1.06607471e-02,
       6.70683058e-03, 2.70108059e-02, 4.95387521e-03, -1.92551836e-02,
       1.54222315e-02, -1.53489318e-02, -1.97062809e-02, 2.17553955e-02,
       -1.87909510e-03, 6.33780612e-03, 4.66092816e-03, 3.68536054e-03,
       -3.67581062e-02, -9.78184678e-03, 1.59641746e-02, -1.76170245e-02,
       1.12688774e-02, 1.71984900e-02, 8.75413185e-04, -4.46195202e-03,
       1.99463516e-02, -1.59482192e-02, -1.38803758e-02, -1.09409634e-02,
       -1.33170723e-03, -1.78215909e-04, 9.31185018e-03, -2.84651965e-02,
       -3.01196165e-02, 4.55035456e-03, 1.14333341e-02, 1.83279198e-02,
       2.15515331e-03, -1.21422503e-02, 3.03703584e-02, -9.80177708e-03,
       1.13471253e-02, -1.10714487e-03, 7.33256061e-03, -1.69786308e-02,
       -2.38785632e-02, -2.00288277e-02, -2.78562400e-02, 1.68344770e-02,
       7.11179525e-03, -1.46467863e-02, -1.59717184e-02, -3.78008443e-03,
       -4.64505889e-03, 7.45916739e-03, 1.20807672e-03, -5.43535128e-03,
       5.09029813e-03, -3.48989777e-02, -7.32850144e-03, -7.72177568e-03,
       6.32928126e-03, -6.69454085e-03, 1.92073230e-02, -1.38259204e-02,
       -3.37465368e-02, -1.89340226e-02, 5.74347680e-04, -2.32267100e-03,
       1.00962361e-02, 1.57548916e-02, -3.76889785e-03, -1.97560014e-03,
       -3.29997926e-03, -6.74040196e-03, 4.16861195e-03, 1.70552582e-02,
       8.45979885e-05, 1.11253466e-02, 1.60524808e-02, -1.35736931e-02,
       -7.64944172e-03, -6.23642327e-03, 1.67558230e-02, 3.90081294e-03,
       -5.21217985e-03, -1.98213849e-02, -5.60013484e-03,
       -3.43710621e-04, 4.26894333e-03, 2.99880691e-02, -1.29803335e-02,
       -1.29997795e-02, 6.27170363e-03, 1.56427026e-02, 3.27245072e-02,
       3.89211439e-02, 2.09842492e-02, -2.24773004e-03, 1.78103521e-02,
       3.10264924e-03, 1.45421468e-03, 1.64386060e-04, -4.63730237e-03,
       -8.17639660e-03, -5.60337398e-03, -1.55005259e-02, 1.84760205e-02,
       -2.89957179e-03, 1.83922425e-02, 1.33081712e-02, 8.29549786e-03,
       -8.97738326e-04, -1.50339687e-02, 4.21191100e-03, 1.14254393e-02,
       3.66733735e-03, 3.17810033e-03, 1.09806359e-02, -7.83351902e-03,
       1.12127941e-02, 7.74839940e-03, -3.75808752e-03, 2.10865997e-02,
       3.19672413e-02, -6.97514927e-03, 8.58274102e-03, 4.18432849e-03,
       1.32265305e-02, 5.93623100e-03, 7.45901512e-03, -1.12670101e-02,
       1.03786355e-02, -1.43925166e-02, -2.08321144e-03, -8.29356536e-03,
       4.09841584e-03, -2.12146565e-02, 2.64992807e-02, 1.18270032e-02,
       -1.85353390e-03, 1.16529984e-04, 1.92848444e-02, -1.21509218e+00 ]
