%YAML:1.0
pringle_green--80x232--: !!opencv-object-detector-hog
   winSize: [ 80, 232 ]
   blockSize: [ 16, 16 ]
   blockStride: [ 8, 8 ]
   cellSize: [ 8, 8 ]
   nbins: 9
   derivAperture: 1
   winSigma: 4.
   histogramNormType: 0
   L2HysThreshold: 2.0000000000000001e-01
   gammaCorrection: 1
   nlevels: 64
   signedGradient: 0
   SVMDetector: [ 8.20724759e-03, 4.15718090e-03, 8.89516843e-04,
       -4.86284681e-03, 3.68647417e-03, 1.83236087e-03, -1.24727504e-03,
       6.85076462e-03, 6.46660512e-04, -5.72552485e-03, 3.00808574e-06,
       -3.09339305e-03, -2.87222653e-03, 1.07464509e-03, 4.93406225e-03,
       1.55593688e-03, 5.42827649e-03, -5.13531780e-03, 6.17922982e-04,
       6.43059192e-03, 4.30358993e-03, -1.18197652e-03, 1.80057168e-03,
       -4.12902376e-03, -1.91502972e-03, 4.56057489e-03, -1.04212930e-04,
       -4.98884497e-03, -5.82696288e-04, -2.13096803e-03, 3.75378481e-03,
       -1.71754789e-03, 6.34667184e-03, 7.87686557e-04, 2.86729541e-03,
       -3.33814649e-03, -5.31855179e-03, -2.76158622e-04, 5.65774099e-04,
       -4.46448941e-03, 7.44645763e-03, 1.48512481e-04, -2.89143994e-03,
       -1.03988743e-03, -4.16515209e-03, -1.43022160e-03, 1.47036088e-04,
       8.63662735e-03, -5.91310556e-04, -4.29035584e-03, 1.01324229e-03,
       2.24041039e-04, -6.37133792e-03, -1.94075605e-04, -6.06366526e-03,
       -3.57110216e-03, -1.08646473e-03, 1.04787414e-05, 1.20095606e-03,
       4.51702252e-03, -6.38156384e-03, -3.37023404e-03, -6.02857303e-03,
       -4.23195568e-04, 2.82389903e-03, 8.40839837e-03, 5.49292751e-03,
       4.13182005e-03, 2.51285685e-03, -2.31781323e-03, -9.93507449e-03,
       4.62068897e-03, 1.40413432e-03, -3.01454403e-03, 2.60101026e-03,
       -1.24443357e-03, -4.75035654e-03, -2.27172815e-04, 2.10383348e-03,
       -3.75063438e-03, -5.47826318e-08, 2.75286916e-03, 5.43169794e-04,
       -9.28888191e-03, 8.35371393e-05, -3.40614910e-03, -4.00916208e-03,
       4.30903258e-03, 1.87598285e-03, 8.53255857e-03, -4.16238653e-03,
       5.44000976e-03, 3.58407060e-03, -1.52853504e-03, -2.94083613e-03,
       -7.40738399e-03, 1.82273670e-03, -6.79348316e-03, -3.70120606e-03,
       2.80938251e-03, 6.85534347e-03, 1.02426251e-02, 2.35250453e-03,
       7.23117404e-03, -3.77131999e-03, 4.50657262e-03, 4.09041997e-03,
       5.48843108e-03, 1.90108246e-03, -7.14934606e-04, -5.19668730e-03,
       -2.93736625e-03, -1.02964602e-02, -4.73904377e-03, 8.50114413e-03,
       5.04344096e-03, 3.62932053e-03, 2.25110445e-03, 3.07793170e-03,
       1.02548040e-02, -1.38715899e-03, -5.53107355e-03, -3.40998662e-03,
       5.00158919e-03, -1.99783919e-03, -4.98983404e-03, -7.69018568e-03,
       6.98010670e-03, 7.30525004e-03, -4.37660981e-03, -1.09243784e-02,
       3.42614646e-03, 5.36589650e-03, 6.80385390e-03, -3.94096551e-03,
       -1.96446758e-03, -1.87765073e-03, 2.14136858e-03, -4.03264118e-03,
       8.47321749e-03, -1.54843077e-03, 6.90016896e-04, -6.92957453e-03,
       -5.41560771e-03, 5.39162988e-03, 4.78187023e-04, 1.01397431e-03,
       -3.89965018e-03, -3.71862482e-03, 1.33351143e-03, 1.42405147e-03,
       1.79884979e-03, -1.03882782e-03, -1.08609756e-03, 3.31543677e-04,
       -9.09176935e-03, -4.53945436e-03, 3.85700888e-03, 3.71836312e-03,
       1.34759890e-02, 1.36891622e-02, -1.07560249e-03, -1.85229140e-03,
       -2.15296890e-03, 2.99406005e-03, -4.29793028e-03, -2.47856183e-03,
       -4.01003798e-03, -1.67391403e-03, -1.87168422e-03,
       -1.68792519e-03, 1.56569900e-03, 1.40066288e-04, -7.09206844e-03,
       -1.11613015e-03, 6.88603939e-03, 1.40188879e-03, 4.86398814e-03,
       2.92091514e-03, 4.79699764e-03, -7.57646235e-03, 4.18080762e-03,
       1.51038135e-03, -3.30257765e-03, -5.18808654e-03, 2.09571887e-03,
       7.52753811e-03, 3.78808938e-03, -3.93417710e-03, -5.71089750e-03,
       6.89650280e-03, 8.35887715e-03, 8.32459074e-04, 8.93071934e-04,
       4.76220995e-03, 8.62570188e-04, 1.08116459e-04, -2.87768152e-03,
       -7.32293213e-03, -2.25711032e-03, 7.70953775e-04, 7.36379239e-04,
       5.81172062e-04, -4.97670332e-03, 3.08536203e-03, -4.09169681e-03,
       -4.89008566e-03, -4.61122021e-03, -4.36822040e-04,
       -8.30127741e-04, 3.58180632e-03, -2.66973465e-03, -8.73675570e-04,
       -3.31686181e-03, -5.11864526e-03, -3.76005867e-03,
       -1.63205620e-03, 2.42775888e-03, 2.33470136e-03, 5.04820840e-03,
       -3.87313589e-03, 7.74473185e-03, 1.34766079e-03, 2.40206183e-03,
       2.60806782e-03, -6.56377245e-03, -5.75341575e-04, -3.43362056e-03,
       -1.18540705e-03, -4.51438176e-03, 3.40270880e-03, 3.46484082e-03,
       6.45799050e-03, 2.92549899e-04, 4.69993334e-03, 5.84486756e-04,
       7.49555416e-04, 4.24288120e-03, -3.13375704e-03, -8.05492746e-04,
       -7.26725860e-03, -3.99896409e-03, 2.19604932e-03, -1.03904470e-03,
       7.22870114e-04, -1.14407740e-03, -2.51181746e-07, 5.08967135e-03,
       -3.00035835e-03, 1.60301244e-03, -3.63737834e-03, 5.70485543e-04,
       -5.19552082e-03, 4.02348861e-03, -4.98135481e-03, -1.12234429e-03,
       -3.04685417e-03, 1.65529922e-03, 2.26130686e-03, 6.40442176e-03,
       7.57449830e-04, -6.14784658e-03, 1.14672929e-02, -1.89686054e-03,
       1.79293880e-03, -5.14143139e-05, -2.48087547e-03, -8.70719086e-03,
       -1.90804864e-03, -9.83677339e-04, 2.63727340e-03, -2.34421249e-03,
       -8.56208988e-03, -2.02947133e-03, -3.47810169e-03, 2.02054577e-03,
       4.81290137e-03, 8.84811525e-05, 3.07397614e-03, -3.32084182e-03,
       -5.16636297e-03, -8.19305889e-03, -1.02396391e-03,
       -6.85052620e-03, 6.20769430e-03, -4.09298996e-03, -6.98211184e-03,
       -2.56626081e-05, -2.00707675e-03, 8.36589094e-03, 3.94558860e-03,
       -6.48029905e-04, 7.84238521e-03, 2.23081000e-03, -6.98327785e-03,
       4.07867134e-03, 5.43937925e-03, -6.89406553e-03, 2.85746367e-03,
       5.60348248e-03, 5.45699382e-03, -1.01869181e-03, 5.96851576e-03,
       -9.01920197e-04, 8.10180604e-03, -3.13268014e-04, -2.18607765e-03,
       1.30563939e-03, -3.32633476e-03, -2.49197125e-03, -1.01599020e-04,
       2.89185997e-03, -5.38760237e-03, -3.97993717e-03, -1.27020571e-03,
       -8.44155904e-03, 8.79358675e-04, 1.53048884e-03, 1.31784950e-03,
       -1.50052737e-03, 6.60616718e-03, -1.71918073e-03, 1.02729979e-03,
       -2.69040582e-03, -3.15841549e-04, -3.60016507e-04, 9.10549308e-04,
       6.01242809e-03, 2.81002442e-03, 1.76430878e-03, -2.24256958e-03,
       6.15341682e-03, 1.32696657e-03, 1.77013484e-04, -2.96908873e-03,
       8.83341054e-05, 8.25655181e-03, -8.32035905e-04, 5.08737809e-04,
       2.33286968e-03, 1.42244971e-03, 1.25596754e-03, -7.11665163e-03,
       -1.32312730e-03, 2.02653301e-03, 4.35695518e-03, 3.04942741e-03,
       2.97095161e-03, -4.73262789e-03, 2.65066675e-03, -4.59347211e-04,
       -5.86769870e-03, -7.56012835e-03, -6.34481316e-04, 9.44794063e-03,
       1.45494170e-03, -2.82563549e-03, -7.51643069e-03, 3.98006901e-04,
       3.99145903e-03, -2.61718081e-03, -9.20760649e-05, 1.68159313e-04,
       7.58151570e-03, 3.69375385e-03, 4.25041048e-03, -9.67425061e-04,
       3.83197935e-03, 3.90504999e-03, -3.54204513e-03, 4.93257679e-03,
       -2.76833703e-03, -4.21899697e-03, 1.54332898e-03, 5.52340364e-03,
       1.07898423e-03, 1.47152029e-03, 4.94592730e-03, 1.36330444e-03,
       3.10839457e-03, -3.25949909e-03, 7.29204202e-03, 3.18687572e-03,
       4.40339465e-03, -5.98612987e-03, -9.74658970e-03, 2.15640059e-03,
       1.22547208e-03, 7.11126346e-03, -3.34893656e-03, 6.77406380e-04,
       -3.75921698e-03, 6.68364170e-04, -2.21880153e-03, -5.64867724e-03,
       1.85025472e-03, -3.83903179e-03, 5.07396508e-05, -5.60805388e-03,
       6.52406947e-04, -4.23921127e-04, 5.57851326e-03, 7.27898022e-03,
       9.18804551e-04, 5.47634205e-03, -6.43743761e-03, -2.63224985e-03,
       -7.68748671e-03, 4.11955407e-03, -9.06527217e-04, 1.46644697e-05,
       1.62201154e-03, -3.32512660e-04, 4.48410213e-03, 1.48855720e-03,
       1.71635731e-03, -1.94295694e-03, 4.89363447e-03, -4.29365411e-03,
       -2.17067008e-03, 9.45918728e-04, 6.07276161e-04, 4.57127858e-03,
       -6.51332829e-03, 2.83228606e-03, -7.14483811e-03, 3.91629199e-03,
       -6.02115458e-03, -4.69000312e-03, 6.05459791e-04, 3.60327540e-03,
       -9.95284133e-03, -4.25736001e-03, 3.86146014e-03, -9.58967209e-03,
       5.38707525e-03, 2.88216723e-03, 3.10984626e-03, 3.24517977e-03,
       -2.02258048e-03, 7.18836745e-05, -3.66663153e-04, 5.20457746e-03,
       -6.69706007e-03, 4.01566329e-04, 5.18393563e-03, 2.23310641e-03,
       -1.44487666e-03, -8.94293131e-04, -3.88276414e-03, 3.54891783e-03,
       5.14587434e-03, -7.59966718e-03, 9.06096306e-03, -6.01774035e-03,
       2.75856466e-03, 5.11312531e-03, 2.49537569e-03, -8.42364877e-03,
       5.38289500e-03, 6.65790681e-03, -8.64764152e-04, 5.04604634e-03,
       8.66149610e-04, 2.25712731e-03, 2.18279404e-03, 4.46283584e-03,
       -2.08960916e-03, -2.99886288e-03, 1.18623240e-04, -5.22083323e-03,
       -3.50604323e-03, 1.79393275e-03, 6.53594220e-03, 3.77422711e-03,
       3.72356130e-03, -5.89453103e-03, 3.12410411e-04, -4.48679406e-04,
       -4.52777604e-03, 3.83615879e-05, -8.06855911e-04, 3.95768415e-03,
       -1.34076888e-03, 5.30595891e-03, -1.80586870e-03, 4.91747027e-03,
       5.49626537e-03, 9.17988480e-04, 3.50644393e-03, 7.81707838e-03,
       1.16649887e-03, 1.87544362e-03, 5.13631525e-03, -9.46990549e-05,
       -7.59222894e-04, 2.00238591e-03, -2.76412256e-03, 1.63232093e-04,
       -2.43165507e-03, 6.24688901e-03, 6.54407486e-04, 7.27406237e-04,
       -3.84937762e-03, 3.95121472e-03, 1.16993347e-03, 2.52609374e-03,
       -1.65208254e-03, -6.84259646e-03, -2.32849084e-03,
       -1.68568594e-03, 6.99146930e-03, 1.55307900e-03, -3.13566066e-03,
       6.77312259e-03, 1.03852320e-02, 6.59928238e-03, 1.72014732e-03,
       -5.29934093e-03, -4.98929387e-03, 3.16506741e-03, -2.30369531e-03,
       4.39565536e-03, -3.01341224e-03, -8.53116449e-04, -3.27883754e-03,
       1.92121006e-04, 5.20078279e-03, 3.37064755e-03, 1.84763572e-03,
       3.12137441e-03, -7.47542316e-03, 4.62199678e-05, -3.38870194e-03,
       3.07671237e-03, 4.07360587e-03, 3.25729582e-03, 1.16181292e-03,
       -1.04149885e-03, -4.52172058e-03, 7.82833784e-04, 6.22264761e-03,
       5.15109114e-03, 1.35646493e-03, -3.87727196e-05, -6.08503213e-03,
       4.31547335e-07, 3.82608792e-04, -1.39264390e-04, 1.27185450e-03,
       5.23432577e-03, -5.10842074e-04, -7.50194490e-03, -2.15041381e-03,
       -5.01673715e-03, -1.94787513e-03, -5.58592845e-04,
       -4.37641545e-04, -4.88805538e-03, -3.45840794e-03,
       -6.57619676e-03, -3.07586463e-03, 5.31519530e-03, -5.68058982e-04,
       2.06936453e-03, -1.05483783e-03, -2.81448825e-03, 2.02844013e-03,
       -7.81075680e-04, -6.46799896e-03, -5.07088192e-03, 1.10560167e-03,
       -1.26784213e-03, -5.21530630e-03, -3.71166272e-03, 2.92157312e-03,
       4.03435063e-03, 1.33469915e-02, 4.86218277e-03, -2.36458145e-03,
       3.20604607e-03, -2.69830367e-03, 1.84735470e-03, 1.81720802e-03,
       -8.38131993e-04, -2.27405480e-03, -2.94755283e-03,
       -5.78707643e-03, -3.45290056e-03, -4.89691098e-04,
       -1.01288606e-03, 7.10264198e-04, 3.82037065e-03, -5.44406357e-04,
       5.14470367e-03, 9.64608043e-03, -1.91399432e-03, -4.65140864e-03,
       2.53990665e-03, -7.34060863e-03, -4.26187093e-04, -3.88653507e-03,
       5.08629391e-03, -6.88631460e-03, -5.02607320e-03, -5.40956901e-03,
       -2.75216647e-03, 3.21063417e-04, -1.92026072e-03, 1.98589498e-03,
       -1.80699583e-03, -6.99571287e-03, -2.52924539e-04,
       -2.04466656e-03, -3.00399959e-04, 4.12929803e-03, 3.25590896e-04,
       3.10422713e-03, 3.75194987e-03, 8.01998284e-03, -2.51517724e-03,
       -8.01762007e-03, 3.31195595e-04, 6.72099704e-04, 8.18482693e-03,
       7.79862888e-03, 5.34530962e-03, 2.09736498e-03, -2.37604836e-04,
       -6.48835860e-03, -9.26542925e-05, 1.83401025e-05, -2.24425644e-03,
       -1.91028381e-03, 1.33070443e-03, -9.14819480e-04, 4.95559652e-04,
       3.05610360e-03, -5.85052883e-03, 3.82064027e-03, 3.14904284e-03,
       -1.62989876e-04, -4.14930721e-04, 6.98098587e-03, 5.40894410e-03,
       2.77633523e-03, -3.48158227e-03, -5.35144983e-03, -6.82120165e-03,
       -3.60493339e-03, -1.23356504e-03, 1.62468094e-03, 3.55583127e-03,
       -1.07177347e-03, 1.14921271e-03, 5.96956990e-04, 9.45246778e-04,
       -3.62750771e-03, 2.21698266e-03, -1.94924802e-03, -3.81709472e-03,
       -9.58715158e-04, -3.05964681e-03, -6.68236869e-04, 1.61666248e-03,
       1.43055629e-03, 1.51846197e-03, -3.21276835e-03, -3.34896031e-03,
       -3.61658807e-04, 3.47614940e-03, 2.30503781e-03, 1.79822254e-03,
       -6.53826981e-04, -6.71409909e-03, -3.38952476e-03,
       -2.74697412e-03, 9.47942084e-04, 2.77163438e-03, 7.30170729e-03,
       5.37751149e-03, 4.20744065e-04, -1.89674937e-03, -8.86688754e-03,
       6.67668181e-04, 2.60174484e-03, -2.40651541e-03, -1.02962011e-04,
       -5.36598731e-04, 1.32075348e-03, 5.43045765e-03, 1.23289530e-03,
       1.48162758e-03, -4.73958068e-03, -3.54991620e-03, -3.64417210e-04,
       2.39280472e-03, 3.70437023e-03, -3.09020909e-03, -1.43607540e-04,
       2.45460868e-03, 3.72444862e-03, 1.17543747e-03, 3.36772483e-03,
       -3.93806578e-04, -9.91909066e-04, -1.63973554e-03, 4.61769244e-03,
       4.77886060e-03, -9.70768044e-04, -3.98716424e-03, -4.48435452e-03,
       2.02923338e-03, 5.18057495e-03, 2.99566938e-03, -1.09234860e-03,
       5.73272351e-03, 5.74658811e-03, -1.27166670e-04, -7.95969460e-03,
       -3.58390505e-03, -1.85651262e-03, -3.78185860e-03, 1.31078705e-03,
       2.37567164e-03, 1.32758252e-03, -3.13135970e-04, 2.42442498e-03,
       -2.81995395e-03, -6.32745633e-03, 1.30208593e-03, -4.15029796e-03,
       -6.39736606e-03, -6.33025914e-03, 7.42483931e-03, -1.04879763e-03,
       -1.22316391e-03, -8.39716196e-03, 4.10031714e-03, -2.58353609e-03,
       3.17925494e-03, 1.48092292e-03, 2.49696127e-03, 3.28067876e-03,
       -1.89204188e-03, -1.85746339e-03, -3.49452789e-03, 6.63202070e-03,
       -7.50772655e-03, 1.83635880e-03, 1.98257156e-03, -1.70094834e-03,
       3.49193462e-03, 1.21658505e-03, -3.13856010e-03, -8.03985226e-04,
       -4.25902056e-03, 2.68238992e-03, 2.40833312e-03, -1.98297016e-03,
       1.57935254e-03, 5.08739939e-03, 4.27521812e-03, 2.14483310e-03,
       -7.03851227e-03, -6.31577987e-03, -1.13743427e-03, 4.03222721e-03,
       1.24673441e-03, -1.08168577e-03, -6.87290821e-03, -4.18558856e-03,
       -6.90462766e-04, -4.90692118e-03, 6.62380271e-03, 4.15795599e-04,
       1.37829024e-03, -2.41836091e-03, 4.83489502e-03, 5.32014856e-05,
       4.43577673e-03, 7.19464151e-04, 1.31763110e-03, 1.46278576e-03,
       5.64757975e-05, -7.93159066e-04, 2.34371226e-04, 4.06142278e-03,
       -2.59612198e-03, 3.26212117e-04, 9.12534524e-05, 8.56780272e-04,
       -1.01712411e-02, 4.57166648e-03, 6.31497055e-03, 4.39413683e-03,
       1.33103132e-03, 1.08254817e-03, -3.71284143e-04, 4.21116315e-03,
       -2.66794022e-03, 2.82195094e-03, 2.95424904e-03, 3.92843969e-03,
       -2.63415929e-03, 7.28564011e-03, 8.23002122e-03, 3.26506561e-03,
       4.78522945e-03, 4.51377680e-04, -1.72286469e-04, 7.47088226e-04,
       -2.61326251e-03, 7.89838843e-04, 6.09784108e-03, 3.85232270e-03,
       1.14349904e-03, 2.43299830e-04, 2.49335356e-03, 1.97432307e-03,
       2.90849409e-03, -2.71006371e-04, -3.25533864e-03, 1.60664087e-03,
       2.46624020e-03, -2.47816532e-03, -2.80987355e-03, -3.73642589e-03,
       1.60076318e-03, 1.12560391e-03, -4.24319092e-04, -5.56683401e-03,
       6.38840161e-03, 6.48422539e-03, 1.75360159e-03, -2.71275709e-03,
       2.82752863e-03, 1.27967773e-03, 5.18146763e-03, 3.11004627e-03,
       -3.09550250e-03, -1.93655072e-03, 2.55559990e-03, -6.10874780e-03,
       -8.30507744e-03, 3.96781415e-03, -6.95391383e-04, 3.56866221e-04,
       2.43552634e-03, -3.15287849e-03, 5.50927874e-03, -1.48921029e-03,
       -3.98353208e-03, -2.31712032e-03, 5.93889877e-03, -1.03855983e-03,
       -2.38680071e-03, 2.31989287e-03, 6.07894920e-03, -1.52606255e-04,
       -1.36830239e-03, -2.20073294e-03, 9.78462398e-04, 1.27251516e-03,
       7.58692971e-04, 6.63163885e-03, -6.30956667e-04, -4.27373312e-03,
       4.16838238e-03, 1.96114136e-03, -4.53182543e-03, -1.32196164e-03,
       2.93741561e-03, 4.39415133e-04, 2.52367882e-03, -1.64292136e-03,
       -1.06614141e-03, -5.37304534e-03, -1.07138660e-02,
       -2.05200072e-03, 4.28294623e-03, 2.47757556e-03, -4.18397249e-04,
       -3.51669756e-03, 4.22852812e-03, 1.67407165e-03, 5.74226631e-03,
       2.29222025e-03, 1.76754978e-03, 7.56215421e-04, 3.09994607e-03,
       -1.22946128e-03, -5.51440846e-03, 1.24297570e-03, 4.43314086e-04,
       -5.29712951e-03, -1.93208782e-03, 6.16635196e-03, 4.53606853e-03,
       -8.29213299e-04, -2.66857369e-05, -5.58647502e-04,
       -4.34726290e-03, 2.83488276e-04, 3.81086464e-03, -8.78384057e-03,
       -2.48011923e-03, 3.59207415e-03, -2.91397446e-03, 4.73269698e-04,
       5.53573202e-03, -6.15824712e-03, -1.92551652e-03, -7.67273363e-03,
       -3.36449989e-03, -4.94554220e-03, 3.24708584e-04, 2.72940169e-03,
       -7.99897418e-04, -2.54015275e-03, 1.61474221e-03, -1.15118187e-03,
       9.24059283e-03, 1.37155445e-03, 7.88875017e-03, 8.16524588e-03,
       -2.26274971e-03, 1.30607965e-04, 6.77263131e-03, 2.07510008e-03,
       -3.42820073e-03, 3.13154684e-04, -1.36220211e-03, 4.04283497e-03,
       8.87208059e-03, -2.03007436e-03, -3.16605275e-03, 9.94974398e-04,
       -1.52200600e-03, 7.71665946e-04, -7.76906591e-03, -2.31145718e-03,
       -5.42978803e-03, 1.08634669e-03, 3.88123817e-03, 4.18379065e-03,
       -1.92765647e-03, -8.77503480e-04, -3.51230172e-03,
       -4.15107980e-03, -1.19621900e-03, -6.04406651e-03,
       -3.95670068e-03, 4.28668223e-03, -9.38186701e-03, 6.32277457e-03,
       6.93516992e-03, 6.32989407e-03, 6.02789642e-03, -1.94628898e-03,
       -2.48949043e-04, 8.08558054e-03, -6.53327350e-03, -6.69965753e-03,
       -5.43182774e-04, 6.25162385e-03, 4.67204908e-03, 3.38451052e-03,
       -3.40860832e-04, -3.75021342e-03, -1.04551646e-03,
       -2.44920584e-03, -4.48061299e-04, 4.37095668e-03, -1.08870724e-03,
       -3.96424485e-03, 4.28644940e-03, 4.06471128e-03, -6.52273186e-03,
       -9.22396965e-03, 1.75446505e-04, 3.14128702e-03, 3.67011642e-03,
       3.59970517e-03, -4.92937677e-03, -6.99293055e-03, -1.36287976e-03,
       -8.92403295e-06, -4.74432157e-03, -1.57333154e-03, 1.14860572e-03,
       3.30275018e-03, -3.35795176e-03, -5.54805389e-03, -2.23707710e-03,
       6.07837318e-03, -1.06567761e-03, 8.81777378e-04, 2.19111540e-03,
       6.79546429e-05, 5.00115054e-03, 6.04420435e-03, -5.45657065e-04,
       -4.93161380e-03, 8.12822895e-04, -1.61135569e-03, -1.05149916e-03,
       -4.44310764e-03, -4.11509536e-03, 1.99744187e-04, 3.72953876e-03,
       -3.72306281e-03, 2.50164070e-03, -9.25179920e-04, 2.22745119e-03,
       3.89733643e-04, -8.05930700e-03, -3.83323478e-03, -9.67096770e-04,
       2.12843763e-03, -8.42757232e-04, -2.46585347e-03, 6.88967179e-04,
       -1.75827963e-03, 1.93145941e-03, -9.66160907e-04, -8.98382859e-04,
       -1.94328418e-03, 1.48147391e-03, 6.49036490e-04, 9.76423640e-03,
       2.94994679e-03, 4.37346194e-03, 6.39090734e-03, -4.94724372e-03,
       -9.11698909e-04, -4.43912158e-03, -3.38827702e-03, 8.86646099e-03,
       4.93018655e-03, -1.68810994e-03, -2.28394545e-03, 5.00080234e-04,
       2.36445921e-03, -1.82285334e-03, -2.35650968e-03, -8.45565868e-04,
       -3.30785988e-03, -1.01700239e-03, -4.96148481e-04,
       -2.84783356e-03, -5.38639608e-04, 9.06165864e-04, 4.64086793e-03,
       2.40327767e-03, 4.48603136e-03, 3.14077362e-03, 5.11646271e-03,
       1.72346004e-03, 1.39673240e-03, -8.77223257e-03, 9.37294681e-03,
       -1.83179311e-03, 7.20601645e-04, -3.63437482e-03, -1.76108372e-03,
       -1.87534228e-04, -5.67101873e-03, -3.32078710e-03,
       -3.33920424e-03, 1.53638178e-03, -5.36682666e-04, 3.76872835e-04,
       -6.00342639e-04, 3.86065745e-04, -4.49699862e-03, 9.97183472e-03,
       5.37013030e-03, 4.91598435e-03, 4.23959503e-03, 1.35468843e-03,
       4.88112774e-03, 1.53076253e-03, 5.32155856e-04, 5.94450207e-03,
       1.53013889e-03, 1.18314572e-04, -3.31652956e-03, 1.58719439e-03,
       -2.31582846e-04, 1.19504388e-02, 2.68154754e-03, 1.12231285e-03,
       5.06713381e-03, -3.18043143e-03, 2.37945700e-03, 3.90887167e-03,
       -2.02771113e-03, -2.45985691e-03, -3.39154154e-03,
       -7.59238936e-03, -6.17516739e-03, 2.31164554e-03, 7.11225113e-03,
       3.96940019e-03, 1.47910687e-05, 9.60739097e-04, 4.27833525e-03,
       7.92816840e-03, -4.48303483e-03, -6.25488115e-03, 5.87856770e-03,
       2.84641655e-03, 3.62414238e-03, 6.35495363e-03, 3.05640302e-03,
       -5.98714862e-04, 1.42909726e-02, 1.08564030e-02, -1.73436501e-03,
       -2.26321790e-04, 8.18811078e-03, 1.01811271e-02, 7.12535949e-03,
       -2.94749625e-03, 2.18545273e-03, 7.26036495e-03, 5.35584660e-03,
       -3.36813135e-03, 2.00294494e-03, -7.43230514e-04, -1.07424171e-03,
       -9.93737252e-04, -2.10631406e-03, -1.69793819e-03, 6.76208828e-03,
       -1.38451741e-03, -5.34484768e-03, 4.44568926e-04, 4.18886635e-03,
       3.14495992e-03, -8.92845739e-04, 2.34304159e-03, 1.20019959e-03,
       8.09982233e-03, 4.26727068e-03, 3.98328062e-03, 7.63870915e-03,
       -1.47385523e-03, -3.51441582e-03, -9.30900406e-03, 2.50686333e-03,
       1.12535739e-02, 1.01523055e-02, 8.92604887e-03, -8.03487026e-04,
       -8.23447760e-03, -1.48310396e-03, 1.35116116e-03, 8.34624376e-03,
       9.94875748e-03, 4.39172704e-03, 9.70226421e-04, 9.81769335e-06,
       -2.69544264e-03, 1.69180485e-03, -1.02509558e-03, 3.86140496e-03,
       5.36888978e-03, 1.58517447e-03, 2.16407725e-03, 1.78037782e-03,
       -1.70014426e-03, 6.88701344e-04, -7.96085782e-03, -5.26089221e-03,
       -7.96655135e-04, 4.85663535e-03, 7.77089782e-03, -7.24116759e-03,
       -7.26610515e-03, -7.87088275e-03, -2.17728066e-05, 2.41943169e-03,
       -2.32447078e-03, -2.76877754e-03, -5.22117317e-03, 4.82032029e-03,
       7.98616838e-03, -3.51562514e-04, 1.63660792e-03, -2.38437162e-04,
       -2.38880119e-03, -3.93008161e-03, -2.78489431e-03, 5.68428123e-03,
       5.32980496e-03, 8.62807687e-03, -5.41824708e-03, -8.84756353e-03,
       -1.74139219e-03, -2.98297079e-03, -1.09021144e-04,
       -1.99835561e-03, 6.57538651e-03, 6.79559261e-03, -6.86531002e-03,
       -1.13073108e-03, 1.62921427e-03, 2.43375980e-04, 1.98611990e-03,
       -4.89267381e-03, -1.43260695e-02, -1.39150890e-02, 4.13664151e-03,
       -9.06834379e-03, -4.07095591e-04, -3.14179645e-03,
       -6.59853267e-03, -4.51662717e-03, -8.98575503e-03,
       -2.70284479e-03, -8.07456952e-03, 5.36427926e-03, 2.53579835e-03,
       -4.83532902e-03, -7.04515679e-03, -3.30883847e-03,
       -1.35438156e-03, 1.05615216e-03, -2.61325715e-03, -2.82851956e-03,
       5.85091591e-04, 7.86251295e-03, -3.52997100e-03, -8.13828502e-03,
       -5.44831157e-04, 6.98936917e-03, 3.19356634e-03, -2.76395725e-03,
       -4.85348562e-03, -1.17258169e-03, -8.57603853e-04,
       -4.09281068e-03, -9.20807885e-04, -5.97016048e-03, 3.72754701e-04,
       -3.36082256e-03, -2.13100619e-04, -3.86806228e-03, 3.68572283e-03,
       -1.92623920e-04, 1.98259437e-03, 7.19532464e-03, 1.20863831e-02,
       1.76183577e-03, 5.63555537e-03, 4.40608856e-04, 4.14302712e-03,
       -8.33373866e-04, 2.58705951e-03, -6.03570323e-03, -4.38121380e-03,
       2.13930919e-03, 2.66860909e-04, 5.29934885e-03, 1.33719400e-03,
       -2.31210911e-03, -2.72273296e-03, 3.23525071e-03, -7.33540161e-03,
       -4.81347181e-03, -1.67696632e-03, -5.55354031e-03, 2.45779194e-03,
       -2.80557200e-03, -1.10891676e-02, 1.44010631e-03, 5.28294593e-03,
       -1.61022588e-03, 3.85258114e-03, 2.82012904e-03, -2.47539254e-04,
       2.33398448e-03, 3.27686942e-03, -5.45655785e-04, 3.73948831e-03,
       -1.21019660e-02, 1.27757480e-02, 9.19756200e-03, 6.22296939e-03,
       2.21422012e-03, -2.45675590e-04, 3.07278032e-03, -4.45731264e-03,
       6.39448734e-03, 7.64912460e-03, -3.28014884e-03, -5.17498748e-03,
       -2.67376425e-04, -4.28728154e-03, -6.46054919e-04,
       -4.42115543e-03, -1.11122718e-02, -4.32603713e-03, 9.56611615e-03,
       -5.46321413e-03, -6.25274982e-03, -2.51911720e-03,
       -2.81140069e-03, 5.43968519e-04, -5.82830887e-03, -8.58830288e-03,
       2.51571205e-03, 1.02995513e-02, 8.90131947e-03, 9.85336117e-03,
       8.38351902e-03, 7.12136179e-03, -1.34226377e-03, 2.71607959e-03,
       -4.98835184e-03, 4.70189843e-03, 4.62333951e-03, 2.80270609e-03,
       -5.34274208e-04, 4.67341719e-03, 2.25338410e-03, -3.46963364e-03,
       4.82439762e-03, -1.67289854e-03, 6.83201849e-03, -2.58764764e-03,
       -9.45085194e-03, -6.60907151e-03, -4.86832997e-03,
       -1.77152315e-03, -4.65715909e-03, -1.34775368e-02,
       -7.31801242e-03, 1.32957078e-03, -1.52213126e-03, -8.23271833e-03,
       -3.34345317e-03, -2.37630727e-03, -5.35451458e-04,
       -1.44158043e-02, -3.62491421e-03, -2.51695025e-03, 8.23826157e-03,
       1.53063992e-02, -7.73338275e-03, -1.14853326e-02, -1.38090812e-02,
       -4.17858642e-03, -1.16814552e-02, 1.01715941e-02, 2.93123594e-04,
       1.76154338e-02, 1.08468095e-02, -1.05509963e-02, -1.15994988e-02,
       -1.48083363e-02, -7.41870375e-03, -2.51053516e-02, 1.26287313e-02,
       1.60832908e-02, 7.50285760e-03, 4.73170402e-03, -3.12258885e-03,
       -3.87244462e-03, 3.14582372e-04, -7.60163739e-03, -8.10178276e-03,
       1.15220854e-03, 9.24550579e-04, 1.42755322e-02, -2.16413452e-03,
       -6.51519978e-03, -6.09289343e-03, 2.06342735e-03, -6.07307814e-03,
       -8.20018537e-03, -8.50681216e-03, -4.63477895e-03, 6.66690525e-03,
       2.64222501e-03, -8.80645774e-03, -4.43735952e-03, -6.74059615e-03,
       -1.85799114e-02, -7.65262824e-03, 2.07831878e-02, 2.81103589e-02,
       -4.75514476e-04, -1.28289154e-02, -8.54208134e-03,
       -3.63405049e-03, -4.12146049e-03, -5.54262660e-04,
       -2.35258439e-03, 1.30247129e-02, 6.10147230e-03, 5.44851719e-05,
       -4.71524149e-03, -4.72924206e-03, 1.62141328e-03, -4.90031205e-04,
       -1.90694444e-03, -7.66590703e-03, -1.00179780e-02,
       -7.17031863e-03, -6.22919155e-03, 3.12061398e-03, 6.07075403e-03,
       1.13786599e-02, 1.34901682e-04, -2.73545831e-03, -3.61785595e-03,
       -4.33534943e-03, -5.03320433e-03, 5.95591089e-04, -1.11249611e-02,
       4.58914274e-03, 1.03375111e-02, -7.04394700e-03, -2.16588681e-03,
       -6.04113890e-03, 1.09521160e-02, 7.60425255e-03, -7.66694546e-03,
       -1.86683296e-03, 2.59690862e-02, 3.16728279e-02, 7.69968471e-03,
       8.10787454e-03, -3.46301799e-03, 3.59769864e-03, -5.48438122e-03,
       6.95723062e-03, 2.77277990e-03, -4.02528886e-03, -1.06851780e-03,
       -3.21306963e-03, -7.72755360e-03, -1.76215626e-03,
       -2.43350957e-03, -8.12871009e-03, -6.06831722e-03, 1.02341445e-02,
       -1.23166787e-02, -1.37533080e-02, -6.47942116e-03,
       -7.38132093e-03, -4.34443867e-03, -3.81421624e-03,
       -1.26513904e-02, 5.67933125e-03, 3.97680467e-03, 9.93482769e-03,
       2.54278276e-02, 1.95506099e-03, 5.64197218e-03, -2.54522474e-03,
       -1.88799703e-03, -1.28301745e-02, 1.95690256e-04, -1.31576124e-03,
       1.88824954e-03, 8.76596291e-03, -7.17199827e-03, 3.08694178e-03,
       -4.78286995e-03, 1.24204773e-04, -1.60747040e-02, 8.75420123e-03,
       7.53060263e-03, -1.25120468e-02, -1.36730131e-02, -2.21074629e-03,
       -1.09912781e-03, -6.33518770e-03, -5.82206063e-03,
       -1.05223497e-02, 5.79525437e-03, -5.94380219e-03, -1.10043287e-02,
       -9.99375246e-03, -5.58839692e-03, -9.58311372e-03, 4.61752247e-03,
       -2.15916615e-03, -8.54549929e-03, -4.66967979e-03, 4.33791475e-03,
       7.01263454e-03, 7.67046958e-03, -6.59653917e-03, 1.66414201e-03,
       -9.08996630e-03, -6.34247623e-03, -1.46903107e-02, 1.03547229e-02,
       -1.07938834e-02, 1.18668480e-02, 9.37174540e-03, -1.22779533e-02,
       -5.93873010e-05, -3.83537845e-03, -9.99859627e-03,
       -9.67603922e-03, -3.35024088e-03, 2.50592339e-03, -9.70207341e-03,
       -3.96789424e-03, -7.91120995e-03, -3.11065256e-03, 2.55836698e-04,
       -3.58690321e-03, -1.19405715e-02, 5.52031863e-03, -3.49259865e-03,
       -1.36170350e-02, -9.25893430e-03, -5.67134703e-03,
       -4.76547377e-03, 2.96133920e-04, -4.34682705e-03, -8.88339337e-03,
       3.55704501e-03, -3.84607411e-04, 5.70677081e-03, 8.11947137e-03,
       -1.35275554e-02, 2.54779682e-03, 1.19930875e-04, -5.21979714e-03,
       -1.00516425e-02, 7.11026834e-03, 3.37776705e-03, 4.54392470e-03,
       1.99614698e-03, -9.80827212e-03, -2.91464152e-04, 6.90078596e-03,
       -2.86237500e-03, -5.37261600e-03, 1.04297372e-02, 4.21841722e-03,
       -2.35368009e-03, -2.94411345e-03, 4.10363864e-04, 1.94908911e-03,
       7.02790497e-03, 4.91443183e-03, 5.46907261e-03, 7.13784434e-03,
       2.99055991e-03, -7.99204037e-03, -5.15686208e-03, -3.57390242e-03,
       -1.50444522e-03, 3.65815312e-03, -7.18478393e-03, -5.42594166e-03,
       7.23017333e-03, 8.19084700e-03, 1.05263358e-02, 9.94966272e-03,
       3.79750412e-03, 4.38977452e-03, 1.20678935e-02, 3.44822579e-03,
       2.09563016e-03, 1.43292854e-02, -1.05205353e-03, -1.10118194e-02,
       6.24487828e-03, 8.18198361e-03, 2.15732586e-03, 2.52793310e-04,
       -6.45789644e-03, -3.97273107e-06, 2.58180522e-03, 1.04526114e-02,
       -5.08711347e-03, -2.50037364e-03, -2.30157026e-03,
       -2.74849078e-03, -4.83913068e-03, -7.60035240e-04,
       -3.81360529e-04, 1.53873302e-02, 4.37491480e-03, -5.10598253e-03,
       1.20429159e-03, 3.37279605e-04, 4.78004338e-04, -3.96095775e-03,
       2.50371336e-03, -5.43261296e-04, 2.97809672e-03, -2.94548413e-03,
       -1.54994503e-02, 4.40918468e-03, 1.57580692e-02, 3.45953531e-03,
       2.16742675e-03, 1.16821351e-02, 1.34335402e-02, 7.29488535e-03,
       6.72339229e-03, -1.13305422e-02, 1.18126196e-03, 2.72495486e-03,
       1.66686764e-03, 5.23371296e-03, 1.70030128e-02, 2.03108136e-02,
       1.18034938e-02, 9.03357379e-03, -1.06431509e-03, -6.09622849e-03,
       -5.11420332e-03, -3.06039350e-03, 9.45512147e-05, -1.80092014e-04,
       9.41791397e-04, 2.81043700e-03, 6.87536830e-03, 6.90182857e-03,
       3.95303546e-03, 2.36378959e-03, 4.82945656e-03, 8.21775640e-04,
       1.85958968e-04, -2.34376499e-03, -7.26135477e-05, 1.16049936e-02,
       -1.00727761e-02, -3.99533566e-03, -2.88264034e-03,
       -4.52708278e-04, 6.01937436e-03, 4.86983778e-03, 1.17337145e-02,
       7.36335525e-03, 8.57694168e-03, -6.76780986e-03, -2.48443219e-03,
       -4.30425862e-03, -2.41676485e-03, 1.54100056e-03, -2.07403977e-03,
       -1.07479305e-03, -2.99266167e-03, 1.31370891e-02, 3.38596222e-03,
       -4.11887234e-03, -3.57162440e-03, -5.09013655e-03,
       -9.43053281e-04, -3.86654888e-03, -3.55556095e-03, 6.68111909e-03,
       1.16943615e-02, 5.09800250e-03, -1.20361685e-03, 2.07239622e-03,
       -4.91193449e-03, 3.82225402e-03, -3.13845696e-03, -2.36049620e-03,
       7.03729689e-03, 1.57540280e-03, -1.10183815e-02, -7.89184775e-03,
       -1.11194849e-02, -1.49348676e-02, -8.45890306e-03,
       -1.13881994e-02, -3.78252054e-03, -4.97530075e-03, 8.63423571e-04,
       -1.11710057e-02, -1.25650251e-02, -7.61492993e-04,
       -9.17051174e-03, -2.63640686e-04, -8.37902166e-03,
       -9.36537329e-03, -4.70626773e-03, 1.30502768e-02, 7.85596482e-03,
       -4.83046228e-04, 1.59321411e-03, -5.79162361e-03, 4.84351628e-03,
       3.17020901e-03, 1.48159778e-03, 1.73664074e-02, 8.28906056e-03,
       3.57931876e-03, -4.24710219e-04, 1.08444376e-03, 9.81261604e-04,
       -1.27613638e-03, -2.84526101e-03, 9.63635743e-04, 1.37528926e-02,
       -2.12042267e-03, -1.13894353e-02, -3.95401800e-03,
       -8.02355571e-05, -6.94439514e-03, -1.93850941e-03,
       -2.88737775e-03, -5.96610038e-03, -7.83350226e-03, 6.29092054e-03,
       -1.25817265e-02, -2.37426977e-03, -1.95693690e-03,
       -5.93647594e-04, -8.31152033e-03, -7.81798642e-03,
       -5.19910874e-03, -8.60614236e-03, 6.82920450e-03, -2.65462254e-03,
       2.68175057e-03, 1.64943689e-03, 5.47713321e-03, 3.60916165e-04,
       -5.09566534e-03, 1.68955128e-04, 1.38487732e-02, 6.09275233e-03,
       -6.93528168e-03, 2.13244441e-03, 6.26085559e-03, 3.79223190e-03,
       -3.25221498e-03, -7.34625943e-03, -4.61471034e-03, 2.82816845e-03,
       1.02900492e-03, -9.43204481e-03, -1.17494469e-03, 1.85436173e-03,
       9.11177509e-03, -4.60063602e-04, -6.03064802e-03, -4.29435354e-03,
       -9.68232471e-03, 8.75220727e-03, -1.03131831e-02, -8.62641074e-03,
       3.81959230e-03, -4.95282188e-03, 8.09909485e-04, -5.09586092e-03,
       -3.90894664e-03, -3.20805050e-03, 1.33471899e-02, -2.27203229e-04,
       2.39045173e-03, 6.79686852e-03, 9.14053991e-03, 4.41776495e-03,
       4.28176438e-03, -2.86030141e-03, 9.15256515e-03, 4.51063691e-03,
       3.83058260e-03, 1.39622064e-03, 3.33980401e-03, 3.70805641e-03,
       1.39496231e-04, -3.12847248e-03, -5.59820980e-03, -3.68291163e-04,
       9.22223646e-03, -7.31608551e-03, -3.86372488e-03, 6.80115540e-03,
       2.65468587e-03, 9.95876826e-03, 2.11650229e-04, -4.70614480e-03,
       2.18274468e-03, 7.93385040e-03, -3.78579670e-03, -1.98144652e-03,
       6.54892437e-03, 1.52439612e-03, 6.55609975e-03, -6.32477738e-03,
       -4.68091108e-03, 6.11705193e-03, 1.21133765e-02, 3.17825261e-03,
       2.60301912e-03, 9.72713053e-04, 6.11201162e-04, 1.09384244e-03,
       -3.42889689e-03, -1.62938522e-04, 7.11641926e-03, 8.35754909e-03,
       1.99276947e-05, 1.70907762e-03, -4.53459425e-03, 2.59604305e-03,
       2.32245424e-03, -9.09925438e-03, 1.04215869e-03, 3.44952825e-03,
       -9.83603671e-03, -4.69938153e-03, 8.02475843e-04, 4.80416603e-03,
       -3.46278260e-03, 1.34715461e-03, -7.52356555e-03, -2.19812180e-04,
       -1.74683915e-03, -1.30716749e-02, -1.07988026e-02, 1.34179322e-03,
       -6.60308590e-03, -1.26616994e-03, -1.09691391e-04,
       -9.47892945e-03, -1.94235262e-03, 2.62699695e-03, 1.63938105e-02,
       -6.41350588e-03, -1.79580390e-03, -6.38170959e-03,
       -8.85127287e-04, -2.56219879e-03, -1.67159773e-02, 3.43978452e-03,
       1.53615559e-02, 1.30831106e-02, -2.79740570e-03, 3.55737912e-03,
       2.03028368e-03, 1.19792321e-03, 5.46023948e-04, -2.71229626e-04,
       1.26464823e-02, 8.73343274e-03, -1.29223224e-02, -1.41536165e-02,
       -5.59179252e-03, -1.47333173e-02, -9.69331246e-03,
       -3.63495713e-03, -1.40119130e-02, -7.47331278e-03, 3.70772858e-03,
       -1.21741882e-02, -4.99977777e-03, -7.65303615e-04,
       -1.39338784e-02, -3.66192940e-03, -7.93081243e-03,
       -1.71574336e-02, -1.13344276e-02, 6.54444518e-03, -3.58217023e-03,
       -9.07480996e-03, 1.25218800e-03, 4.47325921e-03, 8.01893510e-03,
       -3.58800963e-03, -9.80509678e-04, 2.29429221e-03, -8.87324568e-04,
       3.52810114e-03, -7.15404795e-03, 2.28471146e-03, 5.64838154e-03,
       -4.46552737e-03, -4.59401729e-03, 3.49759148e-03, 1.15505746e-02,
       1.77316240e-03, -4.10949159e-03, -4.19521844e-03, -1.57365145e-03,
       -5.73050289e-04, -1.12224579e-05, -1.43487740e-03, 2.74013449e-03,
       -7.69936619e-03, 2.06841435e-03, -3.84243042e-03, -5.35445008e-03,
       -6.89693261e-03, -4.31078719e-03, -1.00598549e-02,
       -8.60965438e-03, 5.80736389e-03, 8.97129811e-03, 4.08915104e-03,
       -7.88298622e-03, -6.62911916e-03, -2.31492170e-03,
       -1.98034453e-03, 6.86979061e-03, 2.55279243e-03, 1.13640362e-02,
       4.79770545e-03, -3.65461479e-03, -8.68682167e-04, 3.22710210e-03,
       1.42810855e-03, -3.06175277e-03, -2.48324708e-03, -1.80132431e-03,
       5.64988749e-03, 1.13831107e-02, 4.73874301e-04, -4.69287252e-03,
       -2.17984663e-04, 7.72466708e-04, -1.44774804e-03, 7.33431708e-03,
       -2.37303390e-03, 1.14208711e-02, 4.95235261e-04, -8.45155958e-03,
       -3.58645502e-03, 4.95239859e-03, 2.98033259e-03, -6.35000251e-05,
       7.65205827e-03, -4.13369620e-03, 1.13238825e-03, -1.77633553e-03,
       -2.68103951e-03, -3.56304296e-03, 2.48652324e-03, 6.94815442e-03,
       5.16254967e-03, 4.25545964e-03, -2.71015591e-03, 9.47331823e-03,
       1.00745698e-02, 1.48834821e-04, -3.82772670e-03, -3.35499761e-03,
       2.87422445e-03, 1.82393263e-03, 2.82426225e-03, -1.50526385e-03,
       1.05710758e-03, 1.01584068e-03, -1.91027427e-03, -1.75795867e-03,
       2.65550194e-03, -9.48638306e-04, 5.15662646e-03, 4.06707963e-03,
       1.30756281e-03, 6.19987212e-03, 9.76393837e-03, 1.56117848e-03,
       -1.30718644e-03, -1.56466884e-03, -4.32069134e-03,
       -3.96572379e-03, 8.61454580e-04, -1.11093011e-03, 3.23178875e-03,
       -5.54189668e-04, -1.34651258e-03, 4.07993002e-03, -6.65515312e-04,
       6.43797591e-03, 5.54384664e-03, -1.27234519e-03, 1.98419509e-03,
       6.55262091e-04, 2.15501804e-03, 2.63115321e-03, 1.91914919e-03,
       3.78342252e-03, 7.31193041e-03, 3.07738525e-03, 1.97177567e-03,
       1.69580674e-03, -1.70853641e-03, 4.25576902e-04, -1.50436966e-03,
       -1.39106205e-03, 1.67702010e-03, 7.15278601e-03, -1.57317042e-03,
       -1.02617883e-03, 1.30624350e-04, -1.18615397e-03, -3.71547067e-03,
       -8.36593565e-04, -3.95734841e-03, -1.01069314e-03, 3.71904694e-03,
       6.33488968e-03, 7.49261817e-03, 7.13011483e-03, 1.27998728e-03,
       1.16930611e-03, 7.94770953e-04, -1.90619996e-03, -1.82749587e-03,
       -1.87810045e-03, 3.77488812e-03, -1.84435572e-03, 1.28342025e-03,
       1.30222389e-03, 7.22577609e-03, -2.14062817e-03, 1.84232090e-03,
       -7.63491448e-03, -8.57179239e-03, 2.30848743e-03, -3.34528834e-03,
       -3.64873820e-04, -2.33390601e-03, 4.97197593e-03, 8.07276834e-03,
       -4.64811828e-03, -2.84394319e-03, 1.37121021e-03, -2.69465265e-03,
       -3.55039258e-03, -2.64837901e-04, -4.50228155e-03,
       -5.07271150e-04, -4.10197489e-03, -4.49631712e-04, 1.13435683e-03,
       -1.10328279e-03, -2.99028470e-03, -2.70474725e-03, 1.04868994e-03,
       3.63796693e-03, 4.60134493e-03, 1.48848840e-03, -7.96562410e-04,
       -1.69843854e-03, -2.83088558e-03, -4.38468764e-03,
       -2.27940764e-04, -4.39081527e-03, -4.70191520e-03, 4.73473361e-03,
       2.64619506e-04, 5.88028273e-03, -7.62847427e-04, -2.66199186e-03,
       8.93719553e-04, -3.01078497e-03, 4.23196657e-03, 2.77956831e-03,
       7.21934997e-03, -4.87005571e-04, 1.48491294e-03, 1.08890305e-03,
       5.18691307e-03, -1.05807069e-03, 6.66198134e-03, -2.75598350e-03,
       1.96864433e-03, 8.42331909e-03, 3.79520119e-03, 6.19815150e-03,
       1.43409008e-03, 1.59057125e-03, 2.02208478e-03, -8.98178434e-04,
       -4.72734915e-03, 2.64219753e-03, 2.51458469e-03, -5.99263993e-04,
       5.78323705e-03, -3.71484295e-03, -6.18741149e-03, 1.68921589e-03,
       5.35691669e-03, 1.05977077e-02, 3.68409068e-03, 1.62870390e-03,
       1.34737382e-03, 3.65331769e-03, 3.32598295e-03, -1.38423499e-03,
       3.87489446e-04, 2.56583653e-03, 3.52616957e-03, 6.44086208e-03,
       5.27966255e-03, 5.12469141e-03, 4.15718276e-03, 5.33389335e-04,
       -8.99195671e-03, -3.67339235e-03, 1.04083272e-04, -2.17893580e-03,
       -3.97872645e-03, -4.32908582e-03, -2.21675844e-03,
       -1.17142823e-04, 5.60318772e-03, -4.37894417e-03, 1.27891847e-03,
       -6.70013996e-03, -2.15738756e-03, 3.39829200e-03, 4.85826144e-03,
       4.24039696e-04, -2.20166589e-03, 7.33654620e-03, -1.02812471e-03,
       1.19523341e-02, 3.16667906e-03, 8.59739818e-03, 1.06174443e-02,
       -3.92492395e-03, -6.09839743e-04, 2.19215336e-03, 9.86169616e-05,
       -6.21256698e-03, 8.52406956e-03, 4.16329317e-03, -9.58904042e-04,
       -3.88466893e-03, -1.29579846e-02, -5.06439060e-03, 1.07710401e-03,
       1.49247365e-03, -2.16234522e-03, 1.22039877e-02, -8.47056136e-03,
       6.59531914e-03, 3.71645438e-03, -4.76215826e-03, -3.77646793e-04,
       1.24414973e-02, 9.34403739e-04, -7.15263700e-03, 8.84959195e-03,
       -7.08908134e-04, 4.89233062e-03, -2.61691539e-03, -4.88576619e-03,
       9.92409606e-03, -3.89203755e-03, -6.65415684e-03, -8.93101841e-03,
       5.04199974e-03, -8.30411166e-03, -1.22386673e-02, -6.82498096e-03,
       -3.83312022e-03, -4.89738956e-03, 3.33064306e-03, -7.05678901e-03,
       -2.10196059e-03, 2.87708361e-03, 2.72163167e-03, -1.11004971e-02,
       -9.79957636e-03, -4.53935564e-03, 7.70941284e-03, 1.72360369e-03,
       -6.86041033e-03, -6.82063121e-03, 2.51535308e-02, 1.10277655e-02,
       -3.48624773e-03, -3.51263327e-03, -2.83849495e-03,
       -3.36411013e-03, 1.25483815e-02, 1.98541838e-03, 1.55119486e-02,
       1.52485203e-02, -1.56985095e-03, 3.63367214e-03, -5.46914292e-04,
       -6.95160765e-04, 1.43481791e-02, -6.09176001e-03, -5.60416980e-03,
       -3.17656493e-04, -9.48585849e-03, -1.17251966e-02,
       -1.00441761e-02, -7.80167105e-03, -7.54413940e-03, 2.55038100e-03,
       -4.85640019e-03, -4.66990285e-03, 4.10493929e-03, -6.49553677e-03,
       8.19965790e-05, -7.24246399e-03, -5.66662801e-03, -6.72134431e-03,
       9.55920550e-04, 3.26175475e-03, -1.02747104e-03, 9.34085809e-03,
       4.66326624e-03, 2.56965449e-03, -6.98703527e-03, 5.27469034e-04,
       -9.49869223e-04, 5.40189072e-03, -1.56023148e-02, 1.14679309e-02,
       1.18146585e-02, 8.92124791e-03, -6.06904225e-03, -1.72367482e-03,
       -1.24294276e-03, 4.55345202e-04, -8.70962162e-03, -1.28435297e-02,
       -7.17955269e-03, 1.34712667e-04, -1.08243991e-02, -1.10665457e-02,
       -6.26732316e-03, -6.70409342e-03, -5.63077955e-03,
       -8.88486207e-03, 5.60914865e-03, 8.11585505e-03, 4.19920031e-03,
       -4.52671107e-03, -8.11991468e-03, -2.58284854e-03, 1.10406976e-03,
       4.23438614e-03, -4.87661222e-03, -1.32651869e-02, 2.16131676e-02,
       1.29833417e-02, 6.76378701e-03, -7.16387900e-03, -7.37216836e-03,
       -7.50349136e-03, -3.34276468e-03, -2.30868184e-03,
       -1.55808928e-03, 6.40171859e-03, 1.68288755e-03, 4.33355890e-04,
       -6.87572826e-03, -9.12628043e-03, 7.64471595e-04, 2.67585996e-03,
       1.32066999e-02, 1.30796374e-03, -3.21791321e-03, 5.63259656e-03,
       -8.31800792e-03, -8.26673023e-03, -2.58710003e-03, 1.38755224e-03,
       -1.01105729e-03, -8.03067442e-03, 2.37125065e-03, 8.73991754e-03,
       1.13502294e-02, -2.92472565e-03, 1.10736154e-02, 9.84505401e-04,
       3.85262235e-03, -3.73442628e-04, 5.42951142e-03, 1.40026119e-03,
       2.88943644e-03, 7.47469394e-03, -4.54638805e-03, -9.52738151e-03,
       -1.00916941e-02, 9.52545728e-04, -6.52942993e-03, 5.21809328e-03,
       3.63417435e-03, 1.26821995e-02, -2.65155127e-03, -9.91344638e-03,
       2.38187425e-03, 5.25262847e-04, 3.24860052e-03, -2.15217820e-03,
       8.60439893e-03, -1.16849522e-04, -1.02267601e-03, 2.46116868e-03,
       -2.05211528e-03, 9.12437739e-04, -5.11650601e-03, 1.43136177e-03,
       -3.77854751e-03, -5.49060991e-03, 5.81733556e-03, -4.85625630e-03,
       1.44127524e-03, 2.05166452e-03, 3.02940048e-03, -2.59543303e-03,
       5.64916525e-03, -2.38396367e-03, 1.01319626e-02, -7.10908882e-03,
       9.28805210e-03, 4.91729565e-03, -4.46011638e-03, 5.68899699e-03,
       -3.94766731e-03, 4.75423131e-03, -3.14291171e-03, -2.91508436e-03,
       -4.26909514e-03, 6.05413364e-03, -9.36796248e-04, 1.36968121e-02,
       3.02258041e-03, 4.46640514e-03, 8.55764840e-03, 2.02699425e-03,
       3.16846673e-03, 1.84513093e-03, -9.68029164e-03, -1.05548296e-02,
       -8.25425982e-03, -7.21496437e-03, -5.18681947e-03, 1.36780459e-02,
       5.85122267e-03, 3.67651950e-03, -1.83621736e-03, -1.00381235e-02,
       -1.50243891e-02, -1.52720427e-02, -5.07438509e-03,
       -1.27124777e-02, 1.72331035e-02, 2.10119616e-02, -1.06000928e-02,
       -3.40301124e-03, -1.36016891e-03, -9.75923147e-04, 1.09630655e-02,
       6.33900333e-03, 1.16927158e-02, 9.32694599e-03, -3.63750081e-03,
       -3.80499731e-03, -1.25216646e-02, -1.22946501e-02,
       -7.29734823e-03, -2.21731723e-03, -1.14467999e-04, 7.81158451e-03,
       8.14541988e-03, -1.27851381e-03, -1.11505520e-02, -1.59032904e-02,
       -3.85247008e-03, -5.60325105e-03, -4.83051734e-03,
       -9.56695806e-03, -4.22835350e-03, 2.23180372e-02, 2.00762916e-02,
       -1.11176008e-02, -2.09947098e-02, -9.72370710e-03,
       -1.67750269e-02, -5.85937966e-03, -1.33109384e-03, 7.42536364e-03,
       3.94981029e-03, 7.42822513e-03, -2.84856539e-02, -1.14308018e-02,
       -1.20775951e-02, -1.49606811e-02, -1.03320293e-02, 1.28872627e-02,
       1.68483052e-02, 1.73486266e-02, 3.08564026e-03, -1.40546598e-02,
       -1.31424638e-02, -1.86907360e-03, -6.29597716e-03,
       -6.94172969e-03, 8.05390161e-03, 1.96249671e-02, 8.55329353e-03,
       -6.91444008e-03, -1.52768362e-02, -1.41381351e-02,
       -6.18324615e-03, -8.55965249e-04, -6.35213777e-03, 4.04154230e-03,
       7.06167053e-03, 9.61239636e-03, 1.67401449e-03, -1.58734825e-02,
       -1.00291288e-02, -1.04822079e-03, 6.07917365e-03, -1.02350768e-02,
       8.68457463e-03, 3.56984953e-03, 1.31600574e-02, -9.04326211e-04,
       -5.66661451e-03, -4.38314443e-03, 1.20088004e-03, 5.77977905e-03,
       -3.68621637e-04, 7.88815692e-03, 6.38315547e-03, 2.11574920e-02,
       -1.13488664e-03, 1.21601892e-03, 1.01067713e-02, 8.23352486e-03,
       7.82293826e-03, -2.26327754e-03, 8.71112105e-03, 9.38002672e-03,
       1.66516583e-02, 1.47424862e-02, 2.04233807e-02, -3.66989640e-03,
       -6.53614476e-03, 5.14756795e-03, -7.24394899e-03, 9.16285440e-03,
       1.36815209e-03, 1.15394015e-02, -9.54378571e-04, -3.86986998e-03,
       4.29331085e-05, -6.55312976e-03, 1.10362389e-03, -5.19050518e-03,
       3.86731955e-03, 9.38549405e-04, 3.23857064e-03, -7.81453494e-03,
       5.69293229e-03, 1.07566651e-03, -1.19842868e-03, 9.07368027e-03,
       -1.06965064e-03, 5.36757521e-04, -7.81080802e-04, 4.97373194e-03,
       -3.78186698e-03, 1.14420438e-02, -1.03422962e-02, -7.17989588e-03,
       -4.97228513e-03, 1.18518702e-03, 5.67574380e-03, 2.74660531e-03,
       1.20721257e-03, -1.37336375e-02, -1.84950768e-03, 5.88186225e-03,
       1.23664096e-03, 7.80581823e-03, -6.33733720e-03, -6.29361439e-03,
       -9.17220954e-03, -7.78340688e-03, -1.34017877e-02, 7.47667998e-03,
       -6.86313352e-03, 5.26947528e-03, 1.06276283e-02, -7.44936196e-03,
       -2.78502330e-03, -6.03142101e-03, -1.04561485e-02,
       -5.32151526e-03, 2.60123704e-03, 4.57261922e-03, -8.72780755e-03,
       -5.10137295e-03, -1.31277358e-02, -5.18912030e-03,
       -6.55850256e-03, -2.01214710e-03, -1.30342003e-02, 1.44238221e-02,
       4.47424455e-03, -4.14233888e-03, -3.06168478e-03, -1.55758401e-02,
       -1.25013506e-02, -4.18539345e-03, 2.18753889e-03, -8.20495188e-03,
       1.15736052e-02, -1.09363573e-04, 1.53065249e-02, 1.76409036e-02,
       -1.07113821e-02, 5.29254833e-03, 6.23879023e-03, -1.82294275e-03,
       9.22171120e-03, 1.49161415e-02, 1.02796825e-02, 1.30031258e-03,
       -4.02214937e-03, -1.51681071e-02, -1.45032106e-03, 8.25376436e-03,
       -1.00724783e-03, -3.76761984e-03, 8.36975873e-03, 6.29914645e-03,
       1.04214055e-02, 1.11157540e-02, -5.12105972e-03, -4.83848294e-03,
       -2.66540155e-04, -2.45228643e-03, 3.25538684e-03, 1.41066546e-02,
       -1.51484488e-02, -1.61758568e-02, -1.45473536e-02,
       -1.74679849e-02, -1.74193401e-02, -7.48645095e-03,
       -9.25732590e-03, -4.13750438e-03, -4.88405768e-03,
       -3.26907699e-04, 1.27003556e-02, 1.18566211e-02, 2.08397838e-03,
       -6.26565656e-03, 5.83012355e-03, 2.88655097e-03, -8.58514395e-04,
       1.15192565e-03, -1.04580345e-02, 8.05634353e-03, 1.61621496e-02,
       3.71859455e-03, 6.85296720e-03, -3.18038580e-03, -1.08336331e-02,
       -1.28032621e-02, -1.27712898e-02, 4.78936097e-04, -8.68089125e-03,
       2.02566925e-02, 7.75376940e-03, 2.86007719e-03, -5.84906153e-03,
       -4.13407153e-03, 1.30252319e-03, 3.80929862e-03, -5.35910903e-03,
       2.96066632e-03, 7.35968444e-03, -1.06466076e-04, -4.31692647e-03,
       -8.62755906e-03, -1.32689923e-02, -5.69926435e-03,
       -1.53370842e-03, -2.82552391e-02, -1.57383829e-02, 1.28659634e-02,
       1.32539971e-02, 1.37832118e-02, 4.90480335e-03, 5.54038212e-03,
       -7.05541763e-03, -2.21041702e-02, -1.23225488e-02,
       -1.01048360e-02, 1.25082023e-02, 1.34714320e-02, 1.38806750e-03,
       2.78889155e-03, 1.53081371e-02, 5.04008494e-03, 3.35243472e-04,
       -5.20849088e-03, -3.24174738e-03, 1.94116123e-02, 1.46535756e-02,
       8.64500832e-03, -4.80336044e-03, -1.13071809e-02, -9.66622774e-03,
       -2.63818237e-03, -6.18299050e-03, 2.13849242e-03, 8.45888816e-03,
       5.42169157e-03, 5.12503739e-03, -7.78204994e-03, -1.82212777e-02,
       -1.70242116e-02, -5.23291901e-03, 6.52108248e-03, 2.95976154e-03,
       6.88893860e-03, 1.24565158e-02, 1.04242321e-02, 1.95249636e-02,
       2.80951392e-02, 1.77448634e-02, 1.65369753e-02, -1.29906647e-02,
       -6.47314917e-03, -2.66468269e-03, 3.65525833e-03, 4.31173015e-03,
       -3.12843011e-03, -1.21041136e-02, -9.41783842e-03,
       -9.64066759e-03, 4.87807766e-03, 1.53036499e-02, 7.80509459e-03,
       8.27063690e-04, 7.76808802e-03, -9.98116680e-04, -1.02999145e-02,
       -7.86545593e-03, 5.02356840e-03, -3.61519097e-03, -2.97018490e-03,
       -5.01426170e-03, -2.62343528e-04, 5.73808886e-03, -8.89881700e-03,
       -4.07890277e-03, -1.61327887e-03, 2.58580386e-03, -1.97111838e-03,
       -2.84809154e-04, -4.08516149e-04, 4.57299920e-03, -1.68927375e-03,
       -6.14911271e-03, -1.57806166e-02, 1.60884613e-03, -4.20845812e-03,
       -4.08147462e-03, -1.70702511e-03, -6.67456724e-03, 8.68612528e-03,
       -5.80519298e-03, -8.77487939e-04, -7.96992611e-03, 5.13978361e-04,
       -4.59960196e-03, 5.40487980e-03, 7.40969134e-03, -3.78015242e-03,
       3.26863816e-03, -4.36590193e-03, 4.12256643e-03, 6.44219900e-03,
       1.69035085e-02, 1.09488275e-02, 5.95030421e-03, 5.38409455e-03,
       -5.60266711e-03, 1.69998629e-03, -4.36301762e-03, 1.88945304e-03,
       -3.09853605e-03, 7.51589146e-03, 1.00804016e-03, 4.31344705e-03,
       5.99150895e-04, -1.93016033e-03, 3.63330776e-03, -1.24635582e-03,
       -2.30330299e-03, -6.15613116e-03, -1.55894528e-03,
       -3.04702227e-03, 6.77750073e-03, 3.81608098e-03, 1.61973163e-04,
       -4.07571439e-03, -6.01326395e-03, 6.08563423e-04, -6.15930045e-03,
       -2.15124222e-04, 1.27620134e-03, 1.68472889e-03, 2.95658922e-03,
       -1.13091420e-03, 7.53816077e-03, -1.94097857e-03, 1.94473146e-03,
       3.19224258e-04, 3.90253169e-03, -3.21576302e-03, 6.33989181e-03,
       8.78169201e-03, 2.39198259e-03, 5.85812004e-03, -8.36116914e-03,
       6.23638276e-03, -2.49301502e-03, 1.10003017e-02, 3.29372613e-03,
       1.05630700e-03, 4.08389402e-04, 1.29927750e-04, -1.85125053e-03,
       7.02993618e-03, 5.29060606e-04, -7.69178057e-03, -2.13489076e-03,
       -3.57054640e-03, 7.05376035e-03, 6.79197814e-03, 2.42792506e-04,
       5.77275921e-03, -2.99522723e-03, 1.76586182e-04, -2.55822716e-03,
       3.10226693e-03, -5.64840902e-03, -3.50038381e-03, 3.68635659e-03,
       -3.68963182e-03, 3.15385754e-03, 3.78491147e-03, 6.51892275e-03,
       -9.82353184e-03, 1.01221260e-03, -5.27433818e-03, 8.27300176e-03,
       1.77745819e-02, 1.51065299e-02, 4.37403517e-03, 2.04858393e-03,
       4.39957669e-03, 4.09174385e-03, 5.99728432e-03, 4.11866419e-03,
       8.22354760e-03, -5.91102813e-04, -2.02692416e-03, 1.93546794e-03,
       -1.69674505e-03, 1.76326081e-03, -7.35008111e-03, -7.89758936e-03,
       -7.89754558e-03, 5.52119501e-03, 4.21373319e-04, -2.00089230e-03,
       -1.90070423e-03, -6.08911179e-03, -1.22794625e-03,
       -9.11322702e-03, -6.45093014e-03, -7.41921249e-04, 1.39115320e-03,
       1.25926975e-02, 1.94555540e-02, -3.95375863e-03, -8.79927364e-04,
       -2.74161994e-03, -5.44428965e-03, -1.06311906e-02,
       -2.50319624e-03, 1.04393456e-02, 1.27943866e-02, 1.21566989e-02,
       -3.43219633e-03, -6.88848202e-04, -6.18138211e-03, 1.03737402e-03,
       -7.24814483e-04, 5.06031746e-03, 2.48547597e-03, -7.57016521e-03,
       -2.09942507e-03, -1.89489056e-03, -9.52448975e-03,
       -8.19283631e-03, -9.41943936e-03, 3.24757979e-03, 7.45259179e-03,
       4.65729646e-03, -1.07381893e-02, -2.84350081e-03, -7.83528015e-03,
       -7.29782553e-03, -7.96749163e-03, -7.02154124e-03, 5.47682866e-03,
       3.22391139e-03, 1.23989079e-02, 3.54270777e-03, 1.22157391e-02,
       -2.87885335e-03, -8.18374008e-03, -9.12081264e-03, 7.13059213e-03,
       7.73995183e-03, 9.56660695e-03, -9.11241956e-03, 1.35577284e-03,
       -7.63911405e-04, -7.03040790e-03, -5.47919562e-03,
       -9.62682441e-03, -4.94369073e-04, 1.37308275e-03, -1.40683204e-02,
       8.06951988e-03, -7.05073681e-03, -5.89437922e-03, -1.13076549e-02,
       -1.17460247e-02, -1.05401326e-04, 5.46932081e-03, 1.28663341e-02,
       3.94739676e-03, 8.69359064e-04, -7.53728859e-03, -3.19529721e-03,
       -2.73113069e-03, -2.55406694e-03, -7.40312273e-03,
       -9.75418836e-03, 2.44539906e-03, -1.84615923e-03, 5.52218826e-03,
       6.49014954e-03, 1.24054949e-03, -4.64782771e-03, -1.88903476e-03,
       8.04399792e-03, 2.37801280e-02, 1.60913300e-02, 4.59192740e-03,
       -1.05472775e-02, -1.11224595e-02, -5.74520603e-03,
       -4.41330485e-03, -8.96461401e-03, -1.73210539e-02, 1.73789522e-04,
       2.45429575e-03, -5.11433277e-03, -3.12271016e-03, -3.71607300e-03,
       -6.17060484e-03, -4.93972423e-03, -4.06776415e-03,
       -2.91257718e-04, 3.21275159e-03, 1.16802948e-04, -2.29396578e-03,
       1.08861201e-03, 7.37066939e-03, 6.62097568e-03, 4.96479031e-03,
       3.90052190e-03, 1.89397410e-02, 2.07156893e-02, 2.46813018e-02,
       4.28290246e-03, -3.86749371e-03, -3.40322638e-03, -1.49434479e-03,
       -1.96632370e-03, -7.71653897e-04, -7.55775999e-03, 5.07119205e-03,
       -4.88207326e-04, -3.87234846e-03, 1.98366070e-05, -2.62047164e-03,
       3.77149554e-03, 3.05035058e-03, 1.00317392e-02, 5.95173158e-04,
       5.83141227e-04, -1.81561301e-03, -5.25377085e-03, -2.68644700e-03,
       -1.91492517e-03, -7.39920652e-04, -9.83061455e-03, 1.42884767e-03,
       7.92081468e-04, 1.38494128e-03, 1.27822359e-03, -2.60686362e-03,
       3.26407608e-03, 7.67688174e-03, 7.16155674e-03, 2.18368066e-03,
       1.46362686e-03, 2.27654469e-03, -2.47731339e-03, 1.27023575e-03,
       5.97759197e-03, 6.45228336e-03, -5.03078382e-03, -7.88260810e-03,
       -6.20203651e-03, -8.89770861e-04, -5.06924465e-03,
       -7.42583070e-04, 4.94291948e-04, 5.45443688e-03, 8.99520889e-03,
       7.32535322e-04, -2.21157423e-03, -2.65536993e-03, 3.45057133e-03,
       3.52315162e-03, -3.01537849e-03, -5.29022841e-03, 4.00267169e-03,
       7.09223037e-04, -5.96872182e-04, -2.26967549e-03, 4.78881085e-03,
       4.02149465e-03, 6.76417677e-03, 1.84887380e-03, 7.45611731e-04,
       2.00214540e-03, 3.05273570e-03, -2.80618609e-04, -4.90232930e-03,
       -3.00923223e-03, 6.64400961e-03, 4.10527550e-03, -1.86479348e-03,
       7.01800105e-04, 1.74769410e-03, 4.20164503e-03, -6.90635573e-03,
       -1.52931927e-04, -2.69847945e-03, 7.65974284e-04, -2.35674248e-04,
       2.01277388e-03, -7.34454952e-03, 3.58430465e-04, 7.36816833e-03,
       6.57790946e-03, -4.36031027e-03, 4.74318303e-03, 5.82258357e-03,
       2.55456148e-03, -2.13876180e-03, -3.37815797e-03, -3.17851733e-03,
       -5.83421485e-03, -1.32677250e-03, -6.61572732e-04,
       -1.79136859e-03, -5.47983451e-03, -4.57156420e-04,
       -2.08962942e-03, -3.35924653e-03, 4.84036718e-04, -7.34367827e-03,
       -2.27510510e-03, -3.21089872e-03, 4.77301469e-03, 6.93876995e-03,
       7.65301695e-04, -1.91195903e-03, 2.25429377e-03, 1.29949942e-03,
       -3.05863493e-03, 1.99054484e-03, 1.85113156e-03, 1.71461666e-03,
       -1.67720346e-03, 2.84085609e-03, 6.73920475e-03, 9.59359226e-04,
       -8.31366691e-04, -6.57644542e-03, 2.86920392e-03, -2.55790983e-05,
       1.05395131e-02, 1.03117693e-02, 7.99628906e-04, 3.34745250e-03,
       3.76120885e-03, 4.23960388e-03, -4.88998950e-04, -1.44418131e-03,
       5.12527814e-03, -2.75913812e-03, 1.15912815e-03, -7.07724132e-03,
       -5.40221017e-03, -4.35517170e-03, -1.57183246e-03, 1.39360549e-03,
       -1.98427727e-03, 1.58511836e-03, -6.08444680e-04, 1.01860578e-03,
       -4.01876727e-03, -3.72675655e-04, 2.32501142e-03, 2.01396178e-03,
       2.69443844e-03, -4.08558687e-03, 3.11136246e-04, 2.42409646e-03,
       -3.74927302e-04, -8.36793892e-03, 2.21278332e-03, -1.18093949e-03,
       1.44032144e-03, 1.84538553e-03, 1.98596762e-03, 4.03560419e-03,
       8.08748591e-04, -5.33213746e-03, -4.97340318e-03, 4.64339741e-03,
       4.52241255e-03, 7.52801122e-03, -5.01240211e-05, -8.16234795e-04,
       3.62026063e-03, 2.73678475e-03, 9.11397487e-03, -5.65103767e-03,
       3.37248622e-03, 6.73881965e-03, -3.39675084e-04, -4.16719867e-03,
       -1.95567380e-03, -8.43956415e-03, 2.85943295e-03, -8.41411669e-03,
       -2.15521432e-03, 4.19797405e-04, 8.87278351e-04, -4.04957309e-03,
       -8.63046171e-06, -3.77965538e-04, -7.43126438e-04,
       -2.64373422e-03, 8.14606901e-03, -5.72768645e-03, -9.87649779e-04,
       1.79043307e-03, 3.99172353e-03, -3.37972469e-03, -3.19489348e-03,
       -4.07795981e-03, 2.39086989e-03, -6.02650049e-04, -1.29259715e-03,
       -4.57182992e-03, -1.98492454e-03, 1.66967406e-03, -5.27437893e-04,
       -2.12216564e-03, -7.99370278e-03, 1.29287725e-03, 5.05609717e-03,
       6.86315307e-03, -1.34918708e-04, 2.85310647e-03, -2.16925819e-03,
       -7.24690408e-03, 5.81874745e-04, -4.06016363e-03, 5.32199210e-03,
       2.00088043e-03, 6.74894499e-03, 2.03578660e-04, 1.32612040e-04,
       -7.49926502e-03, -7.76425994e-04, -1.41751673e-03,
       -2.82265665e-03, 1.74112746e-03, 3.06664617e-03, 7.92620052e-03,
       -5.10491524e-03, -2.44788174e-03, -5.71701275e-05,
       -5.03253518e-03, -3.91541561e-03, -1.00729764e-02, 4.03861195e-04,
       -6.30018720e-03, 3.37036140e-03, -8.32577236e-03, -8.59948155e-03,
       -7.30111450e-03, -2.95047299e-03, -2.92263040e-03,
       -7.29789073e-03, 6.31817244e-03, 4.94259549e-03, 1.45270433e-02,
       -3.86195653e-03, -5.34492778e-03, -3.23039456e-03, 4.16362146e-03,
       -8.19755835e-04, -4.56940150e-03, 1.41860079e-02, 9.55505483e-03,
       5.45416260e-04, -2.74905353e-03, -4.24117269e-03, 1.06374430e-03,
       -9.32405412e-04, -8.37397762e-03, -1.79463923e-02, 5.89487469e-03,
       -1.07285834e-03, 6.74906652e-03, -1.26625402e-02, -9.27037280e-03,
       -4.03471803e-03, 1.59806211e-03, -5.77056687e-03, -1.05241602e-02,
       6.32884586e-03, -5.92944119e-03, 1.62516430e-03, -1.20541267e-03,
       -4.59167454e-03, -1.47993281e-03, 2.33908766e-03, -6.30512927e-03,
       -4.64842934e-03, 1.26306294e-02, 1.00968555e-02, -1.30597716e-02,
       -3.81808123e-03, -1.10763672e-03, -5.03487512e-03, 9.52438265e-03,
       -7.58589664e-03, 9.24165081e-03, 1.43547039e-02, 2.72634975e-03,
       1.58154080e-03, 4.88735316e-03, 5.50876930e-03, 3.62557382e-03,
       5.25383092e-03, -2.85406993e-03, -9.21660010e-03, 4.51648096e-03,
       -4.38428862e-04, -1.40595157e-02, -1.45750283e-03,
       -1.14602258e-03, -1.42753974e-03, 1.26901884e-02, 2.07657204e-03,
       1.35555209e-04, 3.17040016e-03, -3.89490416e-03, 1.30760763e-02,
       1.44212143e-02, 1.44937122e-02, 1.00510065e-02, 3.91351851e-03,
       -1.45922508e-02, -2.32411106e-03, -2.38399324e-03, 5.56195620e-03,
       -9.83609259e-03, 9.02468339e-04, 3.08264513e-03, 4.00235935e-04,
       -4.90944646e-03, 6.48107438e-04, -1.89860770e-03, 3.44355183e-04,
       1.55854470e-03, -2.88751023e-03, 5.90634346e-03, 4.05182829e-03,
       -1.56165974e-03, 9.15946657e-05, -5.45803551e-03, -4.34170105e-03,
       1.45979470e-03, 4.30913782e-03, 1.70586421e-03, 8.79777037e-03,
       5.32551762e-03, 1.72734563e-03, 1.87675655e-03, 1.62365776e-03,
       5.28013753e-03, 8.28409102e-03, -5.17876411e-04, 9.06335842e-03,
       1.35807870e-02, 3.84224486e-03, 1.26314233e-03, -6.39890274e-03,
       1.73494755e-03, 2.23625218e-03, -7.10255001e-03, -3.57050379e-03,
       -3.82170803e-03, 4.37997235e-03, 3.24687408e-03, 3.01870331e-03,
       -2.57995515e-03, 5.13883960e-03, 8.83185584e-03, 4.64342680e-04,
       -6.85460633e-03, -8.01876001e-03, 1.02926763e-02, 2.53792084e-03,
       6.71719620e-03, -7.37009686e-04, -6.97067892e-03, -3.62763996e-03,
       -3.32964025e-03, -5.07795485e-04, 4.42575989e-03, 6.45667827e-03,
       1.43485016e-03, -2.75889086e-03, 1.07647640e-04, -4.25524497e-03,
       2.47319834e-03, 6.94577396e-03, 2.95746536e-03, -4.15259320e-03,
       3.89848882e-03, -2.16194731e-03, 7.59823620e-03, -2.92316522e-03,
       -1.27643102e-03, 1.49702141e-02, -4.52283816e-03, -9.51919053e-03,
       -1.34405755e-02, 3.71741573e-03, -6.85747154e-03, 5.57542592e-03,
       -5.50051592e-03, 7.37855583e-03, 3.13794450e-03, -1.74300186e-02,
       5.84851578e-03, -5.30320685e-03, 9.35313199e-03, -1.10740692e-03,
       6.82457490e-03, -3.43330903e-03, -1.22837070e-02, 2.87060905e-03,
       3.12229409e-03, 7.75930798e-03, -1.47504183e-02, -1.42463332e-03,
       -4.37137391e-03, 8.04698654e-03, -4.81705228e-03, 1.00262249e-02,
       2.76122591e-03, -2.35583590e-04, -3.78146162e-03, -7.95373879e-03,
       -1.89959572e-03, -3.51548241e-03, 6.64866157e-03, -2.30384525e-02,
       1.74701139e-02, 2.31514182e-02, -1.32558392e-02, -1.74512770e-02,
       -1.39833102e-02, -3.05397669e-03, -7.94340484e-03,
       -1.36998864e-02, -1.69661772e-02, 1.77604277e-02, 1.63928941e-02,
       -4.66644298e-03, -1.90329198e-02, -1.17672365e-02,
       -1.15644047e-02, -8.44705384e-03, -6.54657045e-03,
       -2.40710843e-02, 1.94012765e-02, 1.29835187e-02, 1.07038824e-03,
       -1.35815395e-02, -1.61098298e-02, -1.29381185e-02,
       -9.67771560e-03, -1.32546416e-02, -3.12496964e-02, 1.52883492e-02,
       7.65289227e-03, -1.64198631e-03, -2.56610233e-02, -2.10090261e-02,
       -1.68595575e-02, -1.17059145e-02, -8.15282296e-03,
       -1.23879779e-02, 1.44765514e-03, 9.40494798e-03, 8.46120249e-03,
       9.96089075e-04, -4.04256256e-03, -6.63941819e-03, -1.01578124e-02,
       -8.98175966e-03, -2.91189831e-03, -1.14277657e-02, 5.45211555e-03,
       1.13806699e-03, 6.49752910e-04, 5.53583741e-05, -6.87549450e-03,
       -1.18558975e-02, 8.81749904e-04, -2.50882804e-02, 2.39659124e-03,
       7.50078214e-03, 3.87206394e-03, -2.69889529e-03, -9.72267427e-03,
       -9.52224992e-03, -9.32046212e-03, -3.52482474e-03,
       -1.19913034e-02, -1.09979119e-02, 3.28914309e-03, 1.41333146e-02,
       4.54612964e-05, -5.77281835e-03, -4.09276830e-03, -6.72586448e-03,
       2.43124692e-03, 1.04634278e-02, -9.61395167e-03, -5.33719361e-03,
       -2.15822994e-03, 1.78557914e-02, -3.39045888e-03, -9.09494888e-03,
       -1.27222277e-02, 9.81159788e-03, 1.75414905e-02, 6.45602169e-03,
       9.61399451e-03, 3.92719591e-03, 9.54958797e-03, -8.70643277e-03,
       -1.02639841e-02, -1.07364133e-02, 1.19631486e-02, 1.71627069e-03,
       -1.49666006e-02, 9.09166061e-04, 2.48493324e-03, 5.83340740e-03,
       -3.54175875e-03, -2.02098931e-03, 1.09276862e-03, 1.30703701e-02,
       1.28978360e-02, 4.28183330e-03, 7.47113023e-03, 9.49917827e-03,
       9.70340054e-03, 2.83566304e-03, 2.72488361e-03, 5.55624766e-03,
       1.99119076e-02, 6.08577067e-03, 8.09980277e-03, 2.30205376e-02,
       3.61135276e-03, 8.46132636e-03, -2.55076273e-04, -3.87495058e-03,
       -7.44374515e-03, 2.10620789e-03, 7.44005293e-03, 1.19463857e-02,
       2.02162676e-02, 3.52111249e-03, 7.47018214e-03, -3.09307873e-03,
       -5.88810188e-04, -6.38705678e-03, 8.12797062e-03, 9.61721502e-03,
       2.52638687e-03, 1.21412249e-02, -6.65098568e-03, 2.54284125e-03,
       -2.14536267e-04, -5.92218712e-03, -1.47343567e-03, 1.25859762e-02,
       -1.56731671e-03, 8.37946497e-03, -1.22315681e-03, -3.36711481e-03,
       4.77029569e-03, -4.61494637e-05, -4.90240753e-03, -1.13686919e-02,
       5.32006612e-03, 4.00502607e-03, -5.02387644e-04, 6.47108117e-03,
       -3.98168806e-03, -3.07672098e-03, -6.74197450e-03,
       -6.01081224e-03, -2.16896459e-02, 2.76963785e-03, 4.67765238e-03,
       -6.91401446e-03, -6.16212282e-03, -8.59117787e-03,
       -6.39073225e-03, -3.15014295e-05, -3.45203211e-03,
       -1.87100451e-02, 6.48583286e-03, 1.03802877e-02, -1.20083743e-03,
       -9.51562356e-03, -1.00487564e-02, -3.66524700e-03,
       -1.00195557e-02, -8.85454845e-03, -1.91577189e-02, 1.15700560e-02,
       9.16697923e-03, -4.02436359e-03, -7.94473011e-03, -1.59872137e-02,
       -1.33321444e-02, -1.16345128e-02, -7.24276341e-03,
       -2.31806785e-02, 8.17141589e-03, 1.15251252e-02, -1.69829640e-03,
       3.72531940e-03, -8.36012978e-03, 4.21632314e-03, -1.88702496e-03,
       1.17146969e-02, -4.78578173e-03, 1.55026019e-02, 1.55153533e-03,
       -1.48875397e-02, 2.58748489e-03, -5.48877800e-03, 8.12704442e-04,
       -3.02278466e-04, 8.51741433e-03, -3.98178445e-03, -1.79291947e-03,
       1.04323467e-02, 2.87979282e-03, 3.33967223e-03, -9.30766982e-04,
       -7.27323955e-03, -9.50162672e-03, -3.16414726e-03,
       -1.38379317e-02, -1.18147233e-04, -7.34323123e-03,
       -1.24603203e-02, 2.27964055e-02, 1.35551728e-02, -9.80032887e-03,
       -7.64502212e-03, -1.19869327e-02, -1.26175424e-02,
       -3.07209906e-03, 7.46831903e-03, 3.68073918e-02, 2.89934259e-02,
       3.27652767e-02, 1.83944497e-02, 3.40848649e-03, 4.44298843e-03,
       -1.22889422e-03, 7.86076358e-04, -1.61087625e-02, 4.25302307e-04,
       -2.03228462e-03, 6.58634957e-03, -9.16536525e-03, -1.01942895e-02,
       -9.99866240e-03, -4.97612404e-03, -1.45028066e-02,
       -9.40814149e-03, -2.85285665e-03, 1.64174996e-02, 3.14340293e-02,
       6.83915243e-03, -7.70126050e-03, -4.88572009e-03, -7.09861843e-03,
       -8.83460604e-03, -4.44423826e-03, -9.16925166e-03,
       -2.27867141e-02, -3.83057958e-03, -1.56084867e-02,
       -8.01805407e-03, -1.90527714e-03, 5.46062016e-04, -8.87141842e-03,
       -1.27366967e-02, -1.78841862e-03, 1.02849500e-02, 1.17803179e-02,
       3.25128622e-03, -1.05557078e-02, -1.42393715e-03, -3.53194051e-03,
       -1.46324392e-02, -1.11563969e-02, -1.57148496e-03, 1.32925427e-02,
       1.61333531e-02, 1.30237797e-02, 5.88525226e-03, 2.66173687e-02,
       2.56268997e-02, -8.71634344e-04, -2.72762938e-03, -4.22984036e-03,
       -1.32181803e-02, -1.27182081e-02, -4.60053654e-03,
       -1.17964400e-02, 7.99741503e-03, 8.19665671e-04, -8.71156622e-03,
       -3.52090667e-03, -5.93216531e-03, -7.66781159e-03,
       -1.49868401e-02, -1.15605176e-03, 3.50944395e-03, 2.34818235e-02,
       2.09977981e-02, -8.77337344e-03, -5.33478800e-03, -2.99919536e-03,
       1.35981329e-02, 2.01928057e-03, 4.53309063e-03, -3.96018103e-03,
       4.89094015e-03, 6.14685472e-03, -1.68745522e-03, -4.52603353e-03,
       2.44417670e-03, 7.91665446e-03, -6.12930907e-03, 4.61319555e-03,
       -8.57237447e-03, -1.37532689e-02, -7.50612933e-03,
       -8.87759030e-03, -7.17907771e-03, -2.98856827e-03, 2.89743044e-03,
       -1.94031950e-02, -7.73621490e-03, -7.03106076e-03, 3.09892893e-02,
       5.63334627e-03, -1.29608288e-02, -5.18796965e-03, -8.20558693e-04,
       1.26966485e-03, -2.14464441e-02, 3.47672566e-03, -9.78200138e-03,
       -8.87043774e-04, -4.43586987e-03, -9.57398675e-03, 4.34792135e-03,
       1.92787424e-02, 1.31655727e-02, 4.99547634e-04, -4.54970961e-03,
       3.21637839e-03, -1.01277307e-02, 2.49651284e-03, -2.21361872e-03,
       -3.94172454e-03, -5.54064335e-03, -7.11559132e-03,
       -6.23156549e-03, 2.81427358e-03, -2.75829108e-03, -1.80908048e-03,
       5.49786957e-03, 9.54762625e-04, 3.39157041e-03, 8.05125292e-03,
       6.08662050e-03, -4.84096399e-03, 2.42504990e-03, 1.37771554e-02,
       3.13963764e-03, -3.53796961e-04, 2.25799135e-03, -5.52073261e-03,
       -8.99227802e-03, -1.23071717e-02, -5.26666176e-03,
       -4.55531338e-03, 6.11337018e-04, 3.77082871e-03, 6.06646948e-03,
       -6.30576303e-03, -6.74986606e-03, -6.92814030e-03,
       -1.12093966e-02, -4.69628628e-03, -7.77079025e-03, 5.47565112e-04,
       1.29736103e-02, 2.41676569e-02, -5.91096887e-03, -4.03172709e-03,
       -8.28673504e-03, -1.09669548e-02, -7.19911465e-03,
       -7.66538689e-03, -1.25887233e-03, 9.67350847e-04, 1.08143231e-02,
       -7.41179008e-03, -2.45544990e-03, -6.65907701e-03,
       -9.13566258e-03, -3.58632242e-04, -8.32021050e-03, 2.15833099e-03,
       2.56590592e-03, 1.10038482e-02, -5.68466401e-03, -6.30108546e-03,
       -7.73190567e-03, -6.09453535e-03, -3.92133836e-03,
       -6.72664028e-03, 2.60102400e-03, 8.81487317e-03, 1.02732349e-02,
       -6.74180547e-03, -3.80175537e-03, -9.12702736e-03,
       -4.90932446e-03, -7.82891992e-04, 1.27836212e-03, -3.26512312e-03,
       -1.74637837e-03, 5.54149970e-03, -2.89700134e-03, -4.46516089e-03,
       -3.56585602e-03, -5.49059641e-03, 1.57007098e-03, 3.29827284e-03,
       -2.71212915e-03, -6.16710773e-03, 4.90521686e-03, 4.28547151e-03,
       -6.57386892e-03, -5.66834537e-03, -2.82395631e-03,
       -2.32929550e-03, -5.07188262e-03, 6.16859319e-03, 3.28763179e-03,
       5.43217454e-03, -3.05394013e-03, -2.05961498e-03, -7.53631629e-03,
       -9.04597621e-03, -3.64452344e-03, 6.34498487e-04, 4.16939904e-04,
       -1.25630962e-04, 6.47348724e-03, 5.03056217e-03, -4.70654154e-03,
       5.93586301e-04, -5.47437230e-03, 2.53518554e-03, 5.66152623e-03,
       3.21380585e-03, -2.37683835e-03, 6.56073028e-03, -3.22716747e-04,
       -4.00041090e-03, 1.21531272e-02, 4.07715421e-03, -1.27530824e-02,
       -1.16961561e-02, 2.48841778e-03, 6.43509766e-03, 1.61881018e-02,
       2.00276892e-03, 4.22113168e-04, -2.17701425e-03, -4.47702454e-03,
       -3.19872377e-03, 1.66686880e-03, 2.07356038e-03, -3.35889257e-04,
       8.04734789e-03, 3.29232728e-03, -1.41137303e-03, 3.39694880e-03,
       -1.86782374e-04, -1.06262229e-02, -1.39076151e-02,
       -2.34267372e-03, 5.92765817e-03, 1.26700941e-02, 1.83522166e-03,
       7.24914717e-03, 4.91979392e-03, 4.71168337e-03, -9.05668084e-03,
       -4.03403491e-03, -7.26360420e-04, 5.05019631e-03, 1.17789698e-03,
       -5.23392158e-03, 9.24443733e-03, 8.57137330e-03, 7.95881916e-03,
       -2.26535043e-03, 3.67975066e-04, -4.42999136e-03, 5.33677638e-03,
       -1.97799574e-03, -2.24593747e-03, -1.69447623e-03, 7.26085855e-04,
       -2.43504019e-03, -3.00931116e-03, -2.97304033e-03, 1.80508045e-03,
       6.78577973e-03, 1.43752422e-03, -9.32996534e-03, 2.61404290e-04,
       2.26971018e-03, -6.32652966e-03, 3.70376540e-04, 1.62196194e-03,
       -1.09366688e-03, 8.13147333e-03, 3.78600438e-03, -1.24982581e-03,
       1.26243355e-02, 4.24211659e-03, 2.13703327e-03, -1.45350688e-03,
       3.95473652e-03, 4.02623089e-03, 2.01554056e-02, 1.53916329e-02,
       3.30039859e-03, -4.02529957e-03, 1.40946289e-03, -5.77036757e-03,
       -3.51974764e-03, 6.35191449e-04, 3.11812921e-03, 8.43175873e-03,
       1.28232804e-03, -1.23779401e-02, 5.42479521e-03, -1.11233699e-03,
       -8.51469301e-03, 7.69693404e-04, 2.43237545e-03, 4.15500626e-03,
       -1.85721190e-04, 6.21961663e-03, 3.31315980e-03, 2.57044961e-03,
       -3.27937864e-03, -4.75046132e-03, 2.87590665e-03, -2.67874007e-03,
       -6.35612383e-03, -6.06970768e-03, -9.85214580e-03,
       -2.89858971e-03, 1.69285585e-03, 8.55242368e-03, -1.98045420e-03,
       -3.02079972e-03, -6.90247770e-03, -5.68495132e-03, 1.96426269e-02,
       5.47670107e-03, -1.39960647e-03, -9.74916667e-03, 1.93087908e-03,
       -3.14026466e-03, -1.02165574e-02, -9.75024141e-03,
       -8.97323713e-03, 4.04611276e-03, -1.99323450e-03, -1.16741946e-02,
       7.28216534e-03, 9.15057585e-03, 2.64731748e-03, 1.42122284e-02,
       6.53717667e-03, 1.92502588e-02, 8.60289298e-03, 7.00963847e-03,
       3.06216651e-03, -3.21739144e-03, -2.89657083e-03, -7.25626526e-03,
       1.18164951e-03, 4.14974196e-03, 4.81601432e-03, 4.48182551e-03,
       -1.42642937e-03, -9.43079591e-04, -1.99927343e-03,
       -2.65567540e-03, -4.47758334e-03, -1.07139079e-02,
       -9.77766421e-03, -8.47966224e-03, -1.12405757e-03,
       -1.25822974e-02, -6.58441475e-03, 7.73105677e-03, 6.27589738e-03,
       2.63178721e-03, 1.11187156e-02, 4.56260471e-03, 8.33601411e-03,
       1.93091214e-03, 7.76028435e-04, 1.05961051e-03, 6.30236114e-04,
       -1.07033266e-04, -2.50522280e-03, -4.53834375e-03,
       -1.17487106e-02, 2.73110718e-03, 1.08605819e-02, -7.80951418e-03,
       -4.57786815e-03, 4.95784590e-03, 5.89939021e-03, -4.94996551e-03,
       1.48485899e-02, 3.68034421e-03, 2.42836159e-02, 1.47011876e-02,
       1.70900032e-03, 3.27658886e-03, 1.22883488e-04, -4.08871938e-03,
       -6.44233776e-03, -5.48480405e-03, -2.82533141e-03,
       -6.36929134e-03, -6.48173876e-03, -4.23842482e-03,
       -3.06838704e-03, 1.03389872e-02, 7.38470536e-03, 1.85538479e-03,
       7.35517032e-03, 7.07531115e-03, 1.13511402e-02, 3.76107567e-03,
       -6.87675376e-04, 6.47834688e-03, -6.06641779e-03, -2.07079691e-03,
       -2.91395606e-03, -6.35002786e-03, -7.24897580e-03, 7.75143830e-03,
       7.76133128e-03, 2.51048082e-03, -2.10381695e-03, -1.01949263e-04,
       7.39229145e-03, 4.29431535e-03, 9.78328567e-03, 5.50134899e-03,
       4.29603038e-03, -2.23510223e-03, -9.84192011e-04, 1.69690757e-03,
       6.90245023e-03, -2.29080999e-03, -1.10494031e-03, -2.79174885e-03,
       1.21767039e-03, -8.45447648e-03, 1.14002025e-04, -6.31114841e-03,
       2.63889972e-03, 8.55660811e-03, 5.17869601e-03, -3.29500693e-03,
       1.05729117e-03, 1.20498228e-03, -2.92984047e-03, -2.35564495e-03,
       -3.79703264e-03, -1.07003027e-03, 3.14586400e-03, 7.60079070e-04,
       -4.43009287e-03, -1.13152815e-02, -2.14261236e-03,
       -4.51789424e-03, -1.09520450e-03, 1.66205433e-03, 8.56848154e-03,
       4.70967265e-03, 3.33133852e-03, 2.96204677e-03, 4.18878655e-04,
       -2.77516129e-03, -5.45827067e-03, 2.73106131e-03, 1.42993603e-03,
       1.83301116e-03, -2.02539400e-03, 2.52971845e-03, -4.30708547e-04,
       -2.97779008e-03, -6.37045270e-03, -5.25614154e-03, 3.53414542e-03,
       -2.04017013e-03, -1.49438344e-03, -5.74228168e-03, 1.20645314e-02,
       2.86694919e-03, 6.49515959e-03, -3.83204967e-03, -7.44539546e-03,
       -1.65834441e-03, -3.74844763e-03, -5.40255895e-03,
       -2.41523143e-03, -1.65326626e-03, -2.79712863e-03,
       -3.39449313e-03, 2.87187664e-04, -4.07901686e-03, 8.19621701e-03,
       -7.29986932e-04, -2.76744924e-03, 5.76396997e-04, 1.30645593e-03,
       -5.75936912e-03, -4.19049151e-03, -1.97060546e-03, 4.65148732e-05,
       4.95900447e-03, 2.15957616e-03, -1.06770301e-03, -3.08800722e-03,
       -4.41351626e-03, 3.28414887e-03, -1.19503483e-03, -2.73856148e-03,
       -7.06731854e-03, -2.85208202e-03, -1.13857107e-03,
       -7.69598363e-03, 1.81437854e-03, -9.15890560e-04, 3.75630078e-03,
       5.35683415e-04, -8.23821221e-03, -2.94501777e-03, 2.51792255e-03,
       3.07975512e-04, 2.59506260e-03, -3.39018251e-03, -6.50377059e-03,
       -2.56565888e-03, -5.40859718e-03, -1.05458274e-02, 5.13603818e-03,
       -4.72322339e-03, -1.29190553e-03, -1.64511276e-03, 2.04079971e-03,
       6.53977404e-05, 2.03803019e-03, -1.62635779e-03, -1.30593346e-03,
       2.24776939e-03, -3.24895489e-03, 1.47798262e-03, -2.80973641e-03,
       5.27505204e-03, 3.08286311e-04, -3.60899349e-03, -2.76355422e-03,
       3.89036234e-03, -1.76369969e-03, -3.91221978e-03, -2.11986317e-03,
       4.98742284e-03, 1.47719600e-03, 1.68869621e-03, -5.08424069e-04,
       6.65330910e-04, -2.86904466e-03, -2.34375242e-03, -2.28594546e-03,
       -2.56250938e-03, 6.72413211e-04, 3.73146008e-03, 5.47450408e-03,
       4.19835467e-03, 3.93824698e-03, 5.45195024e-03, 2.30990420e-03,
       -6.12855377e-03, -1.80137402e-03, -2.33480264e-03,
       -1.13476394e-03, -9.79666715e-04, -1.81709009e-03,
       -8.57948733e-04, -9.64126643e-03, -3.05545866e-04,
       -4.15691873e-03, 6.40582433e-03, -4.94289165e-03, -1.62295613e-03,
       2.46270024e-03, -4.83386545e-03, 3.06433951e-03, 1.27913132e-02,
       7.24966312e-03, 2.89611606e-04, 1.54672202e-03, 2.22048489e-03,
       -1.23459473e-03, -1.17939443e-03, -1.10029047e-02,
       -4.95682983e-03, 1.74435193e-03, -2.12464761e-03, -9.19733290e-03,
       -3.73931183e-03, 5.41008136e-04, 6.87816821e-04, 3.87100456e-03,
       -4.95485310e-03, 1.12096872e-03, 6.62987400e-03, 5.40388236e-03,
       3.35584569e-04, 7.35897291e-03, 5.77870337e-03, 4.43070108e-04,
       7.03741331e-04, -5.54377073e-03, 2.42997566e-03, -1.00372802e-03,
       -5.82394248e-04, -1.54175155e-03, -1.17164501e-03,
       -9.47805005e-04, -2.55446602e-03, -4.60337149e-03,
       -1.00123091e-02, 5.93959540e-03, 8.05758778e-03, 3.50111420e-03,
       -1.63204055e-02, -3.80829698e-03, -7.93067215e-04, 4.73509450e-03,
       -2.32195714e-03, -9.61565878e-03, 4.41143569e-03, 5.58245694e-03,
       5.61651168e-03, -4.87031043e-03, 1.97906559e-03, 6.07409608e-03,
       -5.66720404e-03, -5.12080593e-03, -1.18340738e-02, 1.66067686e-02,
       1.69834425e-03, 1.52168947e-03, -9.26662050e-03, -8.21948610e-03,
       -5.02701523e-03, -2.70039868e-03, -4.80748108e-03,
       -1.11178244e-02, -1.12514157e-04, -9.25831776e-03, 1.09245246e-02,
       -7.94606470e-03, -7.30819651e-04, -3.18759913e-03, 4.78218077e-03,
       -1.12368551e-03, -4.09979885e-03, 3.82819300e-04, 3.71765788e-03,
       -9.23963357e-03, -4.93873470e-03, -2.44437554e-03, 1.29490902e-04,
       7.32955988e-03, 7.92062748e-03, 1.01162568e-02, 7.09254015e-03,
       4.95603820e-03, 3.54860793e-03, 8.57676566e-03, 5.51878009e-03,
       7.03882379e-03, -6.70602953e-04, -6.84804097e-03, -5.42489393e-03,
       6.25940098e-04, 2.61445134e-03, -2.27962830e-03, -5.34075685e-03,
       -2.37684371e-03, -3.83394118e-03, 1.70371251e-03, 6.94531435e-03,
       4.29183105e-03, 7.33315665e-03, -7.79234152e-03, 2.29636044e-03,
       2.54980591e-03, 8.57257191e-03, 6.25506043e-03, 6.01197779e-03,
       1.44197722e-03, 2.87484308e-03, -3.63832037e-03, 5.13348822e-03,
       -3.08388704e-03, 2.71082949e-03, -1.95369757e-05, 6.37925323e-03,
       4.11457801e-03, 2.50259694e-03, 3.26056499e-03, 2.75977934e-03,
       4.98732412e-03, -2.30588554e-03, 6.27857575e-04, -4.12701210e-03,
       2.21973751e-03, -4.61163651e-03, 4.58865054e-03, 4.19925014e-03,
       -1.31625787e-03, 9.56266467e-03, -2.44292431e-03, -8.57710186e-03,
       -4.11521550e-03, -7.49484031e-03, -1.62931014e-04, 1.78368518e-03,
       6.98554236e-03, 3.36155738e-03, 3.62762978e-04, 2.12996779e-03,
       -3.31644830e-03, -6.30255695e-03, -2.58824672e-03,
       -2.41943938e-03, -4.47304035e-03, 6.31789025e-03, 2.45030108e-03,
       1.05113704e-02, -8.63119960e-03, -6.11975836e-03, -9.87210125e-03,
       -3.56633286e-03, -3.05659079e-04, -1.08858030e-02, 9.95808467e-03,
       1.19093060e-02, 1.33323940e-02, -3.51920282e-03, 9.95226903e-04,
       -6.97524846e-03, 5.69400145e-04, 7.18196970e-04, -4.81505552e-03,
       5.48790907e-03, 1.04233203e-03, -2.60772998e-04, -8.59207753e-03,
       -8.96001700e-03, -1.30072478e-02, -4.60190978e-03, 3.40027007e-04,
       -8.48769397e-03, -3.61000537e-03, -6.93614176e-03, 1.21047851e-02,
       -3.00149294e-03, 3.43003357e-03, -1.11667542e-02, -5.46269584e-03,
       -3.19310371e-03, -1.96970347e-02, -2.69162375e-03,
       -1.21011469e-03, 1.22778760e-02, -7.57880276e-03, 2.57779117e-04,
       -2.21562106e-03, 1.29245792e-03, -3.18206358e-03, -1.07209978e-03,
       1.13218662e-03, 1.12114167e-02, 4.90803365e-03, 7.60526769e-03,
       1.32923573e-02, -5.02808078e-04, -1.87352198e-04, 3.16816778e-03,
       -1.57603640e-02, -1.12654138e-02, -1.47972852e-02, 8.11418518e-03,
       -8.83925986e-03, 9.20342468e-03, -2.49526813e-03, 1.68402155e-03,
       1.39392004e-03, -7.80976377e-03, 8.85557570e-03, 7.65678124e-04,
       -3.08847893e-03, 1.55780185e-03, 2.22661309e-02, 7.19352392e-03,
       -3.80501989e-03, -1.28055513e-02, 3.87335103e-03, 1.46175092e-02,
       7.94346165e-03, -3.79765662e-03, 3.98217840e-03, 6.85316930e-03,
       -1.12817774e-03, -5.71334641e-03, -1.44968275e-02, 1.25128673e-02,
       4.26946348e-03, 7.89007358e-03, -9.80225764e-03, -8.84446036e-03,
       -9.39955283e-03, -6.36138720e-03, -7.14765454e-04,
       -2.61734682e-03, -1.69259927e-03, 1.09363217e-02, -6.89901179e-03,
       -1.51728960e-02, -2.68492848e-03, 1.20601729e-02, 5.48953656e-03,
       -3.11041484e-03, 7.37969414e-04, 1.24230599e-02, 1.73455942e-03,
       -1.40365921e-02, -6.66250149e-03, -7.95432646e-03,
       -1.82608480e-03, -1.40229997e-03, 6.19971761e-05, -1.73432343e-02,
       1.08262785e-02, 1.25082480e-02, -7.31838588e-03, -6.46544900e-03,
       -4.15037712e-03, -1.17095793e-02, -1.00522777e-02,
       -4.92487196e-03, -1.82654504e-02, -6.24313205e-03, 1.97007181e-03,
       1.14313019e-02, -6.64946623e-03, -3.88064398e-03, 2.39752815e-03,
       -1.04814069e-03, -7.24954903e-03, -1.02839048e-03, 2.08708439e-02,
       9.84199997e-03, -1.77315809e-02, -1.96159557e-02, -1.21572418e-02,
       -5.88255795e-03, -1.03072114e-02, -9.22721252e-03,
       -1.50344493e-02, 1.10781062e-02, 3.46652698e-03, -1.27986548e-02,
       -2.09503360e-02, -1.39154932e-02, -5.91674075e-03,
       -6.15242636e-03, -1.05973994e-02, -7.80384475e-03,
       -1.18545890e-02, 1.48542523e-02, 6.12378214e-03, 9.01151262e-03,
       1.43178762e-03, 4.95436834e-03, 8.45912192e-03, 1.46340125e-03,
       -6.34683296e-03, -4.95147565e-03, 6.44962583e-03, 7.97680672e-03,
       5.28716622e-03, 1.30895143e-02, 1.13650458e-02, 1.01973685e-02,
       -1.52213813e-03, -1.04439324e-02, -5.28962817e-04, 4.30786517e-03,
       -4.16265661e-03, -5.56465995e-04, -1.03913844e-02,
       -6.67344732e-03, -1.36268407e-03, -3.14422720e-03,
       -1.22299595e-02, 9.99427959e-03, 6.63047284e-03, 1.38496850e-02,
       2.70815496e-03, 3.83914006e-03, 3.16672609e-03, 4.95262817e-03,
       -7.17541610e-04, -3.19632958e-03, -4.11084155e-03, 1.40040638e-02,
       -6.98161870e-03, 3.94633425e-05, -1.96329551e-03, 6.69777219e-04,
       -4.65087127e-03, -5.18098427e-03, -2.58094340e-04, 2.10754736e-03,
       8.47664836e-04, 1.14063313e-03, 7.22478610e-03, -1.12721242e-03,
       -2.94360146e-03, -6.72798278e-03, 4.72228602e-03, -2.14365381e-03,
       6.51704147e-03, 1.36307674e-02, -6.71110989e-04, 7.03230547e-03,
       -3.87446536e-03, 8.91337346e-04, -7.02366524e-04, 6.25615939e-03,
       3.82338068e-03, -4.93873330e-03, 1.60509115e-03, -4.57250280e-03,
       -3.23630916e-03, -3.76673322e-03, 7.48970499e-03, 1.02387210e-02,
       4.93612140e-03, 1.70917716e-02, -5.98178431e-03, -1.44588798e-02,
       -2.86573754e-03, -1.00918545e-03, -4.80046263e-03,
       -5.63061796e-03, -1.15592945e-02, 1.39640681e-02, 1.91071127e-02,
       -2.14920426e-03, -7.26800831e-03, -8.21573287e-03,
       -1.21702021e-02, -9.96346958e-03, -3.62648326e-03,
       -1.63118038e-02, 1.27733359e-02, 1.25587285e-02, -1.33572966e-02,
       -1.22812744e-02, -6.58553187e-03, -2.89300177e-03,
       -3.38336523e-03, 7.07560917e-03, 5.42667403e-04, 1.18777165e-02,
       2.49468349e-03, -8.60006735e-03, -3.04397708e-03, -2.96576717e-03,
       -4.28568386e-03, -2.05694162e-03, 1.79844741e-02, 1.59299141e-03,
       -1.06967306e-02, 3.68775404e-03, -5.92575198e-05, 1.97690148e-02,
       7.74380984e-03, 5.15048334e-04, 2.14663940e-03, 1.51532218e-02,
       -7.86828622e-03, -1.37796742e-03, -2.70265993e-03,
       -1.04093831e-02, 4.46197344e-03, 1.06823416e-02, -6.17023185e-03,
       -7.63499411e-03, -4.92189405e-03, -1.41286477e-02,
       -7.82248843e-03, 6.67014625e-04, -3.10383434e-03, 8.91655870e-03,
       2.73687998e-03, 1.08745797e-02, 1.64215565e-02, 2.97637731e-02,
       2.02455726e-02, -3.66496691e-03, -1.13484692e-02, -1.39218392e-02,
       -1.65846981e-02, -1.78360697e-02, -2.36215466e-03, 2.13309769e-02,
       1.95648484e-02, -7.52776163e-03, -2.16507595e-02, -4.38789284e-04,
       -8.23176373e-03, 5.46436850e-03, 8.23477376e-03, -6.50126208e-03,
       -3.26098502e-03, 1.23735135e-02, -3.86188715e-03, 1.85336836e-03,
       5.06546116e-03, -1.50283589e-03, -1.03016486e-02, -4.01505409e-03,
       -9.92236286e-03, -7.08670123e-03, -1.30798889e-03, 2.70130066e-03,
       3.35426698e-03, 4.40653414e-03, -6.16410631e-04, -4.91678854e-03,
       -7.96890259e-03, 1.43450592e-03, 1.88970398e-02, 2.10723355e-02,
       1.08379340e-02, -1.69102766e-03, 1.66664342e-03, 2.73228274e-03,
       4.56449081e-04, -7.88506307e-03, -4.33317502e-04, 1.47559829e-02,
       7.70914648e-03, -1.15180046e-04, -4.30154469e-04, 5.34649892e-03,
       4.44838265e-03, -8.28080345e-03, -7.23668328e-03, 1.36671611e-03,
       -2.30685226e-03, 1.46175995e-02, 5.20935748e-03, 1.65529503e-03,
       4.04177979e-03, 7.73503736e-04, -1.09462626e-02, -1.50193432e-02,
       -9.68579575e-03, -7.63190305e-03, 1.84255764e-02, 6.00708183e-04,
       -2.36081658e-03, 1.38735780e-02, 3.91008519e-03, 6.56542787e-03,
       5.11318352e-03, 1.01977959e-02, 7.15514040e-03, 1.81114059e-02,
       1.31340986e-02, 8.78426153e-03, 2.59301555e-03, -4.76265978e-03,
       -1.69273205e-02, -4.74062748e-03, 2.36301241e-03, -5.46457665e-03,
       4.31596115e-03, 8.67112190e-04, -2.10185209e-03, 1.28134238e-02,
       8.89689475e-03, 5.05101634e-04, -2.98233959e-03, 1.54793460e-03,
       5.47738047e-03, 3.30712497e-02, 4.31511691e-03, 2.52009905e-03,
       3.63609008e-03, 4.64715669e-03, 9.55199543e-03, 7.84342177e-03,
       1.30402762e-03, 8.25619884e-03, 6.90132426e-03, -6.46115746e-03,
       -5.23590017e-03, 8.27680156e-03, -4.04253602e-03, -1.31481616e-02,
       -7.55757885e-03, 1.92519359e-03, -7.32485298e-03, 6.19716896e-03,
       5.80316351e-04, 6.45544566e-03, -4.37325612e-03, -4.13388852e-03,
       3.59088276e-03, 4.29986976e-03, 8.04167124e-04, -3.71454586e-03,
       -6.48259651e-03, -6.03325060e-03, -4.91786702e-03, 8.61184206e-03,
       6.07571704e-03, 1.54650230e-02, 2.24410724e-02, 7.48412730e-03,
       1.75111145e-02, -1.08025724e-03, -1.00601371e-02, 9.98178497e-04,
       9.40312073e-03, 1.33241247e-03, 4.25959792e-04, 1.33183375e-02,
       2.19081249e-03, 2.22811918e-03, -1.77440010e-02, -1.20251216e-02,
       4.59051272e-03, -6.56138780e-03, -1.73608272e-03, 1.57030839e-02,
       1.80509649e-02, 1.40017527e-03, 3.87068249e-05, -1.16244750e-02,
       -7.43691437e-03, -9.01601464e-03, 4.77268267e-03, -2.19676644e-03,
       9.98729747e-03, 1.03508504e-02, 4.64681623e-04, -5.69886668e-03,
       -1.44846858e-02, -1.22405181e-03, 1.37529941e-03, 1.09698297e-02,
       2.04571243e-03, -4.17466741e-03, 8.48623551e-03, -5.82922203e-03,
       -4.13393322e-03, -6.96058664e-03, 7.12566962e-03, 2.63307616e-03,
       2.30500405e-03, -1.65432028e-03, -4.81838780e-03, 1.84233172e-03,
       -7.15622306e-03, -1.49791013e-03, 6.22552447e-03, 1.09264003e-02,
       -1.23388087e-03, 5.27116749e-03, 1.36205764e-03, -2.69620476e-04,
       3.84231959e-03, -1.03973330e-03, -1.73956901e-03, -6.50014821e-03,
       8.29747226e-03, 4.47760709e-03, -6.57091441e-04, 2.34317663e-03,
       -4.77803173e-04, 7.69750075e-03, -5.34253777e-04, 1.05056039e-03,
       -7.25141307e-03, 6.03654003e-03, 1.66128913e-03, -6.58800639e-03,
       -8.39136832e-04, -3.75248166e-03, -2.99079600e-03,
       -7.62934214e-04, 9.97052621e-03, 1.54823298e-02, 1.96391041e-03,
       -7.98643101e-03, -4.21370612e-03, -5.34536317e-03,
       -4.70594782e-03, -5.90205239e-03, -3.62563733e-05, 7.90610351e-03,
       1.11446064e-03, 6.59646350e-04, -5.96777536e-03, -1.67460588e-03,
       3.35443299e-03, 4.60109767e-03, 6.37600245e-03, 4.25862148e-03,
       -1.50886283e-03, -3.57089797e-03, -1.44566002e-03,
       -8.96173064e-03, -7.60319969e-03, -2.85360543e-03,
       -8.46885552e-04, -7.12697743e-04, 2.20459653e-03, 4.25941823e-03,
       -2.08511227e-03, 2.15606322e-03, -1.02925738e-02, -1.41755270e-03,
       -3.05488380e-03, -3.87105159e-03, -4.93097538e-03,
       -5.08684153e-03, 8.62149347e-04, 2.05246639e-03, 6.38576830e-03,
       -1.85575197e-03, 3.24902658e-06, 2.16072169e-03, 6.52298215e-04,
       -4.04956611e-03, -9.42795444e-03, -6.92615006e-03,
       -2.29115481e-03, 5.25074720e-04, -2.15887302e-03, 8.52532743e-04,
       3.40630184e-03, 8.50585464e-04, 2.96884961e-03, 8.42271466e-03,
       4.89663566e-03, -5.12814033e-04, 6.06948929e-03, -1.08679861e-03,
       5.22219576e-03, 5.55583695e-03, -1.11644013e-05, 8.18142295e-03,
       5.48173557e-04, 1.57241023e-03, -4.54287138e-03, 9.43597686e-03,
       -2.02220399e-03, -4.01005941e-03, -4.43790387e-03,
       -5.33779338e-03, 8.24191200e-04, -1.13474336e-02, -6.32229436e-04,
       2.35433062e-03, -3.78424628e-03, -1.06147202e-02, -3.52285220e-03,
       1.28250849e-03, -8.75601452e-03, 1.36521715e-03, -8.53442866e-03,
       1.21742431e-02, 1.00251753e-02, 9.08812601e-03, -7.58332061e-03,
       1.94420060e-03, 1.70112331e-03, -2.87929876e-03, 9.51009523e-03,
       2.07654480e-03, 4.51789983e-03, -1.30489813e-02, -8.76886770e-03,
       -6.92253700e-03, -1.05194973e-04, 4.89986315e-03, 4.08232166e-03,
       7.13184988e-03, 9.59946366e-04, 1.50723364e-02, -3.80992715e-04,
       -3.26621532e-03, -1.97271700e-03, -1.04146090e-03, 1.75476784e-03,
       -7.99800456e-03, 4.30068886e-03, 3.89760523e-03, 9.85846948e-03,
       4.11457010e-03, 5.27136773e-03, -5.97112952e-03, 2.97163893e-03,
       -6.02512015e-03, -3.37654422e-03, 1.08211359e-03, -7.96394516e-03,
       -8.67199898e-03, 2.23173620e-03, -1.08014392e-02, -2.74289283e-03,
       -5.53142186e-03, -2.59018014e-03, 6.93772268e-03, 1.29391951e-02,
       1.04186649e-03, 5.12101594e-03, 3.57006048e-03, -6.52826799e-04,
       -5.02700545e-03, -1.81689928e-03, -6.81828987e-03, 2.81622331e-03,
       4.10697714e-04, -7.37549854e-04, -1.46842096e-02, -5.66772325e-03,
       -7.67429918e-03, 4.92191687e-03, -1.70171610e-03, -1.11677861e-02,
       -1.15521494e-02, 3.21154553e-03, 6.35364838e-03, -9.73108516e-04,
       -4.69955569e-03, -8.49888101e-03, 8.89233081e-04, -1.24314392e-03,
       -1.00861751e-02, -9.11191572e-03, 3.46201542e-03, -2.73204385e-03,
       7.16064824e-03, -5.46697946e-03, -7.10632699e-03, 2.19519623e-03,
       -3.53683275e-03, -9.35686380e-03, 1.25363981e-02, 1.83823816e-02,
       9.58178099e-03, -6.93037000e-04, -1.31207593e-02, -1.41457440e-02,
       1.65522413e-03, -2.67605856e-03, -5.73639572e-03, 4.61905962e-03,
       2.47713272e-02, -2.43775011e-03, 5.12825698e-03, -1.12140051e-03,
       -1.74044725e-02, -8.14299751e-03, 1.59398129e-03, -5.09073678e-03,
       -1.31388884e-02, -9.93963238e-03, -8.77335854e-03, 3.59749212e-03,
       4.34507802e-03, -6.41951943e-03, 7.00930192e-04, -1.01913745e-03,
       -3.44504311e-04, -8.38779192e-03, 3.67835886e-03, 1.28665613e-02,
       1.26897562e-02, 3.33028357e-03, -7.80604873e-03, 1.95051369e-03,
       -1.23503478e-03, -7.10759452e-03, -1.15825478e-02, 7.69894337e-04,
       2.88394047e-03, 1.29314745e-02, 1.65050700e-02, -5.32481167e-03,
       -3.49953794e-03, -9.40517895e-03, -6.85082003e-03,
       -4.76643583e-03, 1.17026949e-02, 2.12169206e-03, 1.15752807e-02,
       -1.33634359e-02, -1.00204293e-02, -7.15561863e-03,
       -8.51755869e-03, -4.09974670e-03, -6.54891925e-03,
       -8.06782208e-03, -2.46279244e-03, 1.10000884e-02, 1.27324171e-03,
       -5.54780569e-03, -4.01133671e-03, -7.43812695e-03, 3.25188646e-03,
       -5.46375348e-04, 1.64577889e-03, 2.77321693e-03, -1.69824960e-03,
       -9.10417736e-03, -6.96599623e-03, -4.40201489e-03,
       -8.44034646e-03, -2.69943476e-03, -8.96559283e-03,
       -7.48382276e-03, 5.86876820e-04, 9.10126418e-03, -4.76213545e-03,
       -8.13137926e-03, -1.15349900e-03, -6.93489239e-03, 4.21215221e-03,
       7.19410542e-04, -7.39943609e-03, 1.01880054e-03, 4.91818599e-03,
       2.64818803e-03, 7.72187661e-04, -3.37629113e-03, -3.73891764e-03,
       -8.16774496e-04, -3.03831045e-03, -7.79212499e-03, 4.24750324e-04,
       -5.24277892e-03, -3.23742890e-04, -3.39558511e-03, 1.15972862e-03,
       1.70792022e-03, 1.74268149e-03, -4.07825364e-03, -1.70929031e-03,
       2.38285029e-05, 3.04420874e-03, -1.47567282e-03, -4.51840740e-03,
       -4.80459275e-04, 1.88314647e-03, -1.01141166e-03, 1.36420957e-03,
       -6.62806816e-03, -2.68527656e-03, -3.07342666e-03, 1.25740271e-03,
       2.61521130e-03, 1.63000880e-03, 5.09965606e-03, -2.09235819e-03,
       6.60738151e-04, -1.46020509e-04, -4.02798469e-05, 2.08265590e-03,
       4.96842759e-03, 3.98298842e-04, 1.77715812e-03, 4.38956777e-04,
       6.29072951e-04, -7.58117181e-04, -5.78594278e-04, 2.07443628e-03,
       1.22315064e-03, 6.55348413e-03, -1.44428923e-03, 1.43165095e-03,
       -1.02462480e-03, -2.39863875e-03, -7.75940111e-03,
       -6.49091322e-03, -2.40749167e-03, -1.78940489e-03, 6.78559626e-03,
       5.03539527e-03, 2.20799842e-03, 2.52998015e-03, -4.22779098e-03,
       4.33011533e-04, 1.41405209e-03, -5.24250092e-03, -1.13668421e-03,
       3.72887985e-03, 1.85425699e-04, 9.57196485e-03, 3.28003266e-03,
       -3.15163587e-03, -5.76527836e-03, -2.46039499e-03,
       -5.55672217e-04, -6.82242028e-03, 2.72096088e-03, 7.70899584e-04,
       6.53263461e-03, 3.76857980e-03, -4.66238055e-03, -6.27173856e-03,
       -6.41211215e-03, -2.03408184e-03, 5.01197064e-03, 2.86400609e-04,
       2.10117339e-03, 1.41972047e-03, -1.45230442e-03, -8.53731472e-04,
       6.82353158e-04, -1.30412256e-04, -3.65287228e-03, -1.44640612e-03,
       6.80368918e-04, 5.91342431e-03, -5.81237534e-03, 2.62880116e-03,
       6.00397075e-03, -5.72093530e-03, -3.68211535e-03, 2.92280922e-03,
       -3.81936878e-03, -3.95156397e-03, -1.85630005e-03, 1.35780824e-03,
       -5.25905692e-04, 2.11199792e-03, 2.80637003e-04, 4.08998400e-04,
       -5.56082837e-03, -2.06014910e-03, 2.23924359e-03, 4.38627740e-03,
       -1.06729858e-03, 1.33662950e-03, -1.77645835e-03, 4.11402143e-04,
       2.74601812e-03, 6.36406767e-04, 3.83000146e-03, -9.76893934e-04,
       1.37283094e-03, -3.08493372e-06, 3.26408935e-03, 3.40699079e-03,
       -1.00040308e-03, 5.25481650e-04, 3.98458261e-03, 6.96294417e-04,
       -2.02139537e-03, 1.35556585e-03, -9.09642724e-04, 3.19516659e-03,
       -2.60574999e-03, -6.88612578e-04, -6.23670348e-04, 4.33045672e-03,
       3.82723077e-03, 5.28356992e-04, 9.13812022e-04, 3.86627857e-03,
       5.76469814e-04, -2.38036853e-03, -4.98698698e-03, -6.22768281e-03,
       -5.40864933e-03, -7.29498686e-03, -5.19858580e-03,
       -5.90408081e-03, -1.06308714e-03, 3.30715207e-03, 3.49991955e-03,
       -2.61428580e-03, -1.92097586e-03, 6.20400487e-03, 5.70617383e-03,
       -2.81650317e-03, 2.60514277e-03, 1.58140727e-03, -2.13040272e-03,
       -7.97030982e-04, -1.09742803e-04, 3.96665977e-03, -6.62831869e-03,
       4.89583006e-03, -3.58234299e-03, -1.19507452e-03, -9.20866150e-04,
       -1.62421819e-03, 2.88561336e-03, -1.15418306e-03, -2.36514583e-03,
       5.20562613e-03, 1.60083838e-03, -5.18566137e-03, 2.11399965e-05,
       -4.02660435e-03, -3.97526613e-03, -5.23494324e-03,
       -5.42599941e-03, -1.80612458e-03, -1.07978694e-02, 9.63416137e-03,
       -4.70585050e-03, -4.04700368e-05, -2.37474754e-03,
       -3.73413856e-03, -6.63974974e-03, -3.29379085e-03, 1.64573696e-02,
       -2.47299718e-03, 1.22125000e-02, -5.39034372e-03, -6.68798760e-03,
       -3.42328520e-03, -5.04534284e-04, -2.79467390e-03,
       -5.10244677e-03, -1.23055582e-03, -1.24267919e-03, 1.49134975e-02,
       -7.75866630e-03, -5.17897727e-03, -4.75054700e-03,
       -2.73021567e-03, -6.18627202e-03, -2.81371176e-03, 1.05912443e-02,
       -2.70856079e-04, 1.56338066e-02, 1.35210692e-04, -1.60210335e-03,
       -2.36405735e-03, 3.92867811e-03, 9.92485555e-04, -1.27421913e-03,
       -7.11314380e-03, -4.87484457e-03, 1.68112777e-02, -3.46094836e-03,
       -8.45961366e-03, -7.25525711e-03, 2.71203055e-04, -3.69431474e-03,
       -4.43854090e-03, -9.91781056e-03, 6.05111476e-03, 5.27097657e-03,
       -1.09068481e-02, -6.66053127e-03, -4.63520875e-03, 1.13566173e-02,
       1.10065443e-02, 1.39228087e-02, 4.78860270e-03, 1.81680673e-03,
       1.75995994e-02, -4.21382574e-04, 5.91875473e-03, 1.68169159e-02,
       -2.09247344e-03, -3.78547423e-03, -9.12207179e-03,
       -1.44570284e-02, 1.08961090e-02, 5.62884985e-03, -9.60544776e-03,
       -9.11781564e-03, -7.18063349e-03, 3.65321012e-03, 1.46901200e-03,
       -5.64850518e-04, -1.32612535e-03, 5.15423926e-05, 1.27069699e-02,
       4.01578285e-03, 9.36345197e-04, 1.09591354e-02, -4.63336241e-03,
       2.00666650e-03, 3.83302243e-03, -9.15196724e-04, 5.15624136e-03,
       3.39665130e-04, -7.66726397e-03, -4.59548552e-03, -6.48139603e-03,
       4.47950047e-03, 2.77433475e-03, 8.68351199e-03, 7.76666682e-03,
       9.05114459e-04, 8.06615129e-03, 5.43898146e-04, -7.30359694e-04,
       1.44438329e-03, -3.25943623e-03, -1.40089181e-03, -4.24183486e-03,
       -5.44157345e-03, 6.92757079e-04, 3.28814145e-03, 5.19947102e-03,
       2.83085019e-03, -1.98720954e-03, 4.83548222e-03, -1.47757272e-03,
       3.82865925e-04, 2.02570320e-03, -8.39402340e-03, 7.56688928e-03,
       1.32193754e-03, 2.17383169e-03, -4.84563783e-03, 4.85754013e-03,
       -5.35627687e-03, 7.10474633e-05, -1.76859170e-03, 3.99218407e-03,
       -2.41385610e-03, -2.83670658e-03, -2.42532464e-03, 3.41877062e-03,
       2.87249219e-03, -3.02850525e-03, -4.53053787e-03, -5.69589250e-03,
       5.98423602e-03, 1.88403326e-04, 1.06587373e-02, -9.78580676e-03,
       -3.15346569e-03, -1.74655777e-03, -6.62053050e-03,
       -6.61258679e-03, -1.19314687e-02, -1.06707085e-02,
       -1.20465462e-04, 1.23296464e-02, 4.30529581e-05, -6.05782261e-03,
       2.77332845e-03, -4.26196447e-03, 1.38655232e-04, -4.51240130e-03,
       -4.75147087e-03, 8.25117994e-03, 7.35575752e-03, 8.05373956e-03,
       -2.37259828e-03, 5.11944667e-03, -1.75770791e-03, 1.88873837e-05,
       -6.79204194e-03, 1.16721522e-02, -2.31984211e-03, 1.14098517e-02,
       -7.02407258e-03, 5.87916766e-05, -2.67106021e-04, 3.55536980e-03,
       1.26396837e-02, 3.49001191e-03, 2.43865885e-03, -1.28656989e-02,
       3.29339039e-03, -4.31483379e-03, -5.65995462e-03, 4.14707279e-03,
       -5.10273362e-03, 2.79460568e-03, -4.37803427e-03, 9.40249301e-03,
       4.11204854e-03, 6.81608263e-03, 7.52647640e-03, -1.37403666e-03,
       2.93707615e-03, 7.22553162e-03, 5.62797347e-03, -4.11789253e-04,
       1.41414499e-03, 8.97888653e-03, 6.27363974e-04, -2.63829227e-03,
       -2.18763991e-04, 4.76002181e-03, 7.61998026e-03, 1.53397517e-02,
       -5.84302749e-03, 5.93209220e-03, -7.37145962e-03, 1.10630589e-02,
       1.62118394e-03, -1.64442183e-03, 3.97925358e-03, -5.86205814e-03,
       -3.83302500e-03, -1.52466623e-02, 8.93193018e-03, 3.03076720e-03,
       2.35043466e-02, 3.44925234e-03, 4.65275953e-05, -4.35628789e-03,
       5.76121407e-03, 3.10538482e-04, -6.69566356e-03, 1.31521479e-03,
       1.40223028e-02, -3.64662323e-04, -1.50210399e-03, -7.01588625e-03,
       -4.95711900e-03, -8.40851199e-03, -1.41954413e-02,
       -2.05520587e-03, 1.30173471e-02, 2.07714774e-02, 1.10308481e-02,
       -1.93778600e-03, -5.13683911e-03, 1.63014361e-03, 1.19871674e-02,
       7.79190380e-03, -1.52842673e-02, -4.96130576e-03, 3.83306993e-03,
       2.03753486e-02, 4.59461519e-03, -4.58426634e-03, -1.07274307e-02,
       1.10054575e-02, 7.35107251e-03, -1.13991229e-02, -4.42380086e-03,
       -6.24473346e-03, 3.31770419e-03, -4.04849602e-03, -3.54870223e-03,
       -1.54564995e-02, -1.33142732e-02, -7.04009878e-03, 1.01611819e-02,
       1.33405896e-02, 2.29729526e-02, 1.52828358e-02, 3.19944753e-04,
       -1.14721190e-02, -1.03807924e-02, -4.26324876e-03,
       -4.68317699e-03, 9.34621505e-03, 9.34617035e-03, 5.71998721e-03,
       1.46562909e-03, 1.47285603e-03, 5.82208671e-03, -8.79140105e-03,
       -6.41494477e-03, 1.38260704e-02, -3.88052850e-03, 9.75278905e-04,
       -1.05269141e-02, -7.57390633e-03, -3.73410550e-03, 2.10350659e-03,
       -1.96572742e-03, 6.17939467e-03, 1.16263637e-02, 8.41369107e-03,
       3.09345708e-03, 4.72959690e-03, -1.34821224e-03, -1.00367209e-02,
       8.98876507e-03, -4.06301842e-04, -1.10392952e-02, -4.42234072e-04,
       9.89279033e-06, 9.06053558e-03, -2.63371854e-03, -1.46123080e-03,
       7.11381715e-03, 1.51651111e-02, 4.93268250e-03, -8.30841810e-03,
       -6.25636708e-03, 4.07065777e-03, 3.91521491e-03, 5.59911272e-03,
       2.07705866e-03, 1.22598512e-03, 1.29137132e-02, -2.47562840e-03,
