%YAML:1.0
soap--96x96--: !!opencv-object-detector-hog
   winSize: [ 96, 96 ]
   blockSize: [ 16, 16 ]
   blockStride: [ 8, 8 ]
   cellSize: [ 8, 8 ]
   nbins: 9
   derivAperture: 1
   winSigma: 4.
   histogramNormType: 0
   L2HysThreshold: 2.0000000000000001e-01
   gammaCorrection: 1
   nlevels: 64
   signedGradient: 0
   SVMDetector: [ 2.62908288e-03, 9.53217316e-03, 2.17698514e-02,
       9.99178621e-04, 4.31803381e-03, -6.89359196e-03, 1.44537529e-02,
       -5.49985934e-03, -1.32033536e-02, 3.73234064e-03, -5.71842305e-03,
       -8.48628953e-03, -1.40711088e-02, -3.58246118e-02,
       -2.18245611e-02, 6.73188688e-03, -3.26025113e-03, -1.24744105e-03,
       1.38824806e-02, -6.97911158e-03, 2.51498222e-02, 7.03885453e-03,
       -1.12505006e-02, 1.80912891e-03, 8.16204026e-03, -1.78498644e-02,
       4.41215467e-03, -1.20419590e-02, -2.59212428e-03, -7.95388012e-04,
       2.22940352e-02, -1.35880224e-02, -1.57309975e-02, 1.18402978e-02,
       -1.40832020e-02, -2.51959618e-02, -2.48830509e-03,
       -1.69204026e-02, -1.50837330e-03, 1.59483869e-02, 1.08118411e-02,
       -2.05494575e-02, 4.37623961e-03, 6.93059247e-03, -5.10450685e-03,
       1.05700092e-02, -8.45647044e-03, -1.65717527e-02, 1.53707415e-02,
       -2.08062287e-02, -1.30677531e-02, -5.71871037e-03, 5.28957881e-03,
       1.72531772e-02, 6.67370477e-05, 5.02646947e-03, 9.00720991e-03,
       1.01161897e-02, 1.59757063e-02, -2.10175347e-02, 5.32634649e-03,
       -8.46935995e-03, -9.09693260e-03, 1.26152970e-02, 1.36717251e-02,
       5.48886787e-03, 1.92042068e-02, 2.90316355e-04, -1.78051786e-03,
       1.09519242e-04, 3.05247295e-06, 1.37017872e-02, 5.77862933e-03,
       -5.52121736e-03, 7.38439243e-03, 4.43362491e-03, -1.55518642e-02,
       2.06689425e-02, 1.92580931e-03, 2.52619688e-03, 2.19398551e-02,
       -1.57805588e-02, -1.17239710e-02, 1.09201353e-02, -2.05493905e-02,
       -2.06710510e-02, 1.07696326e-02, -1.81023851e-02, 3.66797275e-03,
       -6.82092924e-03, 1.53596485e-02, -5.16375713e-03, -2.37914152e-03,
       1.31861968e-02, 8.70584603e-03, 1.07594356e-02, 3.16797965e-03,
       -5.71328041e-04, 2.26271972e-02, -1.62253007e-02, -1.33676431e-03,
       3.35024763e-03, 5.97855216e-03, -1.36000775e-02, -5.99881774e-03,
       7.01200496e-03, -2.98387138e-03, 8.80642608e-03, 1.03213368e-02,
       1.63814276e-02, -9.68340877e-03, -3.65557969e-02, -9.79481614e-04,
       9.86992661e-03, 8.50779586e-04, -3.32427025e-03, 4.17526811e-03,
       -1.21589135e-02, -3.33433163e-05, -7.72044063e-03,
       -1.04225380e-02, -1.24836862e-02, 2.17079110e-02, -8.96247756e-03,
       6.36036880e-03, -2.01904923e-02, -2.62703514e-03, 4.84255143e-03,
       -7.35209137e-03, -1.62184648e-02, -1.30616603e-02,
       -4.41379612e-03, 8.44080094e-03, -3.39267007e-03, -6.23028819e-03,
       1.15890242e-02, 1.91502727e-03, -1.48550645e-02, 7.12402398e-04,
       -1.40697684e-03, 3.83768044e-02, 1.52453426e-02, -3.02796671e-03,
       5.01448521e-03, 2.48134229e-03, 1.63219385e-02, 1.00595569e-02,
       9.89344623e-03, 1.71365179e-02, 1.69813912e-02, 5.42226073e-04,
       1.64406579e-02, 2.64488366e-02, -2.32065879e-02, 1.08083449e-02,
       7.78699759e-03, 5.00997109e-03, 6.08643517e-03, 2.14058310e-02,
       -5.00783697e-03, 4.52220766e-03, 1.69502813e-02, -1.35799765e-03,
       2.56716949e-03, -3.04960785e-03, -7.87632671e-05, -3.76008684e-03,
       2.92015187e-02, 9.85046942e-03, -2.11426616e-03, -1.73102431e-02,
       -8.66300333e-03, 3.88991437e-03, -8.48846138e-03, 6.74132723e-03,
       -1.82147864e-02, 1.80442315e-02, -5.75260026e-03, -1.26622012e-02,
       -1.36950389e-02, -1.89805757e-02, -1.33347400e-02,
       -2.01550741e-02, -1.20130237e-02, -1.44625464e-02, 1.20630125e-02,
       9.03576426e-03, 7.27421045e-03, -5.10399556e-03, 4.07079904e-04,
       -5.92811964e-03, -3.77701106e-03, -1.07611101e-02,
       -2.29507908e-02, -1.33236917e-03, 2.33034277e-03, 1.80571042e-02,
       4.53233207e-03, 9.32374410e-03, 8.56577419e-03, 2.25693546e-03,
       2.01892690e-03, -4.01068508e-04, 1.40636682e-03, 4.44969954e-03,
       -1.76260341e-02, 5.15931891e-03, 3.95003753e-03, 8.25639069e-03,
       5.38678095e-03, 1.84355192e-02, 5.24105132e-03, 1.01879602e-02,
       -1.00723293e-04, -8.41721147e-03, -9.99194197e-03,
       -1.31707517e-02, -1.26015106e-02, -7.33059645e-03,
       -9.46837850e-03, -2.72732619e-02, -8.86794180e-03,
       -8.10324494e-03, 1.01504149e-02, 4.07568552e-03, 2.61438303e-02,
       -6.20562071e-03, -1.25150308e-02, -3.23202950e-03, 1.17633976e-02,
       1.84314896e-03, -4.98699024e-03, 6.43327832e-04, -9.24914703e-03,
       4.22531506e-03, -1.23356460e-02, -5.95620833e-03, -2.33377349e-02,
       -5.22253523e-03, -9.00165644e-03, 1.00313395e-03, 9.81839839e-03,
       8.99939146e-03, 8.85496568e-03, 1.28771877e-02, 2.18340773e-02,
       -1.97669980e-03, -1.92116667e-02, 2.10452755e-03, -1.65346246e-02,
       1.44055160e-03, 4.37195267e-04, 1.01112872e-02, 2.49180780e-03,
       -6.78184500e-04, -1.72673035e-02, 2.34059598e-02, 4.43145307e-03,
       -3.31037166e-03, -1.66911110e-02, -8.28190614e-03,
       -1.16095808e-03, 1.83125865e-02, -2.44300487e-03, 6.25756569e-03,
       6.94681751e-03, 2.02867892e-02, 1.82422902e-03, -1.12814344e-02,
       -1.32473074e-02, -1.94372423e-02, -1.23229634e-03, 5.32164471e-03,
       -7.40844989e-03, 2.05595847e-02, 2.51563378e-02, -6.88110245e-03,
       -1.09090218e-02, -8.86359438e-03, -4.10924992e-03,
       -1.42934336e-03, -1.43525668e-03, -4.15246439e-04,
       -7.38362782e-03, 1.57097615e-02, -4.57701040e-03, 6.85241446e-03,
       -1.64918993e-02, 1.22107677e-02, 5.23905037e-03, -1.08037274e-02,
       1.06057376e-02, 1.44441715e-02, 4.68305638e-03, 2.27561649e-02,
       1.93914119e-02, 1.07680354e-02, -5.95779251e-03, -2.02244241e-02,
       -6.41153846e-03, -6.68860227e-03, -3.27167590e-03,
       -6.37200335e-03, 1.27922585e-02, 1.98495965e-02, -1.86790079e-02,
       -7.20294891e-03, -3.96959297e-03, -4.34168614e-03,
       -1.61033648e-03, -1.68086067e-02, -7.74952862e-03,
       -4.74852277e-03, 1.90033969e-02, 9.50503629e-03, 2.25760182e-03,
       -1.17545919e-02, 1.10002458e-02, -1.10630821e-02, -1.42526925e-02,
       -3.20986519e-03, -2.16267118e-03, -3.18475114e-03,
       -4.38680174e-03, 6.46961061e-03, -1.16635263e-02, 3.60962399e-03,
       -1.39422501e-02, 3.38365836e-03, -2.57594883e-02, -5.94627229e-04,
       9.00524482e-03, 2.95250043e-02, -9.87035595e-03, -5.09400340e-03,
       1.17310872e-02, 1.04728676e-02, -2.89720427e-02, -1.15747312e-02,
       -5.32455277e-03, -1.05029531e-02, -2.16066535e-03, 4.24333237e-04,
       -1.00579401e-02, 2.51664245e-03, -1.88222062e-02, 4.05646348e-03,
       -1.23964865e-02, -7.78495194e-03, 8.38645454e-03, -5.95848914e-03,
       -3.26189920e-02, -1.10243000e-02, -2.20574010e-02, 7.77574535e-03,
       -2.37574764e-02, 9.61767137e-03, -8.66877567e-03, 1.20995268e-02,
       -1.61212143e-02, 2.44807429e-03, 1.27931905e-03, -3.87340738e-03,
       9.46683250e-03, -2.97325458e-02, -6.61550090e-03, 4.14653122e-03,
       -1.41466046e-02, 2.85830162e-03, -1.05378153e-02, -1.88932586e-02,
       -2.46945992e-02, -2.51104380e-03, 1.70885324e-02, -5.62075106e-03,
       1.77013222e-02, 1.89059763e-04, -5.41424903e-04, 8.56588501e-03,
       -3.98497534e-04, -7.40040466e-03, 3.20703126e-02, -1.17274849e-02,
       -5.42659918e-03, -1.40511794e-02, -5.44101978e-03, 6.04102248e-03,
       -1.76689576e-03, 4.03714040e-03, -1.15017677e-02, 2.44032014e-02,
       -2.22378429e-02, 3.71428579e-03, 3.41460179e-03, -2.47363420e-03,
       -2.18694266e-02, -1.45065668e-03, -1.46231726e-02, 2.91858520e-03,
       7.23637221e-03, -2.67061894e-03, -6.99410390e-04, -1.48611469e-02,
       -1.33240735e-02, -1.77811785e-03, -1.96492765e-03,
       -1.05378926e-02, -5.37681906e-03, 6.94170780e-03, -1.17994789e-02,
       1.19796814e-02, 9.91196092e-03, -1.79925002e-02, -6.13291515e-03,
       -1.93126984e-02, -8.11518729e-03, -1.39526585e-02, 6.37507113e-03,
       -5.92495734e-03, 2.68917158e-03, -7.23293703e-03, 1.49472831e-02,
       -1.13092382e-02, -8.20586178e-03, -1.37438076e-02,
       -1.81857515e-02, 1.27029093e-03, -2.77757645e-02, -1.32035268e-02,
       -7.72161549e-03, -2.33312254e-03, 7.97099527e-03, 7.06278440e-03,
       1.74486416e-03, 9.03786253e-03, 2.75129732e-02, 1.17468024e-02,
       6.64570369e-03, 6.92147482e-03, -8.14120844e-03, -1.14915438e-03,
       -1.35510471e-02, 5.38294960e-04, -2.70749088e-02, -1.41627174e-02,
       -1.42353550e-02, 3.03455885e-03, 2.00972091e-02, -1.13573801e-02,
       -4.34643123e-03, 7.91473687e-03, -2.11602473e-03, -2.22455524e-02,
       5.34102554e-03, -1.09004444e-02, -2.65126489e-03, -8.98589008e-03,
       -2.29506008e-03, 2.56927800e-03, 3.04528419e-03, 1.13433730e-02,
       -2.34424882e-02, -9.31391586e-03, -1.67042371e-02, 2.20024474e-02,
       9.97378305e-03, 1.74885616e-03, -2.38129236e-02, 1.27444761e-02,
       1.71597302e-02, -7.74239050e-03, -1.62676033e-02, -1.87485944e-02,
       -4.50440822e-03, -6.77126879e-03, -1.65238250e-02, 9.66379605e-03,
       2.91660428e-03, 1.77257904e-03, 4.89475718e-03, 7.93816242e-03,
       -1.06744729e-02, -1.13820760e-02, -2.14690231e-02,
       -1.94976926e-02, 7.39650102e-03, 3.78310271e-02, 3.71023566e-02,
       2.84850616e-02, -1.99809447e-02, 1.81596447e-02, 1.38622252e-02,
       3.05972472e-02, 8.73032608e-04, 1.25478161e-02, 6.51681935e-03,
       3.87988463e-02, 2.66385432e-02, 1.49977282e-02, 1.39747243e-02,
       3.19233239e-02, 1.19479857e-02, 7.94821978e-03, 3.39069739e-02,
       3.10820318e-03, 6.93605328e-03, 5.68029145e-03, 2.50109495e-03,
       -3.62149975e-03, -3.55023681e-03, 1.65510252e-02, 1.07174003e-02,
       9.34692100e-03, -8.86488520e-03, -3.39395553e-03, -4.83347150e-03,
       -1.03715882e-02, -1.02067506e-02, 1.93317756e-02, 2.87144980e-03,
       -4.17775102e-03, -6.53190073e-03, 5.56538638e-04, 1.00350827e-02,
       -3.79790016e-03, -6.48065424e-03, 8.90925527e-03, 1.04727866e-02,
       2.00078283e-02, 3.37552950e-02, 2.53968798e-02, 5.45375375e-03,
       -4.64622257e-03, 2.23330986e-02, 2.66374531e-03, 8.86362046e-03,
       -1.59711968e-02, 1.81661416e-02, 2.05625929e-02, 1.04564615e-02,
       5.49900299e-03, 2.03922857e-03, -7.69207347e-03, -2.86826235e-03,
       -7.30444677e-03, 1.24100875e-02, -9.08643845e-03, -1.93772726e-02,
       -4.53140493e-03, -2.03041211e-02, -1.02921370e-02,
       -6.93622278e-03, 2.22022887e-02, -8.02472886e-03, -1.80845323e-03,
       -2.54478306e-03, -2.71076448e-02, -7.81633612e-03, 1.16556594e-02,
       5.52560482e-03, 3.26812710e-03, -1.78450104e-02, -9.18925158e-04,
       -1.74153987e-02, 1.00742737e-02, 1.65309962e-02, 7.37713557e-03,
       9.36231518e-04, 6.73105987e-03, 1.46233765e-02, 3.18934880e-02,
       4.41668928e-02, 1.73207233e-03, 2.78921332e-03, -1.17670549e-02,
       -2.86275800e-02, -1.08274603e-02, -3.04991216e-03,
       -1.67498291e-02, 2.06663627e-02, -9.96082183e-03, -2.09926516e-02,
       -7.15358322e-03, -4.28595133e-02, 3.07792472e-03, 2.19999836e-03,
       1.21610553e-03, -2.17810329e-02, -2.13465979e-03, -5.52587816e-03,
       -7.52515672e-03, 1.04783978e-02, -1.11311302e-03, 1.21982023e-02,
       5.75523358e-03, -1.32532017e-02, -4.04719776e-03, 2.63081864e-02,
       1.96366906e-02, 1.88399258e-03, -1.58258025e-02, -3.46097872e-02,
       -4.03695134e-03, 8.41533113e-03, 1.45748863e-02, 1.09456910e-03,
       2.23253351e-02, 2.43979460e-03, -7.62226712e-03, -9.85289458e-03,
       -1.36400303e-02, 3.32040433e-03, -2.01399773e-02, -1.24603901e-02,
       1.70095265e-03, -2.02574488e-02, 5.97211765e-03, -2.87548192e-02,
       1.94757469e-02, 1.79053266e-02, -1.49812372e-02, -2.94941221e-03,
       5.42663364e-03, 2.62008794e-02, -5.78824384e-03, -9.64402966e-03,
       -5.83803654e-03, -5.35428617e-03, 8.55179224e-03, -1.28345108e-02,
       -8.93816876e-04, 1.60465408e-02, 1.35911377e-02, -1.82520202e-03,
       2.81588677e-02, -1.05691329e-02, 2.94090086e-03, -7.50242081e-03,
       -4.19873511e-03, 1.33063337e-02, 4.30316711e-03, 1.43269746e-04,
       -1.82844009e-02, 2.61128824e-02, 1.67597793e-02, -5.65523561e-03,
       -6.86013745e-03, -2.31684069e-03, -5.79640968e-03, 1.11032082e-02,
       8.36792123e-03, 1.71050359e-03, -6.90689404e-03, 9.18501150e-03,
       -1.46990819e-02, 6.21634955e-03, -2.89193843e-03, 8.26319400e-03,
       -1.11529045e-02, -1.98640209e-02, 7.08450098e-03, -9.34966002e-03,
       7.72868935e-03, -1.13029219e-02, 9.28905886e-03, 3.72169749e-03,
       1.41200857e-04, 5.02511440e-03, -9.34243295e-03, -8.00064951e-03,
       2.14549694e-02, 1.64459571e-02, -3.76302633e-03, 4.52900166e-03,
       1.19376313e-02, 3.02826543e-03, 3.50654032e-03, -4.00271919e-03,
       1.53723350e-02, 5.77603094e-03, 1.81019958e-02, -1.49576524e-02,
       4.24170197e-04, -5.55777631e-04, 1.35381455e-02, 7.78543064e-03,
       3.46114091e-03, 6.04144158e-03, 1.39750065e-02, -9.80674755e-03,
       -1.12334704e-02, 7.70190358e-03, -1.07423477e-02, 1.67938378e-02,
       1.01400223e-02, 1.34864636e-02, -1.70479971e-03, 1.18884249e-02,
       6.19564764e-03, -2.09846944e-02, -3.02532339e-03, -9.98867117e-03,
       1.82357393e-02, 4.86855675e-03, 3.99805792e-03, -6.71959948e-03,
       -1.58551114e-03, -3.43568833e-03, -2.67986860e-02,
       -1.67920850e-02, 2.04765401e-03, -7.11649016e-04, -3.80172883e-03,
       -1.16225639e-02, -7.95406697e-04, 4.54307441e-03, 2.10938393e-03,
       -1.40462210e-03, 4.31715744e-03, 6.49655005e-03, 3.98200639e-02,
       -2.45651719e-03, 1.11824609e-02, -1.11908428e-02, -3.82099417e-04,
       -4.07166546e-03, -1.11843403e-02, 9.30339936e-03, 1.53390504e-02,
       1.46258138e-02, -2.98832543e-03, -3.78971314e-03, 2.38014339e-03,
       -1.99897047e-02, 1.12715447e-02, -2.44277827e-02, 1.85842849e-02,
       1.02889631e-02, 2.76703425e-02, -1.32357394e-02, 4.90942504e-03,
       -1.71329081e-02, -1.76028013e-02, -1.00490097e-02,
       -1.14214221e-04, 2.21625785e-03, 8.51417892e-03, 1.43851694e-02,
       -1.46233803e-02, 1.46735851e-02, 4.28720657e-03, -2.50171293e-02,
       2.13774852e-02, 4.45638597e-03, 1.65368281e-02, -1.91700496e-02,
       1.46980416e-02, 1.43465204e-02, -7.52444984e-03, 7.42208562e-04,
       2.21290905e-03, -1.71262526e-03, -1.42590329e-02, 1.99748762e-02,
       6.25357777e-03, -2.99240043e-03, 5.90780936e-03, -2.85971984e-02,
       9.39772557e-03, -1.34569714e-02, 8.53467919e-03, 1.67677552e-02,
       1.36494709e-04, -2.25977954e-02, 1.90703068e-02, 1.10376505e-02,
       5.38117858e-03, -1.47602940e-02, -3.43036867e-04, 1.24193067e-02,
       7.11851753e-04, 3.48994462e-03, -5.70414541e-03, 2.12084720e-04,
       1.06850127e-02, -3.50433914e-03, 1.20210310e-03, -1.51894260e-02,
       7.98995886e-03, -2.61269137e-03, -4.40250430e-03, -1.18854241e-02,
       -1.80611517e-02, 2.46686442e-03, -6.92731980e-03, 4.56633898e-05,
       2.08370690e-03, 1.47836125e-02, 9.95548535e-03, 3.25399712e-02,
       1.32421113e-03, -3.55070084e-03, 8.49364325e-03, -1.93256559e-03,
       8.55776202e-03, -7.48545909e-03, -4.75452328e-03, -6.90097502e-03,
       -1.53172733e-02, 2.69597908e-03, -5.49860625e-03, -6.99914759e-03,
       -1.26429768e-02, -5.28468378e-03, -4.07432439e-03, 1.19801331e-02,
       8.43995903e-03, 2.60168090e-02, 8.23560543e-03, -6.75890176e-03,
       2.32913485e-03, -1.02973375e-02, 2.39409450e-02, 5.65150147e-03,
       2.11396962e-02, 1.45871670e-03, -1.29806239e-03, 7.67275319e-03,
       1.26655865e-02, 5.22694923e-03, 1.99564558e-04, -2.03938410e-03,
       3.23943608e-03, -1.40414620e-02, -1.17330616e-02, -1.12508154e-02,
       -1.64861884e-03, 1.19705517e-02, 2.43251882e-02, 2.27993391e-02,
       -2.21616477e-02, -1.02703879e-02, 6.15460239e-03, -1.27291717e-02,
       -1.64665915e-02, -4.15190570e-02, -1.58342160e-02,
       -3.20990104e-03, -4.33321111e-03, -9.23235156e-03, 1.22657213e-02,
       -1.19012315e-02, 4.18569893e-03, 2.70988606e-03, -1.12989126e-03,
       3.02783251e-02, 3.60935479e-02, 6.75973520e-02, 2.50651166e-02,
       -5.01040695e-03, 2.91726086e-03, 1.69295110e-02, 1.44033984e-03,
       1.16050541e-02, 2.82192212e-02, 3.89437862e-02, 5.26433028e-02,
       -3.16348188e-02, 1.01085054e-02, 7.89650623e-03, 2.65875272e-03,
       9.53020807e-03, -3.90341086e-03, 4.60717827e-03, -3.45276576e-03,
       1.66217554e-02, 6.18192833e-03, 1.93188526e-02, 2.10505482e-02,
       -2.13131099e-03, 8.86249915e-03, 2.83575952e-02, 2.67656595e-02,
       4.47711721e-02, 9.30239260e-02, -2.47872081e-02, 1.08801080e-02,
       -1.53527865e-02, -2.07661279e-02, -7.64693180e-03, 1.68465711e-02,
       1.39647508e-02, 2.55948119e-03, 4.36696503e-03, -2.14169621e-02,
       2.75187101e-02, -6.25014817e-03, -1.52839376e-02, -1.68886408e-02,
       3.99122126e-02, -3.87068925e-04, -2.84066591e-02, -1.27830803e-02,
       2.22002324e-02, 6.35723071e-03, 4.42426801e-02, 7.33497203e-04,
       3.74409221e-02, 4.38299701e-02, 3.92224453e-03, -1.21217771e-02,
       9.52935312e-03, -1.80291664e-02, -1.55763384e-02, -1.65462177e-02,
       9.94145591e-03, 3.09415963e-02, 3.07292379e-02, -1.49755906e-02,
       -4.39632945e-02, -3.24523151e-02, 6.15501357e-03, -3.48019265e-02,
       -1.07404299e-03, -2.65692547e-02, -2.47461954e-03, 2.12148130e-02,
       1.56862233e-02, -1.80605575e-02, 1.54871761e-03, -3.92977595e-02,
       3.56306545e-02, -3.14158797e-02, -2.34679170e-02, -1.90254615e-03,
       2.50476636e-02, -8.42684822e-04, 1.01663023e-02, -2.36242035e-04,
       2.08354346e-03, 1.08867174e-03, -6.04582857e-03, 4.26779389e-02,
       7.97255039e-02, 4.50105444e-02, 1.59065649e-02, 2.05154866e-02,
       2.95944395e-03, 3.18843611e-02, 4.68407245e-03, 1.98573451e-02,
       2.85854638e-02, 7.89895058e-02, 5.96192712e-03, 7.30062788e-03,
       -8.47571937e-04, -1.39083546e-02, -3.29588503e-02, 4.96787718e-04,
       -1.96559094e-02, 1.44817606e-02, 1.07889175e-02, 8.20270181e-03,
       -4.30837367e-03, -1.41045712e-02, -3.31072696e-02,
       -1.89355121e-03, -1.45279160e-02, -3.04996632e-02,
       -2.66483780e-02, 3.03543103e-03, 3.91086936e-03, 3.37440846e-03,
       -1.20936101e-02, 6.79175137e-03, 3.95476334e-02, 1.56123228e-02,
       1.97514035e-02, 2.49129832e-02, 3.93290259e-02, 2.05151793e-02,
       2.96862982e-03, 1.89345963e-02, 1.42527958e-02, 3.84176113e-02,
       -2.37953849e-02, 1.02670575e-02, 1.07325672e-04, 2.21031122e-02,
       -1.87851992e-02, -4.64503048e-03, -2.94679757e-02,
       -2.24497486e-02, -1.51108308e-02, 2.47736219e-02, -2.60530710e-02,
       -3.51829343e-02, 2.25993409e-03, 2.79923845e-02, -1.05286986e-02,
       -1.81911308e-02, -9.79325175e-03, -2.37076506e-02,
       -1.29084068e-03, -1.43836597e-02, -3.04979775e-02, 2.56890710e-02,
       2.44584288e-02, 5.10244258e-03, 6.04626816e-03, 2.45878031e-03,
       7.52274937e-04, 1.12370932e-02, 9.98977758e-03, -5.76588651e-03,
       -8.33417196e-03, -1.22160278e-02, 1.23340478e-02, 2.89038736e-02,
       -2.29420047e-02, 3.09500401e-03, -4.09177085e-03, 3.48238982e-02,
       -7.85826053e-03, 9.42072645e-03, -1.64875959e-03, -1.48643292e-02,
       -3.46862525e-02, -6.04790961e-03, -1.97210275e-02, 4.61442536e-03,
       -1.50539968e-02, -1.72333643e-02, -3.84893361e-03, 3.95426862e-02,
       2.07894808e-03, 6.25500083e-03, 1.06041944e-02, -1.88013334e-02,
       -2.44207084e-02, -2.01902557e-02, -9.33421031e-03,
       -9.80521273e-03, 2.83779167e-02, 6.50560064e-03, 1.54886609e-02,
       -2.28172783e-02, 1.46499451e-03, 2.18719020e-02, 1.10243903e-02,
       -6.13901159e-03, 1.06469961e-02, 1.16719780e-02, 2.04108749e-02,
       1.29110739e-02, -2.94952979e-03, 1.17012383e-02, 2.88461801e-02,
       6.17633387e-03, -1.48872565e-02, -1.46957301e-03, 4.70575690e-03,
       1.89329814e-02, 2.03614868e-02, 3.45787988e-03, -3.16552073e-02,
       2.70036259e-03, -4.18778136e-03, 1.89786858e-03, -6.89592957e-03,
       4.48842309e-02, 3.30235995e-02, 8.82895011e-03, -2.62465365e-02,
       -3.52692674e-03, 1.94438491e-02, 5.18856104e-03, -1.62075981e-02,
       3.26282647e-03, 2.97358297e-02, 9.40253306e-03, -9.79658589e-03,
       7.16605131e-03, 3.78866913e-03, 2.03179140e-02, 3.87731474e-04,
       -1.94678027e-02, -1.43267866e-02, 2.75696740e-02, -1.44357346e-02,
       -1.50054814e-02, -7.84130767e-03, 3.30287428e-03, 1.43421413e-02,
       -3.16879217e-04, -4.03774297e-03, -6.40358776e-03, 1.12183159e-02,
       1.45770852e-02, -4.32845671e-03, -2.82034520e-02, 1.16281677e-02,
       3.98414284e-02, 1.58944353e-02, -5.66098141e-03, 2.54031532e-02,
       2.30442621e-02, -5.35266381e-03, -1.91585310e-02, -8.68785568e-03,
       7.88752828e-03, 2.34538615e-02, 2.76542008e-02, 1.69378822e-04,
       9.73709114e-03, 1.03719579e-03, 1.71910673e-02, 5.34776924e-03,
       1.49673475e-02, -3.45418375e-04, 1.93496549e-03, -1.80086009e-02,
       -2.93569220e-03, -2.97691557e-03, -1.00418301e-02,
       -9.49593552e-04, 1.01425266e-03, 8.12098943e-03, 5.91660803e-03,
       6.89072395e-03, 1.47119807e-02, 6.08386146e-03, 1.80378451e-03,
       -1.62620116e-02, 3.11581977e-02, 1.07420366e-02, 2.12384351e-02,
       2.03546546e-02, 3.71727580e-03, -1.93981659e-02, -4.90719872e-03,
       2.13160403e-02, 7.84980506e-03, 5.63673442e-04, 6.34969631e-03,
       2.23961961e-03, -2.32734457e-02, -5.58071863e-03, -1.06169349e-02,
       -2.01718137e-02, -1.33748841e-03, -1.13363592e-02,
       -4.68078302e-03, -1.30120702e-02, 1.86240606e-04, -8.34872387e-03,
       -3.28812312e-04, 2.79391394e-03, 1.44078163e-02, 5.65944938e-04,
       -6.18838053e-03, -4.39745933e-03, 1.45768735e-03, 8.12729727e-03,
       8.86116456e-03, 1.05600273e-02, 3.69262579e-03, -1.32936204e-03,
       2.50063837e-03, 1.38432728e-02, 2.19673645e-02, 1.61397857e-05,
       -4.93987184e-03, -7.92622007e-03, 1.72838836e-03, 1.17241128e-04,
       -7.71542918e-03, -6.90821698e-03, 4.86444170e-03, -4.14823368e-03,
       1.08880214e-02, 7.98452273e-03, -1.06059480e-02, -2.28844420e-03,
       1.63183715e-02, 2.32639797e-02, 1.12114493e-02, 8.67896061e-03,
       9.87142697e-03, -2.73397602e-02, -2.81818304e-02, -3.43260169e-03,
       -8.93947296e-03, -2.30680183e-02, -2.33190563e-02, 6.68354845e-03,
       1.28317727e-02, -2.83452426e-03, -2.14002840e-02, -2.95891836e-02,
       -3.24184867e-03, -1.25601143e-02, -2.78616534e-03, 4.96427109e-03,
       1.25412792e-02, 5.25894994e-03, 6.63170684e-03, -8.17467179e-03,
       -2.12235209e-02, 2.83071306e-02, -7.06959376e-03, -1.87897421e-02,
       -2.65490487e-02, 7.41281454e-03, -1.86221339e-02, 3.44776474e-02,
       -7.10286573e-03, -4.67411755e-03, 1.51494117e-02, -3.06775025e-03,
       2.21117921e-02, 3.02569964e-03, 9.83740948e-03, 8.09558609e-04,
       -1.98188592e-02, -2.53584273e-02, -8.58512986e-03,
       -3.89959873e-03, 1.52116008e-02, -1.55882547e-02, -2.76685273e-03,
       9.45272110e-03, -9.50217340e-03, -3.26027386e-02, -4.60086623e-03,
       5.96062578e-02, -1.68693513e-02, -1.63614692e-03, -2.69433148e-02,
       -1.20115643e-02, -1.54192904e-02, -4.21254570e-03, 3.73666431e-03,
       -1.32354600e-02, 3.36644910e-02, -1.05708521e-02, 1.67767331e-02,
       1.58703644e-02, -8.59518419e-04, -6.92432141e-03, -4.77707572e-03,
       -7.10378448e-03, -4.45437478e-03, 1.57891940e-02, -3.74366418e-02,
       1.92496944e-02, 8.54160450e-03, -1.22232493e-02, 3.74556426e-03,
       1.07657026e-04, -2.51415540e-02, 2.46245135e-03, 8.79068524e-02,
       1.85555848e-03, 3.01858671e-02, 2.87037157e-03, -1.52096683e-02,
       -1.51292030e-02, 4.21066489e-03, -2.17517316e-02, -4.15000953e-02,
       -4.07084115e-02, -1.47116110e-02, 2.73253601e-02, 1.32063491e-04,
       -3.96206230e-03, -2.66797449e-02, 1.86593886e-02, -2.48180516e-02,
       -2.68016234e-02, -6.64852094e-03, -1.54584656e-02,
       -1.95318670e-03, 3.84201179e-03, -1.93035398e-02, -2.62889322e-02,
       -1.10004796e-02, 3.20967287e-03, -2.19733752e-02, -2.23204922e-02,
       -3.24875046e-03, -9.09963436e-03, 2.37392800e-04, -2.26863082e-02,
       -2.30014194e-02, -6.78835344e-03, -4.44937544e-03,
       -2.14528572e-02, -8.47485662e-03, 2.86381729e-02, 3.94811891e-02,
       1.83606558e-02, -1.64582375e-02, 7.37732137e-03, 3.13224457e-02,
       -9.58982669e-03, -1.95682868e-02, -4.91393544e-03,
       -2.37973630e-02, 6.09384943e-03, -4.55052443e-02, -4.77000028e-02,
       -2.10067946e-02, 6.86641643e-03, -6.75368542e-03, 2.81373458e-03,
       1.44043984e-02, 4.90681492e-02, 4.05571610e-02, 5.69396615e-02,
       1.38906417e-02, 1.15936436e-02, 6.13378361e-03, 2.59786118e-02,
       -2.16315296e-02, -1.29856670e-03, -1.47543177e-02,
       -2.25679274e-03, -2.02052109e-02, -1.46985706e-02, 9.94616188e-04,
       1.14260940e-02, -2.36994103e-02, -1.74143501e-02, 6.60318788e-03,
       2.82413065e-02, 1.02463793e-02, -1.53156426e-02, -4.50562909e-02,
       -1.66508444e-02, -1.77786220e-02, -3.30368895e-03,
       -1.44653255e-02, -2.59850789e-02, -2.49013137e-02,
       -3.88226807e-02, -5.06629609e-02, -6.36393204e-02,
       -1.96996313e-02, -2.31310967e-02, 1.90511364e-02, -3.63345332e-02,
       2.83308709e-05, 4.07533087e-02, 1.57637130e-02, -1.48691814e-02,
       -8.85360222e-03, 2.01093592e-02, -5.68689499e-03, 4.47921008e-02,
       1.42260105e-03, 6.18588785e-03, 1.63920391e-02, -6.71429187e-03,
       2.79043075e-02, 6.05114028e-02, 4.93283682e-02, 2.39122696e-02,
       1.69391371e-02, -1.58609450e-02, -1.92253105e-02, -3.37585285e-02,
       -4.07033861e-02, -5.58970980e-02, -6.25407696e-02, 1.01556291e-03,
       1.27656385e-02, -1.35122635e-03, -2.06381660e-02, -2.22511590e-02,
       -2.66521052e-02, -3.44711840e-02, -2.18940955e-02,
       -3.16069499e-02, 4.97310422e-02, 5.54193463e-03, 3.92979980e-02,
       2.58268975e-02, 2.68585179e-02, 1.52661279e-02, -1.57021582e-02,
       1.11962846e-02, 5.24932481e-02, 2.85563674e-02, 1.67316291e-02,
       -3.78346862e-03, -1.30992467e-02, -7.09400512e-03, 7.70416716e-03,
       1.39225433e-02, 1.54290479e-02, 2.77934223e-02, 3.19598988e-02,
       -1.63538707e-03, -3.22625525e-02, -2.66445894e-02, 3.64959269e-04,
       1.17294891e-02, -1.98598336e-02, -2.07821261e-02, -8.52343254e-03,
       4.54883538e-02, 4.14799526e-02, 9.96593479e-03, 3.41643430e-02,
       4.32276204e-02, 3.53516415e-02, -5.09648235e-04, -1.80115271e-02,
       3.46977897e-02, 5.08556776e-02, 4.99952212e-02, -6.79294905e-03,
       -2.05065999e-02, -1.51646724e-02, 3.86574934e-03, -3.36688124e-02,
       -2.90986784e-02, 7.70562282e-03, 3.21386419e-02, -2.82154065e-02,
       -5.76918945e-02, -3.05086691e-02, 6.82078116e-03, 2.50400621e-02,
       -6.85904082e-03, -6.00245781e-03, 7.72365648e-03, 9.67943203e-03,
       -2.98210979e-02, -6.39347956e-02, 1.26791866e-02, 6.10469515e-03,
       -3.57862897e-02, -3.11382860e-02, -5.36329001e-02, 1.15644848e-02,
       2.61059999e-02, -6.89958641e-03, 9.51103750e-04, 5.97250350e-02,
       4.45825383e-02, -1.41461026e-02, -4.24618833e-02, -6.58768490e-02,
       -3.55813769e-03, 4.25627083e-02, 8.74272361e-03, -3.77274379e-02,
       -3.50980759e-02, 2.93071605e-02, -1.10558067e-02, -2.18450259e-02,
       -3.70278284e-02, 1.53293135e-02, 2.19711121e-02, -7.87248835e-03,
       -1.20773250e-02, 1.72769055e-02, 2.54313787e-03, -9.33464710e-03,
       -1.39735611e-02, -6.31132126e-02, 1.25613520e-02, 1.50190182e-02,
       -2.43423153e-02, -3.69208545e-04, 3.46190147e-02, 2.48874538e-03,
       -1.78573113e-02, 6.53760415e-03, -4.33316417e-02, -1.41929956e-02,
       4.10818085e-02, 1.97235048e-02, 2.30780952e-02, 2.37613413e-02,
       3.74967232e-04, 4.82668681e-03, -1.87123436e-02, 4.22121398e-03,
       1.11036217e-02, 3.78915556e-02, 1.75085105e-02, 1.02025513e-02,
       -7.08373310e-03, -4.57876436e-02, -6.11489937e-02,
       -3.31677683e-02, -5.26616238e-02, 4.27485164e-03, 1.44342296e-02,
       -1.92550682e-02, 1.67695805e-02, 9.74590439e-05, -1.68043226e-02,
       -3.96543853e-02, -3.59317847e-02, -1.55327125e-02, 1.58289894e-02,
       -1.51155295e-03, 3.62424413e-03, 1.27327098e-02, -3.19239334e-03,
       -6.94408314e-03, -1.43322060e-02, 5.57930488e-03, -2.68292651e-02,
       6.70995191e-03, 2.16451548e-02, 8.84471368e-03, -7.63015589e-04,
       2.31399108e-03, -1.80740412e-02, -1.27397198e-02, 1.62713379e-02,
       -1.38996718e-02, 6.84307935e-03, 1.96946356e-02, 1.19885814e-03,
       2.90935673e-02, 3.18960194e-03, 5.39768394e-03, 1.87436584e-02,
       5.90843596e-02, 1.43006549e-03, 3.29597443e-02, 2.87316144e-02,
       2.55122650e-02, 1.42543893e-02, -4.69188578e-03, -2.17840392e-02,
       1.16489641e-02, 8.90312437e-03, 2.93406146e-03, 2.22679228e-02,
       4.04260904e-02, 2.81681679e-02, 1.71432663e-02, 1.35755409e-02,
       -9.20150708e-03, 4.22104058e-04, 2.59795990e-02, -3.72879650e-03,
       1.14539769e-02, -1.35019969e-03, -3.91338347e-03, -4.25807526e-03,
       4.71941708e-03, 7.62043428e-03, -6.07587537e-03, 1.47174634e-02,
       1.56256929e-02, 3.19763310e-02, -1.69966631e-02, -1.09812943e-03,
       1.65153649e-02, 1.76296253e-02, 5.86287677e-03, 1.46839442e-02,
       2.77432404e-03, 4.48781485e-03, 4.48802067e-03, -1.36074750e-03,
       -5.42359147e-03, 5.11029968e-04, 8.17004032e-03, 1.52536407e-02,
       1.34914843e-02, -1.76019464e-02, -3.92865576e-03, 9.27313045e-03,
       -4.18748446e-02, -1.68801416e-02, 9.09614749e-03, -3.46980698e-04,
       -1.66416410e-02, 1.51155163e-02, -4.81903218e-02, 2.05521635e-03,
       -5.23370504e-03, 1.12515055e-02, -4.90515167e-03, 3.17470171e-02,
       1.07909698e-04, -1.83681957e-02, -1.34711852e-03, 1.41068036e-02,
       2.68475786e-02, 2.09525805e-02, 1.69714168e-02, 1.23350369e-02,
       9.75601934e-03, 6.33619959e-03, 1.12245213e-02, 1.35193940e-03,
       -1.43906642e-02, 3.49043799e-03, 2.10825563e-03, 9.11522936e-03,
       -8.01754370e-03, 2.38521118e-02, 1.93992872e-02, 3.09969252e-03,
       -1.44077139e-03, 8.43694527e-03, -1.56729426e-02, 7.19931815e-03,
       -1.11473503e-03, -8.41394439e-03, 2.36099563e-03, -2.27468181e-02,
       -3.77984606e-02, -2.51667351e-02, -1.99903846e-02, 3.00051775e-02,
       2.12685205e-02, 2.06121895e-03, 4.68219584e-03, -2.56015267e-03,
       6.61927788e-03, -1.71577204e-02, -1.31736891e-02, 1.64437685e-02,
       2.89290007e-02, -5.43354498e-03, -1.57885179e-02, -6.46239787e-04,
       1.57171935e-02, 8.31522420e-03, -1.62944905e-02, 6.32080622e-03,
       -2.77233440e-02, 8.37562140e-03, -4.08479071e-04, -1.14267468e-02,
       -1.40277604e-02, 1.91001669e-02, 1.11337379e-02, 8.53054319e-03,
       3.37692685e-02, -5.68274036e-03, 2.24945582e-02, -4.75049485e-04,
       -1.06246602e-02, 5.19786682e-03, -2.45242976e-02, 1.69954840e-02,
       1.27746444e-03, 1.27407368e-02, 9.43858456e-03, 2.10568607e-02,
       -1.32967113e-02, -2.48613693e-02, -2.82537118e-02,
       -1.19887609e-02, 1.08988713e-02, -6.20932458e-03, 1.68933943e-02,
       -1.14685077e-04, 1.34648457e-02, -1.91758282e-03, -2.46249372e-03,
       -2.90329009e-02, -1.47612551e-02, 4.54560854e-03, -5.41509653e-04,
       -2.98450561e-03, -3.62135507e-02, -2.08986979e-02,
       -4.71972395e-03, -7.04670511e-03, -1.96333267e-02,
       -3.44905928e-02, -2.72278418e-03, 4.74287756e-03, -3.08385473e-02,
       -2.08807606e-02, -5.32285543e-04, 1.04455398e-02, 3.72017291e-03,
       -2.57374384e-02, 1.69870295e-02, 7.35007739e-03, 1.52134728e-02,
       1.44463042e-02, 2.38301009e-02, -1.03111919e-02, -1.45076690e-02,
       4.50982340e-03, 1.12859337e-02, 5.49449995e-02, -1.49284266e-02,
       3.30826058e-03, -9.37870704e-03, 7.80435512e-03, 2.04443485e-02,
       3.83398235e-02, 1.60198864e-02, 1.95618607e-02, -1.75727960e-02,
       -2.48647779e-02, 2.33345311e-02, -9.83022060e-03, 4.97569554e-02,
       -1.84426713e-03, -8.32178071e-03, -6.47458760e-03,
       -1.19515220e-02, 4.25951881e-03, -3.90610993e-02, -3.24792200e-04,
       6.23315983e-02, -1.92075185e-02, 5.56393154e-02, 3.52402851e-02,
       5.71004872e-04, -2.53113359e-02, -5.35419304e-03, -4.12837937e-02,
       -3.51053327e-02, -1.11624293e-01, -3.26948985e-02,
       -9.29074585e-02, -4.17201184e-02, -3.38878296e-02,
       -2.33142916e-02, 1.61281489e-02, -5.10635301e-02, -4.38156389e-02,
       -5.20933345e-02, -4.82843677e-03, -5.02812602e-02,
       -1.12713091e-02, -5.17356433e-02, -1.16626127e-02, 4.71220389e-02,
       -4.09156494e-02, 1.22617902e-02, -7.25703733e-03, 4.59142327e-02,
       -2.73544900e-02, -2.54505891e-02, -6.61805272e-03, 3.22574042e-02,
       3.25109586e-02, -2.80923378e-02, 5.07918186e-03, 5.50311953e-02,
       -6.61945017e-03, 4.57116850e-02, 2.09120009e-02, 5.06130047e-02,
       -8.34974926e-03, 2.05492936e-02, -3.00360490e-02, -1.25187496e-02,
       -4.78746556e-02, -2.00897995e-02, -5.40683754e-02, 1.07869983e-03,
       -4.20646481e-02, -4.82416060e-03, -2.24196259e-02,
       -5.00422902e-02, -5.53920381e-02, -8.24979991e-02,
       -3.04394215e-02, -6.08492866e-02, -3.09885610e-02,
       -9.29872394e-02, -6.02039583e-02, 6.19034059e-02, 2.31127925e-02,
       2.41006501e-02, 5.40432520e-03, -1.30771175e-02, -9.13747307e-03,
       6.71573281e-02, 7.41082728e-02, 3.69608663e-02, 1.61982048e-02,
       -2.83437185e-02, -4.44343910e-02, -4.68168631e-02, 1.00362096e-02,
       -1.89947635e-02, 2.57978179e-02, 1.59836859e-02, 2.33032019e-03,
       4.30805162e-02, -7.61947455e-03, -4.43443805e-02, -2.36802623e-02,
       -4.32643713e-03, 1.94890853e-02, 4.43317220e-02, 2.65074475e-03,
       -4.77342028e-03, 1.72193795e-02, -2.36009434e-02, -2.85207462e-02,
       -2.75164898e-02, -1.92881171e-02, -9.52041149e-03,
       -3.93866934e-02, -3.02329604e-02, -1.53251914e-02, 6.19043037e-02,
       3.73963788e-02, 5.35808504e-02, 1.25575960e-01, 3.35342251e-02,
       1.08347930e-01, 1.09736063e-01, 7.43713155e-02, 3.00581325e-02,
       -4.75240909e-02, 1.87325887e-02, 3.20930816e-02, 7.40077570e-02,
       3.34356837e-02, -1.34767070e-02, -3.06292623e-02, -6.25996441e-02,
       -7.02690035e-02, -2.57362872e-02, -5.14696427e-02, 7.47706043e-03,
       3.67619516e-03, -3.68925445e-02, -1.36296647e-02, 2.40715072e-02,
       7.60522485e-03, -5.16113713e-02, -3.40865105e-02, 1.54643543e-02,
       2.08337530e-02, 2.11504921e-02, -2.57632397e-02, 8.92386946e-04,
       2.56889015e-02, 2.89786514e-02, -6.92795068e-02, -3.45003232e-02,
       -2.48063123e-03, 4.94635366e-02, 2.97353906e-03, -5.81845380e-02,
       -6.36445954e-02, 6.42569689e-03, -2.12435573e-02, -2.94358321e-02,
       9.30330832e-04, 4.98661119e-03, 1.64372250e-02, 2.37165438e-03,
       -4.89734150e-02, 1.13847628e-02, 1.50085669e-02, 4.43789326e-02,
       -4.22325172e-02, -4.28727381e-02, -1.10478059e-03,
       -1.00348154e-02, -3.21649127e-02, -5.77876084e-02,
       -9.66688711e-03, 7.32567012e-02, 1.57607195e-03, -6.65913448e-02,
       -4.45043221e-02, 1.02085052e-02, -2.14444706e-03, -4.49375212e-02,
       -7.52081573e-02, 6.68195682e-03, 5.82938865e-02, -5.86427748e-04,
       -4.68999930e-02, -8.02204572e-03, -1.78926550e-02, 2.10660100e-02,
       -4.77985106e-02, -1.96725670e-02, -1.80960342e-05, 9.23334621e-03,
       -1.03878872e-02, -4.09386419e-02, -3.89403217e-02,
       -1.82669144e-02, 2.03172062e-02, -7.37943724e-02, -2.95629427e-02,
       7.87437707e-03, 6.47059083e-03, -3.99970077e-02, -4.27531600e-02,
       -9.11446102e-03, -5.40782884e-03, -5.79478219e-03, 8.72725062e-03,
       2.55123470e-02, 6.61018072e-03, 2.35554613e-02, -6.56309945e-04,
       1.79409969e-03, -7.92441145e-03, -6.18264079e-03, -1.95572283e-02,
       1.56833157e-02, -1.16311619e-03, 1.67532526e-02, 1.84177794e-02,
       3.78237218e-02, 1.93185005e-02, -7.09840422e-03, -1.09505840e-02,
       -9.66276415e-03, -1.30129913e-02, 1.95818897e-02, -9.63109173e-03,
       1.34177087e-03, -1.59166642e-02, -6.64365618e-03, -3.55808443e-04,
       1.81372501e-02, 3.55556491e-03, 1.85940247e-02, 4.29026346e-04,
       1.15896082e-02, 1.89460628e-03, 9.29325633e-03, 4.05979715e-03,
       9.14575718e-03, 2.71293931e-02, 4.58518276e-03, 1.12859150e-02,
       -6.08344190e-03, 2.74492977e-05, -7.39304395e-03, -1.38037838e-02,
       9.20326915e-03, 2.72697397e-03, 2.89408099e-02, 5.52430144e-03,
       -2.09428050e-04, -1.82003193e-02, -1.34150395e-02,
       -4.47515771e-03, -1.18261622e-02, 9.36389319e-04, 9.63234156e-03,
       2.57530548e-02, -8.26648250e-03, 2.56897341e-02, -5.01234666e-04,
       2.91722622e-02, -1.71285607e-02, -1.64947417e-02, 1.55478911e-02,
       -5.25364745e-03, 1.06126191e-02, 8.66891630e-03, 1.82543751e-02,
       1.22153554e-02, 6.37128437e-03, -1.71159953e-02, -1.52969081e-02,
       -6.89241511e-04, 3.46612968e-02, 3.55547387e-03, 4.53146035e-03,
       2.87326775e-03, -7.56471744e-03, 8.24485067e-03, 1.69779919e-02,
       1.34135354e-02, 9.85407829e-03, 1.02225859e-02, 3.39397532e-03,
       1.06433760e-02, -8.52469914e-03, 4.72657569e-03, -1.07110208e-02,
       6.48903288e-03, -3.92585015e-03, -1.39847035e-02, 7.58413970e-03,
       1.30655961e-02, -2.02804487e-02, 1.98778789e-03, -1.96793862e-02,
       -8.04782379e-03, 2.04488635e-02, 1.19805606e-02, -1.23628518e-02,
       1.28543423e-02, 5.39809512e-03, -1.25010470e-02, -1.66157391e-02,
       4.66494262e-03, 6.11792365e-03, -5.23475045e-03, 3.92754702e-03,
       3.58570111e-03, 1.72581300e-02, -6.74516615e-03, -1.77495871e-02,
       -6.47635758e-03, -6.64861221e-03, 2.95118382e-03, -5.67445531e-04,
       2.60157790e-03, -1.48364255e-04, -2.54024053e-03, -2.81295702e-02,
       -1.62656996e-02, -4.24685469e-03, 2.75594983e-02, 4.45359107e-03,
       1.31038169e-03, -1.51132615e-02, 9.40761622e-03, 1.65349357e-02,
       -1.79889333e-02, -1.92379318e-02, 7.64690340e-03, -3.55993351e-03,
       1.14396671e-02, -2.84790597e-03, 5.16080717e-03, 1.50065823e-03,
       -1.32917585e-02, -1.95770077e-02, -3.10410187e-02, 3.27838142e-03,
       1.07468478e-02, 1.99365690e-02, 2.27673650e-02, 4.26595099e-03,
       1.28668398e-02, -1.37520684e-02, 2.26036971e-03, -7.39277946e-03,
       -1.76911894e-02, 1.37682473e-02, -2.34603472e-02, -8.40273686e-03,
       -1.31435663e-04, -2.42688088e-03, -6.49069902e-03, 3.81609634e-03,
       -1.30545581e-03, -4.04978022e-02, 2.12417377e-04, -2.25294679e-02,
       -2.71138549e-02, -2.08238810e-02, 9.94377583e-03, 1.11141577e-02,
       1.83474142e-02, 4.39542765e-03, 1.32303126e-03, 1.11157913e-02,
       1.99382380e-03, 2.27799490e-02, 2.86698118e-02, 2.35902090e-02,
       -2.06247158e-02, -8.87099747e-03, 2.42267344e-02, -3.01659713e-03,
       -1.33080743e-02, -1.28143206e-02, -4.48462553e-02,
       -4.02658246e-02, -1.71881560e-02, 2.34185439e-03, -2.89492458e-02,
       -1.30802700e-02, -5.95588349e-02, 9.73658357e-03, -2.48339362e-02,
       -3.02041601e-02, -1.22073526e-02, 1.41533464e-02, -1.99928302e-02,
       -3.33161242e-02, 1.66521780e-02, 8.42907131e-02, 1.47411525e-02,
       4.94813584e-02, 2.94074118e-02, -1.87952723e-02, -2.26996262e-02,
       2.59131473e-02, 1.46311719e-03, 8.12390074e-03, -4.02048901e-02,
       -3.36546339e-02, -2.53497511e-02, -3.12784240e-02,
       -4.44899276e-02, 1.64679233e-02, -3.04827187e-02, -3.13334614e-02,
       -3.40852998e-02, 1.07981032e-02, -2.01990101e-02, 5.79438880e-02,
       3.22408378e-02, -1.78634264e-02, -4.36557457e-02, -7.76064873e-04,
       -3.90876131e-03, 2.15210300e-02, -5.10151088e-02, 5.13361432e-02,
       -4.90412675e-02, -3.35329399e-02, -4.48629856e-02,
       -2.69754324e-02, -7.33483024e-03, -1.82523336e-02, 3.60107720e-02,
       3.83866467e-02, 2.39506904e-02, 2.36136634e-02, 7.57975038e-03,
       1.14579331e-02, -3.63997407e-02, -8.71864706e-03, -3.68056186e-02,
       -1.08809872e-02, -8.86083171e-02, 1.06106903e-02, -7.43992254e-02,
       -1.24332178e-02, -2.44448353e-02, -2.42223646e-02,
       -4.28663520e-03, -1.34170530e-02, 2.32195407e-02, -2.62677204e-02,
       7.17796106e-03, 1.18541392e-02, 4.44636345e-02, -1.85123775e-02,
       -2.43068598e-02, 3.29640955e-02, -8.11621360e-03, 3.66924629e-02,
       2.53771013e-03, 4.06810455e-02, 1.47430347e-02, 6.97821826e-02,
       2.39501428e-02, 2.31357720e-02, -2.63154935e-02, -3.26549038e-02,
       -2.49113254e-02, -5.01244813e-02, 5.07164001e-02, -2.87774168e-02,
       -3.88780748e-03, -4.39460054e-02, -1.45637039e-02, 9.66663286e-03,
       2.58069988e-02, 3.50416526e-02, -1.77560784e-02, 2.05197427e-02,
       -1.65577757e-03, 6.63606301e-02, 1.52694192e-02, 1.25148883e-02,
       6.27536606e-03, -3.53860110e-02, -2.87115946e-02, -7.13007227e-02,
       2.50125788e-02, -7.45412782e-02, -1.97327249e-02, -3.53082269e-02,
       1.21651739e-02, -6.22306298e-03, -1.41180251e-02, 3.99509259e-02,
       8.34995136e-02, 5.75108118e-02, 8.76372159e-02, 3.14341523e-02,
       -5.58445230e-04, -9.10250121e-04, -3.22092436e-02,
       -4.91126776e-02, -2.75315475e-02, -2.52719559e-02, 3.59694958e-02,
       -6.50239177e-03, -4.19976749e-02, -3.84426638e-02,
       -1.93158456e-03, 1.54703613e-02, 3.79670109e-03, 2.12692916e-02,
       3.30940373e-02, -3.72008011e-02, 3.68298180e-02, -4.92274798e-02,
       -3.50602753e-02, 1.54043520e-02, -1.40934847e-02, -1.98034458e-02,
       2.64624163e-04, -1.58595368e-02, -2.92163313e-04, -6.69826055e-03,
       -7.25698844e-02, -5.19458763e-02, -2.07922934e-03,
       -4.18296233e-02, -3.19534391e-02, 1.93368644e-02, 9.28512029e-03,
       -1.80824716e-02, -1.05374781e-02, 2.43148282e-02, -2.02419772e-03,
       5.22805145e-03, -3.37501094e-02, 1.32727632e-02, 3.19531299e-02,
       6.21976145e-03, -4.03635278e-02, 1.09778242e-02, 4.64939363e-02,
       3.22746597e-02, -2.80451449e-03, -3.20708901e-02, 3.49859241e-03,
       3.99223156e-02, 6.33687945e-03, -3.12200952e-02, 4.92305914e-03,
       4.39719018e-03, 4.64251591e-03, -9.62253939e-03, -2.69101840e-02,
       6.23732470e-02, 5.22441715e-02, -9.79314838e-03, -3.12738866e-02,
       -1.33472299e-02, 2.68259030e-02, -3.89391594e-02, 3.33204330e-03,
       -8.77355319e-03, 4.29710839e-03, 9.66611318e-03, -4.23196368e-02,
       -5.20726331e-02, 2.54669748e-02, 8.10367316e-02, -3.92659307e-02,
       -3.79311014e-03, -1.22060161e-02, 4.72979713e-03, 2.84547657e-02,
       -7.80811831e-02, -3.67763676e-02, 1.05305156e-02, 7.84571189e-03,
       -4.59884591e-02, -1.82591379e-02, -4.44316724e-03, 9.21094138e-03,
       -1.52856763e-02, -5.12937382e-02, 1.07447747e-02, 2.94042733e-02,
       1.09876625e-01, -3.62191461e-02, 1.06497891e-02, -2.19503064e-02,
       -6.44658785e-03, -5.03017269e-02, -4.24436182e-02,
       -4.69551124e-02, 1.41680578e-03, 1.44746462e-02, -5.43395877e-02,
       -2.31579933e-02, -2.60558911e-02, -2.46860143e-02,
       -6.64495537e-03, -1.29632121e-02, 3.43269631e-02, 1.52745191e-02,
       9.59967449e-03, -3.80126126e-02, -2.54383180e-02, -1.13690668e-03,
       1.30955866e-02, 2.47523244e-02, 4.05832268e-02, 3.12227383e-02,
       3.02460603e-02, 2.16131900e-02, -1.69357713e-02, -2.09377892e-02,
       4.71183425e-03, -1.48545543e-03, -2.80762836e-03, 1.70689244e-02,
       3.30173299e-02, -7.17515359e-03, -2.75419895e-02, -2.13903058e-02,
       -5.32379095e-03, 1.84054498e-03, 3.90915573e-02, 2.10490972e-02,
       7.20810052e-03, -2.20540948e-02, -7.12039589e-04, -3.19025782e-03,
       2.52744276e-02, -1.16962651e-02, 2.70547923e-02, 1.68575570e-02,
       6.35178527e-03, 3.59084830e-02, 4.25579678e-03, 1.38412053e-02,
       -1.01117296e-02, -2.17009261e-02, 2.69475300e-02, -3.73533624e-03,
       -1.80087611e-02, -1.72218643e-02, -5.54425828e-03,
       -7.97748473e-03, -1.28657101e-02, -1.08158486e-02,
       -4.71947389e-03, 3.58614302e-03, 2.64531691e-02, 2.06949506e-02,
       1.75194419e-03, 2.28475425e-02, 5.74646797e-03, 4.32083430e-03,
       -3.57485609e-04, 2.51075756e-02, 4.38011922e-02, -3.70496907e-03,
       5.18359127e-04, -1.85612496e-02, -1.94439311e-02, 3.79814347e-03,
       -1.73497517e-02, -1.10057909e-02, 1.25893038e-02, 2.09098626e-02,
       -1.61093883e-02, 6.11471664e-03, -2.36227084e-02, -2.86842673e-03,
       -7.09845079e-03, -1.34502985e-02, -3.70198255e-03,
       -1.37049919e-02, -1.78381279e-02, 3.49139492e-03, 3.52046336e-04,
       -2.16955040e-02, -2.63007358e-02, -3.21220863e-03,
       -1.05108470e-02, -1.28804771e-02, -1.09303640e-02, 4.92924824e-03,
       -1.15020536e-02, 3.02842576e-02, 1.53173739e-02, -1.81390513e-02,
       5.97871654e-03, -9.03257728e-03, -4.73988242e-03, -9.48742591e-03,
       -1.74531396e-02, 1.13512445e-02, 2.62329001e-02, 1.37287555e-02,
       1.83386449e-02, -6.85163634e-03, 1.65295079e-02, 2.43768692e-02,
       5.85744204e-03, 9.94252693e-03, 2.75780261e-03, -6.96342671e-03,
       -1.29433321e-02, -2.21047364e-02, 5.33968117e-03, -9.06092860e-03,
       -1.90916676e-02, -1.27030117e-02, 7.08260573e-03, 7.13719195e-03,
       -1.68332011e-02, -2.19553784e-02, 4.25938936e-03, 2.51465682e-02,
       5.62413735e-03, 1.43198119e-02, -4.32542432e-03, 1.61656961e-02,
       -1.15162348e-02, -1.75563281e-03, -9.87550616e-03, 7.74321146e-03,
       -2.20533889e-02, -9.86122433e-03, -1.63925346e-02,
       -2.52698530e-02, -6.73227943e-04, -1.37618892e-02,
       -2.28655282e-02, -3.92747344e-03, 3.51856090e-02, -1.78595129e-02,
       1.38414875e-02, 1.51068612e-03, -2.47841273e-02, 6.82689063e-03,
       9.00910888e-03, 1.85823049e-02, 5.05109578e-02, 8.22834857e-03,
       1.56507641e-03, -5.21392561e-03, 2.52023991e-02, 2.57045645e-02,
       2.23022141e-02, -3.94667834e-02, -1.03252679e-02, 5.65226786e-02,
       -3.23871449e-02, 9.39721707e-03, -4.26985435e-02, -3.62096168e-02,
       -2.58935802e-02, -3.24903801e-02, 2.32314896e-02, 1.78191550e-02,
       2.30250135e-02, -4.04831069e-03, -2.36348473e-02, 9.09706205e-03,
       1.10182241e-02, 1.25009101e-03, 1.37759559e-02, -1.86857767e-02,
       -2.14846432e-02, 8.81540589e-03, -2.56960075e-02, 1.92098450e-02,
       -2.85652988e-02, -5.38829677e-02, -6.55042231e-02,
       -3.38348113e-02, -2.31283363e-02, -1.50100514e-02, 1.09268464e-02,
       -9.39616840e-03, 4.63729491e-03, -1.74640752e-02, -3.34069692e-02,
       -3.45911719e-02, -3.61052491e-02, -2.51388364e-02,
       -4.22747694e-02, -2.80875601e-02, 4.66991663e-02, 9.14567988e-03,
       4.95941099e-03, 3.26457480e-03, -2.68063392e-03, -4.29564379e-02,
       -6.97628176e-03, 9.73750558e-03, -2.58297939e-03, 4.03442755e-02,
       -1.55212497e-02, 3.03674955e-03, -4.29092497e-02, -4.17651646e-02,
       -2.91685909e-02, -4.21599532e-03, -2.79216040e-02, 1.84408668e-02,
       7.52513260e-02, 2.39398815e-02, 2.44415663e-02, 1.18761426e-02,
       -9.09349415e-03, -3.53369080e-02, 4.19384055e-02, -4.86493967e-02,
       -3.56307589e-02, -4.80116196e-02, 4.23638895e-02, 1.57302048e-03,
       5.28380163e-02, 2.77056135e-02, 2.37502847e-02, 7.95312822e-02,
       3.32530886e-02, 5.97771890e-02, 3.41604352e-02, 2.38897335e-02,
       4.08693962e-02, 5.95479980e-02, 3.93227749e-02, 6.57236353e-02,
       1.10955918e-02, -3.38989682e-02, -4.43714559e-02, -4.61201966e-02,
       -3.46560217e-02, -1.83486398e-02, -2.16461695e-03, 1.75976790e-02,
       9.39727481e-03, 2.31139478e-03, -7.14829937e-02, -1.71991587e-02,
       -6.50106147e-02, -1.77314039e-02, -5.83223142e-02,
       -3.18171196e-02, 9.35375970e-03, 2.05267090e-02, 1.26508281e-01,
       9.29196775e-02, 1.06074959e-01, 7.71411806e-02, 7.81050697e-02,
       8.41970071e-02, 1.12489015e-01, 5.49568236e-02, 1.11666799e-01,
       -4.47906554e-02, -4.14552051e-04, 3.24207544e-02, 8.66577029e-03,
       6.19733594e-02, 2.43786518e-02, -9.17815045e-03, -4.21103127e-02,
       -4.74536531e-02, -4.44351556e-03, -5.16702160e-02,
       -1.10545214e-02, -6.69889301e-02, -4.78159860e-02,
       -4.64466847e-02, -4.59331423e-02, -2.91774608e-02, 1.74675509e-02,
       -1.72334723e-02, -1.55994445e-02, -1.61895026e-02,
       -7.72241354e-02, -5.47716022e-02, -5.18824793e-02,
       -7.27720559e-02, -5.07808067e-02, -5.13869687e-04,
       -6.81040585e-02, -5.85806696e-03, 5.43703921e-02, 6.62743822e-02,
       1.55586658e-05, 6.57665804e-02, -2.45906655e-02, -3.59836519e-02,
       -4.89914715e-02, -6.09725304e-02, -4.06861193e-02, 1.46359066e-02,
       3.63203362e-02, 4.50613461e-02, 1.02998957e-01, 4.21274342e-02,
       4.49604690e-02, 2.72755362e-02, 2.79450249e-02, 2.80601140e-02,
       4.48168479e-02, 2.04738081e-02, 2.27931943e-02, -1.45835048e-02,
       -2.93403119e-02, -2.66234074e-02, -5.33967698e-03, 1.10449297e-02,
       -3.08785103e-02, -1.80864576e-02, 3.72374523e-03, -1.08429687e-02,
       -3.96936983e-02, -3.31537500e-02, -3.69783603e-02, 2.06583682e-02,
       -3.51107679e-02, -2.34424675e-04, 4.57316861e-02, 4.44735773e-02,
       3.73993032e-02, 8.32331777e-02, 6.16244860e-02, 6.02773689e-02,
       1.94796976e-02, -1.23757394e-02, 4.66325842e-02, 8.04388598e-02,
       4.10371162e-02, 8.62061139e-03, 5.84055372e-02, 3.99314240e-02,
       -3.25110145e-02, -3.55234332e-02, -8.23234860e-03,
       -1.78903621e-02, -6.93579018e-03, -3.54303815e-03,
       -3.49649601e-02, -1.86835509e-02, 3.12957703e-03, 1.01288664e-03,
       -1.08956555e-02, 9.64546762e-03, -5.65609429e-03, -3.64957983e-03,
       -3.03007923e-02, -4.65971678e-02, 2.63581779e-02, 1.86644327e-02,
       -1.38344094e-02, -3.86861749e-02, -6.57614181e-03,
       -2.55910549e-02, -1.79700870e-02, -1.72784533e-02, 1.39270248e-02,
       3.19819301e-02, 4.25335988e-02, -2.35340297e-02, -7.26231490e-04,
       1.47998808e-02, -3.21011199e-03, -3.18034296e-03, 4.62383032e-02,
       -2.45608091e-02, 2.40219161e-02, 1.58829633e-02, 4.14230395e-03,
       3.87479947e-03, 3.55064347e-02, -5.41989543e-02, -1.62211154e-02,
       -3.03275082e-02, -4.95143197e-02, -3.14479284e-02,
       -3.26730236e-02, -1.75040066e-02, 1.64498331e-03, 3.44594754e-02,
       3.03119328e-02, 2.97087170e-02, -6.22398593e-03, -4.57360409e-02,
       -3.47835273e-02, -3.42076570e-02, -1.08614592e-02,
       -1.02227759e-02, -7.44845346e-03, -1.50235333e-02, 1.30826589e-02,
       3.70337963e-02, 4.83137034e-02, -2.36601215e-02, -5.50281629e-02,
       -8.83735437e-03, -1.12673743e-02, 1.33992927e-02, 9.19641519e-04,
       -1.76145285e-02, -1.45960422e-02, 5.42991720e-02, 3.04349363e-02,
       -4.63263970e-03, 2.04218067e-02, 2.25641788e-03, 3.82943253e-04,
       -1.32541209e-02, 2.64718244e-03, -2.44089495e-02, 1.22429978e-03,
       -3.27360705e-02, -4.18608673e-02, -2.23127492e-02,
       -5.74321300e-03, 1.56097002e-02, -6.33896235e-03, -3.16433944e-02,
       -4.47703572e-03, 3.18441056e-02, 3.35435979e-02, 7.35820597e-03,
       1.14047690e-03, 2.70723575e-03, 2.18595881e-02, -1.18353963e-03,
       -1.08594848e-02, -2.14969106e-02, 2.50545284e-03, 1.80094279e-02,
       -1.55237615e-02, 9.77914035e-03, 4.06880863e-02, -1.49884745e-02,
       -2.24266145e-02, -6.85074076e-04, -2.58637071e-02,
       -9.04884748e-03, -9.75394156e-03, -1.85875278e-02, 1.10593643e-02,
       6.20275177e-03, 1.30134579e-02, 1.10849440e-02, -1.50161609e-02,
       -4.43288265e-03, 1.03131915e-02, 1.93859264e-02, -3.25462874e-03,
       8.77680164e-03, 1.78267993e-02, -2.95772590e-02, -3.98231298e-02,
       -3.05778743e-03, 9.66953207e-03, 7.67127285e-03, 2.93218717e-03,
       -2.09906865e-02, 1.20457811e-02, -6.11846289e-03, 7.21864728e-03,
       2.48906966e-02, 2.65227947e-02, -5.72717842e-03, -8.57983530e-03,
       -2.13037971e-02, -4.80501028e-03, -7.05808168e-03,
       -7.38855964e-03, 1.18585061e-02, 4.23072232e-03, 2.22046487e-02,
       1.28866518e-02, -1.13266688e-02, 3.47241439e-04, 6.30410248e-03,
       -1.28266895e-02, -4.06462420e-03, 1.50689995e-02, -1.00382939e-02,
       5.92546118e-03, -2.21527438e-03, -3.60436505e-03, 1.32694533e-02,
       2.35747974e-02, 1.21043306e-02, 7.39620952e-03, -8.87548027e-04,
       -3.97975370e-03, -3.18417302e-03, 6.35509612e-03, -2.10685972e-02,
       1.74537338e-02, -4.99816053e-03, -1.46943396e-02, -4.53592325e-03,
       -8.48931167e-03, 5.69736073e-03, 4.38403478e-03, -2.88289972e-03,
       2.73296889e-02, -7.99536239e-03, 1.69560071e-02, 3.66702932e-03,
       -8.64720345e-03, 1.47269396e-02, 6.88079791e-03, 4.59229853e-03,
       1.76709890e-02, 3.90878320e-02, -2.00921888e-04, 4.26833928e-02,
       2.83453651e-02, 4.75025773e-02, -1.74232991e-03, -5.36034582e-03,
       -2.83587594e-02, -2.29764804e-02, 1.54901380e-02, -6.74827863e-03,
       -7.60066789e-03, -1.41658317e-02, -2.80050151e-02,
       -1.40478180e-04, 5.98605536e-03, -1.53276464e-02, 1.38775026e-02,
       -5.24122454e-03, -9.36015695e-03, 3.74081098e-02, 2.00033132e-02,
       1.52025800e-02, 1.55497640e-02, 1.66660629e-03, 1.33755396e-03,
       -9.53174662e-03, 3.89192179e-02, 2.05418235e-03, -4.64140729e-04,
       3.60473571e-03, 3.60749960e-02, -2.03681327e-02, -1.20404549e-03,
       -3.01943626e-03, -4.95944284e-02, -4.04488295e-04,
       -3.13547403e-02, -4.27879766e-02, -4.09064554e-02,
       -1.02733579e-02, 2.11159103e-02, 5.57665378e-02, 2.46050265e-02,
       4.52573001e-02, 3.05394945e-03, 6.00165408e-03, 4.05950360e-02,
       1.61595009e-02, 3.73850949e-02, -1.28021706e-02, 1.10019259e-02,
       2.33879872e-02, -1.98692200e-03, -2.39426456e-03, -2.78782919e-02,
       -1.91279650e-02, -3.33311665e-03, 1.14007890e-02, -4.25498560e-02,
       3.92914973e-02, 1.56169143e-02, 2.35649776e-02, 1.06884930e-02,
       -8.43772781e-04, -3.38557772e-02, -4.66110371e-02,
       -6.04514107e-02, -5.96973998e-03, -4.27505793e-03, 3.47440094e-02,
       4.59789708e-02, 3.20112668e-02, 1.80783458e-02, -3.26892221e-03,
       2.15993449e-03, -1.66463275e-02, -1.53379533e-02, 7.43423104e-02,
       2.76825950e-02, 2.62314137e-02, -3.69917452e-02, 1.48527455e-02,
       -7.78342737e-03, 1.02002807e-02, -2.61198170e-02, -2.77288705e-02,
       -2.37051751e-02, -1.80536713e-02, -9.58622992e-03,
       -1.51748455e-03, -2.96979416e-02, -3.78819965e-02,
       -1.90573968e-02, -3.11874412e-02, 4.52013649e-02, -1.14072328e-02,
       -1.70330051e-02, 3.02902367e-02, 8.31221882e-03, 3.81776914e-02,
       2.09399182e-02, 3.32661681e-02, 2.73417197e-02, 3.51851545e-02,
       1.26169529e-02, 4.42631282e-02, 8.16604309e-03, 1.29304947e-02,
       3.57624464e-04, 1.76945552e-02, 3.53935063e-02, 3.09898388e-02,
       4.28528674e-02, 3.10713556e-02, -1.22171389e-02, -3.72311310e-03,
       -5.90878353e-02, -5.82321174e-03, -1.35869617e-02, 2.51034368e-02,
       8.45028961e-04, -1.25654330e-02, -8.01645685e-03, -7.76554048e-02,
       -6.40795380e-02, -5.87180480e-02, -4.13085967e-02,
       -3.21742892e-02, 7.24887708e-03, -4.43253033e-02, -6.72650151e-03,
       3.98835130e-02, 9.79706794e-02, 5.01333550e-02, 2.17400100e-02,
       3.21912728e-02, -1.31866783e-02, 1.62881357e-03, 1.44377667e-02,
       -7.96032662e-04, 3.87402475e-02, 6.62648976e-02, 4.65574153e-02,
       2.31560133e-02, 1.79991871e-02, -3.49250846e-02, 1.58387818e-03,
       2.00089347e-02, 1.58929918e-02, 1.74864642e-02, -6.19454198e-02,
       -4.32674028e-02, -5.69867007e-02, -2.69422885e-02,
       -2.14630663e-02, -1.37666793e-04, -8.36628769e-03,
       -3.47146280e-02, 1.78662129e-02, -2.55017523e-02, -1.33420825e-02,
       -4.83323298e-02, -3.24259251e-02, -2.81206928e-02,
       -1.73624128e-03, 3.98147106e-03, -2.78436765e-02, -1.02463616e-02,
       2.09453758e-02, 4.42854129e-02, 4.91349325e-02, 2.12423857e-02,
       2.22166106e-02, 2.37318017e-02, -1.46575458e-02, 1.36109919e-03,
       -3.08254249e-02, 3.92091647e-03, 7.02710226e-02, 1.53750535e-02,
       2.68099066e-02, -2.96430872e-03, -8.37255269e-03, -2.30158754e-02,
       5.69878984e-03, 6.77524274e-03, -4.90701757e-03, -1.11527480e-02,
       -7.94278458e-03, -2.79858708e-02, 1.19626950e-02, 3.03665474e-02,
       2.54088603e-02, -9.40236170e-03, 3.79352202e-03, -1.48587339e-02,
       1.00667812e-02, -1.16965258e-02, -1.09732822e-02, -6.07619761e-03,
       5.68421930e-02, 3.04515827e-02, -8.46568029e-03, -3.24572437e-02,
       -1.51554747e-02, -2.59100110e-03, 9.14215762e-03, 1.10880183e-02,
       2.10562814e-02, 3.67178433e-02, 1.05094891e-02, 7.07088634e-02,
       3.16837318e-02, 2.37440113e-02, -1.97700169e-02, -6.51137112e-03,
       2.23750081e-02, 2.39720047e-02, 5.45894168e-02, 3.46589461e-02,
       6.93455432e-03, -2.24807635e-02, -3.78834456e-02, -3.90296727e-02,
       -3.08586769e-02, -1.59027856e-02, -1.68715455e-02, 4.98217903e-02,
       3.67038287e-02, 8.54261406e-03, 1.38617894e-02, -3.72518338e-02,
       -5.15980162e-02, -7.47297034e-02, -3.43386680e-02,
       -1.31924851e-02, 3.75548005e-02, 3.05860229e-02, -5.83607331e-03,
       -3.68153267e-02, 4.38480489e-02, 2.19133664e-02, -3.67189804e-03,
       -2.98616309e-02, -6.70460835e-02, -4.64413576e-02,
       -3.36747542e-02, -4.68809390e-03, 4.19020429e-02, 4.66213599e-02,
       3.48770507e-02, 9.82785411e-03, -3.07780355e-02, -2.73108408e-02,
       -1.91287976e-02, -3.62192951e-02, -5.19154267e-03,
       -3.67583521e-03, -8.33511353e-03, -2.27767620e-02,
       -1.11743491e-02, -5.64764328e-02, -5.49984835e-02,
       -3.82045172e-02, -3.04365791e-02, 8.92552827e-03, 6.02663085e-02,
       5.84085025e-02, 4.21485417e-02, -3.93367782e-02, -1.78449601e-02,
       2.93353153e-03, 2.35328991e-02, -1.06398882e-02, -1.13195674e-02,
       8.60584993e-03, -5.26648341e-03, -2.94478070e-02, 2.45164409e-02,
       -2.36937013e-02, -7.65884761e-03, 4.35267080e-04, -1.06589892e-03,
       1.44333448e-02, 2.35568136e-02, 1.02319643e-02, -1.24116736e-02,
       1.58796385e-02, -4.66728769e-03, -1.11195026e-02, 5.63701615e-03,
       3.79928015e-02, -1.65565014e-02, 7.30665587e-03, -2.47404492e-03,
       -1.56369880e-02, 4.74624820e-02, -4.39326325e-03, 2.28868015e-02,
       1.34146214e-02, -3.18043306e-02, -1.35766473e-02, 1.60731319e-02,
       9.00260359e-03, 1.68881677e-02, 5.17208548e-03, 3.04005295e-02,
       1.40504893e-02, 1.16666155e-02, -1.47685446e-02, 5.78653440e-03,
       2.45766174e-02, 3.39246616e-02, 1.17550790e-02, 2.06269007e-02,
       3.59795662e-03, -5.57473628e-04, 8.31231195e-03, 1.62804145e-02,
       7.74079328e-03, -2.73186434e-02, -8.33058916e-03, 1.04823140e-02,
       -3.01814894e-03, 1.33543713e-02, -6.53844047e-03, 1.03429481e-02,
       1.97030939e-02, -2.03445423e-02, 4.21174988e-03, 5.15841506e-03,
       1.11112902e-02, 1.52023602e-02, 3.63444202e-02, 2.57516354e-02,
       7.92925432e-03, 1.17347734e-02, -3.70828644e-03, -7.98238534e-03,
       -9.20058973e-03, 1.36547079e-02, 3.07765743e-03, 1.57511123e-02,
       -4.74536978e-03, 7.63487676e-03, 1.52812880e-02, -2.21569836e-02,
       -8.45475495e-03, 1.63350033e-03, 3.72805545e-04, 4.48849201e-02,
       1.41063817e-02, 2.52311192e-02, 2.49735191e-02, -7.61919934e-03,
       -1.21732196e-02, -3.76628619e-03, 1.17838085e-02, 2.56629530e-02,
       1.22796744e-03, 5.55301039e-03, -1.82624925e-02, 1.02504343e-02,
       -4.26964136e-03, -6.28571305e-03, -8.23454466e-03, 2.48301364e-02,
       6.22961810e-03, 2.05977857e-02, -1.33999912e-02, 1.94292795e-02,
       2.07323930e-03, -1.89328808e-02, 1.61544443e-03, -1.67914033e-02,
       1.01601677e-02, 3.27521116e-02, -1.18806120e-02, -4.27837530e-03,
       2.16907617e-02, 1.08566834e-02, -2.81078205e-03, 2.32827961e-02,
       6.23609079e-03, -1.24705508e-02, -9.66745242e-03, -1.51077770e-02,
       -1.72105944e-03, -4.27811081e-03, 1.47083180e-03, -8.34190473e-03,
       3.34303975e-02, 8.42050835e-03, -1.91506967e-02, 2.13452484e-02,
       2.41279230e-02, 1.58189666e-02, 3.81205752e-02, 4.62026633e-02,
       3.82624492e-02, -1.19154267e-02, -1.65502878e-03, 5.19570895e-03,
       1.99393323e-03, -2.73804273e-02, -1.03439363e-02, 1.35602606e-02,
       1.63910929e-02, -1.18532386e-02, -8.86902399e-03, -1.46459732e-02,
       -7.36121729e-04, -1.71593931e-02, -5.61322877e-03, 2.53447006e-03,
       -8.42347462e-03, 9.46311373e-03, 4.65777528e-04, 2.32117567e-02,
       2.08886955e-02, -9.68527049e-03, -6.00869162e-03, 1.45633379e-02,
       -1.42722717e-02, 1.45346578e-02, 3.06687057e-02, 3.75998318e-02,
       2.66369991e-02, 3.36843766e-02, 2.27334425e-02, 3.69596202e-03,
       3.59795652e-02, 1.65646262e-02, 4.73491885e-02, 4.80774529e-02,
       2.85561290e-02, -5.33638895e-03, -5.95346268e-04, -1.85591215e-03,
       -1.39930723e-02, -1.72461965e-03, -3.04348767e-02,
       -1.29331108e-02, 1.35891652e-02, -1.03284875e-02, 7.60311596e-05,
       2.12231539e-02, -1.70859962e-03, -1.33293420e-02, 2.17861328e-02,
       2.28865836e-02, -5.15837164e-04, 7.88967498e-03, -6.31914614e-03,
       6.69387728e-03, 2.19638888e-02, 5.31405630e-03, -2.72366852e-02,
       -2.89474633e-02, -1.60635244e-02, -4.81107365e-03, 1.22618368e-02,
       1.31601701e-02, -8.47759191e-03, 3.24205216e-03, -8.17187014e-04,
       -2.53264308e-02, 1.79581635e-03, -2.68374365e-02, -8.09369329e-03,
       8.66686110e-04, 9.90548264e-03, 3.51262502e-02, 2.29469873e-02,
       8.69565085e-03, -5.02328668e-03, 2.61919084e-03, 2.05982998e-02,
       -1.52192516e-02, 2.17979588e-02, 4.08517942e-02, -8.70838482e-03,
       1.91028547e-02, 1.69752315e-02, 1.17279394e-02, 1.18443770e-02,
       1.34024844e-02, 1.15739768e-02, -8.79612472e-03, 1.06083890e-02,
       -6.55785482e-03, -2.27273908e-02, -4.12116759e-02,
       -3.81545201e-02, -3.50794680e-02, -4.68438081e-02,
       -3.82272080e-02, -2.01676041e-02, -5.76052954e-03,
       -1.26857562e-02, -3.69886942e-02, -5.31104095e-02,
       -2.90146768e-02, -1.79361477e-02, -2.00924873e-02,
       -1.22282105e-02, 2.66247382e-03, -7.31927995e-03, 4.32872251e-02,
       2.38792207e-02, 9.58519615e-03, 1.76842846e-02, -1.10772979e-02,
       2.57818872e-04, -1.89144735e-03, 4.19069547e-03, 4.54362594e-02,
       -3.41754174e-03, 7.87061465e-04, -1.53494151e-02, 3.62518989e-02,
       -8.94517172e-03, 2.42016073e-02, 2.52569448e-02, 3.29566412e-02,
       2.24832129e-02, 1.40588861e-02, -2.11124942e-02, -4.50291969e-02,
       -2.82491799e-02, -6.30685966e-03, -9.80709586e-03,
       -2.63910666e-02, -1.66967399e-02, 3.65657452e-03, 1.73068196e-02,
       -9.17350687e-03, -2.27151643e-02, -4.08399440e-02,
       -8.47250130e-03, -2.07931194e-02, -3.30083966e-02,
       -3.65756229e-02, 1.41430330e-02, 1.85723938e-02, 1.52605558e-02,
       1.36836525e-02, 5.01175486e-02, -2.28788052e-02, 1.75173897e-02,
       -7.10538961e-03, 3.88369523e-02, 2.08432470e-02, 1.68754309e-02,
       1.87112819e-02, -1.10751800e-02, -3.00673326e-03, -1.47398943e-02,
       2.48983484e-02, 4.75253724e-03, 3.62646431e-02, 1.06960265e-02,
       9.87007562e-03, 6.93992758e-03, -9.76176001e-03, -4.73441221e-02,
       -1.38180917e-02, -4.88878526e-02, -4.31978144e-02,
       -3.27670127e-02, 1.15817962e-02, -1.58820618e-02, -2.98444014e-02,
       -1.07836081e-02, -2.62290183e-02, -3.56980367e-03,
       -4.22950462e-02, -4.10106555e-02, -2.53922231e-02, 1.50484135e-02,
       5.94858527e-02, 4.47787419e-02, 1.59666725e-02, -2.02930905e-02,
       -2.05114833e-03, 1.74444262e-02, 2.35623028e-02, 6.47765696e-02,
       4.46572080e-02, 9.49364435e-03, -1.69094931e-02, -5.60697168e-04,
       -4.42812545e-03, -9.92763601e-03, 2.06018947e-02, 7.46654859e-03,
       5.40111028e-02, 7.58419884e-03, 5.14705107e-03, -3.34623046e-02,
       -2.73840837e-02, -2.60444880e-02, 3.62988710e-02, -3.56244817e-02,
       -4.02792916e-02, -3.69318202e-02, -1.80196092e-02, 1.72735080e-02,
       -3.21561582e-02, -3.31117921e-02, -1.42647801e-02, 2.55379044e-02,
       -1.66682079e-02, -1.10157495e-02, -2.24973839e-02,
       -3.92747158e-03, 3.59204300e-02, -1.92785896e-02, -9.20019299e-03,
       -9.07231681e-03, -1.79957747e-02, -2.77260076e-02,
       -1.60387233e-02, 8.01548641e-03, 3.30266170e-02, 2.71643978e-02,
       1.65297091e-02, -3.55102005e-03, 3.31378058e-02, -1.98688842e-02,
       2.14858726e-02, 2.32597254e-02, 2.85003129e-02, 2.05978695e-02,
       9.81411990e-03, -1.36095304e-02, -2.17472129e-02, 6.01114286e-03,
       6.01654835e-02, -9.40949004e-03, -1.07583487e-02, -2.25701556e-02,
       -1.34430649e-02, 1.32280784e-02, 3.04062832e-02, 8.57883878e-03,
       -1.38385193e-02, -6.69210497e-03, -2.29265708e-02,
       -1.00517478e-02, 5.04183909e-03, 1.04744714e-02, 6.70347875e-03,
       1.20146610e-02, -2.94001331e-03, 4.26522903e-02, 3.58748771e-02,
       3.35981734e-02, 4.99326084e-03, -8.09345581e-03, 1.80212352e-02,
       -8.19251128e-03, 1.57943349e-02, 6.56511495e-03, 2.37500984e-02,
       -2.24937759e-02, 2.61896979e-02, 8.33093934e-03, 9.36174672e-03,
       2.64762118e-02, 3.24018002e-02, 3.76162902e-02, 3.66145819e-02,
       1.26944045e-02, 3.99326086e-02, 1.33442355e-03, 2.17791367e-02,
       1.80674754e-02, -1.11037940e-02, 3.36938258e-03, 1.83341687e-03,
       5.77931339e-03, -2.06456683e-03, -1.47005776e-02, -7.44475285e-03,
       1.37048839e-02, 4.94528154e-04, -2.66800765e-02, -2.58138664e-02,
       -5.43389935e-04, -1.09938998e-03, -8.78896937e-03, 1.03238076e-02,
       -5.37685258e-03, 7.25143123e-03, -8.73568375e-03, -2.62152241e-03,
       -1.66825671e-02, 1.34728681e-02, 4.07776888e-03, -8.38898681e-03,
       -1.09942602e-02, -7.80883245e-03, 1.56978716e-03, -1.85377952e-02,
       2.06494750e-03, 5.39282523e-03, 5.01848711e-03, 6.19410956e-03,
       2.78338185e-03, 1.17331548e-02, 4.64272825e-03, 2.63278782e-02,
       1.55615434e-02, 1.54438158e-02, 1.68043748e-02, -5.95378596e-03,
       -2.47139428e-02, -1.06078582e-02, 1.95076950e-02, -1.77188162e-02,
       -1.25906393e-02, 1.37993472e-03, 7.73905311e-03, -5.00868494e-03,
       2.10382175e-02, 1.32729197e-02, 1.87756354e-03, 9.81587684e-04,
       -2.01617088e-03, 3.09942625e-02, 1.05744340e-02, -7.95579422e-03,
       2.24036328e-03, 1.29827308e-02, -7.55954767e-03, 1.23953633e-03,
       2.10487321e-02, 2.72998656e-03, 9.34202317e-03, 1.44038685e-02,
       -1.78555660e-02, 4.92977491e-03, -7.39228865e-03, 9.69503261e-03,
       7.04762992e-03, 2.44086259e-03, -6.25967793e-03, 5.66600403e-03,
       -1.16702365e-02, -1.37175955e-02, 1.92955940e-03, -1.13704130e-02,
       2.07557064e-03, 3.45112337e-03, -1.73839238e-02, 4.47420403e-03,
       1.39660323e-02, 1.57377515e-02, 1.51991975e-02, 8.53363704e-03,
       -5.52815654e-05, -1.31638907e-02, 1.03296265e-02, 8.16349871e-03,
       2.83233076e-03, -1.05170822e-02, -2.07626168e-02, 1.28565089e-05,
       -9.47637204e-03, 2.72038626e-03, -4.89736628e-03, -1.91842522e-02,
       -1.74361207e-02, -1.61937485e-03, -1.54338987e-03,
       -4.57030255e-03, -1.03512232e-03, -5.12361713e-03,
       -7.19889533e-03, -5.99664357e-03, 7.32287578e-03, -2.36349413e-03,
       -1.84595771e-02, 2.71870376e-04, 1.38131743e-02, 6.23187795e-03,
       -3.61930142e-04, 8.38897657e-03, -1.53093878e-02, 9.34133399e-03,
       -7.93725252e-03, 3.10986163e-03, -2.28767609e-03, 4.54741390e-03,
       -5.06262702e-04, 1.08521115e-02, 8.01309384e-03, 6.58983272e-03,
       -5.09088533e-03, -4.85894969e-04, -2.54462613e-03, 6.47951430e-03,
       -4.34355577e-03, 1.50213111e-02, 2.18251366e-02, 1.66250172e-03,
       -1.54690407e-02, 1.89849902e-02, -1.27514638e-02, 1.49091327e-04,
       7.97228515e-03, 1.83017249e-03, 1.88837796e-02, -3.22977547e-03,
       7.10466644e-03, -1.31271342e-02, -2.51989216e-02, -1.61989089e-02,
       -1.60100553e-02, -2.79532978e-03, 2.62556155e-03, -1.00557869e-02,
       1.33257201e-02, 2.32569855e-02, 2.35360768e-03, -5.61196823e-03,
       -2.31154133e-02, 9.44235735e-03, 1.54145848e-04, 1.72771327e-02,
       2.15655770e-02, -4.93364234e-04, -3.60180071e-04, -5.20258117e-03,
       9.84500535e-03, 7.98830297e-03, -8.56492406e-05, 8.79921205e-03,
       9.16955620e-03, 9.75900423e-03, 9.53346957e-03, -1.16218301e-02,
       -1.86470058e-02, 4.94026486e-03, -5.47083560e-03, 5.89145534e-03,
       -2.34754961e-02, -4.97085880e-03, 4.94464487e-03, -5.90547826e-03,
       8.46720673e-03, -1.10267000e-02, 2.67605647e-03, -5.36771212e-03,
       1.25519140e-03, -6.58421498e-03, -6.94996445e-03, 5.96815301e-03,
       -5.60562185e-04, 1.46310553e-02, 1.33569574e-03, -1.20154489e-03,
       9.73259192e-03, 2.64263968e-03, 1.12020914e-02, -2.33606659e-02,
       1.41807226e-03, -6.78338436e-03, -9.81204491e-03, -2.41504293e-02,
       -4.89507802e-03, -2.29327679e-02, -3.56724206e-03,
       -4.69425414e-03, 7.57409260e-03, -6.80208253e-03, -1.34034362e-02,
       -1.21359853e-02, 3.58007825e-03, 4.03263280e-03, -1.23006050e-02,
       -1.46642514e-03, 8.67727865e-03, 1.30013721e-02, 1.39076170e-03,
       -1.68708165e-03, 1.41486917e-02, 2.11228803e-02, 1.24129541e-02,
       1.23389335e-02, -5.04333712e-03, 4.14770935e-03, -2.95119770e-02,
       -1.71849709e-02, -2.83317305e-02, -1.33119244e-02, 1.27171015e-03,
       1.19689237e-02, 3.00555900e-02, 2.74074525e-02, 3.09125055e-02,
       -6.20721723e-04, -2.62166336e-02, 2.43535675e-02, 8.49968102e-03,
       2.25719288e-02, 5.76735288e-03, 8.37324187e-03, -2.15602387e-03,
       -7.38882693e-03, -1.42775839e-02, 9.69873276e-03, 1.25138378e-02,
       -1.13609610e-02, 1.26758954e-02, -2.95191817e-03, -6.84230076e-03,
       1.68350078e-02, 1.57738812e-02, -1.02838669e-02, 1.19697265e-02,
       -2.23743264e-02, -9.42836981e-03, 1.21056736e-02, 1.12396954e-02,
       1.21613499e-02, 1.13011990e-02, 3.65090207e-03, 1.30425335e-03,
       -1.43529819e-02, -1.26495361e-02, -5.71350008e-03, 3.89509159e-03,
       1.40811438e-02, 2.76933052e-02, 2.65022311e-02, 1.55090550e-02,
       2.69791875e-02, 6.92409929e-03, 1.21856267e-02, -1.24341222e-02,
       -1.56766474e-02, -1.09309461e-02, -1.40246041e-02, 1.31696658e-02,
       2.73877336e-03, -8.61034077e-03, -9.50860698e-03, -1.16023785e-02,
       -1.15363123e-02, 4.52377275e-03, 1.89990294e-03, -3.00143175e-02,
       5.35084633e-03, -4.03745100e-03, -2.96650617e-03, -2.67262924e-02,
       -3.52835329e-03, -1.70033351e-02, 9.25384089e-03, 2.60233674e-02,
       5.15507124e-02, 7.74301961e-03, -1.25906640e-03, -1.20752331e-04,
       -2.65108654e-03, 5.72714861e-03, -1.41640129e-02, 2.05419250e-02,
       3.01935244e-02, 3.60933281e-02, 3.04125547e-02, 1.42824622e-02,
       7.24522723e-03, -1.44047281e-02, -3.91979795e-03, -7.37920450e-03,
       7.14784197e-04, 7.99566880e-03, 6.41961396e-03, -4.61833458e-03,
       -5.10107959e-03, -1.21162562e-02, -2.16077790e-02, 4.31488408e-03,
       -6.00018352e-03, -1.96795430e-04, 2.03916971e-02, -1.08588412e-02,
       1.26287527e-02, -1.89422932e-03, -6.82928693e-03, -2.87994603e-03,
       2.68089250e-02, -1.15168029e-02, 1.92399006e-02, 1.60110313e-02,
       3.71146463e-02, 5.37463091e-03, 2.17025485e-02, 6.37896638e-03,
       1.96263846e-03, 1.04077728e-02, 7.70579092e-03, 1.07778981e-02,
       1.56407487e-02, 1.95940323e-02, 1.87044293e-02, 3.21782902e-02,
       -5.01480885e-04, -7.82492757e-03, 1.21535370e-02, -1.10600712e-02,
       -1.31143201e-02, 5.79379639e-03, -1.24140736e-02, 5.73396031e-03,
       -1.81957486e-03, -3.53488699e-03, 1.26361512e-02, 5.42307924e-03,
       -6.49682200e-03, -2.28800271e-02, -3.93007742e-03,
       -6.74432516e-03, 4.08865465e-03, -1.58550050e-02, -2.08805241e-02,
       -7.29051139e-03, 2.71071717e-02, 3.49458121e-02, 2.23475788e-02,
       2.18926035e-02, 3.75710726e-02, 2.78525054e-02, 2.26955637e-02,
       -9.62579064e-03, 1.27051761e-02, -4.81632864e-03, 6.26392383e-03,
       -1.48975002e-02, 1.03508506e-03, -4.12419159e-03, 4.61630989e-03,
       2.88964296e-03, -1.17600197e-02, 8.38999916e-03, 1.48583865e-02,
       1.99340247e-02, -5.68850711e-03, -4.65103472e-03, -4.58038365e-03,
       -2.06494369e-02, -2.52837278e-02, -3.28799896e-02, 1.05105585e-03,
       1.92839501e-03, 9.54506360e-03, -1.58700850e-02, -2.78250873e-03,
       -2.22305357e-02, -1.64714307e-02, -3.17842700e-02,
       -3.42025608e-02, -6.38854550e-03, -1.09046884e-03, 8.09326861e-03,
       -9.92434938e-03, -4.58936440e-03, 3.96430958e-03, 5.04554901e-03,
       4.35764203e-03, 5.35344193e-03, 5.46607981e-03, -1.57160964e-03,
       1.03138341e-02, 1.14594633e-02, -4.84851189e-03, -6.61041820e-03,
       2.41812598e-02, 1.46990921e-02, 1.58458147e-02, 2.07935609e-02,
       2.67698895e-02, 1.14868004e-02, -1.51266558e-02, -4.62687062e-03,
       8.07682984e-03, 5.95427630e-03, -4.97888494e-03, -4.48357267e-03,
       -4.41143569e-03, 9.23489407e-03, 6.39756676e-03, -1.19366897e-02,
       3.15055787e-03, -7.92651251e-03, 5.38835907e-03, 1.69705898e-02,
       1.65005755e-02, 1.20181195e-03, 9.77152865e-03, 1.01336259e-02,
       1.06616719e-02, 1.24650206e-02, -3.94895161e-03, -1.13146491e-02,
       1.71535313e-02, 1.57259163e-02, 2.39096771e-05, -1.08517110e-02,
       5.58080943e-03, 1.15380315e-02, 7.77886994e-03, 1.42549407e-02,
       1.17767686e-02, 2.43226402e-02, 1.01344346e-03, 1.76411178e-02,
       1.28258737e-02, -3.16228066e-03, -1.22220283e-02, 1.44807942e-04,
       -8.08273070e-03, -1.37306387e-02, 1.45395199e-04, 5.60139539e-03,
       -4.88186015e-05, -9.82598029e-03, -2.63453200e-02, 6.74960960e-04,
       1.83608697e-03, -5.71362488e-03, 1.05723822e-02, -1.05031841e-02,
       -1.19171217e-02, 8.41976871e-05, 1.27256231e-03, 4.59033996e-03,
       -2.44433694e-02, 4.69512353e-03, 4.37114248e-03, 5.44263842e-03,
       -4.33434919e-03, -5.02510509e-03, 4.54511540e-03, -5.58307394e-03,
       1.60838943e-02, 7.11387768e-03, -1.42702973e-03, 2.16605626e-02,
       -1.41753387e-02, -2.70617995e-02, -8.80565494e-03, 6.12651603e-03,
       -5.69715025e-03, 5.24989283e-03, -6.33812137e-03, 7.54622743e-03,
       -1.55710289e-02, -2.36389344e-03, -8.06694664e-03, 5.51030645e-03,
       -1.33249732e-02, -1.12313183e-03, 1.55117661e-02, 5.69889462e-03,
       3.55900042e-02, -1.68526080e-02, 4.19588061e-03, -1.00052860e-02,
       1.56924464e-02, 1.40496716e-02, -9.62238852e-03, 2.00008810e-03,
       9.44228098e-03, -2.92580910e-02, 3.91328428e-03, -7.38721993e-03,
       3.77825752e-04, -1.46664651e-02, 1.21204648e-02, -4.40317532e-03,
       2.19760928e-03, 3.68268089e-03, -5.37108351e-03, 8.94848537e-03,
       -1.40941441e-02, 3.56053421e-03, -1.04999151e-02, 1.11839818e-02,
       -4.79048816e-04, 3.96569259e-03, -2.34696921e-03, 1.61098652e-02,
       1.22040045e-02, 1.07932230e-02, 1.39326567e-03, 1.07529049e-03,
       1.45324096e-02, -1.79239679e-02, -6.22721855e-03, -1.58587974e-02,
       -6.00068085e-03, -7.32220523e-03, -6.27628528e-03, 1.82970744e-02,
       -7.87442457e-03, 5.96449757e-03, -1.61232837e-02, -3.60883307e-03,
       -4.59417561e-03, 4.14641108e-03, -1.91890188e-02, -1.14536583e-02,
       -4.12676629e-04, -1.30209327e-03, -1.11222416e-02, 2.49401992e-03,
       2.17222841e-03, -2.31774917e-04, 9.65355337e-03, -6.33361377e-03,
       1.07053826e-02, -1.04362168e-03, 1.45578738e-02, 5.97173395e-03,
       7.98230991e-03, -2.58387672e-03, 4.34220023e-03, -1.31978458e-02,
       -1.89505605e-04, -1.11777280e-02, 1.06205661e-02, -5.46838995e-03,
       -1.05763749e-04, -8.79945792e-03, 1.91495824e-03, 1.05621228e-02,
       1.26053775e-02, -9.53964051e-03, 2.59031281e-02, 2.08622520e-03,
       -6.56538690e-03, 7.85410963e-03, 3.41470353e-03, 1.44632347e-02,
       1.34431031e-02, 1.50299876e-03, 1.10117812e-03, -5.34480996e-03,
       4.91702603e-03, 1.30944690e-02, -1.04692148e-03, -2.07991544e-02,
       -8.80565587e-03, 5.04202629e-03, -1.04957763e-02, 8.76496173e-03,
       -1.38312858e-02, 2.11203303e-02, -2.31412123e-03, -3.14556323e-02,
       1.32791260e-02, 9.01866425e-03, 3.19286156e-03, 7.17105530e-03,
       4.35541384e-03, 6.34082267e-03, 6.42890716e-03, -1.93606992e-03,
       2.23122146e-02, -1.64781474e-02, 1.41207327e-03, 1.82131852e-03,
       -1.17766913e-02, -1.11095393e-02, -4.07808879e-03,
       -1.36424950e-03, 2.00233757e-02, -1.44177780e-03, 1.10585373e-02,
       -1.17180997e-03, 8.51209182e-03, -1.31641962e-02, 1.77107919e-02,
       -1.59854162e-02, 7.81897735e-03, -1.19684432e-02, -1.89570412e-02,
       1.58813642e-03, -1.18629299e-02, 1.35553563e-02, -1.82872303e-02,
       1.81716718e-02, -1.23464018e-02, 1.48805641e-02, -2.69918386e-02,
       -8.38794466e-03, -1.47630018e-03, -2.11495138e-03,
       -1.23064574e-02, 5.97725902e-03, -1.47132240e-02, -2.53250655e-02,
       -2.30270508e-03, 6.83764974e-03, -5.22453804e-03, 8.19822773e-04,
       2.10008118e-02, 5.95482625e-03, 5.28483931e-03, 1.89017355e-02,
       -1.99802127e-03, 5.68973552e-03, -1.13929277e-02, 1.74234342e-02,
       -6.83122454e-03, -1.01215998e-02, 1.70267501e-03, -1.16368346e-02,
       7.14928750e-03, 8.10175389e-03, 2.42691375e-02, -1.92609001e-02,
       -2.51965020e-02, 6.56693662e-03, -4.26259451e-03, 1.66668762e-02,
       1.10613019e-03, 3.74049367e-03, 6.47463603e-03, 1.81918386e-02,
       -3.24400328e-03, 1.00318796e-03, 1.54625601e-03, 1.55277438e-02,
       -1.31786084e-02, -8.59860238e-03, -1.64072532e-02, 3.60351917e-03,
       -5.83242439e-03, -1.47393877e-02, -8.76570679e-03, 1.57415103e-02,
       8.26490205e-03, -1.22976741e-02, 2.28983536e-02, -1.20146619e-02,
       -1.25382387e-03, 1.50917401e-03, -8.06696527e-03, 3.29602091e-03,
       -4.61703725e-03, 4.74474346e-03, 1.46445101e-02, -2.94604897e-03,
       2.84241568e-02, 8.30693636e-03, 1.58202499e-02, -1.16278911e-02,
       -8.90747644e-03, -3.83831165e-03, -7.36321649e-03, 3.61914793e-03,
       2.22747531e-02, 6.03272766e-03, 1.15301805e-02, 7.35091092e-03,
       -1.42449997e-02, -2.05114745e-02, 1.88273948e-03, -2.09117197e-02,
       -2.01349449e-03, -1.77661702e-03, 3.36030469e-04, 4.33998462e-03,
       -1.37589499e-02, -1.30233858e-02, 2.28893477e-02, 6.44985540e-03,
       1.93421338e-02, 1.15851611e-02, 1.07629811e-02, -2.01834533e-02,
       1.50003063e-03, -2.42332066e-03, 4.32245992e-03, -1.27504691e-02,
       -7.40278605e-03, -1.12343403e-02, -1.03219058e-02,
       -9.91703593e-04, 1.06560613e-03, 4.62276395e-03, 9.82372742e-03,
       -1.18627697e-02, -4.78528719e-03, -1.17528783e-02,
       -3.53746116e-03, -1.97032392e-02, -5.32470085e-03, 7.89140444e-03,
       1.09064579e-02, -8.14419519e-03, -2.15043258e-02, 2.55254516e-03,
       1.84861512e-03, 2.40587443e-02, 5.55135915e-03, -2.01292317e-02,
       -5.56290150e-03, -2.43197456e-02, -4.60284529e-03,
       -7.14164739e-03, -1.58550721e-02, 2.15499895e-03, 1.17664151e-02,
       -1.36614675e-02, -9.25043039e-03, 8.54701735e-03, 2.47897189e-02,
       -2.82022334e-03, -1.33450488e-02, -7.84650166e-03,
       -7.28980126e-03, -1.12753864e-02, 6.10132888e-03, 3.42123117e-03,
       1.72542017e-02, -1.62112247e-02, 1.16992434e-02, 3.84595664e-03,
       1.86101720e-02, -3.23061459e-03, 2.91696051e-04, 1.02156615e-02,
       1.12551106e-02, -4.51935595e-03, 1.06331836e-02, 5.83496224e-03,
       2.32157370e-04, 3.08268927e-02, -2.09653229e-02, 1.06519088e-03,
       3.84244369e-03, -1.65330991e-02, 9.84346215e-03, -1.12484694e-02,
       2.74396464e-02, 8.92662723e-03, -1.21683637e-02, 5.16730594e-03,
       -5.06397162e-04, -1.16655128e-02, -2.68872883e-02,
       -2.69909408e-02, -1.40912307e-03, 3.60970851e-03, -3.01642204e-03,
       -4.20273002e-03, 1.43256281e-02, 5.54373139e-04, -1.18654156e-02,
       -8.93536489e-03, -1.53544042e-02, 6.74321642e-03, 7.09368475e-03,
       -5.11062471e-03, 2.47521698e-02, 2.14796630e-03, -4.62179678e-03,
       -6.04959112e-03, 9.23230965e-03, 2.20190361e-03, -2.83505637e-02,
       1.43917995e-02, 9.13647469e-03, 7.71792047e-03, -1.29667707e-02,
       -1.27602182e-03, -5.39159216e-03, -2.95789279e-02, 1.80303939e-02,
       1.45463403e-02, 7.87932333e-03, -1.66977709e-03, 9.85311251e-03,
       -3.58327962e-02, -1.73967406e-02, -4.53333743e-03, 1.16550387e-03,
       -2.42123306e-02, 2.50074686e-03, 9.47064627e-03, -1.28823081e-02,
       -1.52266100e-02, 4.33061970e-03, 1.37293003e-02, 1.63900293e-02,
       -7.32558826e-03, 2.55459063e-02, -2.43704487e-02, 1.19070522e-02,
       8.23988114e-03, -4.47938219e-03, -4.26716218e-03, -3.95916542e-03,
       1.72460973e-02, -1.25954906e-02, 9.06188693e-03, 1.94139569e-03,
       -7.50204595e-03, 4.12857626e-03, -3.06667108e-02, 3.30733252e-03,
       1.08056702e-02, 1.64299086e-02, -8.08564201e-03, -7.04037212e-03,
       -9.12053604e-03, 1.94161478e-02, 6.90175826e-03, 1.64451003e-02,
       -1.47830993e-02, 5.40208351e-03, 2.43735537e-02, -8.87003168e-03,
       -4.33579870e-02, 6.63249567e-03, 1.64181553e-02, 2.31562182e-02,
       6.15489343e-03, -1.05616152e+00 ]
