%YAML:1.0
tea--96x144--: !!opencv-object-detector-hog
   winSize: [ 96, 144 ]
   blockSize: [ 16, 16 ]
   blockStride: [ 8, 8 ]
   cellSize: [ 8, 8 ]
   nbins: 9
   derivAperture: 1
   winSigma: 4.
   histogramNormType: 0
   L2HysThreshold: 2.0000000000000001e-01
   gammaCorrection: 1
   nlevels: 64
   signedGradient: 0
   SVMDetector: [ 1.96421966e-02, 1.42268436e-02, 2.16763262e-02,
       6.91227848e-03, 2.82224808e-02, 3.85070569e-03, 6.81054173e-03,
       -2.25068051e-02, -1.88603941e-02, 2.17718333e-02, 1.42084016e-02,
       -6.53089629e-03, -3.64386872e-03, 1.10992175e-02, -3.41295032e-03,
       4.47847927e-03, -1.02992840e-02, -3.89701724e-02, 1.89752784e-02,
       2.10282411e-02, 5.57637587e-03, -1.75528473e-03, 2.50135325e-02,
       1.89917795e-02, 8.70216265e-03, 1.34118367e-03, -3.71411932e-03,
       9.11431666e-03, -3.09067057e-03, 2.92631914e-03, 1.11657865e-02,
       1.16748875e-02, 8.36595148e-03, 1.93776526e-02, 1.78266857e-02,
       -9.99834482e-03, -4.17042105e-03, -1.35387816e-02,
       -3.34477201e-02, -6.09965879e-04, 1.67475231e-02, -1.26096641e-03,
       -1.27433678e-02, -1.07163712e-02, -2.60415990e-02, 2.08289735e-02,
       -1.47346966e-02, -3.11978646e-02, -5.61621564e-04, 2.70942096e-02,
       2.15555727e-03, -1.63949467e-02, -1.59691405e-02, 2.02952120e-02,
       4.40637348e-03, -1.47384999e-03, -1.17194634e-02, 4.43925150e-03,
       8.20495468e-03, 1.17378719e-02, -1.75288431e-02, 7.41652958e-03,
       -1.11918375e-02, 1.30775822e-02, 1.12811178e-02, -2.74226232e-03,
       1.96146057e-03, -8.53370316e-03, 3.04210316e-02, 1.59358084e-02,
       1.62954777e-02, 1.30475126e-02, 2.94906795e-02, 8.28249939e-03,
       -4.17945348e-03, 1.21783500e-03, -5.36007155e-03, -1.89732555e-02,
       -5.95698273e-03, -4.95142303e-03, 2.08406784e-02, 1.99885443e-02,
       1.07532190e-02, -1.02030148e-03, -7.96455331e-03, -3.57930623e-02,
       -9.47550579e-04, -1.11979032e-02, 1.16851355e-03, 1.64520591e-02,
       1.03872630e-03, -7.92174321e-03, 8.53495486e-03, 4.71179846e-05,
       -1.39467223e-02, -7.23263598e-04, 1.62267871e-02, 3.41006252e-03,
       5.29798493e-03, 3.95680219e-03, 7.53748138e-03, 1.76235065e-02,
       -8.94151721e-03, -1.07175549e-02, -2.98782391e-03,
       -8.79300106e-03, 5.74954925e-03, 2.32836511e-02, 1.96777899e-02,
       -1.39611494e-03, -1.88586432e-02, -8.40117969e-03, 2.04396807e-02,
       -1.56911258e-02, -1.62553005e-02, -1.05660292e-03, 9.37051699e-03,
       1.05272541e-02, -2.49922127e-02, -3.08685973e-02, 1.23447608e-02,
       2.47640386e-02, -4.46788734e-03, -8.18942767e-03, 1.56824831e-02,
       -3.03659728e-03, 1.03374207e-02, -2.87996582e-03, 1.02850273e-02,
       -2.34158654e-02, 1.93335824e-02, 1.85668329e-03, 1.32844960e-02,
       -6.25528954e-03, 1.47096114e-02, 2.92516444e-02, 2.63767242e-02,
       2.93169525e-02, -4.69379127e-03, -1.39574101e-02, 2.47782236e-03,
       1.19323749e-02, -2.21693260e-03, 5.30768931e-03, 8.42343364e-03,
       -3.46913259e-03, -1.02019664e-02, -1.98399858e-03, 4.72370628e-03,
       -1.71216168e-02, -1.30458886e-03, 1.17852623e-02, 2.81245098e-04,
       6.30618446e-03, 1.22684566e-02, -1.25729898e-02, -1.93267339e-03,
       -5.77497296e-03, -1.49690248e-02, 9.34444182e-03, 1.37619686e-03,
       2.34652311e-03, 2.39918828e-02, 2.01741979e-02, 1.44945318e-03,
       -1.89844912e-04, -2.39888104e-04, -7.00374926e-03, 8.02286714e-03,
       7.31917098e-03, 1.25163803e-02, 5.44853555e-03, 2.14916952e-02,
       1.41001493e-02, 1.72301829e-02, 1.95953902e-02, 2.88896002e-02,
       2.03067400e-02, 2.45671254e-02, 1.41356112e-02, 1.00452406e-03,
       9.34950449e-03, -8.77749547e-03, -2.83906586e-03, -1.51761863e-02,
       -3.98260839e-02, -1.54770371e-02, 2.84764287e-03, 8.67981371e-03,
       1.88251268e-02, 8.99070129e-03, 9.62197687e-03, 1.87021331e-04,
       -1.89749803e-03, -6.06522989e-03, 5.70041640e-03, 1.99826676e-02,
       2.04045102e-02, -2.61190650e-03, 1.46941766e-02, 1.31600676e-02,
       3.15977484e-02, 2.47815587e-02, -1.02590052e-02, -9.67271253e-03,
       1.56575143e-02, -2.92507303e-03, -5.36711747e-03, -2.62214765e-02,
       -1.32747542e-03, 1.54287862e-02, 1.74256135e-03, -9.84512456e-03,
       -2.16480382e-02, 6.53624861e-03, -5.18489024e-03, 2.11202423e-03,
       -8.41692928e-03, 3.64458509e-04, -1.55985737e-02, 2.16219597e-03,
       7.35954754e-03, 8.59930553e-03, -1.21906365e-03, 3.15408106e-03,
       -6.79322705e-03, -3.93731846e-03, 9.55323502e-03, -9.54566617e-03,
       3.72059196e-02, -3.27375298e-03, 1.22310047e-03, -1.76666547e-02,
       7.73040170e-04, -1.55263795e-02, -9.34068207e-03, 2.41068238e-03,
       -1.13465951e-03, 1.77278146e-02, -1.23125929e-02, -1.45343086e-02,
       -9.45211668e-03, -7.90394377e-03, -2.81937253e-02,
       -2.79403466e-04, 1.41425719e-02, 1.18199661e-02, 8.02858174e-03,
       3.77303897e-03, -1.75197851e-02, 7.99884833e-03, 7.79426051e-03,
       -3.82182747e-02, -1.67262666e-02, -3.62968945e-04,
       -1.31911132e-02, 1.42086530e-02, 1.68804489e-02, 5.84170362e-03,
       -1.04060853e-02, -1.92540921e-02, -7.50945043e-03,
       -2.72812275e-03, 2.36912677e-03, 1.33035379e-02, 4.54888865e-02,
       4.60484019e-03, -9.12584458e-03, -1.70619246e-02, 2.58116447e-03,
       -2.00469624e-02, -1.21414158e-02, 1.69021301e-02, 5.13219927e-03,
       2.50620651e-03, -4.09189984e-03, -1.92513149e-02, 3.30402795e-03,
       -1.93924407e-05, 7.82793015e-03, 7.79387867e-03, 6.55056676e-03,
       -7.87115283e-03, -5.63974073e-03, -1.07580787e-02,
       -2.53757592e-02, -1.15815038e-02, -1.76924374e-02,
       -2.79896483e-02, -1.58698801e-02, -3.70875234e-03, 1.19233904e-02,
       1.13592464e-02, 6.39552018e-03, -6.40925206e-03, -1.25587238e-02,
       -1.23302278e-03, -2.26261020e-02, -1.56677496e-02, 8.22452642e-03,
       -3.80672165e-03, -1.90103578e-03, -1.07134348e-02,
       -3.91641445e-03, 9.03851446e-03, 5.99408289e-03, -1.23223662e-02,
       -4.93176887e-03, 3.44395667e-04, -1.96669400e-02, -1.75457951e-02,
       7.43373809e-03, -2.68104356e-02, -2.94045475e-03, -6.75292360e-03,
       -1.07990885e-02, -1.67631882e-03, 1.46455020e-02, -3.30251157e-02,
       6.52313000e-04, -2.56948974e-02, -1.91216040e-02, 1.18854856e-02,
       -2.84837373e-03, -2.25305296e-02, -6.39295671e-03,
       -6.88560121e-03, 4.48058499e-03, -1.14704575e-03, -9.64257307e-03,
       6.25765091e-03, 6.43899292e-03, -1.56653132e-02, -1.36008691e-02,
       1.66504122e-02, -3.18128546e-03, -6.84330193e-03, 3.25033404e-02,
       -1.32612616e-03, 3.55228083e-03, -5.19799162e-03, -5.33040962e-04,
       -1.68523137e-02, 7.03104958e-03, -1.72379017e-02, -1.45267695e-02,
       6.68994244e-03, -3.01639009e-02, -1.89603085e-03, 1.10439220e-02,
       -1.28325392e-02, -8.60248879e-03, 1.74319018e-02, -9.21359379e-03,
       -8.33891705e-03, 1.32387821e-02, -1.13644835e-03, 3.41525977e-03,
       -1.08558955e-02, 1.16979433e-02, -1.34538943e-02, 1.13107003e-02,
       8.34545400e-03, -1.67118981e-02, 2.16632895e-03, -2.71782819e-02,
       -2.74286396e-03, -7.11375556e-04, 7.82098621e-03, -1.55707663e-02,
       1.63834554e-03, 2.07126252e-02, -9.41821025e-04, 3.81474593e-03,
       -1.83591451e-02, -4.39936342e-03, -1.08590694e-02,
       -1.18926121e-02, 7.70244701e-03, 2.05783602e-02, -5.44041488e-03,
       -2.18029469e-02, -8.93144810e-04, 1.35120086e-03, -8.83902609e-03,
       -7.67163641e-04, 5.76258358e-03, -2.60813646e-02, 6.85725687e-03,
       1.23472037e-02, 1.90782920e-02, -3.09059881e-02, -3.16358195e-03,
       1.17106747e-03, -1.56343654e-02, 1.51034282e-03, 1.61696337e-02,
       1.22968797e-02, 2.28057317e-02, -1.69284723e-03, 1.59672555e-02,
       6.53555989e-03, 1.56308583e-03, -4.22338815e-03, -4.26744018e-03,
       -1.70323328e-04, -1.63245655e-03, 8.75791942e-04, -1.62538700e-02,
       -2.20496152e-02, 7.40032317e-03, 4.37666336e-03, -2.04907469e-02,
       -2.63055544e-02, -1.80692393e-02, -6.58672070e-03, 1.43754715e-02,
       1.37964089e-03, 1.79026388e-02, -1.56244980e-02, -2.87515228e-03,
       -1.45469047e-02, 1.62165444e-02, -3.46158328e-03, -1.64057929e-02,
       -5.09646302e-03, -1.32469591e-02, 3.82086169e-03, -2.32666894e-03,
       6.64592115e-03, -2.05204170e-02, 4.28071991e-03, 1.99832730e-02,
       1.27159688e-03, -7.68494839e-03, -2.94940104e-03, -1.83839875e-03,
       6.47739926e-03, -3.71258706e-03, -2.57870872e-02, -3.80018237e-03,
       1.49815765e-04, 2.15089992e-02, 1.80913731e-02, -1.06374556e-02,
       -5.53211803e-03, -5.61367581e-03, 3.67566640e-03, -6.72048563e-03,
       -2.03475710e-02, 6.42216718e-03, 2.73948186e-03, 1.72907338e-02,
       5.67431655e-03, 2.91605052e-02, 1.08318459e-02, 1.27451234e-02,
       -2.16743499e-02, 1.68484058e-02, -2.15346888e-02, 1.27336010e-02,
       7.27182068e-03, -1.48626817e-02, -1.01649819e-03, 1.32291131e-02,
       2.73675891e-03, 9.80215613e-04, -7.47579942e-03, 2.63426658e-02,
       9.64014325e-03, 7.62016559e-03, -8.12874921e-03, -1.28728792e-03,
       -1.88034226e-03, 8.57907289e-04, -2.89607071e-03, -1.41153643e-02,
       2.59338822e-02, -6.32055150e-03, -8.67805537e-03, 1.54056028e-02,
       2.22621169e-02, 3.36967483e-02, -1.19760574e-03, -3.07775638e-03,
       8.57782736e-03, 1.15500363e-02, 7.54132634e-03, -6.61298959e-03,
       -1.73906367e-02, -1.37856221e-02, -2.49246508e-03, 3.92718287e-03,
       1.32812886e-03, -1.95234967e-03, -4.49363468e-03, -2.50343699e-02,
       -7.06809387e-03, 6.11448195e-03, -6.83235703e-03, 4.76105465e-03,
       -5.19877579e-03, -1.06535600e-02, -9.39198770e-03,
       -4.95751761e-03, 4.22854302e-03, -2.02398049e-03, -2.53742728e-02,
       -5.85018378e-03, 7.89054576e-03, -2.51408131e-03, -4.75335447e-03,
       -1.60310026e-02, -1.79996826e-02, 1.77396962e-03, 1.19561553e-02,
       -2.03437787e-02, -5.19932806e-03, 1.97946150e-02, 5.89365233e-03,
       4.67291148e-03, -2.10542735e-02, 3.44057288e-03, 6.55386539e-05,
       1.02100214e-02, -1.74520724e-02, -5.69342496e-03, -2.23357268e-02,
       -7.19254045e-03, -1.91958193e-02, -2.57407185e-02, 3.32097299e-02,
       -1.45200966e-03, 1.93195115e-03, -5.48663596e-03, -2.51139011e-02,
       -1.72020253e-02, -1.10657057e-02, -1.26861958e-02, 2.82829697e-03,
       5.01484144e-03, 1.26524093e-02, 3.57524753e-02, 3.03052226e-03,
       -1.93856861e-02, -5.00175823e-03, 7.02918554e-03, -1.42757455e-03,
       -1.34632327e-02, -8.19309615e-03, -1.16051454e-02,
       -6.56062085e-03, 5.95599273e-03, -2.06802618e-02, 3.82874557e-03,
       -6.83711655e-03, -2.17418596e-02, -1.87015049e-02,
       -2.52873811e-04, 1.16010802e-02, 1.55316098e-02, -1.61498878e-02,
       -1.07969251e-03, -1.63838193e-02, -1.80455844e-03, 4.37326869e-03,
       1.29089803e-02, -6.61269296e-03, -5.89675130e-03, -1.18779382e-02,
       8.68401676e-03, 5.83421579e-03, -2.56457203e-03, -5.05574560e-03,
       -1.28526939e-02, -2.10113190e-02, 1.58619732e-02, 1.61370181e-03,
       -1.45003330e-02, 5.62528800e-03, 3.65525484e-03, 2.79315514e-03,
       9.04040970e-03, -2.13047769e-02, 1.00900913e-02, 1.37707023e-02,
       -2.79684421e-02, -2.31585149e-02, 3.66247073e-03, -1.59498919e-02,
       -1.16767352e-02, 4.95502306e-03, -3.09991417e-03, 1.73382144e-02,
       1.60074309e-02, 1.49263721e-02, -6.17162371e-03, 1.04081891e-02,
       4.01212927e-03, -1.10869240e-02, -1.95026316e-03, 7.60387816e-03,
       -7.17489468e-03, 1.41387479e-02, 7.55948015e-03, -1.11647537e-02,
       -2.54513007e-02, -4.73789824e-03, -1.15939847e-03, 2.40235776e-02,
       4.03030924e-02, -2.10032286e-03, -1.08426102e-02, -1.76177092e-03,
       1.10950684e-02, -1.05395773e-02, -1.53155997e-02, 1.01140533e-02,
       7.40162935e-03, 8.21581203e-03, -1.05354181e-02, -1.46844713e-02,
       -1.11967360e-03, 4.78680944e-03, 5.54336561e-03, -2.28638202e-02,
       -4.04199382e-04, 9.45859961e-03, 9.26185516e-04, -1.11128595e-02,
       -4.34154598e-03, 4.94142529e-03, 1.70132816e-02, 3.67948413e-03,
       9.99315642e-03, 2.76005408e-03, 1.61102135e-02, 2.94988248e-02,
       1.47235896e-02, -1.87070686e-02, 2.73557333e-03, -2.45044231e-02,
       -1.11255283e-03, 2.03462876e-02, -3.62614263e-03, 1.17169200e-02,
       9.40539688e-03, -1.04848640e-02, -7.91388843e-03, 2.08259979e-03,
       -1.08437827e-02, -9.13032703e-03, -6.03170274e-03, 2.16552464e-04,
       7.31116816e-05, 1.05353957e-02, -8.13969038e-03, 3.26894084e-03,
       -1.96166639e-03, -1.67794619e-02, -2.07735114e-02,
       -2.92280223e-02, 8.26917589e-03, 1.09765241e-02, -2.45250738e-03,
       1.28833155e-04, -3.21177510e-03, 2.05022469e-02, -1.89325144e-03,
       1.12470482e-02, -5.45438891e-03, -9.11312090e-05, 3.60626681e-03,
       -5.62598603e-03, -1.87122412e-02, -7.33441440e-03, 7.78329326e-03,
       -4.93235560e-03, -3.86623479e-03, -2.77303271e-02,
       -2.77007725e-02, 7.21709512e-04, 1.44770354e-04, -2.37978231e-02,
       -5.83755365e-03, -1.98739357e-02, 2.35693529e-02, -1.00407451e-02,
       1.31389860e-03, -7.19410833e-03, 2.14286218e-03, -2.47961618e-02,
       -2.80139744e-02, -2.93947267e-03, -1.87600905e-03, 5.52203394e-02,
       -1.72244478e-02, -4.75948723e-03, -1.90296620e-02,
       -6.44140551e-03, -1.80441421e-02, -1.05155241e-02,
       -2.49257851e-02, -1.07830362e-02, 3.30379829e-02, 2.86508002e-03,
       2.03878228e-02, -1.66572575e-02, 2.41474365e-03, 5.79812680e-04,
       -3.16290222e-02, 1.11144921e-02, 2.61215009e-02, 5.34036681e-02,
       -9.53555387e-03, -7.25763384e-03, -5.07755112e-03, 6.88334415e-03,
       -2.11223941e-02, -4.09848336e-03, -1.23204822e-02,
       -1.08621055e-02, 2.46353671e-02, -4.24331166e-02, 1.59285180e-02,
       -1.86753999e-02, 1.92353074e-02, -2.42345091e-02, -4.42209328e-03,
       1.15333283e-02, -4.64482931e-03, 2.41010264e-02, -2.14908756e-02,
       -1.59323718e-02, -7.56215909e-03, 9.31971800e-03, -2.31589712e-02,
       -1.29697006e-02, 1.63573155e-03, 8.25437531e-03, 4.01390605e-02,
       -2.08126064e-02, 3.75697098e-04, -3.68432631e-03, 1.30840261e-02,
       -3.62648442e-02, -1.79405708e-03, 2.37309244e-02, -5.28309634e-03,
       1.77735630e-02, 2.78211269e-03, 1.80282518e-02, 1.09133990e-02,
       -3.92260402e-03, -2.08232049e-02, 2.77643162e-03, 4.16944213e-02,
       1.33628324e-02, 1.61260050e-02, -1.46840876e-02, 1.71966536e-03,
       3.06652579e-03, 1.84881594e-02, 2.45392993e-02, 3.06113437e-02,
       2.43159030e-02, 2.05530450e-02, 2.15948448e-02, 1.53937191e-02,
       3.46430466e-02, 2.80424394e-02, 4.03517485e-02, 3.93108465e-02,
       2.35026926e-02, 2.44733747e-02, -1.74236968e-02, 1.21973986e-02,
       -2.74025053e-02, -3.43975076e-03, -1.79922841e-02,
       -4.06361744e-03, -2.77369246e-02, -1.50978309e-03, 8.11950117e-03,
       -7.37978099e-03, 5.98238362e-03, -4.52788845e-02, 9.42986371e-05,
       2.54007522e-03, -1.76316742e-02, -1.36994021e-02, -2.17330642e-02,
       1.64186377e-02, -2.22693500e-03, -8.13125819e-03, 2.31190566e-02,
       -5.56516973e-03, 2.86169462e-02, 2.42180135e-02, 4.47240844e-02,
       2.04051472e-02, 6.70125941e-03, -2.19984371e-02, -7.07139168e-03,
       1.76700782e-02, -6.75926171e-03, 2.82124504e-02, -3.76188429e-03,
       2.77800672e-02, 1.68997310e-02, 1.26512069e-02, -1.64372977e-02,
       -1.44136483e-02, -2.19393475e-03, -1.04406327e-02, 1.18515929e-02,
       -4.31257021e-03, 9.98684205e-03, 8.74578767e-03, 6.12228690e-03,
       -4.51375693e-02, -3.84770893e-02, -2.93089468e-02, 1.37244854e-02,
       -4.06680303e-03, -2.14252342e-02, 2.93575637e-02, 7.15318089e-03,
       -3.03036650e-03, -1.54247005e-02, -1.75515353e-03, 8.77043046e-03,
       4.07396443e-03, 1.40520036e-02, -8.10553413e-03, 2.68028174e-02,
       1.30385607e-02, 1.10155083e-02, -8.15475918e-03, -1.23245120e-02,
       9.72147938e-03, 4.70736792e-04, 9.45852231e-03, 1.54117099e-03,
       4.10274155e-02, 1.91811360e-02, 9.50772129e-03, -1.39485011e-02,
       -6.82154903e-03, -1.78441480e-02, 5.96893858e-03, 1.74036715e-02,
       -1.79933403e-02, 3.04262992e-02, 2.97276955e-03, 7.12860050e-03,
       -9.52634495e-04, -2.09053122e-02, -1.26653668e-02,
       -9.60123539e-03, -4.94709425e-03, 2.17256392e-03, 1.11984331e-02,
       -1.86013523e-02, 6.95119938e-03, -9.54129454e-03, 2.73352629e-03,
       4.64191101e-03, -1.55090615e-02, 8.77746940e-03, -4.64991806e-03,
       1.02399830e-02, 3.28656146e-03, 2.53362060e-02, 1.17193349e-02,
       9.09956638e-03, -3.71903926e-03, -1.84055269e-02, 3.42642935e-03,
       -1.72138344e-02, -1.71722714e-02, -4.57018949e-02, 1.24665601e-02,
       -9.36153345e-03, -1.22948739e-04, -4.89384122e-03,
       -1.66290568e-03, -2.47749500e-03, 1.36505375e-02, 2.04363260e-02,
       -9.89306159e-03, -4.16033762e-03, -1.58998836e-02,
       -1.92424003e-02, -9.41398088e-03, -7.15188507e-04,
       -6.73188502e-03, -4.44327341e-03, 1.75496228e-02, -2.86319293e-02,
       1.22033237e-02, 9.75397602e-03, 3.91824171e-03, -2.04289472e-03,
       1.14289122e-02, 1.62014756e-02, -1.38482358e-02, -4.57889400e-03,
       -3.04844026e-02, 9.27936379e-03, 2.66276523e-02, 9.10166930e-03,
       -2.69950461e-03, 5.92814200e-03, 2.02757004e-03, 1.23681417e-02,
       1.90538203e-03, -2.86494642e-02, -4.72897105e-03, 1.44712469e-02,
       9.09545273e-03, 2.74971630e-02, 4.01484147e-02, 6.01446675e-03,
       3.93654266e-03, 1.10154096e-02, -4.99779498e-03, -1.62929588e-03,
       -7.75115239e-03, -1.35668833e-02, 4.10338677e-03, 2.81560775e-02,
       -1.00767035e-02, 3.81332263e-03, 8.69551208e-03, -2.72124540e-02,
       -9.97438561e-03, 1.84668042e-02, 6.00594236e-03, -8.21775664e-03,
       -9.51914676e-03, -4.70499322e-03, 8.37235618e-03, -5.28363185e-03,
       -1.22971265e-02, 1.93782954e-03, 1.97332930e-02, 1.16303563e-02,
       -5.42875193e-03, 2.58842073e-02, 1.73125509e-02, 1.73364412e-02,
       -3.50813754e-03, -2.57206528e-04, -9.57083423e-03,
       -9.81738791e-04, -1.01677533e-02, -2.24454049e-03, 1.21216923e-02,
       -1.64908823e-02, -7.82067422e-03, 1.25178574e-02, 3.23475990e-03,
       -1.83240529e-02, 2.36759745e-02, 2.33837236e-02, -5.65171475e-03,
       2.77859457e-02, 1.07408026e-02, -1.64640732e-02, -4.18580230e-03,
       -3.77971237e-03, -1.64462341e-04, -1.76663848e-03,
       -5.47485752e-03, -2.89390665e-02, 1.53713748e-02, 7.19535351e-03,
       -1.13713299e-03, -6.61786739e-03, -1.08709931e-02,
       -1.49291623e-02, -1.16433911e-02, -3.86823271e-03, 1.96593790e-03,
       -1.92393400e-02, -1.02684507e-02, 3.39945429e-03, 1.69847962e-02,
       -5.39354328e-03, -1.20346658e-02, 4.42705769e-03, 1.19484644e-02,
       1.18823803e-03, 5.07244049e-03, -1.37713179e-03, -2.50898600e-02,
       -3.59713137e-02, -1.25139738e-02, -2.69258016e-04,
       -7.14157475e-03, 3.96014284e-03, 2.13965345e-02, 9.82320216e-03,
       -7.57486466e-03, -6.76845387e-03, -9.63097904e-03,
       -1.29043423e-02, -5.91389090e-03, -5.69015322e-03,
       -2.61543872e-04, -1.00918831e-02, -1.70749240e-02,
       -1.92885902e-02, 3.93649144e-03, 1.83982495e-02, 5.17033087e-03,
       -8.62131920e-03, -1.92614191e-03, 1.16939871e-02, -2.24054456e-02,
       -1.87282562e-02, -3.61142047e-02, -4.71448479e-03,
       -1.77642964e-02, -1.53964376e-02, -1.85050629e-02,
       -2.44644890e-03, 1.03853606e-02, 2.34133638e-02, 1.75383016e-02,
       1.15850922e-02, 1.33314747e-02, 1.30787054e-02, -1.82378571e-02,
       -6.44560438e-03, 5.44089964e-03, 8.22977629e-03, 1.62191130e-02,
       -1.46044083e-02, -1.37627199e-02, 1.35697890e-02, -1.07798912e-02,
       -2.43602321e-02, -1.60644725e-02, -9.85533744e-03, 3.83835249e-02,
       -1.79095182e-03, 9.88807715e-03, -4.43505449e-03, 1.00641428e-02,
       -1.55712897e-02, -1.18609732e-02, 3.38025601e-03, -9.54573508e-03,
       1.37846288e-03, -4.91340039e-03, 1.75344180e-02, 1.04242219e-02,
       1.66768301e-02, 6.26104232e-03, 2.14188136e-02, 5.40863397e-03,
       5.52586396e-04, 3.97694334e-02, 3.37825306e-02, -8.31885729e-03,
       2.79083662e-03, 5.42670581e-03, -1.22765079e-02, 2.84885080e-03,
       2.61109485e-03, 2.42572674e-03, -1.62088883e-03, -4.77660261e-03,
       -2.13388596e-02, 7.59644527e-03, -1.46950623e-02, -3.68444901e-03,
       -1.30351596e-02, 2.23965794e-02, -9.06454981e-04, -1.63978040e-02,
       -5.48157515e-03, 5.35221072e-03, -1.22152816e-03, 1.84374657e-02,
       2.21183077e-02, 2.90763956e-02, -1.33725321e-02, -1.12795867e-02,
       -1.14867324e-02, -1.46650255e-03, 1.44121256e-02, -1.33413635e-02,
       3.49879940e-03, 1.09967059e-02, -1.49176167e-02, 6.02576649e-04,
       4.52326471e-03, -1.70895755e-02, 1.14732804e-02, 1.18717616e-02,
       1.14844656e-02, 7.23389210e-03, 2.35586185e-02, -1.42799793e-02,
       -2.06832793e-02, -4.33780206e-03, -2.72593107e-02, 1.16600180e-02,
       1.95154324e-02, 1.39162131e-02, 1.94660816e-02, 1.55057078e-02,
       -2.62938198e-02, 8.14188534e-05, -6.99434709e-03, 4.35280707e-03,
       -5.18785045e-03, -2.16660765e-03, -3.50284576e-02,
       -1.80127169e-03, 3.13259871e-03, -8.53251852e-03, 4.93859081e-03,
       1.04881765e-03, -8.06843769e-03, -6.79104123e-05, -1.29922396e-02,
       -1.30165741e-02, -1.80873498e-02, 4.47349111e-03, -3.95015441e-03,
       -2.44419966e-02, 5.83545910e-03, -4.84861014e-03, 3.38657061e-03,
       -1.78588666e-02, -2.86950096e-02, 3.51938047e-06, 5.28656598e-03,
       -4.09640186e-03, -6.59642601e-03, -1.67066306e-02,
       -2.61507500e-02, -5.76015515e-03, -1.53520424e-02,
       -7.01847160e-03, -2.47817505e-02, -1.01893647e-02, 7.24566588e-03,
       -2.86288969e-02, 1.26010412e-02, 3.55890859e-03, -2.18315776e-02,
       4.66214679e-03, -1.42459152e-02, 6.07003178e-03, 2.27966513e-02,
       -1.40021620e-02, -2.67371368e-02, -1.84176397e-02,
       -3.43867671e-03, 6.01533288e-03, 3.64082796e-03, -1.37246326e-02,
       -7.88788032e-03, 2.02808576e-03, -2.88778841e-02, -1.19165499e-02,
       -9.62471124e-03, -3.70499981e-03, 1.05613582e-02, -1.03800092e-02,
       -2.85874377e-03, -4.22390969e-03, 1.02948397e-02, 7.40440376e-03,
       -2.87230983e-02, -4.88250097e-03, 1.25815757e-02, 1.75355654e-02,
       -2.26988439e-02, 1.33022303e-02, -4.38867416e-03, 1.29039621e-03,
       -3.11392313e-03, 7.28312740e-03, 9.74383112e-03, 1.13275126e-02,
       1.29643744e-02, -9.47383139e-03, -7.86823127e-03, 2.66404469e-02,
       1.94098596e-02, -5.32772951e-03, 6.20481232e-03, 5.79378102e-03,
       2.96837790e-03, 7.73043255e-04, -2.70897802e-03, 2.59715319e-02,
       2.62046326e-02, 2.65870858e-02, -1.49217620e-02, 2.32530828e-03,
       5.87075204e-03, -1.00013602e-03, 2.54586283e-02, -1.64478477e-02,
       -2.84982263e-03, 2.49539898e-03, 6.12858217e-03, 6.87903259e-03,
       -2.17104685e-02, -2.04824749e-02, -2.07618568e-02,
       -8.75561498e-03, -7.64363271e-04, -1.96546316e-03,
       -1.48074171e-02, -5.17406035e-03, -2.61293091e-02,
       -4.88955993e-03, 7.99384713e-03, 8.53106845e-03, 4.66618966e-03,
       1.68883130e-02, -1.01583386e-02, -1.11562712e-02, 2.47851759e-02,
       2.59111123e-03, -8.21534079e-03, 6.93534967e-04, -1.80208720e-02,
       4.48604580e-03, -9.51245078e-04, -1.13618989e-02, -5.31293498e-03,
       1.91036649e-02, -1.66918449e-02, -1.20588411e-02, 9.88435000e-03,
       -1.77555010e-02, 9.42408107e-03, -2.63595451e-02, -3.07075935e-03,
       -8.95617250e-03, 1.00028710e-02, -1.76910381e-03, -4.02291631e-03,
       -2.18019821e-03, -8.05055443e-03, 7.72123178e-03, -1.15480628e-02,
       -2.25963313e-02, 1.62511785e-02, 3.52649689e-02, -4.46365215e-03,
       4.63029090e-03, -2.24114605e-03, 8.58485606e-03, 1.60768125e-02,
       -1.78227946e-02, -5.89067629e-03, 5.55711007e-03, -1.81314293e-02,
       -9.49992426e-03, 5.97735588e-03, 2.81497347e-03, 1.05524780e-02,
       2.17400696e-02, -1.12663852e-02, -1.83224212e-02, 9.32284631e-03,
       -4.06738371e-03, -4.80018836e-03, 1.30514251e-02, -2.24557966e-02,
       -1.16457138e-02, 7.50001613e-03, 1.32889049e-02, -1.64004769e-02,
       3.36229578e-02, 1.36220064e-02, -5.75423101e-03, 7.12428614e-03,
       -1.19271232e-02, -6.73796702e-03, 3.05922721e-02, 4.24995739e-03,
       1.53378779e-02, 2.18614731e-02, 8.42244085e-03, 5.73129021e-03,
       -1.43662225e-02, 2.49591959e-03, 3.07709351e-02, -2.82654772e-03,
       -6.11124444e-04, -3.90758030e-02, -8.79735872e-03,
       -1.70075465e-02, -2.77237035e-02, -2.51743272e-02, 2.94678956e-02,
       5.96444495e-02, -1.75339431e-02, -1.44486025e-03, -5.41655300e-03,
       -4.68231179e-03, -4.16219346e-02, -7.97614828e-03,
       -1.83038916e-02, -6.31583342e-03, 8.12077429e-03, -1.41374744e-03,
       -2.21606903e-02, -2.46400125e-02, -4.79653431e-03,
       -6.86138356e-03, -2.01992448e-02, -1.80684887e-02, 6.31213859e-02,
       9.11974609e-02, 2.66585499e-02, 2.69261422e-03, 2.34445371e-02,
       7.24493433e-03, 2.25466467e-03, 1.30167920e-02, -1.44747319e-02,
       1.87544059e-02, 5.52141853e-02, -4.95937020e-02, -3.09810620e-02,
       -5.18165994e-03, 1.11519555e-02, -4.65376154e-02, 5.04516950e-03,
       -5.59770968e-03, -4.80471961e-02, 1.47712966e-02, -4.24113981e-02,
       6.30658586e-03, -2.14579348e-02, -3.21793780e-02, -3.97733152e-02,
       2.01586913e-03, -5.62556759e-02, 2.56960001e-02, 5.89351207e-02,
       -1.59383509e-02, 2.18591024e-03, 2.31159921e-03, 2.34684460e-02,
       -2.88864598e-02, -1.98919307e-02, -2.53503565e-02,
       -1.72975659e-02, 1.57942250e-02, -1.80785004e-02, -3.89496237e-02,
       -1.53480601e-02, 1.26483850e-03, -4.74279523e-02, -1.29127642e-02,
       2.52368543e-02, -4.00662608e-02, 2.05910503e-04, -3.77853625e-02,
       -1.17621263e-02, 1.00891702e-02, 2.34912224e-02, 1.62590370e-02,
       3.11376024e-02, -1.56816770e-03, -5.13423532e-02, -3.84932905e-02,
       -6.05601706e-02, 7.87524693e-03, 2.29111481e-02, 1.51241822e-02,
       -7.06101346e-05, -1.91720261e-03, 1.16187558e-02, -2.34864950e-02,
       -5.96779957e-03, -2.48991011e-04, 3.17514292e-03, 1.87525544e-02,
       2.16155536e-02, -4.87706158e-03, -7.24019529e-03, 1.76250264e-02,
       -2.37605758e-02, -3.37022394e-02, -4.03055884e-02, 1.42962616e-02,
       2.89545376e-02, 1.80262644e-02, -1.41877448e-02, -1.50915207e-02,
       1.34415301e-02, -3.08307260e-02, -2.44783200e-02, 9.90043208e-03,
       -7.96398439e-04, 1.71606541e-02, 5.78133250e-03, 9.19541996e-03,
       2.58603320e-03, 3.16440836e-02, -1.19334524e-02, -1.53329959e-02,
       -1.71488747e-02, -1.91040616e-02, -2.28571389e-02,
       -1.97199546e-02, 1.50431590e-02, -8.96073692e-03, 5.29224426e-03,
       3.59355658e-03, -6.91811368e-03, 2.12747008e-02, -6.55059749e-03,
       1.36921331e-02, -7.38833658e-03, 1.59009709e-03, -1.28476517e-02,
       -5.62257832e-03, 7.03948829e-03, -7.00126868e-03, -1.22950953e-02,
       -1.94563176e-02, -2.34596860e-02, 2.48769484e-02, 2.50243619e-02,
       -2.62773521e-02, 2.30703779e-04, -9.66127589e-03, -5.71498508e-03,
       -8.59519187e-03, -1.61031466e-02, -6.20022789e-03,
       -5.70058357e-03, 1.67451538e-02, 9.37440060e-03, 1.36212371e-02,
       -6.77791750e-03, -1.38619067e-02, -3.00954212e-03,
       -8.19447543e-03, 2.10359972e-02, 2.40674876e-02, 3.28895003e-02,
       3.11398264e-02, 1.55363418e-02, -3.88521282e-03, 8.59865174e-03,
       -2.63213529e-03, 6.54030871e-03, -9.69162094e-04, 1.66979246e-02,
       1.75037328e-02, 2.66221389e-02, 4.11139522e-03, -1.18302600e-02,
       7.41488812e-03, -5.47376578e-04, 2.34877616e-02, 5.03739826e-02,
       1.19205855e-03, 8.71419907e-03, 3.66569720e-02, 8.42099916e-03,
       -2.06154548e-02, -1.36228707e-02, -1.07290903e-02,
       -8.63574818e-03, -2.55394131e-02, -3.60031379e-03, 2.62805484e-02,
       2.02115495e-02, 2.36770529e-02, 3.00877281e-02, 7.39506306e-03,
       5.90925757e-03, 1.71464570e-02, -7.79336644e-03, -3.13281780e-03,
       4.17413414e-02, 1.83243696e-02, 9.16917529e-03, -1.47054279e-02,
       -1.39539260e-02, -1.56215122e-02, 7.13851675e-03, -1.81423184e-02,
       -1.91455055e-02, 4.73632710e-03, 3.40360552e-02, 1.57471467e-02,
       -2.42670556e-03, -3.35877836e-02, -8.75551533e-03, 2.63185259e-02,
       -9.44242161e-03, -1.74258295e-02, 1.32863363e-02, 5.48358113e-02,
       2.26561520e-02, 1.79547779e-02, 2.63810833e-03, 5.82674006e-03,
       2.16689543e-03, 2.79687392e-03, -1.05226748e-02, 4.66178730e-02,
       2.20194701e-02, 1.94099918e-02, 1.93307716e-02, 2.26980727e-02,
       2.96846218e-02, 3.55910808e-02, -1.07762339e-02, 1.31362006e-02,
       4.57689762e-02, 3.20025464e-03, -4.76289261e-03, -5.58944885e-03,
       -3.18650827e-02, -1.51304984e-02, -1.21418927e-02,
       -5.64471213e-03, -2.91776434e-02, 9.24617890e-03, 6.61349595e-02,
       1.04066525e-02, -1.51752140e-02, -2.22029164e-02, -1.26687121e-02,
       -1.67914983e-02, -4.04981710e-02, -2.04408802e-02, 1.00494770e-03,
       3.15887220e-02, 1.08962655e-02, 1.25995176e-02, 8.37990083e-03,
       5.90713741e-03, 1.55734678e-03, -1.89188849e-02, 1.91826317e-02,
       7.22030327e-02, 3.47507298e-02, 8.56090337e-03, 2.75432579e-02,
       3.48810628e-02, 7.47886486e-03, 1.53444347e-03, -6.84374757e-03,
       5.12304809e-03, 4.29595746e-02, 1.54310949e-02, -2.01847040e-04,
       -1.80391222e-02, -2.62352452e-02, -4.27067978e-03,
       -4.43728343e-02, -2.66650058e-02, 1.84627192e-03, 8.71698838e-03,
       -2.36555142e-03, -1.11291939e-02, -1.06823165e-02,
       -2.47300938e-02, -2.72777975e-02, 1.61160566e-02, -2.47356687e-02,
       -1.95191205e-02, -1.68827232e-02, -2.20060684e-02, 3.67104188e-02,
       1.52302729e-02, 7.12998724e-03, 2.51547364e-03, -1.17276795e-02,
       -5.51770616e-04, 1.68865155e-02, 2.54367422e-02, 1.15205841e-02,
       4.54570614e-02, -5.05860662e-03, 1.32833710e-02, 2.53080837e-02,
       1.10149775e-02, 1.01456549e-02, 1.65189728e-02, 3.78139466e-02,
       -1.12592103e-02, 1.72038481e-03, -1.12172328e-02, -1.17526539e-02,
       -3.28680091e-02, -2.51846667e-02, -4.40009199e-02,
       -2.35182866e-02, -2.07838751e-02, -1.13225430e-02, 3.64963152e-03,
       -3.03409901e-03, 1.93936517e-03, -3.70847946e-03, -3.02674919e-02,
       -2.09818856e-04, -1.08964434e-02, -3.62867378e-02,
       -2.66242549e-02, 1.10383499e-02, -2.39136983e-02, -7.90088531e-03,
       1.93036664e-02, 3.32971886e-02, 1.43931126e-02, 3.48453387e-03,
       1.45404162e-02, 9.44478158e-03, 2.14974135e-02, -1.53434416e-03,
       2.07421184e-03, 1.24251400e-03, -1.09779434e-02, -1.41779594e-02,
       -6.24691322e-03, 1.35589521e-02, -1.04579777e-02, 3.87084596e-02,
       2.02370284e-04, 3.60818766e-03, -6.10189047e-03, -1.55650601e-02,
       2.31281482e-02, -1.30470307e-03, -7.85517134e-03, 7.92386662e-03,
       3.70855965e-02, 4.15186072e-03, -1.33309178e-02, -2.12710295e-02,
       -1.70456246e-02, -2.47838795e-02, -5.02370903e-03,
       -1.17830457e-02, 4.87073325e-03, 2.27669440e-02, -9.97414347e-03,
       9.97090340e-03, 3.66739221e-02, 3.36884595e-02, -1.13973841e-02,
       -1.21715069e-02, 9.51585080e-03, 7.06108566e-03, 5.52657200e-03,
       1.87522657e-02, 1.68307486e-03, -4.63821180e-03, -5.30282035e-03,
       -1.50480075e-02, -2.06411704e-02, -4.10692394e-03, 5.08098677e-03,
       2.04685181e-02, -5.77580370e-03, -1.58604868e-02, 2.01793388e-02,
       6.82866387e-03, -2.06391718e-02, 1.22255962e-02, -1.59387216e-02,
       1.18079211e-03, 5.92096476e-03, 1.00161759e-02, 1.96271949e-03,
       8.92040413e-03, -2.11656876e-02, -2.63980427e-03, 8.94118380e-03,
       -4.09515239e-02, 3.22664389e-03, -7.14072445e-03, -6.81889290e-03,
       5.81730250e-03, 2.93652480e-03, 1.20581081e-02, -3.82521481e-04,
       1.09410109e-02, 1.03843324e-02, 8.14213697e-03, -1.12580722e-02,
       -4.16016812e-03, 5.26593719e-03, -1.33721866e-02, -4.03232174e-03,
       -1.25363572e-02, 6.14405936e-03, 8.23100470e-03, 1.11329900e-02,
       -2.62588402e-03, 6.19046902e-03, 1.50913997e-02, 5.11128502e-03,
       -2.32987176e-03, 2.00066455e-02, 1.16424477e-02, -1.30154463e-02,
       1.38499197e-02, -8.23077559e-03, 1.47655802e-02, 1.45540433e-02,
       -2.16989703e-02, -9.17556323e-03, 1.03863038e-03, -1.11463033e-02,
       -4.47331695e-04, -2.48559425e-03, 7.09045865e-03, -2.04892922e-03,
       1.05339224e-02, 1.81146655e-02, 2.37647793e-03, -2.02253759e-02,
       -8.88261106e-03, 2.63505126e-03, 1.40647665e-02, 7.22050387e-03,
       -1.59448404e-02, -4.43853717e-03, 1.92985637e-03, 1.25060640e-02,
       3.55251064e-03, 1.17027769e-02, 4.13812418e-03, -6.31634379e-03,
       2.87447404e-03, 3.70058650e-03, 5.31893922e-03, 1.42834345e-02,
       2.03909986e-02, 1.12561276e-02, 9.66918189e-03, 1.19304582e-02,
       -8.94826557e-03, -2.85654119e-03, -4.61024698e-03,
       -1.25616519e-02, -3.11338659e-02, -7.27136713e-03,
       -8.08609463e-03, -2.24442338e-03, -5.13994321e-03,
       -6.04063785e-03, -3.68691189e-03, 1.02801360e-02, 2.90173502e-03,
       3.70906992e-03, 4.66010161e-03, 3.54434852e-03, 2.15778034e-02,
       1.45796649e-02, -1.72564574e-02, -1.60301570e-02, 6.26130076e-03,
       1.20369869e-03, -3.46620451e-03, 7.26386067e-03, -2.02956283e-03,
       1.42354807e-02, 1.95993483e-02, -4.50768229e-03, 1.50556359e-02,
       2.58872490e-02, 1.53204724e-02, 5.41034574e-03, -2.10377388e-02,
       -3.10577825e-03, 1.56818014e-02, 1.66320913e-02, 1.22458246e-02,
       -5.08066174e-03, -3.78056779e-03, -1.88902747e-02,
       -9.26423259e-03, 1.96637283e-03, 5.99342398e-03, 1.79903042e-02,
       4.63702995e-03, -7.62104243e-03, 8.90729390e-03, 1.72165353e-02,
       5.35760866e-03, 2.46160999e-02, 7.17861904e-03, -6.33110153e-03,
       -7.95617141e-03, 4.03236831e-03, -1.02174655e-03, 2.39126547e-03,
       -1.13348442e-03, -4.18924959e-03, -7.78890820e-03, 3.31328288e-02,
       -1.09981941e-02, -9.94760171e-03, -7.73138786e-03, 5.23062306e-04,
       4.25985688e-03, -1.02739977e-02, 8.93352926e-03, 6.77952124e-03,
       2.20044870e-02, 1.94007456e-02, 5.96572040e-03, 5.41444356e-03,
       8.54097743e-05, -8.18422157e-03, -6.59895502e-03, 6.39639376e-03,
       -1.63269863e-02, 4.47819568e-03, 2.31167544e-02, 9.15778894e-03,
       -8.75549763e-03, 1.13084130e-02, -1.00848200e-02, -9.97264404e-03,
       1.67957880e-03, 2.77216430e-03, 4.37819539e-03, -8.08916334e-03,
       -6.55405642e-03, -1.59902498e-02, -3.73969832e-03,
       -3.10322503e-03, -9.62871406e-03, 4.66839271e-03, -9.09632631e-03,
       8.68722983e-03, -9.30590928e-03, 1.39103308e-02, 6.09944528e-03,
       -7.56224198e-03, 6.17292849e-03, 1.49334851e-03, -4.93254792e-03,
       -1.20887882e-03, -1.64313614e-02, 1.91745034e-03, 4.47698263e-03,
       -1.01433219e-02, -8.40563269e-04, -6.34173979e-04,
       -2.68196780e-03, 2.79631396e-03, -6.39956724e-03, 2.59657670e-02,
       1.47363646e-02, -1.90042180e-03, 7.08899880e-03, 2.22636969e-03,
       9.94194765e-03, -2.43684407e-02, -6.88978424e-03, 6.24639820e-03,
       3.03300675e-02, -2.03286186e-02, 1.00377016e-02, 8.10891949e-03,
       4.05017054e-03, -4.93568927e-03, -1.19569618e-02, 9.60876793e-03,
       2.86235698e-02, -1.38481427e-02, 9.43142083e-03, 7.17566349e-03,
       -3.08640837e-03, 1.89227629e-02, 1.44006510e-03, -3.83824147e-02,
       -3.67757306e-03, 1.76554881e-02, 8.31313990e-03, 1.93394499e-03,
       -1.16032315e-03, 1.34501895e-02, 4.97816550e-03, -8.80661979e-03,
       -8.13954603e-03, 3.13872169e-03, 1.15636559e-02, -1.23828566e-02,
       5.20494021e-03, 9.49806534e-04, 7.19159935e-03, -8.96180794e-03,
       -3.04816309e-02, -1.40058585e-02, -3.89926182e-03,
       -9.87733807e-03, -1.45360595e-02, -2.54631750e-02,
       -7.49155926e-03, -1.79619025e-02, -1.92905648e-03, 9.58092161e-04,
       1.41783496e-02, 4.26470935e-02, 1.69518068e-02, 3.02917324e-02,
       -7.91057420e-04, -1.96777992e-02, -2.96421666e-02, 7.77457329e-03,
       -2.54892930e-02, 2.66370527e-03, -5.11906529e-03, -1.38079347e-02,
       6.32455805e-03, -3.52113023e-02, -3.34907770e-02, -9.11084749e-03,
       -9.07066930e-03, -5.20907668e-03, 1.30507136e-02, 3.59949246e-02,
       2.90358090e-03, 1.26340212e-02, 1.71547588e-02, -3.57182734e-02,
       -2.02924050e-02, -1.56290531e-02, -2.33877264e-02, 3.80454436e-02,
       6.36560544e-02, 3.46802617e-03, 3.32741789e-03, 7.46022444e-03,
       3.14106271e-02, 3.63834156e-03, -2.57026451e-03, -3.53590585e-02,
       5.46395662e-04, 5.65448077e-03, -6.92246715e-03, -1.65278260e-02,
       4.92604403e-03, 5.27244806e-02, -8.95901490e-03, -3.11514307e-02,
       -1.77134149e-04, 1.45108141e-02, 4.37284485e-02, -5.06669991e-02,
       -5.59810475e-02, -5.20855002e-02, -2.12976728e-02,
       -1.69419274e-02, -2.92158290e-03, -2.45687533e-02,
       -4.91614379e-02, -2.79411729e-02, -6.24977462e-02,
       -4.45838571e-02, -4.24517915e-02, 4.61496376e-02, -2.14358363e-02,
       -5.30674122e-03, 7.59184873e-03, -1.69796590e-02, -2.35553570e-02,
       -1.10979965e-02, 3.36140990e-02, 3.59506742e-03, 6.53130189e-02,
       4.32592891e-02, 5.01204096e-03, -2.00104285e-02, -6.13291487e-02,
       -3.24523225e-02, -2.58002477e-03, 2.53947582e-02, 3.40851992e-02,
       1.27506778e-02, -1.12205502e-02, -4.16161753e-02, -2.07726415e-02,
       -1.59169678e-02, -1.82299018e-02, -1.98531579e-02,
       -3.61738144e-03, -8.19453970e-03, 2.29065157e-02, -7.69995339e-03,
       -1.98308583e-02, -1.96190048e-02, -5.37276603e-02,
       -1.79872196e-02, 7.12567056e-03, -3.38979065e-02, -3.98191530e-03,
       -2.73181172e-03, -1.68945417e-02, -4.30017263e-02,
       -7.62289949e-03, -3.34303640e-02, -2.95722950e-02, 8.80672131e-03,
       4.46230248e-02, 3.99615755e-03, -7.20225507e-03, -2.26230007e-02,
       -1.30859315e-02, -2.83448081e-02, -2.80608553e-02,
       -3.13832127e-02, -3.13152969e-02, 2.33083381e-04, -2.43094750e-04,
       4.06223023e-03, -3.86613281e-03, -2.54463404e-02, 1.12828454e-02,
       -1.31309927e-02, 1.77448951e-02, 3.15608941e-02, 2.20674407e-02,
       2.09886790e-03, -4.37308149e-03, -3.42955850e-02, 1.52245117e-02,
       -8.28342792e-03, -7.51623930e-03, 3.19735780e-02, 3.52938548e-02,
       9.74493939e-03, 2.33949348e-02, 1.48558207e-02, -3.98031698e-04,
       -1.05419485e-02, -1.15191359e-02, -4.25021090e-02,
       -2.62667723e-02, -3.06148548e-02, 1.19468793e-02, -8.99202097e-03,
       -5.58730448e-03, 3.19233350e-03, 5.35968412e-03, -1.22688022e-02,
       -2.98962137e-03, -2.55270507e-02, -4.42845002e-02,
       -3.06337257e-03, 2.09171381e-02, -1.25303222e-02, 3.83049995e-03,
       -2.13596853e-03, -5.20069199e-03, 1.75765939e-02, 4.78646047e-02,
       2.18749121e-02, 6.72085630e-03, 1.55398780e-02, 1.06188385e-02,
       -1.04804977e-03, -1.39830522e-02, 1.02029294e-02, 6.07277900e-02,
       2.24549305e-02, -3.80194117e-03, -7.18146842e-03, 3.93588468e-03,
       5.02428561e-02, 5.10201380e-02, 5.60126361e-03, -2.46825852e-02,
       -1.89309064e-02, -9.41726565e-03, -3.01400479e-02, 1.45970089e-02,
       -1.96402846e-03, -1.11678187e-02, -1.18024182e-02,
       -1.83511805e-02, -1.90543234e-02, -2.16031075e-03,
       -1.21408692e-02, 6.42678700e-03, 8.57395772e-03, -2.48697028e-02,
       -2.77115256e-02, -3.02501544e-02, 1.22727873e-02, 1.31929740e-02,
       4.37512659e-02, 2.82180328e-02, -2.83819507e-03, 3.08958261e-04,
       5.49686961e-02, 7.06097633e-02, 6.64787292e-02, 2.72886064e-02,
       -4.25031967e-03, 4.17829752e-02, 3.28865238e-02, 2.01805867e-02,
       4.24248315e-02, 3.49454433e-02, 2.52337158e-02, -8.82834382e-03,
       -6.57419441e-05, 7.94017967e-03, 2.28051879e-02, -8.10868479e-03,
       1.67309102e-02, -3.73944733e-03, 3.31693999e-02, 2.40917061e-03,
       -1.76528981e-03, 5.46514727e-02, -4.21196781e-02, -6.76627504e-03,
       -4.68912162e-02, -4.56122570e-02, -4.96863425e-02,
       -2.65367962e-02, -1.80947222e-02, -2.83703636e-02, 8.11316259e-03,
       1.24910399e-02, 3.70587781e-02, 1.52652208e-02, 6.08046800e-02,
       4.18481790e-02, 5.76872118e-02, 4.87855449e-02, 1.22483149e-02,
       2.46017370e-02, -2.71896292e-02, 1.77481193e-02, -7.22737238e-03,
       2.45024748e-02, 4.10430916e-02, 3.07550281e-02, -4.54225903e-03,
       5.99595904e-03, 8.45670118e-04, 1.77657392e-04, -2.34779473e-02,
       -5.29379807e-02, -2.20069550e-02, -4.04406153e-02, 5.39801419e-02,
       3.06059383e-02, 3.84291774e-03, 3.49200554e-02, -7.48144463e-03,
       -1.03682606e-02, -3.72616425e-02, -6.38780668e-02,
       -1.92834660e-02, 4.41696793e-02, 9.43387020e-03, 1.23781909e-04,
       -1.23988660e-02, -1.82997249e-02, 2.34029884e-03, 1.42431082e-02,
       6.16477542e-02, 2.97166314e-02, 8.73832926e-02, 2.23879702e-03,
       8.19742866e-03, 4.50187586e-02, -5.99105507e-02, -5.08813187e-02,
       -4.02696691e-02, -2.23060735e-02, 4.50116619e-02, 3.18934992e-02,
       -6.41495883e-02, -3.70405316e-02, -1.59610324e-02, 1.25990855e-02,
       -1.11178039e-02, -2.98511945e-02, -5.52241951e-02,
       -6.21783957e-02, 4.61149029e-02, 1.48062948e-02, 3.32762077e-02,
       3.71511914e-02, 3.34522389e-02, 2.87801716e-02, 1.11457473e-02,
       2.91163735e-02, -2.80246437e-02, 6.54698461e-02, 4.61249761e-02,
       5.32733463e-02, 4.16936204e-02, -4.26728204e-02, -4.78292815e-02,
       -3.17357667e-02, -1.75109413e-02, -3.85187455e-02, 6.31813630e-02,
       -2.92099416e-02, -2.25572698e-02, -2.19631512e-02, 2.00808793e-02,
       2.83701811e-03, -8.45145434e-03, -4.49992949e-03, 4.80463146e-04,
       3.14401276e-02, -4.38036025e-02, -2.29570717e-02, -1.07919173e-02,
       3.56734581e-02, -1.17930388e-02, -6.39963988e-03, -1.63011700e-02,
       -4.87826159e-03, 2.07737964e-02, -4.23891610e-03, 3.83345187e-02,
       1.66912936e-02, 7.54029527e-02, 3.59414890e-02, 1.76553503e-02,
       2.00848412e-02, 1.26330294e-02, 2.50749253e-02, 3.57124507e-02,
       6.52288422e-02, 1.75152402e-02, -2.17540469e-03, -4.45879921e-02,
       -3.46087106e-02, -2.86535602e-02, -9.68751591e-03,
       -3.80940288e-02, -5.70809245e-02, -4.29201573e-02,
       -5.18622883e-02, 3.43160927e-02, 2.29113605e-02, -1.42032960e-02,
       2.32639313e-02, 7.40089314e-03, 7.37506896e-03, -5.73825045e-03,
       1.95529871e-02, -1.15269823e-02, 5.69350040e-03, -5.25291450e-03,
       -4.90851048e-03, -3.06552928e-03, 1.72207430e-02, -3.83510888e-02,
       -8.61547235e-03, -1.15177617e-03, -2.85360925e-02, 1.47180203e-02,
       1.98990591e-02, 1.70733389e-02, -1.17323995e-02, -2.13851240e-02,
       -1.04631549e-02, 3.78426127e-02, 1.34836631e-02, 7.86944479e-03,
       1.73149984e-02, -4.29895846e-03, -2.25323578e-03, -1.95375141e-02,
       1.97540913e-02, -1.82610601e-02, 1.30088243e-04, 2.00996315e-03,
       -1.97960157e-02, 1.68783739e-02, 2.72833020e-03, -7.93581177e-03,
       -3.62132043e-02, -5.85009390e-03, 1.94653478e-02, 3.11852675e-02,
       2.72866432e-02, 3.61971967e-02, -2.02781633e-02, -1.20656835e-02,
       1.28670596e-02, -7.51589751e-03, 1.44823240e-02, -1.80226211e-02,
       -9.74846655e-04, -1.39201907e-02, -2.17489880e-02, 1.99204031e-02,
       2.32351199e-02, 4.80524264e-02, -9.49989446e-03, 1.64935477e-02,
       2.16860208e-03, -4.43045935e-03, 5.99325635e-03, 6.80909579e-05,
       -2.16173343e-02, -2.72683762e-02, -1.39143867e-02,
       -2.82491464e-02, -4.01974190e-03, 1.43102137e-02, 2.69342829e-02,
       -2.70094466e-03, -1.46037182e-02, 1.33524965e-02, 3.82464961e-03,
       1.06668537e-02, 8.22323468e-03, 4.37685102e-03, 4.89487872e-03,
       1.58164389e-02, 4.88295266e-03, -4.10340610e-04, -5.58500818e-04,
       2.48470251e-03, 7.09979236e-03, -2.29159743e-02, 1.16101513e-03,
       1.01459539e-02, 2.68112007e-03, -1.24917403e-02, -2.85015069e-02,
       1.32652372e-02, 2.08314396e-02, -4.66565182e-03, -1.40251573e-02,
       1.23989414e-02, -1.18119568e-02, 6.22745277e-03, -7.55294552e-03,
       -5.58561645e-03, 2.78522950e-02, 1.79279260e-02, 2.16469951e-02,
       3.72221274e-03, 1.92384946e-03, 2.15664227e-02, 3.76465470e-02,
       -6.85819425e-03, -1.83382363e-03, -1.45113666e-03,
       -7.73483515e-03, -9.76913329e-03, -2.43691839e-02,
       -8.58523138e-03, -9.90704354e-03, 1.00218263e-02, 9.22013633e-03,
       -1.02374088e-02, 1.92477796e-02, 3.54260169e-02, 1.86702572e-02,
       4.87132650e-03, 1.47832558e-02, -1.74194481e-02, 2.34180745e-02,
       1.67524237e-02, 1.33606661e-02, -9.36226454e-03, 1.84648652e-02,
       8.56327824e-03, -1.30542591e-02, -2.42882222e-03, -3.26135021e-04,
       2.87760161e-02, 3.09764175e-03, -7.14032305e-03, -2.25270819e-03,
       1.01003964e-02, 1.37603274e-02, -3.02772474e-04, 5.73609769e-03,
       -1.91049650e-02, -6.89887747e-05, 6.20240811e-03, -8.71340919e-04,
       5.57516934e-03, 6.23638276e-03, -2.68524815e-03, -3.18082841e-03,
       -1.93322636e-02, -1.65286604e-02, -1.14236102e-02,
       -2.49299351e-02, 6.54668780e-04, 1.75189541e-03, 2.71931873e-03,
       1.29687763e-03, -1.44579336e-02, -4.20022756e-03, 8.11243895e-03,
       3.16391438e-02, 9.44780745e-03, 1.45377498e-03, -1.63882729e-02,
       -2.86876480e-03, 2.88872402e-02, -5.39814122e-04, -4.29998664e-03,
       4.78340033e-03, 6.43298123e-03, -2.29982249e-02, -8.54896940e-03,
       1.99723989e-02, 1.36793796e-02, 8.17321893e-03, 1.34344753e-02,
       -5.40617574e-03, -6.25472190e-03, 1.77031476e-02, -1.09113865e-02,
       -8.53269885e-04, 4.29860037e-03, 6.21163705e-03, -1.88407046e-03,
       1.01404991e-02, -6.49523782e-03, -2.15890966e-02, 1.49300741e-03,
       -1.82468854e-02, -1.10686878e-02, 8.57694726e-03, -8.67667235e-03,
       -1.03535363e-02, 5.40601183e-03, -3.72604206e-02, -1.46206729e-02,
       -6.69864379e-03, 9.23996267e-04, 9.62085929e-03, -1.80868227e-02,
       5.47495298e-03, -9.99292359e-03, -4.25492879e-03, -1.94267686e-02,
       1.06120075e-03, -1.06776285e-03, 2.09905002e-02, -1.68440212e-02,
       6.43409323e-03, 1.23434952e-02, -6.83252094e-03, 5.93357207e-03,
       -4.86216582e-02, -2.04076525e-02, -7.50343082e-03, 8.58636480e-03,
       2.68306714e-02, 4.26645251e-03, 1.34831406e-02, -3.26510444e-02,
       1.29200378e-03, -3.12886462e-02, -2.25116648e-02, -3.57231237e-02,
       8.44183564e-03, 1.21077523e-03, -1.65337473e-02, -3.40427533e-02,
       -1.42695112e-02, 1.50471441e-02, 5.71279693e-03, 1.19519187e-02,
       -8.67188617e-04, 1.20227812e-02, 1.97696313e-03, 1.08368164e-02,
       -9.06181149e-03, -7.43431458e-03, 5.92826400e-03, 1.72798913e-02,
       3.41701962e-04, -1.37260081e-02, 4.38435515e-03, -5.71942283e-03,
       5.55168977e-03, -1.53376292e-02, -3.94134969e-02, -1.54695231e-02,
       2.58365739e-03, -1.64300983e-03, -1.28801530e-02, 1.12194673e-03,
       -8.46252218e-03, 1.97519753e-02, -1.70623623e-02, -2.27020867e-02,
       -5.97387599e-03, -2.93690129e-03, 8.61494429e-03, 3.91303329e-03,
       6.23254629e-04, -3.80708301e-03, -1.19123105e-02, 8.83629639e-03,
       5.14995866e-03, -8.93344451e-03, 6.79816678e-03, 1.12146428e-02,
       -3.42023037e-02, 3.43505992e-03, 1.40932179e-03, -5.60057536e-03,
       2.58390941e-02, 1.49886860e-02, 1.45142078e-02, -7.87730236e-03,
       2.91645043e-02, -5.07885329e-02, -2.45600380e-02, -1.18867010e-02,
       1.14206551e-02, -1.17538888e-02, -9.12044663e-03, -5.19788377e-02,
       -2.89748632e-03, 9.12042800e-03, -4.05853279e-02, -3.06189191e-02,
       -6.57952717e-03, 6.39853394e-03, -1.40227899e-02, -1.80984270e-02,
       2.22462397e-02, 2.15914659e-03, 2.06089914e-02, -2.96395551e-02,
       -3.08021475e-02, 1.67425405e-02, 1.24384882e-02, 3.85372564e-02,
       4.28700522e-02, 1.11682191e-02, -3.56983091e-03, 1.36461214e-03,
       -1.28769455e-02, 2.15529967e-02, 9.54462215e-03, 3.39993904e-03,
       -5.33081312e-03, 1.21481596e-02, 2.22646026e-03, -2.68585123e-02,
       -2.83443332e-02, 4.32800949e-02, 1.40460450e-02, -5.56217739e-03,
       -1.75832994e-02, 2.00831052e-02, 1.39820268e-02, -8.07418115e-03,
       -3.47614996e-02, -1.33549282e-02, -1.77857876e-02, 1.46195777e-02,
       9.68165509e-03, -2.72429418e-02, -3.10833137e-02, -3.70714522e-04,
       -1.49565293e-02, -4.51647341e-02, -6.13912083e-02,
       -4.44247155e-03, -8.10901076e-03, -3.08259726e-02, 8.70172027e-03,
       1.79247018e-02, 3.53086442e-02, -1.71027556e-02, -9.83369537e-03,
       -1.78609844e-02, 9.61888209e-03, -6.59949565e-03, -1.55524164e-02,
       -1.93441529e-02, -2.77316328e-02, 2.48797629e-02, 6.46663234e-02,
       1.20360078e-02, 3.52719761e-02, 1.60778612e-02, -4.02661925e-03,
       -3.61003764e-02, -4.77669341e-03, -2.23154854e-02, 7.54142413e-03,
       -3.66951823e-02, -8.94501153e-03, -5.96198663e-02,
       -1.22545450e-03, -9.72952694e-03, 2.88783154e-03, -4.70542051e-02,
       -4.19666842e-02, 9.02197883e-03, 4.28565145e-02, -3.18801813e-02,
       -1.63560472e-02, 1.37639968e-02, -2.22981535e-02, -2.64151376e-02,
       2.08073226e-03, -4.34704535e-02, -2.12054551e-02, -7.23351445e-03,
       2.75644679e-02, -3.80772306e-03, 2.93983123e-03, -4.11265492e-02,
       -1.29550910e-02, -1.17176436e-02, -3.44017819e-02, 4.33169352e-03,
       8.61288887e-03, 6.87868707e-03, 1.74270617e-03, 1.14439772e-02,
       -1.15627674e-02, 6.76494185e-03, -1.05534848e-02, -4.17316966e-02,
       -4.77095228e-03, 3.10508218e-02, -1.48463319e-03, -7.40189850e-03,
       -1.67736840e-02, -5.12436628e-02, -2.92286798e-02,
       -2.84826965e-03, -1.99091621e-02, 3.94901671e-02, 5.84377758e-02,
       2.55382359e-02, 1.77802555e-02, 4.47359346e-02, 3.70506532e-02,
       1.45023577e-02, 1.84401106e-02, -4.55717929e-03, 1.48900906e-02,
       -1.39072007e-02, 1.19144134e-02, -1.79133601e-02, 1.01299295e-02,
       -7.08648004e-03, 6.01903163e-03, 5.59837185e-03, 5.24605275e-04,
       -1.93244359e-03, -1.85330994e-02, -2.40160041e-02,
       -4.75485101e-02, -1.12300180e-02, -3.38338166e-02,
       -7.90201500e-03, 3.92108783e-03, 1.13173919e-02, 7.65993744e-02,
       9.03952047e-02, 4.40408327e-02, 2.26001330e-02, 3.32829878e-02,
       4.50844169e-02, 1.72421355e-02, -9.38632898e-03, -2.95165833e-02,
       -8.73155054e-03, 2.32123770e-02, 6.50166906e-03, 4.17729234e-03,
       -1.83223262e-02, -3.36471461e-02, -3.37321348e-02,
       -1.22589646e-02, -6.28058007e-03, -9.02064051e-03, 4.05904604e-03,
       1.70542002e-02, 9.44593269e-03, 2.70937458e-02, 4.00775904e-03,
       -3.04450910e-03, 7.02693220e-03, 3.05386521e-02, 1.12774391e-02,
       -2.48628315e-02, -2.74234265e-02, -5.80272339e-02,
       -8.85733310e-03, -2.93679480e-02, 3.65775777e-03, -2.61060894e-02,
       -1.07076773e-02, 1.67129003e-02, 6.93896115e-02, 2.60085263e-03,
       2.04636045e-02, -1.04253402e-03, 3.65261600e-04, -9.47980769e-03,
       -3.00571742e-03, 1.94483809e-02, 1.02157285e-02, 1.25896651e-03,
       3.19712497e-02, -1.66787803e-02, -1.77211501e-02, -1.45571548e-02,
       3.27787874e-03, 2.15580361e-03, -3.46987799e-04, -3.04093268e-02,
       -3.95323634e-02, -1.29484665e-02, -4.10655700e-02,
       -1.68972965e-02, -2.71189865e-02, -1.07563166e-02, 5.98416179e-02,
       4.31560799e-02, 5.89601276e-03, -2.07678508e-02, -7.82756601e-03,
       -3.28219309e-02, -2.98790652e-02, 1.77480765e-02, 5.41270003e-02,
       1.25093618e-02, -1.73134450e-02, -2.86497697e-02, -1.11531522e-02,
       7.28865992e-03, 6.47625746e-03, 1.94599926e-02, -1.90823770e-03,
       4.08826061e-02, 3.46712023e-02, 1.28733618e-02, 1.41208228e-02,
       1.64725923e-03, 2.81340554e-02, 2.96577811e-02, 1.51088266e-02,
       3.48975882e-02, 4.99834307e-02, 2.63930205e-02, -1.65363133e-03,
       -2.53505148e-02, -2.57232673e-02, 9.53085907e-03, 5.96852303e-02,
       -4.42528538e-03, 2.67405082e-02, 4.94126417e-02, -1.28059229e-02,
       -4.00753096e-02, -5.98765798e-02, -5.55399135e-02, 6.91131863e-04,
       -1.37502262e-02, -4.10459675e-02, -1.17684696e-02, 2.78123212e-03,
       5.26378378e-02, 2.44680215e-02, 2.66709942e-02, 3.08808647e-02,
       -1.27045615e-02, 9.19478387e-02, -1.91235566e-03, 3.05266399e-02,
       4.15007770e-02, -1.07660182e-02, -2.97257882e-02, -5.44428937e-02,
       -5.09540923e-02, -5.59663493e-03, -1.08465943e-02,
       -3.45643088e-02, -1.80753283e-02, 1.87048074e-02, -2.63593234e-02,
       -3.59706394e-02, -2.57420242e-02, -5.25088748e-03,
       -3.23190987e-02, 4.09446172e-02, -3.22669782e-02, -5.24297217e-03,
       1.05427951e-02, -1.50451029e-03, 3.13797547e-03, -1.80233270e-02,
       -2.67852675e-02, -3.33020799e-02, 1.31795984e-02, -4.09843884e-02,
       5.88562386e-03, -3.65785672e-05, -5.54838814e-02, -1.64505914e-02,
       -7.04636285e-03, 5.25961556e-02, -4.02079560e-02, 4.95585948e-02,
       -2.39129923e-02, -4.96307854e-03, -1.38216773e-02,
       -6.17192164e-02, -1.59430727e-02, -1.97568480e-02, 2.69290116e-02,
       -8.68528907e-04, 2.63429619e-02, -1.82896815e-02, 3.27663273e-02,
       -3.70642659e-03, -2.82975994e-02, -2.62253173e-02,
       -4.51191403e-02, -3.32696661e-02, -7.32209953e-03,
       -3.59486304e-02, -2.88402289e-02, -2.49352329e-03,
       -1.45570645e-02, 4.97642122e-02, 1.70550738e-02, -1.30001027e-02,
       2.08251756e-02, -1.76858772e-02, -1.24173891e-02, 1.74672399e-02,
       5.46218529e-02, 2.78459713e-02, -7.04934299e-02, -3.99391241e-02,
       -2.21058056e-02, 6.63168076e-03, 3.04217972e-02, -1.61470473e-02,
       -6.69125468e-02, -2.82041300e-02, -2.07369495e-02, 2.75693871e-02,
       4.18876819e-02, 7.48189585e-03, 7.70034045e-02, 2.75938697e-02,
       1.91853400e-02, -8.95951129e-03, 6.00094274e-02, 3.64672169e-02,
       1.76654402e-02, -1.79154593e-02, -2.21989043e-02, -4.35560420e-02,
       -1.22660333e-02, -3.69115919e-02, -2.02268995e-02, 2.58638780e-03,
       4.96372441e-03, 8.02908465e-02, 5.53387851e-02, 1.49554098e-02,
       -1.57346614e-02, -1.96840484e-02, 3.77521515e-02, 3.33679840e-02,
       2.26877052e-02, 5.37446737e-02, -4.11816128e-02, -3.54738644e-04,
       -1.34274419e-02, -1.34251500e-02, -2.97729112e-03,
       -2.91199256e-02, -2.82740388e-02, -1.07538076e-02,
       -3.75368856e-02, 1.88450832e-02, 3.30407731e-02, 2.74784863e-02,
       1.95113346e-02, -1.71811301e-02, 2.94584129e-02, 1.51624735e-02,
       -1.08642392e-02, -8.02405935e-04, -1.23160956e-02,
       -8.98670498e-03, -1.38519835e-02, -4.21389416e-02,
       -4.00067773e-03, 2.19863467e-03, 2.11723968e-02, -2.54881848e-02,
       -2.39240322e-02, 2.32975073e-02, 7.81669468e-03, 2.41762809e-02,
       2.43794862e-02, -1.07095530e-02, 4.70017828e-03, 2.12295782e-02,
       4.27494058e-03, -7.78351584e-03, -6.09751674e-04, 1.87854702e-03,
       -7.95442704e-03, -9.49311163e-03, -1.26302820e-02,
       -1.75005533e-02, 3.60499951e-03, -4.15217876e-02, -1.82406008e-02,
       2.29017772e-02, 9.48824827e-03, 1.25965348e-03, -4.50792909e-03,
       1.06053147e-02, 6.72689267e-03, 6.83492050e-03, 5.85135398e-03,
       1.41329346e-02, 7.24561280e-03, -3.26720951e-03, 1.96811110e-02,
       1.44095747e-02, 1.00855902e-02, -9.98025015e-03, 2.36376598e-02,
       7.28304451e-03, -2.42492519e-02, 1.39979809e-03, -1.43404622e-02,
       -5.54688508e-03, -9.47909057e-03, 4.89153666e-03, -5.64415706e-03,
       6.88949414e-03, 1.14860032e-02, -6.05803728e-03, 8.38032737e-03,
       1.34304687e-02, 2.69219149e-02, 1.26494430e-02, 6.08780421e-03,
       -3.00665870e-02, 1.67722255e-02, 5.11364685e-03, -2.20518820e-02,
       3.53737548e-02, -7.03207124e-03, 5.53672109e-03, -5.81085356e-03,
       -6.47326140e-03, 1.43493316e-03, 6.28150243e-04, -2.30266992e-02,
       -1.76746212e-02, 4.09621233e-03, -1.78113615e-03, 1.08229714e-02,
       -5.04173618e-03, 1.84477270e-02, 8.32741428e-03, 1.91015843e-02,
       7.95177257e-05, 1.98005280e-03, 3.49256043e-05, -5.49529074e-03,
       -1.97781622e-02, -5.39908465e-03, 2.06481330e-02, 2.53820443e-03,
       5.14286617e-03, -1.77775510e-02, -6.15444407e-03, 2.43577734e-02,
       -3.53130046e-03, 2.99272593e-03, -2.09289417e-03, -1.13924295e-02,
       5.24405157e-03, 1.13135520e-02, -7.98654463e-03, -1.22004943e-02,
       2.09334888e-03, -2.15477068e-02, -2.77324952e-02, -6.38670009e-03,
       -2.71891039e-02, -5.45282057e-03, -5.73375775e-03,
       -1.10201398e-02, -1.89692471e-02, 3.71888117e-03, -7.08470959e-03,
       -5.42817824e-03, 5.21628838e-03, -1.74789946e-03, 9.07150377e-03,
       2.13500597e-02, -1.13514084e-02, -4.57434636e-03, 2.22751824e-03,
       1.32908011e-02, 1.87861137e-02, 1.48113715e-02, -1.86917502e-02,
       -6.59856386e-03, 3.36335264e-02, -3.57453502e-03, 1.13365892e-02,
       9.72771086e-03, -1.27868121e-02, -9.14499909e-03, 1.42173944e-02,
       -2.14865860e-02, -1.51827913e-02, 6.76345453e-03, -3.10645322e-03,
       -1.97606981e-02, 3.42548289e-03, -4.05913917e-03, -1.05591835e-02,
       3.71621945e-03, -5.73442457e-03, -6.90354127e-03, 1.65338553e-02,
       -2.18695728e-03, -1.83283612e-02, 3.03357071e-03, 1.59119293e-02,
       5.97868534e-03, 5.17212832e-03, 4.16278606e-03, 1.52505991e-05,
       -8.86926521e-03, 3.07934848e-03, 1.48007646e-02, 1.60940445e-03,
       1.81755926e-02, -2.39850506e-02, -5.09236706e-03, 9.51189175e-03,
       -1.56821255e-02, -8.03536084e-03, 2.22681463e-02, 1.32845789e-02,
       2.46596858e-02, 7.73322256e-03, 3.37406714e-03, -8.81230272e-03,
       -4.47098911e-03, -1.13175111e-03, -2.02119276e-02,
       -8.64115357e-03, 2.75642611e-02, 1.13018388e-02, 1.58601385e-02,
       -1.65100005e-02, 3.32646468e-03, -9.71468631e-03, 9.89433192e-03,
       -5.21608721e-03, 9.09436028e-03, -9.08750854e-03, 7.16352370e-03,
       -1.59322359e-02, -4.08027992e-02, -8.37416109e-03, 1.34249683e-02,
       -2.54502110e-02, -1.97576564e-02, 5.68844890e-03, 1.35627137e-02,
       1.02976551e-02, -8.76479410e-03, -1.36222243e-02, -5.25369914e-03,
       -1.25751097e-03, -2.00137645e-02, 5.79011440e-03, -4.68623452e-03,
       1.51461335e-02, 1.48177100e-03, 1.37622701e-03, -2.27326881e-02,
       1.34062245e-02, 3.17540194e-04, 6.98325364e-03, -2.08883220e-03,
       -7.32519757e-03, -4.03863005e-03, 1.32041043e-02, 2.78491098e-02,
       -8.47593788e-03, 9.08553973e-03, -1.59174036e-02, 1.76833710e-03,
       1.94191001e-02, -2.87065608e-03, -1.56878307e-03, 3.62764928e-03,
       -1.72626600e-02, -5.07142721e-03, -7.15562259e-04, 4.62285392e-02,
       3.21586840e-02, -4.88700671e-03, -2.16847081e-02, 7.03149429e-03,
       -3.64783481e-02, -6.36854861e-03, 1.15593132e-02, 1.93908978e-02,
       1.14030885e-02, 6.48364983e-03, -7.34972721e-03, -2.37865970e-02,
       -4.49470303e-04, 1.77013539e-02, 2.21240544e-03, -4.37306473e-03,
       2.45143846e-02, 9.47297737e-03, 2.80156676e-02, -9.19791963e-03,
       -2.59838570e-02, 1.39601640e-02, -3.32895182e-02, -1.03060193e-02,
       -1.09159411e-03, 1.27949298e-03, 3.61141865e-03, 2.18343455e-02,
       -4.48136292e-02, -2.78310739e-02, 4.63818340e-03, -2.13677473e-02,
       3.44813019e-02, 4.43088487e-02, -1.65030695e-04, -1.00482367e-02,
       2.89035402e-02, 3.76728587e-02, 2.96695326e-02, 2.38671824e-02,
       1.36993192e-02, 1.42774284e-02, 2.13056747e-02, -3.01021133e-02,
       -1.31933661e-02, -1.53545355e-02, 3.43928626e-03, 6.79627014e-03,
       2.07398310e-02, -3.15233842e-02, 2.56860666e-02, 5.91967180e-02,
       -5.61246974e-03, -3.18358615e-02, 2.11883672e-02, -7.18701573e-04,
       2.92806793e-02, 8.25828931e-04, -3.25839370e-02, 1.89819988e-02,
       8.12489819e-03, 1.90231167e-02, -3.08986381e-02, 9.24231764e-03,
       -2.37283874e-02, -1.52974296e-02, -2.66016740e-02, 2.09865589e-02,
       -1.40048992e-02, -1.52474949e-02, -6.01403862e-02, 1.77641399e-02,
       -2.16251183e-02, 2.26227287e-02, 6.23589940e-03, 1.94531064e-02,
       -2.45778803e-02, -2.28845049e-02, 1.57144256e-02, 5.77267371e-02,
       -1.13191875e-02, 2.50913650e-02, 2.23200247e-02, 2.19138544e-02,
       -1.91099886e-02, -6.65215729e-03, -1.75916124e-02,
       -2.37598433e-03, -1.61173400e-02, 9.37771867e-04, 5.10080392e-03,
       -9.60010756e-03, -3.36659304e-03, 6.93671545e-03, -3.84085551e-02,
       -4.10011150e-02, -1.02067795e-02, 7.98691511e-02, -1.71635430e-02,
       6.48284405e-02, 4.66921134e-03, -7.04391685e-04, -3.83203067e-02,
       -1.41307572e-02, -7.10130855e-02, -2.32372396e-02,
       -8.07312038e-03, 7.72319511e-02, -3.37016582e-02, -8.20610486e-03,
       -2.36419458e-02, -1.72819830e-02, -2.58308090e-03,
       -1.48940040e-02, 3.84041741e-02, 1.42414551e-02, 1.19815962e-02,
       7.82181416e-03, 1.90293789e-02, 1.99686904e-02, 3.66196781e-03,
       -2.19513401e-02, -5.93486838e-02, -3.25918607e-02,
       -3.48736113e-03, 4.81755547e-02, -6.44602925e-02, -3.45423743e-02,
       -6.14365153e-02, -3.56081054e-02, 9.67185572e-03, -1.82192773e-03,
       -6.22269465e-03, -1.17700584e-02, -3.05975154e-02, 3.32697518e-02,
       3.35138403e-02, -9.00457427e-03, 5.95194520e-03, 1.75770540e-02,
       2.64221281e-02, 3.63536477e-02, 1.57062411e-02, 2.12186910e-02,
       3.13018449e-02, 5.94063178e-02, 5.39758578e-02, 1.68542806e-02,
       4.14962322e-03, -3.41613479e-02, -3.02533358e-02, -2.63688732e-02,
       1.05470652e-02, -2.51410808e-02, -2.75372788e-02, -2.16637831e-02,
       -1.62148848e-02, 4.20376882e-02, 5.64759187e-02, 5.48635311e-02,
       3.53110321e-02, -3.57258581e-02, 4.64820443e-03, 4.04658206e-02,
       -4.18743631e-03, 3.39078382e-02, 9.10321344e-03, -2.36261897e-02,
       -3.43513414e-02, -4.72191051e-02, -7.39520974e-03,
       -4.17006463e-02, -3.57919633e-02, -3.93455774e-02,
       -7.93937687e-03, -1.24661569e-02, 9.71629284e-03, 1.56970974e-02,
       6.22505285e-02, 3.81140448e-02, 2.68564709e-02, -9.03910864e-03,
       3.91400792e-03, -1.62528306e-02, 4.05227672e-03, 3.70633826e-02,
       4.19109613e-02, 1.46433590e-02, -8.68478883e-03, 2.14738585e-03,
       -1.54891880e-02, -1.14221347e-03, 1.01814074e-02, 4.04455736e-02,
       2.45587714e-02, 1.17896376e-02, 1.26433522e-02, -4.12291922e-02,
       1.88087747e-02, -2.68035717e-02, -1.78816989e-02, 1.24945529e-02,
       -4.15740674e-03, -8.35124869e-03, -6.58744248e-03,
       -2.55003124e-02, -2.92199180e-02, -2.00578682e-02,
       -5.39245270e-02, -2.77161300e-02, -1.81306116e-02,
       -2.44553797e-02, -2.39594933e-02, -1.68764070e-02, 8.73872079e-03,
       4.37309891e-02, -3.50825442e-03, 1.76191591e-02, 7.29613472e-03,
       7.74403452e-04, 3.36174816e-02, 5.70754036e-02, 4.91036586e-02,
       3.32284011e-02, 6.83249235e-02, 2.28396878e-02, 2.29360722e-02,
       1.69344507e-02, 2.66699642e-02, -1.22303870e-02, -2.41204537e-02,
       -1.94257125e-02, -2.59103943e-02, -2.97026290e-03, 1.49474468e-03,
       -6.07448118e-03, 2.27148156e-03, -4.33057733e-03, 2.71908827e-02,
       3.52476612e-02, -7.48110004e-03, -3.48457880e-03, -2.52988692e-02,
       5.77899069e-03, -3.74112744e-03, -6.51025074e-03, 1.03831301e-02,
       4.83485125e-03, 3.38549092e-02, 6.05982244e-02, 7.02999979e-02,
       2.26509813e-02, 6.18938208e-02, -6.83782680e-04, -4.42513404e-03,
       7.08267232e-03, -3.08179762e-02, -3.06495428e-02, -5.80762662e-02,
       -5.57460301e-02, -7.81849213e-03, -4.60576378e-02,
       -4.43414785e-02, -1.71584114e-02, 1.47088207e-02, 2.46542916e-02,
       4.92116883e-02, 5.05453236e-02, 9.80504528e-02, -2.97879968e-02,
       4.10978459e-02, -1.62692759e-02, -1.07144481e-02, -8.19226087e-04,
       -4.14491026e-03, -7.26912776e-03, 7.66088706e-05, 4.73878868e-02,
       6.95426483e-03, -2.48990618e-02, -4.67792489e-02, -2.72015501e-02,
       7.38226576e-03, -1.85920876e-02, -4.64519951e-03, -2.21781153e-02,
       3.73314619e-02, -6.92891981e-03, 1.00985682e-02, -2.35592090e-02,
       -3.76432319e-03, -7.98509549e-03, -6.61972538e-02,
       -4.52654250e-02, -5.53540029e-02, 2.94039911e-03, -1.85921080e-02,
       -2.10948512e-02, -1.85835212e-02, 8.00197292e-03, -2.78549213e-02,
       -9.82066989e-03, -3.36002861e-03, 2.66081132e-02, 1.37521282e-01,
       -1.73825976e-02, 5.51289599e-03, -4.11046110e-02, -1.17142107e-02,
       -1.93272028e-02, -3.15974690e-02, 1.18853024e-03, -9.51352529e-03,
       1.93325896e-02, -4.92642745e-02, 8.75848252e-03, 3.33570465e-02,
       4.90178317e-02, -5.54004125e-03, -5.97431064e-02, -6.51521385e-02,
       -2.64858194e-02, -2.34319009e-02, -3.89457098e-03,
       -4.70857285e-02, -5.40400445e-02, -1.70383714e-02,
       -3.07030883e-02, 2.80233659e-02, 3.31081226e-02, 2.93108076e-02,
       5.82538582e-02, -4.51943744e-03, 2.93206181e-02, -2.18932983e-03,
       5.84310777e-02, 3.84948589e-02, -4.71704081e-02, -4.19096164e-02,
       -3.78356688e-03, 2.77021900e-02, -1.20367380e-02, -3.16188112e-02,
       -4.68698889e-02, -4.28997055e-02, -6.41149208e-02, 6.72346652e-02,
       6.97381347e-02, 7.10229054e-02, 1.05180919e-01, 1.34820747e-03,
       6.37170076e-02, 6.87019154e-03, 6.17471002e-02, 4.51509133e-02,
       -1.40607413e-02, 1.77901250e-03, -3.58032547e-02, -5.77488020e-02,
       -8.74193665e-03, -2.62428541e-02, -2.26550400e-02,
       -1.60733331e-02, -8.94484390e-03, 2.31456179e-02, 4.43176143e-02,
       2.33749822e-02, 1.43702794e-03, 8.19306076e-03, 2.80501451e-02,
       1.77775361e-02, 1.01194084e-04, 2.75454726e-02, 5.53539163e-03,
       -9.89020430e-03, -2.43568234e-02, -2.20006406e-02, 9.07612778e-03,
       -1.73479132e-02, -2.25964114e-02, -1.62330084e-02,
       -1.44936228e-02, 1.10022137e-02, 7.17070475e-02, 7.57037336e-03,
       2.98415013e-02, 4.25666161e-02, 4.22375016e-02, 3.56817245e-02,
       2.59791836e-02, 3.49812880e-02, -1.78419538e-02, -1.13237854e-02,
       -3.76996733e-02, -4.40874472e-02, -8.07593763e-03, 5.85214375e-03,
       -1.45807378e-02, -4.51124683e-02, -2.33390601e-03, 2.91843358e-02,
       3.76500562e-02, 1.34385349e-02, -3.16247251e-03, 5.33043873e-04,
       2.36450620e-02, -5.78662893e-03, 1.25224423e-02, 1.86636169e-02,
       -1.05229672e-02, 2.05996707e-02, -8.22647009e-03, -1.42028863e-02,
       2.08062865e-02, 6.12254580e-03, 9.77113564e-03, -3.22500467e-02,
       2.92449025e-03, 1.76534597e-02, 2.50841118e-02, -3.73329595e-03,
       2.36134008e-02, -3.28365760e-03, 8.24122503e-03, 4.58076922e-03,
       6.83016656e-03, 2.52770595e-02, 1.02517828e-02, 1.09423902e-02,
       1.87582765e-02, -7.31064763e-04, -5.06158406e-03, -1.45053025e-02,
       1.77877769e-02, -9.21804924e-03, -5.08263335e-03, 1.58528201e-02,
       -1.15436688e-02, 7.67075690e-03, -6.57895487e-03, 1.21529249e-03,
       1.25863152e-02, 1.36367800e-02, -2.46762596e-02, -1.76342875e-02,
       -6.40911632e-04, -6.13853429e-03, 2.08668299e-02, 2.66192518e-02,
       -3.15900217e-03, 4.56755143e-03, 6.55302126e-03, -4.94646234e-03,
       -2.65918374e-02, 5.62984683e-03, -1.70674995e-02, -1.70847196e-02,
       1.38732174e-03, 2.84607355e-02, 3.16593237e-02, 2.38700900e-02,
       -9.65271704e-03, -6.40385645e-03, 2.38982737e-02, -1.34810656e-02,
       -7.19801709e-03, -7.95448385e-03, 1.97553122e-03, 1.01435538e-02,
       1.21282497e-02, -2.86542978e-02, -1.61361750e-02, 1.13411909e-02,
       -7.44738523e-03, -1.53011344e-02, 1.62673164e-02, 9.33211576e-03,
       -2.05870103e-02, -1.47563592e-02, -2.46424433e-02,
       -9.30412672e-03, 2.93397326e-02, -2.64568417e-03, -6.99020363e-03,
       -3.62808304e-03, 6.15872536e-03, 2.73897890e-02, 1.21636782e-02,
       -2.62771035e-03, 6.45152759e-03, 1.16141122e-02, 1.20247668e-02,
       3.18094715e-03, 1.76516492e-02, -3.04066780e-04, 2.38356665e-02,
       -1.18472585e-02, -5.13910735e-03, 7.89508410e-03, 6.34548021e-03,
       -1.18455542e-02, -4.63336660e-03, 1.11199692e-02, -1.25357434e-02,
       -1.91968977e-02, -6.83765439e-03, -5.42446459e-03, 5.38255693e-03,
       1.76375788e-02, -2.99207889e-03, -2.29156353e-02, -3.09267715e-02,
       -1.44121954e-02, 4.12452500e-03, 1.49132470e-02, -5.59738651e-03,
       1.76153809e-03, 6.64521882e-04, 2.32556034e-02, 7.65117863e-03,
       6.50823698e-04, -7.00599980e-03, -1.23776346e-02, -3.21820304e-02,
       1.11351639e-03, 1.55275054e-02, -7.35936686e-03, -1.23444637e-02,
       -1.94606278e-02, -1.74222011e-02, -1.42128188e-02, 9.48068313e-03,
       2.38800496e-02, 1.09108519e-02, -2.79465760e-03, 4.07756194e-02,
       -1.08062392e-02, 8.70144553e-03, 4.34234214e-04, 9.20471828e-03,
       -9.33707412e-03, -2.28859577e-03, 5.43880835e-03, 1.92650314e-02,
       2.42677908e-02, 1.23769734e-02, -9.35746636e-03, -1.61383541e-05,
       -3.32278423e-02, -6.28383458e-03, -1.45156577e-03, 1.34514617e-02,
       -1.61770675e-02, 1.11229960e-02, -1.60959475e-02, -5.50230453e-03,
       9.52054188e-03, -1.72399508e-03, -4.91601368e-03, 2.47933231e-02,
       1.09114992e-02, 2.11217981e-02, 1.30381705e-02, 4.41107387e-03,
       -2.05319934e-02, -2.59024021e-03, -1.11690555e-02,
       -4.49213665e-03, 1.16070388e-02, 2.08347104e-02, -2.06851447e-03,
       -1.17507449e-03, 6.80592936e-03, -1.38263311e-02, -1.59715451e-02,
       2.12184113e-05, -1.20756670e-03, -7.41077820e-03, -3.49406223e-03,
       -1.09852646e-02, 4.57724296e-02, 2.32830308e-02, -4.52497974e-03,
       1.70212836e-04, 4.58554970e-03, -9.13516432e-03, 7.14214519e-04,
       -1.50174787e-03, 2.57620085e-02, 4.55269637e-03, 1.27030183e-02,
       -9.70335037e-04, -9.66715906e-03, 5.85149322e-03, -6.56636572e-03,
       7.59904459e-03, -1.30419980e-03, -2.05117539e-02, 1.60619300e-02,
       -1.93567411e-03, 6.90666726e-03, 3.20789628e-02, -4.16752286e-02,
       -1.14834392e-02, -3.53986165e-03, -5.77276712e-03,
       -5.86993620e-03, 2.81224921e-02, -2.62060147e-02, -4.10645381e-02,
       -1.20874448e-02, 3.30146030e-02, 1.90984048e-02, 6.15213066e-03,
       -2.60594860e-02, 1.20443916e-02, 7.01284595e-03, -3.08886748e-02,
       -5.08255744e-03, 3.36316321e-03, 1.02477502e-02, 4.80207382e-03,
       -2.45633982e-02, -4.19820324e-02, 1.45201329e-02, 2.62396131e-03,
       -1.77547354e-02, -1.18786553e-02, 5.26398048e-02, 3.19991913e-03,
       3.95493694e-02, 9.22334101e-03, -1.20043624e-02, -1.16524016e-02,
       -1.13761127e-02, -1.03412019e-02, -1.21797062e-02, 3.46152037e-02,
       -1.57723743e-02, 5.79556488e-02, 2.39354488e-03, -2.18615588e-02,
       -1.10924374e-02, 1.01318043e-02, -2.50457786e-03, 2.48148795e-02,
       -4.11438867e-02, -2.06363276e-02, 6.98133744e-03, 1.10470084e-03,
       1.17198490e-02, 2.17000470e-02, -6.95986953e-03, -2.63781380e-03,
       1.14446105e-02, -3.31690535e-02, -1.67512503e-02, -1.28546646e-02,
       -2.73051895e-02, -2.30675004e-02, 5.42658707e-03, 1.02490271e-02,
       4.36321795e-02, 7.31588900e-02, 6.43697307e-02, -7.02345092e-03,
       7.70689175e-02, 3.43293846e-02, 1.15182390e-02, 2.65558660e-02,
       4.14081709e-03, -9.00528685e-04, 2.92738564e-02, 1.10169211e-02,
       -4.24822308e-02, 2.94794962e-02, -2.22339435e-03, -1.51739186e-02,
       8.14133324e-03, 1.40949842e-02, -2.65029427e-02, 8.72278470e-04,
       -3.26663181e-02, 2.36589815e-02, -1.66932233e-02, -1.83953010e-02,
       -6.70053205e-03, 2.65696701e-02, -4.01569046e-02, -2.99069546e-02,
       8.95252626e-04, 2.61940993e-02, -3.70316952e-03, 1.26560368e-02,
       -3.50548513e-02, -4.28015105e-02, -5.85951842e-02, 2.38485914e-02,
       3.16047221e-02, 4.77571562e-02, 2.27286238e-02, -1.41771743e-03,
       2.59969085e-02, 2.33342331e-02, 1.05864080e-02, 1.86530482e-02,
       -1.92338303e-02, 2.90638600e-02, 1.35399047e-02, 3.31608914e-02,
       -1.02354176e-02, 4.99490649e-02, 3.92309390e-02, 5.47838584e-03,
       -3.17221880e-02, -1.84091076e-03, -2.47922540e-02,
       -4.00299430e-02, -4.43656147e-02, 2.93291565e-02, -2.92863697e-02,
       -9.39956401e-03, -2.76560467e-02, -1.02912635e-02, 7.45946262e-03,
       2.21970771e-02, 7.92958029e-03, 4.71212678e-02, 3.30100134e-02,
       3.75027210e-02, 4.11850261e-03, -4.30512754e-03, 1.19356364e-02,
       7.89707061e-03, -8.81493464e-03, -3.09359189e-02, -5.47969714e-02,
       6.85022352e-03, -3.59803364e-02, 1.37045968e-03, -1.09218378e-02,
       3.22041189e-04, -1.75656695e-02, 8.16831365e-03, 4.44285087e-02,
       1.57853011e-02, -8.95957835e-03, 2.31957193e-02, -2.81410804e-03,
       -2.88152322e-03, -5.70582319e-03, 2.59025004e-02, 4.64479551e-02,
       3.47301178e-02, 5.72408922e-02, 3.78783569e-02, 2.87172217e-02,
       3.37534659e-02, 3.16637121e-02, 3.74886133e-02, -3.49450074e-02,
       -5.94668724e-02, -3.28480937e-02, -1.31979771e-02, 1.21113681e-03,
       -1.51164411e-03, -2.24212762e-02, -3.71478274e-02,
       -1.90348122e-02, -2.34230328e-03, 3.78552862e-02, 5.57388440e-02,
       2.06786785e-02, 1.76410731e-02, 1.49970185e-02, 2.43786592e-02,
       5.16323559e-02, 2.14748867e-02, -7.70410523e-02, -8.70545954e-02,
       -3.82396132e-02, -4.15142886e-02, 6.94505055e-04, 7.46620726e-03,
       -3.21241543e-02, -2.78689787e-02, -2.68329941e-02, 5.37116895e-04,
       -1.52098881e-02, 1.37306573e-02, 4.83931862e-02, 4.49942192e-03,
       8.47022757e-02, 1.10798292e-02, 1.03630277e-03, -8.49976297e-03,
       1.08085088e-02, 6.71684230e-03, 5.10150241e-03, 2.40721498e-02,
       6.37015328e-02, 6.56914636e-02, 3.09589021e-02, -4.33036452e-03,
       -1.18169775e-02, -2.80955881e-02, -3.78141701e-02,
       -1.48345926e-03, -1.14774555e-02, -1.46874245e-02, 4.71787751e-02,
       8.62747524e-03, -2.73830234e-03, -3.58367711e-02, -3.28711863e-03,
       -3.03314719e-02, -5.71362339e-02, -4.71166931e-02, 2.34713475e-03,
       2.10760348e-02, 1.81622207e-02, 5.12440922e-03, -6.71130000e-03,
       -2.38394085e-02, -8.62140954e-03, -6.78833108e-03, 1.71630960e-02,
       3.21691111e-02, 4.22747843e-02, 1.43906595e-02, -1.19614974e-02,
       -2.15430837e-02, 4.12391201e-02, 5.45608662e-02, 4.31810431e-02,
       4.57432531e-02, 3.30111012e-02, 5.16955368e-02, 3.60828526e-02,
       3.00422125e-03, 4.38934145e-03, 1.20633841e-02, -2.28385944e-02,
       -1.69101469e-02, -2.01836117e-02, -1.22010950e-02, 7.09598372e-03,
       -8.63547903e-03, -2.49056742e-02, 4.99331160e-03, -1.75016164e-03,
       -1.90991368e-02, -2.19730698e-02, -3.94136347e-02,
       -1.86723918e-02, 1.32298013e-02, 1.71862151e-02, -1.81562938e-02,
       3.62407905e-03, 2.72174496e-02, 4.01485488e-02, 4.02881503e-02,
       8.71237665e-02, 1.21955825e-02, 1.91140529e-02, -1.31805725e-02,
       -1.50690917e-02, -3.88198299e-03, -1.89315006e-02,
       -3.47382165e-02, -3.51290554e-02, 7.43266866e-02, 5.14735207e-02,
       -2.36750413e-02, -3.33447643e-02, -1.00764763e-02,
       -8.64368491e-03, -3.61245014e-02, -4.40173130e-03,
       -5.46266884e-03, -2.14632717e-03, -2.27762628e-02,
       -1.84517913e-02, -2.59999819e-02, -1.36711227e-03, 3.33795673e-03,
       -1.44088939e-02, -2.94123255e-02, -3.55883166e-02, 8.62821285e-03,
       5.98700438e-03, -2.81306747e-02, -2.77922545e-02, 1.47102661e-02,
       3.09952684e-02, 9.14184749e-03, -1.13813756e-02, -1.81783773e-02,
       9.82391238e-02, 1.48398030e-04, -2.16806922e-02, -5.08135892e-02,
       3.98024358e-03, -1.55658962e-03, -3.08012739e-02, -1.76369939e-02,
       -1.38922455e-02, -7.70685496e-03, -6.38933927e-02,
       -5.92496283e-02, -1.45064080e-02, 3.99203487e-02, 8.72938614e-03,
       -2.38017403e-02, 1.85886621e-02, 1.30766574e-02, 6.39191717e-02,
       8.01820250e-04, -8.43808171e-04, -4.85905223e-02, -2.98732473e-03,
       -7.86336698e-03, -3.59771959e-03, 8.27317908e-02, 5.15859127e-02,
       4.77915183e-02, -5.13455123e-02, 1.72759481e-02, 8.15833453e-03,
       7.27227330e-02, 2.26466898e-02, -2.44112220e-02, -4.15027216e-02,
       -3.69053818e-02, -4.22763601e-02, -1.04179913e-02,
       -4.48613353e-02, -2.81129815e-02, -2.08917074e-02,
       -4.91820090e-03, 2.91937459e-02, 1.17585463e-02, 7.97111355e-03,
       1.24991890e-02, -3.74309681e-02, -1.52110402e-02, -1.46752652e-02,
       6.99176593e-03, -5.47469128e-03, -2.45470367e-02, -5.22298738e-03,
       -2.08720453e-02, -5.78310620e-03, -9.08080547e-04, 1.68243516e-02,
       -4.30072658e-03, 1.55030880e-02, 2.81934184e-03, 4.74163964e-02,
       5.52642718e-02, 4.90861535e-02, 5.49779721e-02, 4.29657521e-03,
       7.59026632e-02, 8.34599510e-02, 8.96363482e-02, 6.97844550e-02,
       -1.08834431e-02, -3.27551812e-02, -5.04688583e-02,
       -4.56866957e-02, -1.07663125e-03, -3.00896019e-02,
       -3.30397822e-02, -2.66753584e-02, -3.06385327e-02, 1.82711836e-02,
       6.48013130e-02, 2.69220546e-02, 3.58024649e-02, 6.18197164e-03,
       1.02514587e-02, -2.73792259e-02, 6.27802173e-03, 7.10720196e-03,
       4.17242758e-03, 2.06209323e-03, 6.64268853e-03, -3.90787423e-03,
       9.80923511e-03, 8.51355027e-03, 1.74489128e-03, 7.68403290e-04,
       7.46465614e-03, 3.89396511e-02, 4.51840572e-02, 3.60600613e-02,
       2.38591228e-02, 2.31508072e-02, 6.72749802e-02, -6.69760164e-03,
       7.81507511e-03, 1.91850923e-02, -1.51894102e-02, -5.95925283e-03,
       -1.60589796e-02, -2.67378483e-02, -8.36232270e-04,
       -5.00236405e-03, -2.10466441e-02, -2.92814281e-02,
       -2.24289149e-02, 8.53619352e-03, 7.20143644e-03, 4.15557111e-03,
       1.89893860e-02, -5.13692852e-03, 8.51548929e-03, 7.97418971e-03,
       -1.58886965e-02, 4.75282129e-03, -1.01341913e-02, -2.37028748e-02,
       7.79443933e-03, 6.06001215e-03, 3.04285605e-02, 2.24725064e-02,
       6.46520779e-03, -2.51285378e-02, -3.17887403e-02, 2.42136959e-02,
       7.57926842e-03, 1.53941065e-02, -7.71894911e-03, 5.03471047e-02,
       1.05256457e-02, 1.64945014e-02, -1.07975043e-02, -3.13772936e-03,
       1.88019220e-02, 1.46070390e-03, 2.26583034e-02, 2.03322750e-02,
       1.14627508e-02, 2.10600570e-02, 8.97022057e-03, 3.27136222e-04,
       4.23614262e-03, 2.28974670e-02, -1.81879457e-02, -8.32983293e-03,
       1.85048836e-03, 3.62286121e-02, -6.23785285e-03, 1.14765042e-03,
       -1.14998696e-02, 7.14619970e-03, -9.02684499e-03, -1.17580974e-02,
       2.53987163e-02, -2.05957443e-02, 2.51129945e-03, 9.46755894e-03,
       7.30128773e-03, 1.06008174e-02, -1.54257398e-02, -9.78809129e-03,
       -2.04467457e-02, -2.18568407e-02, -2.96818558e-02,
       -2.67397836e-02, -3.99967432e-02, -2.14118958e-02,
       -1.08254952e-02, -2.93762311e-02, -6.12820324e-04,
       -5.26760472e-03, -1.35953608e-03, 1.08597307e-02, -5.80650987e-03,
       2.08963007e-02, 2.27645710e-02, 4.08422231e-04, 4.02640458e-03,
       -5.11863455e-03, -1.08124875e-02, -5.41822379e-03, 1.30242226e-03,
       -1.22720720e-02, 2.23214123e-02, 1.49951631e-03, 3.09596607e-03,
       1.21570686e-02, -2.13297717e-02, 4.29662177e-03, 3.31625622e-03,
       4.09126002e-03, -2.10896395e-02, -1.02655562e-02, -5.24810189e-03,
       -2.42952683e-06, -2.69651338e-02, -7.88109098e-03,
       -2.04362217e-02, -2.79594101e-02, -3.69742489e-03, 5.85943088e-03,
       2.64420081e-02, 8.91517033e-04, 7.87867792e-03, -7.37478817e-03,
       2.46148929e-03, 1.17162885e-02, 7.78652867e-03, -4.27868403e-03,
       -7.91943690e-04, -4.45316406e-03, -1.41033195e-02,
       -1.00477703e-03, 2.40889192e-02, 1.65524073e-02, -5.18739317e-03,
       1.70498360e-02, -1.60900429e-02, -5.80744725e-03, 8.33628792e-03,
       1.84142310e-02, 1.03023872e-02, 2.15931721e-02, 1.18154371e-02,
       1.32985562e-02, -9.69909411e-03, -2.70320233e-02, -9.31711402e-03,
       -1.18943011e-04, 3.81812197e-03, -1.23984925e-02, 2.59013544e-03,
       -3.13446298e-02, -4.64326655e-03, -6.83218148e-03,
       -5.10855913e-02, -2.64618006e-02, -1.34193283e-02, 1.28545305e-02,
       -1.99151859e-02, -1.18477019e-02, 5.38175600e-03, -1.02311769e-03,
       1.54063506e-02, 5.42460103e-03, 8.17150623e-03, -1.98597815e-02,
       9.27856192e-03, -2.33904105e-02, -8.71736556e-03, -1.49027398e-03,
       5.77021763e-03, 1.83984675e-02, -4.30305814e-03, 1.46436114e-02,
       -6.14284305e-03, 7.51220621e-03, -1.59616340e-02, -2.59003099e-02,
       1.48234726e-03, -4.15121112e-03, -8.14330939e-04, -5.70435915e-03,
       -3.58247273e-02, -2.87230890e-02, -2.79915007e-03,
       -2.55352464e-02, -1.18763978e-02, 6.21683802e-03, 2.27267221e-02,
       9.56708752e-03, -6.83470629e-03, -3.31055485e-02, -1.53489709e-02,
       -2.30116048e-03, -1.97370183e-02, -1.04539581e-02, 5.63084939e-03,
       -7.89564103e-03, -7.21420976e-04, -5.90320723e-03,
       -6.63191546e-03, -1.06497547e-02, 3.46247037e-03, -1.81791633e-02,
       -6.36876281e-03, 7.87117239e-03, 2.69384356e-03, 4.55423025e-03,
       2.69124713e-02, -5.16742235e-03, -1.57539807e-02, 3.86360590e-03,
       -4.13947972e-03, 2.13556620e-03, 2.35290676e-02, -4.72123851e-04,
       -6.26495248e-03, -9.17600654e-03, -1.83333270e-02, 1.71880936e-03,
       4.18742973e-04, -9.61764192e-04, 1.67622585e-02, 1.10208597e-02,
       -6.45396393e-03, -1.78491231e-02, -1.25013916e-02, 1.62914424e-04,
       -1.62933078e-02, -8.24713986e-03, 5.05843607e-04, 4.36702929e-03,
       -3.29693547e-03, -2.90222336e-02, -1.89715903e-02,
       -1.77185740e-02, 3.31443623e-02, -1.57845393e-02, -1.98987741e-02,
       -4.00617197e-02, -1.43696778e-02, 1.64731443e-02, -2.21712841e-03,
       1.91687734e-03, 5.78043330e-03, 2.54939888e-02, 5.30670360e-02,
       3.96447256e-02, 5.75365848e-05, 1.75889861e-02, -1.66608822e-02,
       -5.34206852e-02, -3.74402627e-02, -1.31648164e-02, 8.44477210e-03,
       -2.24736147e-02, -2.13658921e-02, -2.81605739e-02,
       -3.02937627e-02, -1.13540096e-02, -2.02027448e-02,
       -2.29520705e-02, 1.17568132e-02, -9.35905054e-03, 1.99226327e-02,
       4.25809585e-02, 7.23900506e-04, 1.07885813e-02, 5.05719567e-03,
       2.44210027e-02, 3.54936980e-02, -1.23722535e-02, -8.58606119e-03,
       1.56691708e-02, 5.07268636e-03, -1.78748164e-02, 9.88311041e-03,
       -2.24310700e-02, -4.96558670e-04, 1.27691412e-02, -4.55413014e-02,
       -1.17853954e-02, -3.86188440e-02, -3.30071263e-02,
       -4.34433483e-02, -1.65724270e-02, -5.27424132e-03, 5.36549762e-02,
       3.43863443e-02, 6.82689920e-02, 2.07447670e-02, 3.93217094e-02,
       3.67686115e-02, 7.53919501e-03, 6.01438107e-04, -5.34965731e-02,
       -1.51801864e-02, -1.78222284e-02, 1.07771549e-02, -2.57593989e-02,
       6.86177704e-03, -1.10252872e-02, -3.73716988e-02, -4.28349152e-02,
       -1.59989223e-02, 2.88003758e-02, 9.70553700e-03, -1.10515635e-02,
       1.37036275e-02, -2.21691728e-02, -5.37194172e-03, -2.11604424e-02,
       -2.04993077e-02, 2.38761003e-03, 6.16059965e-03, 6.05082198e-04,
       -1.76889002e-02, 2.90640164e-02, 2.76892725e-02, 8.50156322e-03,
       3.65385716e-03, 1.27133485e-02, -3.04078925e-02, 2.50656474e-02,
       1.80071816e-02, 4.01641168e-02, 2.88694967e-02, 2.80959439e-02,
       2.85101938e-03, -3.77958501e-03, -7.84358755e-03, -4.91502136e-02,
       -9.09377169e-03, -2.30009072e-02, 2.13589240e-02, -2.26058029e-02,
       4.71760780e-02, 4.01472999e-03, -1.13401143e-02, -2.63295826e-02,
       7.24536274e-03, -1.87088065e-02, -7.02627515e-03, -4.97151613e-02,
       4.46970053e-02, 1.71788372e-02, 1.59463950e-03, 1.72167365e-02,
       4.75716256e-02, -2.18296181e-02, 4.01766114e-02, 6.24748468e-02,
       7.11115496e-03, 6.57076132e-04, 2.91502476e-02, 3.99246719e-03,
       1.16345780e-02, -2.29945569e-03, -6.19923836e-03, 1.34078134e-02,
       3.88991227e-03, -4.33310401e-03, -1.56723578e-02, 2.74850498e-03,
       -1.68944132e-02, -2.80999724e-04, -4.52091917e-03,
       -2.92408722e-03, 3.53698805e-02, 1.78201310e-02, -1.75927021e-02,
       -7.66640808e-03, -2.18130257e-02, -2.39563882e-02, 1.05737178e-02,
       6.51181769e-03, 4.29470697e-03, 5.29797077e-02, 4.65203822e-02,
       1.99175701e-02, -9.55043081e-03, 2.57751178e-02, 3.90236713e-02,
       5.69021925e-02, 6.43629022e-03, -6.99059200e-03, 9.24357027e-03,
       7.74488784e-03, 3.05790082e-02, 1.59301739e-02, 4.02266532e-03,
       4.22502868e-03, 1.10974656e-02, 2.17214990e-02, 1.76648591e-02,
       4.48129065e-02, 7.22966855e-03, -1.78173408e-02, -6.28800318e-02,
       -5.09223044e-02, -1.72626823e-02, 1.72471311e-02, 8.44326150e-03,
       3.66919418e-03, 1.69271864e-02, -1.82480682e-02, -3.26103307e-02,
       -1.82077680e-02, -4.78167795e-02, -4.13715392e-02,
       -2.06835829e-02, -2.34950893e-03, 4.23204303e-02, 6.00445122e-02,
       5.34393899e-02, 5.60073368e-02, 4.60506126e-04, 6.39318721e-03,
       2.42517758e-02, 2.16958318e-02, 1.32441288e-02, 2.49784067e-02,
       2.65698675e-02, 1.20867481e-02, 2.55466290e-02, -2.47881678e-03,
       1.54118398e-02, 1.39140124e-02, 3.47579382e-02, 2.75355857e-03,
       9.36539937e-03, 6.20191321e-02, 5.66945188e-02, 9.63663869e-03,
       -5.24532832e-02, -4.02317792e-02, -4.28200290e-02,
       -2.73990650e-02, -8.13602004e-03, -1.62549224e-02,
       -9.08244215e-03, -1.12507737e-03, -3.19451988e-02,
       -2.26634871e-02, -1.44353574e-02, -2.99617555e-02, 5.40281995e-04,
       -1.94202494e-02, 3.21370028e-02, 8.69042333e-03, 6.76676352e-03,
       1.41325751e-02, 8.51893798e-03, 1.71104670e-02, 3.33543262e-03,
       1.84705295e-02, 4.35792804e-02, 2.51327846e-02, 1.04685947e-02,
       1.84127614e-02, 3.03940028e-02, -1.28250979e-02, 1.46224527e-02,
       1.09678006e-03, 3.09866038e-03, 4.28694114e-02, 4.12641466e-02,
       -2.94865645e-03, -7.25848833e-03, -4.01976407e-02,
       -1.54616311e-02, -1.57064442e-02, -2.80883163e-02, 3.57240438e-03,
       -3.91670037e-03, 1.13302667e-03, 2.39917580e-02, -1.90526189e-03,
       1.99431018e-03, -7.63595849e-03, 1.50650227e-02, 1.32159027e-03,
       -1.28446234e-04, 3.21471621e-03, -4.60151546e-02, 1.04075447e-02,
       1.67810656e-02, 8.69885180e-03, -1.05413636e-02, -7.15758838e-03,
       -1.69177148e-02, 7.98949506e-03, -1.11464253e-02, -1.41616277e-02,
       -7.95069430e-03, 5.24374715e-04, -1.99673194e-02, 8.99848156e-03,
       -5.33575239e-03, -3.08099184e-02, 8.56034551e-03, 4.19418663e-02,
       -1.32442471e-02, 5.40587790e-02, 4.04818840e-02, 2.89969034e-02,
       -7.12935673e-03, -5.58226462e-03, 1.26806293e-02, 2.86980048e-02,
       4.62916167e-03, -1.11153182e-02, 3.65718156e-02, 1.57448165e-02,
       1.90641712e-02, 1.02912793e-02, 1.17371092e-02, 8.30116216e-03,
       6.61392733e-02, 2.73098033e-02, -5.45194326e-03, -1.25471903e-02,
       -3.16113420e-02, -3.19609269e-02, -2.34384537e-02,
       -1.74111929e-02, -4.38358113e-02, -8.19758791e-03, 1.15507124e-02,
       -3.98729509e-03, 4.52004671e-02, -5.97808557e-03, -1.86459161e-02,
       -3.22175510e-02, 1.04191406e-02, 1.24753062e-02, 4.85379994e-02,
       2.11187303e-02, -1.49270659e-03, 3.18935141e-02, 8.64040758e-03,
       2.55801827e-02, 2.21981714e-03, -1.02392742e-02, -2.82793585e-02,
       5.30726537e-02, 4.59920354e-02, 1.71619293e-03, 8.66193175e-02,
       3.83197926e-02, 6.19205162e-02, 2.46000011e-02, 6.30984902e-02,
       4.96980697e-02, 8.37100595e-02, 1.99561175e-02, -4.41844948e-02,
       -3.19196433e-02, -5.92057556e-02, -5.57152741e-02,
       -8.54384899e-03, 1.00679714e-02, -3.34678451e-03, -1.62014998e-02,
       -2.46399175e-02, 1.70028990e-03, 6.99817436e-04, -4.51778498e-04,
       -1.60208866e-02, -1.88592654e-02, 2.36355178e-02, 3.71739455e-02,
       4.47411835e-02, 3.54572162e-02, -3.81598026e-02, 2.68544406e-02,
       1.34651745e-02, 2.20163353e-02, 2.20742729e-02, 2.41999049e-02,
       1.21337138e-02, -4.57423134e-03, -3.53568904e-02, -1.38535991e-03,
       3.40792499e-02, -1.19240989e-03, 2.94791386e-02, -1.49706705e-03,
       4.64465953e-02, 6.01482913e-02, 5.46663813e-02, 2.00228989e-02,
       -1.60098542e-02, -4.65680882e-02, -1.36794318e-02,
       -5.05214967e-02, 2.62008305e-03, -1.81770814e-03, -4.39427467e-03,
       3.22857220e-03, 2.05908474e-02, 2.98504438e-02, 1.84184704e-02,
       5.90506718e-02, -9.85406246e-03, -1.11439740e-02, 1.68946888e-02,
       -2.28239633e-02, -1.21570220e-02, 3.38369678e-03, -1.57403536e-02,
       -9.14405193e-03, -1.69333164e-03, -1.57959759e-02, 1.54797109e-02,
       -7.65300775e-03, -4.47295466e-03, 3.08000686e-04, 6.89347042e-03,
       2.30165757e-02, 1.94550157e-02, 3.07571776e-02, 2.22840798e-04,
       3.38474736e-02, -3.30000883e-03, -3.51204816e-03, 7.55279558e-04,
       2.06347983e-02, 3.06692021e-03, -1.55725172e-02, 1.73972398e-02,
       -1.98601955e-03, -2.16337163e-02, 3.16193700e-02, 1.88889611e-03,
       -2.27714293e-02, -2.80368421e-02, 2.06034314e-02, -5.86155383e-03,
       1.22978892e-02, 1.90695561e-02, 2.95641422e-02, -1.53994001e-02,
       8.30801670e-03, -2.75908615e-02, -8.42954556e-04, 6.43959967e-03,
       5.07677812e-03, 3.59907299e-02, 2.48766914e-02, 6.25659619e-03,
       -1.48232561e-02, -1.45153748e-02, -3.07314899e-02,
       -2.26661377e-02, -1.10033154e-02, -3.57760452e-02,
       -5.48175117e-03, -3.83728254e-03, 3.87445348e-03, -2.82904450e-02,
       -2.62164958e-02, -4.17889357e-02, 1.55354361e-03, 2.58573354e-03,
       -1.82819776e-02, -8.02643073e-04, 3.87382670e-03, -5.06857736e-03,
       9.78292245e-03, 2.15892214e-02, 9.11852997e-03, 4.41773143e-03,
       -1.34383061e-03, -8.67501181e-03, -2.80629261e-03,
       -5.53470978e-04, -2.50473749e-02, -1.18543608e-02,
       -9.55378357e-03, -1.05270259e-02, -1.52667863e-02, 5.48298378e-03,
       -3.02360021e-02, 1.16254417e-02, -6.15444919e-03, -1.39487060e-02,
       5.39501244e-03, -9.18436423e-03, -7.35806394e-03, 8.03450588e-03,
       -1.92413107e-03, -3.42327021e-02, -2.22565960e-02,
       -7.50991469e-03, -2.55463813e-02, -1.45726670e-02,
       -1.62867736e-02, -7.98277277e-03, 1.10380854e-02, 4.06860188e-03,
       1.96285127e-03, 1.58104654e-02, 1.15935868e-02, 1.51163386e-02,
       -6.13716897e-03, -3.13376933e-02, -9.35287960e-03,
       -7.88969733e-03, -1.18248966e-02, -1.31731275e-02,
       -1.03275348e-02, -1.20132836e-02, 1.30368432e-03, 7.47545669e-03,
       -7.85821397e-03, 1.25376936e-02, -3.77646438e-03, -1.50680663e-02,
       -4.93629952e-04, 2.23267381e-03, 1.67555958e-02, 1.59239434e-02,
       5.57929976e-03, -3.15451552e-03, -5.28009888e-03, -9.01832245e-03,
       -1.05687985e-02, -1.94892231e-02, -1.86231118e-02, 3.21420678e-03,
       2.37230933e-03, 3.42057669e-03, -1.80773699e-04, -1.32031436e-03,
       -1.45544251e-02, 1.09690037e-02, -3.40961455e-03, -7.97059014e-03,
       -4.27609868e-03, -2.29198486e-04, -1.16398784e-04, 4.25230898e-03,
       2.52992213e-02, 9.10836458e-03, -8.41494743e-03, -1.96317560e-03,
       -8.52116290e-03, -1.03675192e-02, 3.86063312e-03, 2.13189656e-03,
       1.34620834e-02, -1.04462996e-03, -2.82136886e-03, 1.92507135e-03,
       4.99981036e-03, -6.17000088e-03, 2.92899162e-02, 2.24984214e-02,
       3.57201439e-03, 1.19026052e-02, 1.88293308e-02, -2.83357408e-03,
       -9.92042106e-03, 1.60126239e-02, -3.17349844e-02, 8.73774383e-03,
       2.04607043e-02, -1.75917167e-02, -6.00012532e-03, 5.00486931e-03,
       -2.11678557e-02, 2.54698354e-03, 1.81355588e-02, 1.00249453e-02,
       1.03546982e-03, 1.16461003e-02, -2.52841320e-02, 2.31798622e-03,
       -1.53840648e-03, -1.17584504e-02, -5.75796189e-03, 1.22223692e-02,
       1.05430912e-02, 3.69746261e-03, -1.36168022e-02, -4.26022895e-03,
       5.31614118e-04, -1.04454765e-03, -3.83800231e-02, -8.09994340e-03,
       2.27827094e-02, 2.40893867e-02, 5.16629033e-03, -1.17548844e-02,
       4.99555795e-03, 2.96032000e-02, 1.33461813e-02, -1.66166704e-02,
       -1.64187176e-03, -1.41792614e-02, 9.84287448e-03, -6.30550459e-03,
       2.07175501e-02, 1.43470680e-02, 1.75976679e-02, -1.68596307e-04,
       -8.99879728e-03, 1.42010134e-02, -1.96854351e-03, -1.17716298e-03,
       -4.62413812e-03, 1.31050497e-02, -7.16419937e-03, 1.02193421e-02,
       1.17137581e-02, -1.97474621e-02, 5.47414646e-03, -5.83437085e-03,
       5.52145811e-03, -1.17679564e-02, 1.10881720e-02, -1.04946047e-02,
       3.03416094e-03, 1.65231694e-02, -2.37446725e-02, 1.44643057e-02,
       -1.14904894e-02, 4.48416133e-04, -1.11944722e-02, -1.73997332e-03,
       1.46826534e-02, 1.49786351e-02, -1.32047525e-02, -5.97713050e-03,
       3.95118110e-02, 4.23156191e-03, -1.06511926e-02, -8.19414854e-03,
       -1.82662271e-02, 1.58479717e-02, 2.65976116e-02, -3.30083631e-03,
       -2.31367489e-03, -3.91711574e-03, -1.75557993e-02,
       -2.31299475e-02, -2.31713578e-02, 2.70948894e-02, 1.27424458e-02,
       -3.09642823e-03, -7.18179718e-03, -1.75274238e-02,
       -9.91809531e-04, 1.83929631e-03, 5.65490406e-03, 2.96655763e-03,
       1.36469048e-03, 2.38784291e-02, 5.32379113e-02, 3.98393869e-02,
       3.79118398e-02, 9.62121878e-03, -3.03435177e-02, -3.47277634e-02,
       -3.62598225e-02, -2.09003570e-03, 1.31880585e-02, 3.29479016e-02,
       7.09081860e-03, 6.78261044e-03, 1.11984098e-02, -2.65244935e-02,
       -3.62734776e-03, -3.24235000e-02, -6.42542634e-03,
       -1.67941619e-02, 1.50938984e-02, 2.31919419e-02, 2.88074408e-02,
       -3.51414159e-02, 1.54182361e-02, 1.86152512e-03, -1.93486903e-02,
       3.46421562e-02, -1.22856610e-02, 4.44906428e-02, 1.88571494e-02,
       1.67915039e-02, -3.03983204e-02, 5.66499587e-03, 1.22562526e-02,
       -3.72839794e-02, 3.16864741e-03, -2.03024168e-02, -8.89940094e-03,
       4.85087046e-03, 1.04895169e-02, -3.95990983e-02, -5.91006014e-04,
       5.36933728e-03, -2.55855154e-02, 7.99336564e-03, -4.39459085e-02,
       1.90003179e-02, 3.89583558e-02, 1.58305801e-02, -5.24854325e-02,
       -3.22031677e-02, -1.89555530e-02, -1.08278291e-02, 9.38440207e-03,
       -3.03700194e-02, 1.48630496e-02, 2.30656806e-02, -5.19024953e-03,
       -2.66651157e-02, 1.13371387e-02, 2.48495229e-02, 7.03654671e-03,
       4.75766929e-03, -1.75103396e-02, -4.01314944e-02, -8.92305467e-03,
       9.13230982e-03, 3.66591429e-03, 7.14696757e-03, 3.00150318e-03,
       -3.87868546e-02, -5.96264203e-04, -3.28388512e-02,
       -3.25283706e-02, 5.17340191e-03, 1.08275218e-02, -2.26200465e-02,
       1.53814470e-02, 4.61717285e-02, 7.39982799e-02, 1.15835546e-02,
       -1.20324185e-02, -1.40094040e-02, 2.34781709e-02, 9.45736468e-03,
       -3.02769393e-02, -4.82166559e-02, -1.47248451e-02,
       -7.14410050e-03, -8.89501534e-03, -3.58837806e-02,
       -4.46826778e-02, 3.92446760e-03, -1.04439342e-02, 1.69187263e-02,
       1.79913249e-02, 2.79796366e-02, 7.71956565e-03, 3.21478071e-03,
       -7.18675647e-03, -1.15673328e-02, 2.93856878e-02, 2.39368193e-02,
       3.10924221e-02, 2.37243101e-02, 2.42219567e-02, -1.70846581e-02,
       -2.17652004e-02, -3.57536413e-02, -1.16473867e-03, 3.27529721e-02,
       2.45148130e-02, 1.61958800e-03, -1.55906342e-02, 1.45925870e-02,
       2.46910378e-02, -2.58149281e-02, 7.69147044e-03, -8.41194531e-04,
       4.58441302e-02, 1.33505883e-02, -9.18327924e-03, -4.84199561e-02,
       -2.49571465e-02, -1.07093174e-02, 1.59922969e-02, -1.18772788e-02,
       -1.01425592e-02, 8.77375714e-03, -1.01260487e-02, 4.42132317e-02,
       3.73998098e-02, 4.30078469e-02, 1.29114287e-02, -3.55623178e-02,
       1.06050633e-03, 2.77651548e-02, 3.71320620e-02, 4.01414484e-02,
       -2.01931354e-02, -2.06794050e-02, 1.08842347e-02, -5.74998267e-04,
       9.68310703e-03, -8.93142354e-03, -1.95690095e-02, -1.07853469e-02,
       -2.26623435e-02, 1.11454930e-02, -7.96668418e-03, 1.27493491e-04,
       1.81264803e-02, 1.27458639e-04, -1.02889293e-03, 8.54787417e-03,
       3.50401029e-02, 2.22403388e-02, 6.97552832e-03, -5.29169338e-03,
       -3.34580652e-02, 1.99099220e-02, 6.25164807e-03, 2.06020698e-02,
       -1.79687776e-02, 3.38465571e-02, 1.88312586e-02, -1.65319853e-02,
       -7.68892886e-03, 2.51277741e-02, -9.80977993e-03, 2.10193247e-02,
       -5.14961593e-03, -3.61583792e-02, -2.70857736e-02,
       -2.49157883e-02, 1.22715924e-02, -1.91870853e-02, -3.28341790e-04,
       5.46881836e-03, 4.63815220e-02, 2.11477429e-02, -9.72913392e-03,
       -5.38628921e-03, 3.40385537e-04, 1.80237945e-02, 1.55158648e-02,
       -1.69504620e-02, -1.05796615e-02, 1.19900890e-03, 4.84876819e-02,
       -1.34335225e-02, 2.57750042e-02, 1.33391405e-02, 2.48434339e-02,
       3.60341892e-02, -3.02728079e-02, -2.15253350e-03, 2.30583940e-02,
       5.26116267e-02, 6.13874057e-03, 3.96845862e-02, 2.79347319e-02,
       1.88582651e-02, -2.04564799e-02, -9.63399559e-03, -1.86879877e-02,
       1.71155520e-02, -9.48512647e-03, -1.25673879e-02, -1.68242361e-02,
       -1.46361887e-02, 4.14709412e-02, 2.14457735e-02, 9.95492656e-03,
       7.83448294e-03, 3.54157388e-02, 8.66181403e-03, 2.10608039e-02,
       5.20179840e-03, 1.92190167e-02, 4.48731072e-02, 2.42443010e-02,
       -4.14207466e-02, -1.40855750e-02, -2.48393193e-02,
       -1.32772969e-02, 1.14980564e-02, 3.13077308e-02, 1.22497045e-02,
       1.36385802e-02, 4.66242731e-02, -1.15368692e-02, 2.53164815e-03,
       1.64714316e-03, 1.09818829e-02, 3.30456123e-02, 7.98024833e-02,
       1.63099077e-02, 1.15629961e-03, -5.11009106e-03, -9.87502187e-03,
       -2.38218624e-02, 1.24091068e-02, -4.57344353e-02, -1.19840559e-02,
       -1.06534585e-02, -1.54358633e-02, 2.20638532e-02, -1.67194642e-02,
       -1.53533537e-02, -4.15658718e-03, 2.01018043e-02, -3.79931815e-02,
       -1.80413630e-02, 2.65625268e-02, 3.63555551e-02, 3.00365966e-02,
       2.54288148e-02, -9.32508707e-03, -5.32592973e-03, -6.98863249e-03,
       -2.32304949e-02, 1.80862006e-02, 5.48780635e-02, 2.83650625e-02,
       1.81810893e-02, 5.44351041e-02, 1.23137850e-02, 2.99534891e-02,
       1.40913054e-02, 3.34698744e-02, 4.42106724e-02, 7.07808286e-02,
       5.72066754e-02, -1.63638890e-02, -3.18022966e-02, -3.97484191e-02,
       -3.01178619e-02, 9.64680035e-03, -5.46992607e-02, -6.90342039e-02,
       -1.81827676e-02, 5.15718805e-03, 3.48568484e-02, 3.15637887e-02,
       -1.34822642e-02, -1.13721387e-02, 2.28443947e-02, -2.37242691e-03,
       -2.99718045e-02, -8.80332105e-03, 2.61188950e-02, 7.77980033e-03,
       5.28803356e-02, 9.46640410e-03, 1.47010637e-02, -9.79550742e-03,
       1.64703913e-02, -5.32157859e-03, 3.34082730e-02, 2.54192464e-02,
       1.37316734e-02, 7.47838318e-02, 2.90154144e-02, 2.80158836e-02,
       2.89773419e-02, 7.00578466e-02, 3.44382152e-02, 4.90040407e-02,
       2.69294474e-02, 4.50848276e-03, -1.39905699e-02, -1.81507152e-02,
       -6.76164683e-03, 1.91055965e-02, -1.56030320e-02, -1.26143806e-02,
       -2.56293472e-02, -1.16228685e-02, 3.15489918e-02, 5.11272363e-02,
       1.58731006e-02, -2.47621667e-02, -1.41919367e-02, -3.80078219e-02,
       -1.84409844e-03, -2.15766788e-03, 2.53925864e-02, -2.56554247e-03,
       3.89884599e-02, 1.20713050e-02, 1.00815890e-03, 1.67738385e-02,
       3.55759566e-03, 2.90649035e-03, -1.35584390e-02, 3.26429633e-03,
       -1.99858192e-02, 4.12999839e-02, 2.80796140e-02, -3.41610890e-03,
       3.29150744e-02, 5.12836268e-03, 9.28694662e-03, -1.75266905e-04,
       1.67723782e-02, 2.67787371e-02, 4.10436466e-02, 4.71110791e-02,
       -1.46708181e-02, -9.95923299e-03, -4.29881699e-02,
       -2.55737957e-02, -1.76023673e-02, 4.60232096e-03, 1.54342670e-02,
       3.80788557e-02, 2.98297144e-02, -2.33099964e-02, 1.13287270e-02,
       -4.07131799e-02, -1.52574619e-02, 1.24060037e-03, -9.05649923e-03,
       1.13925049e-02, 4.63706441e-03, 1.71216354e-02, -2.91139502e-02,
       2.81080622e-02, 2.47082615e-04, -1.56035982e-02, -4.06997167e-02,
       9.11410339e-03, -1.20927915e-02, -3.33536370e-03, 8.77417717e-03,
       -3.52099277e-02, 4.39561084e-02, -3.79610434e-02, -8.01450014e-03,
       -3.66617218e-02, -2.29201769e-03, 8.97982530e-03, 1.99994184e-02,
       3.49048972e-02, 2.12843455e-02, 7.57020712e-03, -6.30145846e-03,
       1.38237206e-02, 1.44078219e-02, -1.04711009e-02, 9.72930621e-03,
       -9.20328964e-03, 1.21660139e-02, 4.73390799e-03, 3.84894956e-05,
       -3.11274081e-02, -3.00383959e-02, -1.67352334e-02, 1.01824598e-02,
       -5.75830368e-03, 1.01036411e-02, 1.82467792e-02, -1.95303634e-02,
       -1.43399751e-02, -3.32836993e-02, -2.13701889e-04,
       -1.74772330e-02, 1.69349834e-03, -1.91064812e-02, 1.08426902e-02,
       1.62642095e-02, -3.30995098e-02, 5.86956274e-03, -1.00091128e-02,
       -1.63710956e-02, -2.12845672e-02, -2.02132203e-03,
       -1.11054685e-02, -1.19197937e-02, 2.55259890e-02, -1.75081417e-02,
       -1.90151241e-02, -2.69607846e-02, -3.11811678e-02,
       -3.43967439e-03, -9.90610919e-04, -3.70771401e-02,
       -4.80175391e-03, 3.74565669e-03, -1.13224564e-02, -7.54902884e-03,
       -1.39375720e-02, -4.73824749e-03, -1.06346607e-03,
       -1.35301277e-02, 4.89383563e-03, 2.27813646e-02, 2.98737697e-02,
       -3.01908199e-02, -4.35085269e-03, -4.18928079e-03,
       -3.46385092e-02, -1.27030956e-02, -1.63387414e-02,
       -4.76396410e-03, -9.08983347e-05, 1.93830370e-03, -1.00322813e-03,
       1.28106750e-03, -1.92893464e-02, -1.22761251e-02, -8.30134843e-03,
       -1.30278300e-02, 8.53078347e-03, 2.05092188e-02, 1.10700047e-02,
